{"m_clampedOutputs":[0.5342827602502564,0.48867998961000897,0.558626025546873],"m_hiddenNeurons":[0.45315334491795267,0.5582281202192441,0.5470058720838608,0.4986093826990585,0.49525263084400417,0.5630541138716125,0.5251191363974145,0.5436958735528393,0.4406155440742668,0.5445512042419152,0.5445332321492121,0.45778536610630793,0.47216744183679954,0.5072790620433147,0.5068837835693984,0.5280423148995883,0.5158010250802346,0.41080185522003604,0.4701655376575871,0.4621862856331619,0.5156334947793475,0.5219359811625849,0.5009368470018036,0.5063658522681034,0.5418522848099626,0.48181993900833414,0.5023239833259243,0.46713423009042543,0.48288951223159604,0.5380034245903859,0.43221176449438936,0.50834017803192,0.5309402902251897,0.5010967489102627,0.5322513629611259,0.5126173654483885,0.49181845201778374,0.5689558984379474,0.5989617976728726,0.5041998673895071,0.46794793029376436,0.5010509713862303,0.4989741999527876,0.45918280365876873,0.5391241514172588,0.5880524990021151,0.5218991286579463,0.43465250325677335,0.504417696346067,0.523930730275445,0.5767900608838133,0.5454567535975506,0.4246967718232005,0.5124318210030084,0.5127447373527072,0.502523629575141,0.5464030273405105,0.5018346326847903,0.49850231078414997,0.516136502698405,0.4802346999194952,0.495682245178516,0.4716554837663944,0.5090685714580994,0.4244512252179739,0.5162831235141827,0.5019627332216353,0.49389252796944266,0.4736841068064942,0.5170996038499772,0.46468965286054914,0.46417357580955404,0.5028133432964368,0.50754710327091,0.47737811091176624,0.5078505449869841,0.5254871417697123,0.4682034459100086,0.4786404659566178,0.4816275482942193,0.49687825354910276,0.47689632599511417,0.46132010424039205,0.5293632176196928,0.4908732626470643,0.4892811824633744,0.504077891089144,0.5431305282456699,0.4982061675132074,0.5092196542126528,0.5462277360463055,0.4988776848238954,0.49076988615288036,0.4812694302319062,0.45234090577137864,0.5228147506306148,0.45870734895852217,0.5116933076115934,0.49806395200795595,0.5137057387256819,-1.0],"m_inputNeurons":[0.0,-1.0,0.0,0.0,0.0,0.0,0.0,0.0,0.0,-1.0],"m_numHidden":100,"m_numInputs":9,"m_numOutputs":3,"m_outputNeurons":[0.5342827602502564,0.48867998961000897,0.558626025546873],"m_weightsHiddenOutput":[-0.09797431664630742,-0.05738807852489619,-0.1505020457645346,0.22343038028878306,-0.01769103562769977,-0.10254915406827254,0.11983356572363167,-0.09695079251450614,0.03451496552572026,0.034061646885160564,0.004996506740445245,-0.08158202952275552,0.018813484014164987,-0.08615769561267664,-0.05362565106293862,-0.17416004354317646,-0.08239671796617559,-0.0010796884260504934,0.0981061344004784,0.05459697928430131,0.1684882635838962,0.07679733836895952,0.051792662430096434,0.057157787771005206,-0.1011737909723157,-0.029366661687072537,0.007406692865156757,-0.041002617839615126,0.09857321519107909,-0.12965813818619584,-0.07043490413429095,-0.2703483520800799,0.08156413855670613,0.12164633930088385,0.10938453983383913,-0.03184812057962373,-0.021136085704526863,-0.15524402056674533,-0.04691222850663189,-0.05688320659798806,0.0013511974929435277,-0.16360284301078618,-0.09371063330762706,0.10446759796880378,0.15457504442755407,-0.05592539860018859,-0.10582998536270946,0.2871956238850285,0.10368955979556149,-0.16695315413646605,-0.05296796237871566,0.009603917439933682,0.028027600555185928,-0.0006189835755178628,0.11003625512908273,-0.011476656292773208,0.09650580974787276,-0.0851184032623433,0.03924048239677398,0.0788578057528864,0.003819235425804093,-0.030739337970659402,0.05014625339361567,0.08575840971386157,0.05374774909622338,-0.09649976067742554,0.12845341725368986,-0.09969585008997199,-0.05942957153838751,-0.12198733043034338,0.06662188016242916,0.10192314202219117,-0.009715200964796866,-0.05604491422428458,0.12283469484083312,-0.07753330961868214,-0.07905883730130693,0.07527266356375516,0.0024979779807378735,0.12467019302631051,0.08266386288829398,0.05259158872170178,-0.08002747586378545,-0.026874671412069968,-0.0827039198790901,-0.04401167669917188,0.08429470320111536,0.09170391377178964,0.009427119321721895,-0.06449120720839917,0.04211138499588022,-0.11677802134420369,0.0071883502720455645,-0.14069889712552178,0.04091549181867855,-0.02576310366401272,-0.054870484080490146,-0.03920695043983669,0.115824553006621,-0.031416541215601064,0.019871857515914512,-0.08921135967513293,0.012137574896987845,-0.0036289359723809095,0.07790141771233747,-0.11238011198495326,0.061298473380704814,-0.14362369985667867,0.1426819276841522,-0.043392583707528055,-0.06447654671383089,-0.18224209524159984,0.07938641950391043,-0.3217866145405791,0.17590769519810628,-0.08865439141521482,-0.17004795595015404,-0.14125383914030057,-0.03068633851144198,0.05784273402156145,-0.0856046813848471,-0.048484402486996876,-0.08367416159336544,-0.1777490080386973,0.1264307170565954,0.06226791862637869,-0.02330218901437608,-0.03656159119063374,-0.005342776038705594,-0.02591990812727678,0.0029624471842530334,0.03876440932811965,0.0734615655029134,-0.029205316345284765,0.03137074469678339,-0.05779511778613697,0.012217350932728755,-0.011871991726085667,-0.07715175950802972,-0.13574931828349823,-0.0575524032417269,0.0697927913418954,-0.1678454479089526,0.06218252150542409,0.12660493443260673,0.24300891649086379,0.10433001610050738,0.14349372203346342,-0.02501624044524724,0.08883241136842501,-0.10287157115422908,0.15989443116253568,0.007881579729305305,-0.07893745472394777,-0.07885885775197199,-0.0006827353649015426,0.029815003285455097,0.05064535371546841,0.00788675518853219,-0.17841818814518445,-0.13940124409758872,0.0659092520895845,0.027821444830123332,0.15374136554278106,0.05750229882554593,0.013757513000961076,0.08647517483677292,0.045603774192505726,0.006630192470756854,0.07407866538026056,0.07116111006149466,-0.0897843516429876,0.01652876790078971,-0.12056510347943174,0.10838625270974822,0.15797974573625576,-0.07262641050073239,-0.14664775842445876,0.016358697382106352,0.13878104056250964,-0.10473445393369682,-0.10933488895676995,-0.006407882183836059,0.04855510464667932,0.007468837404379868,0.07727378469778491,0.035605093314002106,0.12155297197810773,-0.05700579860871658,0.14492813202722044,0.07962835797658095,-0.051738456833648236,0.128144917152881,0.13897085052011893,-0.11311795249557809,-0.05026079606829356,-0.056643863022950214,-0.08118041761278998,-0.013724888546796297,0.02803932876501994,-0.07304634658581373,0.12263556857199182,0.050355187362048096,0.09533863442464603,0.05029688883232581,-0.05490523137668706,-0.06499067494622003,0.015716210936279982,0.07919424903082692,0.006753108967209174,-0.06522050802233194,-0.04387194413134479,-0.013982794895730583,-0.06211662472275201,0.020638940346374462,0.020558918006360023,-0.09508797219426052,-0.060772311535709465,0.02846996376451532,0.029940086473217352,-0.05526824959193892,-0.03394569537967112,-0.0710906402852242,0.03453848783652811,-0.023511521669291588,-0.04466990086453934,0.046380849935994714,-0.021513293822867718,0.061242293617966306,0.1866554296651325,0.11965706920675515,0.09162256166660084,0.1760388142551285,-0.022144081172007075,-0.0846872738829682,-0.14307395385747562,-0.0767388201202228,0.10505951767175721,0.08539662426475668,0.11115707559040959,0.0759535575008895,0.07901047138141185,-0.03288542409685553,-0.11285361163019746,-0.06627161706707883,-0.019636488154281564,-0.10133486000766462,-0.03862953344745669,0.006971149250820694,0.05605256077260004,-0.08871814990198515,-0.01196677965266961,-0.0662408198274585,-0.025185121180527317,0.1081783381942705,-0.04117640160536756,0.04496391605431786,0.18139861202591848,0.1677007133295926,-0.15739712855924465,-0.027325426918046954,-0.016692370713880002,0.0215823423991984,0.07324010891743911,0.11681432404552446,-0.1299938963842391,-0.1880147298838956,-0.04096646406512197,0.08225163042904565,0.022632601484963752,0.05835017523574443,-0.058637324841190906,0.023118037978387757,0.12704012331189435,-0.05807016502210584,0.1013335871293659,-0.007432460243274406,0.10627794941914796,0.01461864717045386,0.009984201122389564,0.05937142619255641,0.030605025560099534,-0.007805960707002096,0.08711788581214731,0.06450865869570009,0.021643671652194083,-0.0652798087387423,-0.015793310181385432,0.1459941440152254,0.057798819213781855,-0.012447018867353374,-0.03458405930570834,-0.03983970503624294,-0.09426460610793304,-0.09482598710361242,-0.05886383215640449,0.023113706240912305,0.1240268633786878,-0.025801426022917198,0.14892038461319104,-0.10125728306075901,-0.04089082869034331,0.013691340885225924],"m_weightsInputHidden":[0.14550805614677956,0.09526238690967528,-0.08607491847116454,0.05578680775645417,0.0684371785079949,-0.1101183901456941,0.02517026838626807,-0.09086681330217118,-0.12525741280385894,-0.028692516013420682,0.00602938139750141,0.12215371610874351,0.11986159316219652,-0.025002951986215074,-0.1108784740110122,0.011338773238389032,0.11999454173003114,0.23539491520915623,-0.08606556053528208,-0.08057935241319449,-0.05854849991279905,-0.04709618716191917,-0.028492057854691367,0.0612477229429296,-0.042732027740140635,0.17023532527761853,-0.046732799694084,0.05872135713859382,-0.028495852442184225,-0.041604945156575014,-0.03128282393749699,0.07128604699441626,-0.05674313218770373,-0.023927465863270003,0.10330536920631013,0.09801681399077714,-0.15084746859270665,-0.10791232911592069,0.023187334448021273,-0.04386888690885031,0.07713148610875746,-0.06274291081947488,-0.07256436350246752,-0.05551487894182521,0.07997988181494,-0.11002038489439674,-0.092447648091595,0.02001666834932592,0.15647087299207263,-0.05116792400654139,0.07846898317962715,-0.10408631060288197,0.017925362371267815,-0.17060263765334296,-0.041379762831890717,-0.04272244342121806,0.10466871531731518,0.08040532306890319,-0.010535475412636518,-0.06381013871403451,-0.02004171171657803,-0.07725458985737148,0.005820492757517098,-0.07621540423903965,0.09109619943433075,-0.2338759442745967,0.15951250436265293,-0.009253968884201163,-0.03993031858015168,0.027688798990133743,0.00940632890427318,-0.06878129877667633,0.02466581228268001,-0.1169280131656466,0.07432258776294666,-0.08447534892695518,0.23914843224887575,-0.07975085706365434,0.08356942635241149,-0.012887065428617523,0.12576020341448932,-0.07304208125402785,0.16320652435811853,-0.05068844426755346,-0.030829071948537016,-0.12007166582942017,-0.02671806127210059,0.09932627016323081,-0.0670445391572765,0.12127872205146117,-0.07514822129808098,0.08940807640030474,-0.02558239934302985,0.047078538253254705,0.10511062918582179,-0.002044481995944919,0.04115893871865577,-0.19467061849071712,-0.08942152756412326,-0.08198215632845043,0.06848068042763202,-0.06902358618251672,-0.08160084891738974,-0.054089795262530486,0.07827190302110255,-0.09455245286332345,-0.07141232313851717,-0.04925379278903274,0.27169830103911247,-0.13279865493746684,-0.20052724732758873,0.08579845079871326,-0.027383438420468514,0.04092278047962274,-0.09952955741364944,-0.10025114359899322,-0.06835258118768922,0.1917462496084133,0.02163117470238144,0.08608795265859967,-0.10753320812422942,-0.012113741820485135,0.04522862918214538,-0.0687142198856798,-0.06211871506699763,0.031130539533741213,0.044530522154201765,0.12232619654677525,0.05251163721541411,0.054762919913524166,0.23531813971521381,0.018713231926064416,-0.10835002973845885,-0.04051528746393709,-0.08684333248963946,-0.026664986275396742,0.015755226883487218,-0.08334666836785026,-0.18050860728207319,-0.10771584799264364,0.10133498390158766,-0.0650813478069274,0.04915893963398809,-0.023239051672177727,-0.07206078389152587,-0.12387037866024467,0.03186432089804652,0.10260910278117916,-0.05377567207665886,-0.03809277274750555,-0.12190279419078477,-0.06913972147685067,-0.019035678108442044,-0.03969074422647641,-0.01550910574304012,-0.06707204199660877,-0.18888562746497356,0.04233909360691926,0.03712130777748844,-0.05544504493426154,-0.03967896486549171,0.07914899725032057,0.005883051033284271,0.11633142489328731,0.2262836298173901,-0.0648543098691213,0.04078421806282554,-0.011275038352720408,0.03497929112901945,0.034041770081621035,-0.0009523822013714644,0.04757908254026416,-0.019029165550400857,-0.1391290638900713,0.03539551874652471,-0.04062500907381422,-0.12963420091503275,0.0272502466867307,0.07274666042025137,0.06224888095735747,0.022993105179275306,0.12402916282985683,0.17756328388903628,-0.045410118930155605,-0.010365856269756083,0.048672542498028756,0.0128236036943693,-0.11741567177447242,0.05226614447162416,0.05691598677487739,-0.035005319332722995,-0.026570152845306613,0.021482544172117778,0.044601807334010986,0.07661451146665915,-0.07293416518480073,0.02774086366845631,-0.0398541510850367,0.01007531222642461,0.06114604362387176,0.012629311473759883,0.009660601005730091,-0.002631890350711246,0.01649603172050463,0.04968576456686248,-0.01957232819113566,-0.08984332469669938,0.05359391137055066,-0.017618421189192553,-0.13862616467800415,0.08070106294430851,0.10412363224703285,-0.05688433655324619,0.09079627106801622,0.026095568490868228,-0.05808269402886867,-0.10470312005628891,0.23827708648088802,-0.07156164497234874,0.00030395412285232944,0.02066067838829152,0.007198203409087198,-0.056648507001497254,0.11394710739562085,0.048958767613943285,0.052348761453243284,0.1390235749514003,-0.15065504175229236,0.052809427643658126,-0.038509301588227386,-0.00043509104390406617,0.045549908441092954,-0.011353437580256377,0.02958493784204671,0.03987252054487895,0.01984591242513653,0.006446462889896391,0.00026803512634891404,-0.034131718243151414,0.023287587693594135,0.10710907848186572,-0.014705172016513782,-0.2262504674041443,-0.12538497274334992,-0.029128097460138783,-0.03578326303644347,0.13933912522468828,0.04843962873733427,0.12846488620751367,0.07241734714818401,0.14171612758657312,-0.04159777898834385,0.09732059726511355,0.04330626659407298,0.08385129289570709,0.010435233527652635,-0.23376597670148477,-0.02731835967180388,0.11071518684538156,0.13161776622964533,-0.14232282499535112,-0.05713194380353078,-0.09272183582798295,0.14067212361429263,0.02403928351358897,0.0286593292442411,0.06126049635439769,-0.02921339343877991,0.1975595364676329,-0.008133258658659303,0.01966976460565779,0.06730093224711803,0.07697865447474209,0.03635731820759935,-0.08787611091176838,-0.043544931991090566,-0.09153996860479507,0.06107200834079322,-0.02802838833088708,0.017605222664067017,0.03691215696575487,-0.06460185782011552,-0.04650250278674441,0.08962804027447346,-0.008306020582791498,0.010568975721266697,0.08901033200038229,0.031714532238585544,-0.02262094815100399,0.0743668005869793,-0.03283369403925252,0.06395292402088593,-0.06760962482513451,-0.048749021465772646,-0.11728749326178672,-0.058085532133695834,0.11347671101534337,-0.027438499966596183,0.06070431762076469,-0.00019716642067446244,-0.12957843252995876,-0.04018276100488576,-0.07272554615142635,0.12034997511852472,-0.032158451123766314,0.0035909899698901,0.23921005909807708,-0.03152568457169219,-0.12758320761700176,0.06546555885992286,0.005276977335180553,-0.02246142406875337,-0.018734385903981767,-0.1282718252052676,-0.14317891564109161,0.0275925618961989,-0.03044911294794042,0.022062297741644255,-0.028007178001483547,0.03480100127149096,-0.00016280453104077863,0.04641201631024085,-0.11277232096541566,0.0032201744856308013,-0.052807348648775454,-0.16073307956460603,-0.19250823157878136,-0.0459155292053855,0.1571312303170536,-0.0721774233262219,-0.07776846083833493,-0.015204765713854831,0.004147351487322743,-0.0025484173652921215,-0.06592692777685585,-0.050882061611921596,0.0981438825781307,-0.07103104137830853,-0.07969082498874851,-0.026369758281006,0.011426334579469424,-0.0489786413245454,0.0891599897787134,0.05409260290192672,0.08961457883053899,0.046910360231113404,-0.03611484444882615,-0.10512750101316118,-0.04308445286935987,-0.16819576740135384,-0.059221938872824904,-0.19985285736624567,-0.13382179124352653,0.0035335426894783813,-0.05067045706627461,0.2273954886868768,0.05133878594806097,-0.05542660152781867,0.07195518418683299,-0.11631181730346432,0.04007812128645574,4.687276813485383e-05,0.00580583660151045,0.0517706171762582,-0.06398168893377272,-0.060200677671142754,-0.07331783822816254,0.08495376445966654,0.08400126347458636,0.13544168257499853,0.005196818243956836,0.006697414818960233,0.033309713558608636,0.009475149669003086,-0.016388409120718615,0.07932614346388468,0.03940045490756714,-0.1335483518548882,0.02105027921280329,-0.04229431022894576,-0.2338034320733309,-0.04241844609705461,0.022708983566319018,-0.06630894306356619,0.008117063637283978,0.11918857562060282,-0.0011789275726669013,0.04527812018603766,0.03625375399850449,-0.12224981774589652,-0.01638052906919801,0.17093227907004827,-0.06727053266236278,-0.06847023076190778,-0.13860775261316785,0.07459800990281978,0.10645631272689597,-0.023418103395517757,0.02594788778115478,0.02076666729118329,0.1999423906430947,-0.12390545399492946,-0.032930564559174036,-0.06146757809564034,-0.03578895384486064,0.05824709858943481,0.05289841537570413,0.014015015290431719,-0.08415338609717682,0.050946527236552866,-0.12084384319858943,-0.018169845919164058,-0.025745565032462257,-0.07336114332039663,-0.08214771436418053,-0.0007980113329805298,0.13936436510407782,-0.020792409234613424,-0.21435394669180777,-0.004623122575920705,0.046288690873013995,0.0027621088497001797,0.09975043995899995,0.07098923117525986,-0.0775771917552894,0.07824527560780617,0.14157440032364463,-0.0032866693841104694,0.03145086558106093,0.00048384349060298437,-0.053412640115054554,-0.02950841644469215,-0.06357542788793025,-0.014330682986071553,-0.004156509521442395,0.013758570881148662,0.15194005067129146,-0.10698364473813797,-0.001785716775460659,0.03437923225970698,-0.044716525405552085,-0.04511716240958208,-0.13490024466898068,-0.08674976285513016,0.1335447098973064,-0.10692395685615282,0.03748287629084983,0.003259629660621659,-0.023566270467186356,-0.001351038304448741,-0.15824896813825992,-0.033740183877881164,0.07146170445560049,-0.07029269527235062,-0.22671768050524754,0.17201485077711087,0.14443560399540736,-0.06154422858252502,0.042458793396564706,-0.025317138390927554,0.16966019027683263,-0.00576947729727511,-0.06615626184560504,-0.025278897993344925,-0.040241589292458455,-0.06016927537108481,0.06291529387190518,-0.15197430604865925,-0.02636871855754141,-0.014954881086288565,-0.016644386030019432,-0.1335988980979569,-0.00036645872377013395,0.02335547139878784,-0.012085807152996298,-0.07043827264743215,0.03098649171229258,0.07225991370447354,0.05250434294373013,-0.03930610304815375,-0.08550465291314467,0.023363640866966816,-0.0040519685981648765,-0.011039816255976284,-0.011752991364443714,0.0014130498779789333,0.05562683149223759,-0.009667960484035372,0.04209280898872563,0.06599544881829766,-0.15765696346700217,0.028563339605007353,0.053383163279535524,-0.029953269112756673,0.02655878768748788,-0.07036885680144402,0.03220397138168041,0.036605326904795975,-0.0764709082044793,-0.05513775977451025,0.1893111445065766,0.17409064222942863,-0.10372920302531083,-0.15966823955270107,-0.062445711467963225,-0.04089041806336725,-0.0106818223223063,0.06453834458841715,0.0016134014806795938,0.037434267895550814,-0.11056057074051386,0.057865176356285,0.010892388759128766,-0.04877327140988519,0.025758843647391824,-0.011833783858594384,0.024328348819382006,0.07320859369137446,-0.14387394454470678,-0.029556638954231402,-0.06903537361984058,-0.09006550268908872,0.01349162809454116,0.08448117023734399,-0.11583594628671347,0.07745698810951977,-0.11662358116867302,-0.07704985593578385,-0.09110812290104633,0.10136355155185546,0.0025539423025300297,0.03976547326019359,0.12230509422227048,-0.04531291449698443,0.1277585641029528,-0.036782328807840936,-0.03334415083217232,0.1214556607967704,-0.07669935836106571,0.00922034869380928,0.04325915127066842,0.013958199450884287,-0.09537267380585439,-0.12188857446954116,0.013587911958833273,-0.12992450063190822,0.012700809794270063,-0.1196879369833423,0.07068666160645004,-0.059548085655819025,0.12770555614454074,0.056606154882979584,0.05750860494276368,0.05468512218827112,-0.07155318228661407,0.06642777083496285,-0.0787135512700838,-0.05191201439885968,0.005997745264230869,0.0028866790092837253,-0.04227256094755777,0.07619497059609542,0.018615484936263846,0.003995406668809233,0.014710329027172614,-0.012843287008999922,0.021715946937267062,0.08357164656792386,-0.05165030438390332,-0.05625687179238067,0.04455900520007149,0.049672173660054615,-0.11934401747756479,-0.10763218374285555,0.008840658133813975,-0.13462478292537783,-0.07232677893302857,-0.1006431360470256,0.015748623190208137,0.172764886461889,-0.001009564303539796,0.03274195709600553,-0.04207992745195039,0.07583099896808719,-0.06670797777189096,0.0028262508509406055,0.03172225018003577,-0.028170495252627954,0.13461063855338293,0.16394923986617363,0.055605638341456466,0.07324246457039134,-0.038812964439618035,-0.0876448516648562,0.023908031505418238,0.05646257055024008,0.04277774850497427,0.1574956029662875,0.05606801658066568,-0.06691266524338442,-0.05081467962289265,-0.18207156065445604,-0.00026782701838421244,-0.22727069055660404,-0.053112327455748364,0.016007760314416745,0.09993938099582904,-0.011379549733655583,0.006998378296597859,0.021496097748496066,-0.0400115738711533,-0.1166463640382071,0.1290399321274467,0.024223194138922214,-0.029191085392048722,0.06309918687652563,0.18093142544333746,-0.032998366483275546,-0.004248763112184453,0.10514457965981955,-0.009416134222613209,0.0257094699616295,-0.014122856712536044,-0.09728114648600503,-0.017483090014204502,0.14077886113235977,0.11392079280310953,-0.06591531803669247,0.03981475499862213,0.10124004595134214,-0.08448208831246452,-0.1144003674622529,0.06894484381747418,-0.034282474389108177,-0.04084884756620106,-0.009799065327807789,-0.017450828764773517,-0.17628831400555056,-0.010411346513521233,0.025429286761890352,-0.06837870647763952,0.03209266663477336,-0.12166460139180772,0.06174155600952043,0.1577631411598161,-0.013115237147685062,0.033724415676494625,-0.025331645687018324,-0.009319970976375384,-0.06560592718148643,-0.1646138573111242,0.05972958373394348,-0.13315331050359133,0.06447410319296608,0.01610346475636483,0.04357801992704613,0.021125108049532958,0.08123686525065696,0.18461452291465622,0.020308790890209576,-0.05361619807591551,0.04152089210771997,0.020154874145859095,-0.00767680195789698,0.11750390794538554,0.0427651013964301,0.04673381977251916,-0.0825300530428712,0.05250222999541565,0.15038233648240626,-0.0843254230665162,-0.003984467055949277,0.030948282148959283,-0.00016338798526876442,-0.10254632927185778,0.11683055861149873,0.03148498438497476,-0.15991171553944655,-0.0005612622303715131,-0.07589666454806268,-0.08490455149723376,0.03740726166649208,0.10233156771522627,0.04942915896611317,-0.12606334287613405,-0.09659446271547455,0.06379918547319278,0.15561351796760664,0.04152667184086706,-0.037421800868917506,-0.23258843462411796,-0.044113020796281585,0.0970207175385754,0.09812278375613508,0.002670661232332871,0.041166694768730736,0.04318282666550045,0.16192577138550074,-0.07694900990629897,-0.034551869393136696,0.08564816000367796,-0.048598308895962915,0.028474938074453126,0.0627401973498644,0.13613598188910375,0.07754543303623576,-0.04474915450079945,0.036191043643101765,-0.007065441092341701,-0.026355054134425012,-0.23749916078176875,-0.15443208817850693,0.0632882088872696,-0.122751063789403,-0.00725317693972718,-0.031374228969361886,-0.10601977065511482,0.05756879441428345,0.051824153305542096,0.09655229409148619,-0.028564756533186915,-0.08248451732582777,-0.09425241554424013,0.001178631690917141,0.06518789070353738,-0.08357961812618253,-0.026591821114055784,-0.011516262013717424,0.13989397193960945,-0.02984404572427577,0.2537238749714297,-0.05847402032220761,-0.13926779729345065,0.05399691155431148,0.047979622013788144,0.0021089393729739558,0.055237390045387094,0.09037668304687824,0.08003704929902784,0.10554608782091701,0.03586443233738168,0.07663184134026574,-0.14137593078875632,-0.21921313175521723,-0.029426025972334072,0.020126119395527227,0.0206938040136574,0.1043244614772556,-0.08357519703121642,-0.0795812965204256,0.023156060947900223,0.006791740018046072,-0.016312882666090014,0.11023304583207559,0.12550284156616695,0.0029295074409757447,-0.03641975595528562,-0.030791741331826324,-0.056496937629123625,0.05131140040439437,-0.01953962929349887,0.09030904951969022,0.15665476280173196,-0.01368552643546255,-0.03947222023956374,0.09654758170741258,0.12215596311917803,-0.16150625579509706,0.0008142588285882494,-0.019610488163730462,0.08310562604791372,0.12073437382532982,-0.1406405518949338,0.015530124436332008,0.11262195986184698,0.029576606622434994,-0.03425316194344424,-0.13112045118259247,0.06364735170672163,0.018028977455799886,0.04930486920093034,0.10914734771701019,0.10960794446549504,0.10266848278153298,-0.16717152098690355,-0.1301845251616599,-0.1967104973653198,0.044234407503751,-0.04899016279768964,-0.01960780453800443,0.09672642176790029,-0.01666587562055298,-0.06083419046261939,-0.018098946808750876,-0.06306167247492876,-0.0011178628983657003,-0.030934557665530105,0.1158402758786163,0.1226720326822611,0.15594755009642242,0.06461477270798587,0.10285808711855075,-0.13229872192052558,-0.15148855332255942,-0.07755914248647007,-0.06637008711599918,0.06908717644779376,0.2234642350208913,0.11216556137065284,-0.05753845591061734,0.11246860390560412,0.06889795026866422,0.06296912277344704,-0.03737645034853412,-0.07098434251753576,0.05031541429698042,-0.018161523406231558,-0.06094828229587195,0.01221593245882601,-0.012700862765385854,-0.005156964045311479,-0.0001068903062118687,0.007226157909087689,0.07892437158719183,-0.06338377071874467,0.04512269352678597,0.05825930471791065,-0.13242772463239627,0.0890988084918335,-0.11229997136788779,0.044233377929657126,0.10271917479738267,-0.17475719422022556,0.003316782570536951,-0.05948790204700017,0.05149379993538273,-0.06665446767965152,0.032769273175866476,-0.07593336965443967,0.11381239447790625,-0.023028377331073272,-0.05309794529862677,0.11347425503400235,0.0048869120529945196,0.11247732633900552,-0.0962417998950107,0.08396175088539388,-0.12439221844005979,0.10138893254731594,-0.07306924911744973,-0.02612197309556839,-0.0024268021641687446,-0.05285996762624371,0.039330454114617844,0.12082580561431103,-0.018639400683264865,-0.06898323861161576,-0.011782676313749131,0.11818336125125098,0.06449846835805888,-0.03701377398413296,0.07595675218139139,0.13256413925999122,-0.011864683817482168,-0.0134328546888096,-0.2201378238957449,0.11679366690747338,0.10720124883777295,-0.09933775328386661,-0.023166524384302372,-0.008763358643398797,0.0052953669989929415,0.057158344718325683,0.09210730671571155,0.023678989047299086,-0.022534006225143823,0.02840200834904727,0.12878274149501603,-0.10467379354519962,0.05446729338111601,-0.021778916372473978,-0.08266669011587367,-0.14543357038378993,0.0017232205664899785,0.02557518813509643,0.017788124265904984,-0.14817283258878824,-0.00025704880600702085,0.2685979808526499,-0.20074163202797796,-0.003946738165094109,0.04778348160938299,0.010511065481276921,0.09822670129422788,0.10838574618840219,-0.10177905832195085,-0.018677080739250132,0.04623925281062397,0.006614628914003192,-0.01625816100466227,0.11945716667968699,-0.16495047049861553,-0.10697952577652574,0.05965227880875583,-0.05928185573212704,-0.15901393060035787,-0.029148881073013062,-0.12597671059863652,-0.03303402078390846,-0.045880024909129,0.021921030924366897,0.08346303443035676,0.13882887481014297,-0.0700410858704408,0.07199268321419305,-0.012035947395619398,0.005127427824689125,0.168905292105737,0.09784860737838974,0.06545626625072862,0.04497883879225828,-0.07568654294433094,-0.048976021574724304,0.04324943483797053,-0.10568305761257672,0.041621776682443275,-0.053826522400622946,0.009326710114420765,0.015957049536164662,-0.2070703669437255,0.037514720949056175,-0.05207703860158859,-0.015569464098556527,0.0361282847869545,-0.04234148075100944,-0.023815192456969333,0.016973886337250922,-0.1942458469368234,-0.22063252154200952,0.09091598331931565,0.027049346366506175,0.06087745607083854,-0.045055733688247744,0.18687197803778668,-0.08475639927991972,-0.23204993280211778,-0.11951691184808652,0.1602846090345575,0.03610442685248957,-0.0577033404291361,-0.18770719426148624,-0.11319074149749696,0.322557497040081,-0.0100467907352719,-0.03548088854121286,0.05697743797603939,0.002737857063205243,-0.049677657280469974,-0.031130532997051905,-0.0091233891059409,0.11878138598821095,-0.061877548633537505,0.10761670095977925,-0.15260968905835595,0.07824324698253617,-0.0003012244997452987,-0.04863519127549879,0.035706141603065934,0.07038164056053994,-0.10246687014867063,0.14242927945753425,0.09597262254886335,0.007775673603292299,0.10893835783322393,0.05515385620955473,0.009220248278083064,0.02759719562725271,0.10010783745072188,0.012743505288001283,0.011274027702763065,-0.010505957119312433,-0.03154861029804834,-0.022533946136853323,-0.07217805523256812,0.04687686106770245,-0.0057907024457830745,-0.029135529729642104,-0.055536272477982845,-0.04509078373884586,-0.09379878415445936,-0.15043521749653588,0.03105942108926019,0.015442105991767275,0.030355548345850723,0.11460237921648951,-0.018388251886814467,0.13780679079493963,-0.0069276094471927814,-0.0023310815546815364,-0.11598273584388324,0.0,0.0,0.0,0.0,0.0,0.0,0.0,0.0,0.0,0.0]}