{"m_clampedOutputs":[0.6303924496747498,0.0006642152900267596,0.4444349878407365],"m_hiddenNeurons":[0.9924629327672273,0.5678275466495658,0.503138730396119,0.5838693003232139,0.4951084788507631,0.973045708072625,0.31450708672218564,0.5081722976883258,0.5022327811971418,0.4160829871439466,0.17026610987907873,0.4701278161905683,0.4786173863571846,0.5507648271575109,0.5143526944301784,0.44655301420718946,0.3217337612025743,0.7374971995097668,0.4722069639839725,0.5823091246299427,0.7856609449422792,0.4508152988863985,0.5059559052517398,0.5192734591518727,0.37564125751269684,0.5756853071379989,0.5956536780055169,0.2963081974028706,0.5256359966108222,0.3897208906373644,0.26503715365140307,0.12117188367247768,0.326053772738316,0.5109665883934636,0.11256969565061052,0.4119786030077409,0.46656753962443515,0.5249876410732152,0.48390784163666717,0.6774737408297402,0.40688249362421247,0.48768476436754216,0.4611191607588209,0.3896685767802056,0.4568184583388408,0.4582568854137342,0.3828666376954721,0.35392076019001967,0.4521906524521019,0.5740283969432542,0.5059155541492648,0.3520861658431457,0.8284160728804488,0.7644664287669876,0.503192768314627,0.35112441981707865,0.5644300854277642,0.47557739191087584,0.42456144436771787,0.34015038563536326,0.49643909869162034,0.49533650544360386,0.0621982442108585,0.5072346626839185,0.4861503327724336,0.7695245946605012,0.6445187796257213,0.6898716057619233,0.6809478702197924,0.3644150160267239,0.442721158849196,0.4576153407439671,0.5564324529321284,0.6014835815088149,0.5256876061781584,0.476084895086777,0.4569826280171029,0.5447767407718206,0.3750635995521262,0.4523917429556118,0.5004037355985679,0.43025732074025447,0.6001440146777509,0.5834818639903451,0.5697741452756372,0.5012690051238946,0.4855825680173426,0.4497994162837736,0.682908126240402,0.4422393624109064,0.5848124280402465,0.33558423542433913,0.5699287373822164,0.6060048863125903,0.28375727341295615,0.844097501658028,0.4287665733468997,0.5164174168017424,0.602148147428384,0.4068271069042034,-1.0],"m_inputNeurons":[-1.0,-1.0,0.0,-1.0,0.0,0.0,-1.0,0.0,0.0,-1.0],"m_numHidden":100,"m_numInputs":9,"m_numOutputs":3,"m_outputNeurons":[0.6303924496747498,0.0006642152900267596,0.4444349878407365],"m_weightsHiddenOutput":[2.765794793576292,-1.4567421191303564,0.5306721197398434,-0.8032221243719843,-0.3996111551799136,0.12045685509713237,0.015028489512177995,0.12361326531851781,-0.3988334644618685,-0.20290155551605737,0.07085389211344274,-0.7751719042188402,0.6866456354368672,0.11818557413302064,-0.025382616421708828,1.006039658684893,-1.028618855589825,1.5119525675123742,0.9314857329813384,-0.44320797617539703,-0.5310967558934021,0.5436883842987699,-0.29718020212602647,-0.14991903199657172,0.22745893971605488,-0.34675897544625667,-0.47298614245105136,-0.49863111266426857,0.3770955314615891,0.8010562387591099,1.2363101022174228,-0.3708349539125453,-0.27661970608729675,0.16397477000435615,0.1991795018659189,-0.2775048059322164,0.47061826603935847,-0.05178306501566757,-0.46887824497892144,-0.20942602402488705,-0.2130602886020151,-0.491534605746071,0.4493982890552878,-0.24065409435276708,-0.19016982151697312,-0.009888760068402875,0.16835756760971682,0.12770327363329542,-0.4086723504074358,0.4491082481673318,-0.11509082899998145,0.3805409762231949,-0.4868508687119458,0.3201587898442067,-1.6699373638377257,-0.881939106304005,0.5364491634903117,-0.2946134144546949,-0.06095310190029901,0.013580112010701377,0.16858095869043976,-0.8076711723502842,0.2963012414204732,-0.3531892156307039,0.45988785827501644,0.19780212303576958,0.25455555926255463,-0.2707125370250458,-0.6413702348723308,0.4645553465855874,-0.03292086637530894,-0.6504211071844049,-1.0038421931630026,0.6793281406338993,0.3996780145314785,-0.9853750484486817,0.39889643591169277,0.5825254400575154,-0.8898986337070712,-1.0385182013891392,0.8801305878676553,0.8267454939681483,0.6569993428076953,0.16613418952121836,-0.3550177393513094,0.3318661327112842,-0.22898476061781947,-0.08928166324362556,0.39299221790582295,-0.4507414362623498,0.8373183882553592,0.0047170874333129125,0.39854545606258857,-0.6991468769164617,0.48923567570526194,-0.6275366203845851,-0.19071650419859787,0.36071419662598575,-0.7670506490404809,-0.19622754849022225,-0.18403615686202734,0.314704983538867,-0.6849889956633732,0.8327568741613104,-0.3496102674042767,0.22020373746147395,-0.047415775127450564,-0.06588718242588333,-0.7460129357476125,-0.18959009240075597,0.2527132474513722,-0.36590006808445313,-0.24598667564948282,0.197278330426766,-0.3010430813869975,0.09819007634848213,0.20295249750534802,0.1596972088154133,-0.4083034237253025,0.38272634551882967,0.08663589493551675,0.45146023089194837,0.2084074529496828,-0.6849453453087886,0.4391807309136328,0.026666654048257195,-0.040904897806167136,-0.06377882143733911,0.13072729743779182,0.31944976761741095,-0.03624783603364091,-0.053178207031205155,-0.7011239124772888,0.33467871165091645,0.2838869854698884,0.2412896771804676,-0.03029797538128051,0.10902611095103237,-0.758429716974239,-0.2007527543939943,0.6555733527423727,-0.05984731275530831,0.44873337155957976,-0.03846454896583225,-0.049306905888690467,0.258183539244721,-0.2802049593044089,-0.09784010780914351,0.2501846140088642,-0.8911401562185031,-0.32078699300295815,-0.5101410352987124,0.5029538361070122,0.07841379164852699,0.36216034791543783,0.08131581227599968,0.6737599093234906,-0.4788171970690212,0.35196962281979366,0.18746432041247701,-0.7449476917884463,0.4023660349699378,-0.7435076490178276,0.1372252630854983,0.6623444898994462,-0.203666235808621,0.6565798329496162,0.15340065708453224,0.3102342751413641,0.06721036661791967,-0.7906425989780321,0.013827042817314868,-0.2450472137903669,-0.30880235719199717,0.6830794380834886,-0.06477948695938086,-0.13818426348484364,0.24803551056004594,0.624618786623713,-0.06997617584781728,-0.22160196947632757,0.028743568591395957,0.2863904506034554,-0.09064134195536473,0.18602616130160998,-0.285577905592127,-0.7726846751409343,0.7809978447959834,-1.2273406532449822,-0.3559911731745526,-0.05611046014314024,0.08905657656802378,-0.15737266370675726,-0.06702664844085104,0.03731906313660607,0.40334751994761986,-0.7456349855949767,-0.11459270874575689,0.5957029721528391,-0.5405410904728827,-0.015451277774945489,-0.08354245713927118,-0.736310972841355,0.5429316763155034,0.5798869505718006,-0.8746083067485927,-0.4634342217257136,-0.19626943219785797,0.47245968467324084,0.5054843716396762,-0.4057956704302655,0.4446062539177917,0.09240741264627812,0.3735419973623762,-0.028869151039398484,-0.39074557316753217,-0.14028667667994663,-0.3230797001377946,0.1422437632728801,0.6367554452945254,0.3489460394602975,-0.7539183369094872,-0.6542811480983373,-0.6024314543881121,-0.050887485447061925,0.025529624876900976,0.3545177210460562,-0.7423959627831791,0.3781248729033589,0.3598000923450727,-0.2642375133630665,0.10847679193193442,-0.07156853168390251,-0.19393700667675617,-1.1910916293544394,-0.3802330592359235,0.7045322068413646,0.16322310913567256,0.2540932548873814,-0.2344970244513622,0.25597980658037145,-0.14339631744589734,-0.806456173111269,-0.5342994289275245,0.3681740101618842,-0.20771282330370874,-0.8776210737192557,0.06779939711808552,-0.03891363774159606,-0.5787001994496125,-0.018089477025036528,-0.09997337731384263,-0.3342387132100164,0.21195515344334243,0.029443061659858254,-0.36129611177417276,-0.1431465920601178,0.04289818683183229,0.12471945221079499,0.3618597991950806,-0.3875334381016543,-0.6377306596624435,-0.41198159322952643,0.4345547727950413,0.1728372716658541,-0.6756135011766865,-0.14106500362436336,-0.06318191914903538,0.26808667314294415,-0.4016896022967849,0.560408391309169,-0.8417970541880377,-1.1431669377036786,0.23821397152003712,0.5706521952883576,-0.14212417712182732,0.5517608137495215,-0.4461905211084692,-0.38143673892409946,-2.1171110913247686,-1.1937883743783542,0.7753380287012274,-0.027592967558190795,0.8005142551902431,-0.8440167196526253,0.3399669374290921,-0.8042794254623139,0.4361697804051802,-0.09911183212181778,0.1900320233644198,-0.061403338829551485,0.8412166260666295,-0.29006685759147893,-0.823206035872041,-0.5517203161431052,-0.022991320952221863,-0.1167929021785968,0.03586303619723147,0.40657478218445353,-0.2732639940690765,0.08175394973006712,-0.09556506667105179,0.009382032995118339],"m_weightsInputHidden":[-2.042909613003164,-0.16285796899375735,0.07679204496959552,-0.030954450186496306,-0.14537615790985473,-1.6992442451959868,-0.4527754169730831,-0.42404769210959137,-0.44372620602106855,0.4691308696403379,-0.08281024430031791,0.15723745829479094,-0.3734551075940968,-0.24764645824800285,-0.37325766541957367,0.11023964994540661,0.488207204197895,-0.6764887042225544,-0.7288583835962593,-0.05382583091748731,-0.7896013526779011,0.36528277244805524,-0.5761776189335005,-0.3912627496259199,0.9883910468359067,0.5513545309329916,-0.7114359567534665,0.5580799077678694,0.1531306859383327,0.3107202704702627,0.1413640802865477,0.8707458538058895,0.3589222426430334,-0.16525673224039822,1.0352578721431942,-0.18868742335498662,-0.014123081663356483,-0.1865665048868777,0.13691209030602755,-0.47506995073903746,0.25781814468595693,0.47457319414217963,-0.08542057915644966,-0.08799697146785071,0.49007449249806917,-0.1129167837806167,-0.03601807139882874,0.36877968693367963,0.145773011180098,0.09856747235708008,-0.28828444733942415,0.2729205036524195,-0.8013836161520322,-0.7039120947289796,0.5292261088316761,0.5803731615766583,-0.15118138695046437,-0.2850073624782805,-0.2748440103871909,0.44142075214987225,0.05080204436116379,0.03283494899393674,1.253105381572392,0.008518202751947524,-0.08570123287463385,-0.9035895684094596,-0.6534380866145855,-0.6036684407144904,-1.1065368892792582,0.4024056327031327,0.40734808043517967,-0.32749016009768017,-0.30246792532378153,0.059923879333460106,-0.3125046087190299,0.21572177990943533,0.11963261208404026,-0.1604466064325994,-0.1677726545078287,0.07960585974682727,-0.5316271410932722,0.3856007116093774,0.14502357094028437,0.08122596591410777,0.14746247585411254,0.016016679487807942,0.15039054289837225,-0.18772334698210932,-0.6814088265823933,0.16094046118675995,-1.2290838538872406,0.348650741340566,-0.6727729389200573,-1.1455494402653001,0.6672553155210968,-0.9377788026852968,0.12290739110935489,-0.7992533899357791,0.0017379822467501712,0.3462671069068268,-1.2099071966592039,0.211418129383907,-0.019060066104549484,0.04055365506516013,-0.1560177719186343,-0.6217947586151263,0.08339794720955097,0.043092633545535816,0.07334406491199313,0.037912032127419504,0.1660945881764365,-0.18041719026280703,-0.10934114699745537,0.06861446571735681,-0.07387016799550881,0.01532983250934171,-0.09270729113395723,-0.2640581331932928,0.6040447715419701,-0.08603965439900926,-0.20531388464430664,-0.16428059488163615,0.05950942587744973,-0.03178928802677318,0.07498644014611709,0.0963038409497032,0.39080733247277266,-0.10325222086804904,0.10186202123010907,0.1827955406983348,-0.024096891235377216,0.37973361670246664,0.122274091207722,0.11393018263245402,0.3636693735813304,0.030972611599872812,0.14490700722488467,0.10801306436456341,-0.020156360767507008,-0.08581422650773714,0.07194109078428756,-0.10198010400747244,0.20951582920659262,0.07971911704179177,0.01366510013823823,0.01982625940566631,0.2543758808964185,0.0796324439491972,0.07899687398362572,-0.09272691247130575,0.103740543052977,-0.052892180519691696,-0.32787824109747166,-0.15717995865198134,0.03654493590837237,0.04093746417760563,-0.03656535944011075,0.012812970682725659,0.08198239100213024,0.18656490770996356,0.08468835118504207,0.014329040494438077,0.3773072833247323,0.10385744129942809,0.05248083172161147,-0.12847482176939556,-0.1344234581886997,-0.028203118354965983,-0.16309189889305403,-0.03179909452320141,-0.13618940259985293,0.19435815331098585,-0.07480155294495804,-0.29423910675475135,0.15624642939611325,0.021646268030726567,-0.10578407309823996,0.09643169559306505,0.4849507083953644,0.1019492502126232,0.1786595304760464,0.015591062331109642,0.026288731080162435,-0.04471271899484595,-0.14210351781983685,-0.12779292786030316,0.11229140078839689,0.23114942173666816,-0.01826469087430085,-0.08679166208444879,0.07064105755134853,-0.01531217076317098,0.11570710995034639,0.7297573379600389,0.03665578421691476,-0.23785131711189184,-0.02332550404968855,-0.03935326555780049,-0.03125524777527265,-0.0251990183171038,0.3320950041895817,0.40520851208067543,-0.3678230025682861,-0.6643992036866556,-0.16370726506313346,1.2010577610748092,-0.3746674100472903,-0.1795361138279625,-0.4018047316409974,0.7613672895250083,-0.1484178503208871,-0.3968498217076846,-0.5085848434011732,-0.3699131280414914,-0.2583640334129579,0.0824500898633866,-0.07380372317740659,0.2658509437392497,1.7351847984293618,0.10812250221403392,0.3471026060130538,0.18048982615477546,-0.5014782942642327,-0.6555603195269395,0.2566913668935998,0.4333736958004916,1.3887309577574243,-0.01403651857538375,-0.22000114570445764,-0.4674951142234517,0.23853494535400102,-0.46576431912101435,-0.6741397464912681,0.3322478497071774,-0.31831934468766065,-0.05266535460943218,0.5259412095902782,0.3340432200848901,0.20395261856473776,0.30523153143824283,0.010298911537936519,0.08007412588233606,0.13069900738761364,-0.11336446579176526,0.299680902609085,-0.010773093093886577,0.9747571960948027,-0.07752730914591534,-0.24870692885436557,-0.7734858804408054,0.6486394630075952,-0.0013467417401747954,0.23583335968788008,0.381896164081026,0.550279399752892,0.06918405395776622,-0.8110285490971693,-0.20859597160270443,-0.2782566424268301,-0.2064520987240882,0.32968021403293324,-0.307452612561815,-1.030528135350835,0.2161772572612845,-0.008382935801882173,-0.1296099263975052,-0.06293899423284767,0.6016090940358993,-0.2486934057313552,0.32977900986354447,0.1034315572756821,-0.4070560218786681,0.16673296970431314,-1.0225725280805977,0.31035872304565015,-0.757198386001384,-0.4091121873105205,-0.2803861299205507,1.2785077409351877,-0.31302242591698165,-0.6401631837214737,-0.03599636008669876,0.06784220671528222,0.02125152205405908,0.06707310045099914,0.12007111717582632,-0.3784058216647565,0.718979036301757,-0.04307554772659194,-0.40941417983560086,-0.6777152131144735,-0.26765272740871027,-0.273259837989552,2.2545591042925595,-0.8746264875555982,0.36684133409910585,-0.0970569575742066,-0.6343326559456166,-0.04660723434299792,-0.31796379712200395,-2.352692799716719,-0.5422042623738637,0.0034401460721294012,-0.21022709203226012,0.43780438506889136,-0.802958052196867,0.8143825612084702,0.2353779615305583,0.15315794091494475,-0.33365882760091914,1.2262134651156833,0.1025047009072175,0.35707840584930756,-0.14374262998700008,0.25969165865048255,0.04468067982508451,0.07104840978852524,0.011136298809834846,-0.8721061851612031,-0.09966853289116434,-0.2561656211256522,0.10170813153160288,0.20649742930866752,0.3852568449311064,-0.5404064579330008,-0.6788105330481177,-0.6882325525169433,0.6455012903288121,-0.2497526187028515,0.08660054181023279,0.7445324257401279,0.18491150273818463,0.15158761349810296,-0.04976054950453294,0.2747676267067018,0.30236474119643375,-0.3124230532010038,-0.2123645268007799,-0.16572686225297353,-0.09600696836948754,0.16188267868246167,-0.3385548855474381,-0.029062062718036265,0.19857964130214256,-0.29926161534844375,0.22312336255454976,-0.3296112123584449,0.10352772571316497,0.026013123587726956,-0.12366953583774337,-0.1396112442148573,0.27024653746877625,-0.0445054586200134,-0.3006512123889352,-0.45010091966345034,0.08439311784264798,0.18327443776639643,0.09935550865605146,0.5008566425353359,0.16995649943514135,-0.05823652436423916,0.009952118844837127,0.4037672794426757,-0.16881673371120864,-0.09592773997503298,-0.11943585572268414,0.17027324992984424,-0.36391642221328696,0.11656643046629547,-0.022337921332218975,-0.07576572822995503,0.17620322269177502,-0.16633171446512418,0.3901445951607541,-0.40100184321254173,-0.03547862430892734,0.2926938101696965,0.008319291709011772,-0.6589404713465509,0.14662930403822547,0.20810984875250108,-0.1832145883427704,-0.5395650156984378,-0.40761945837705443,-0.038748555438228506,-0.20788200485911423,0.11839125465655996,-0.4151554901290102,-0.012001791813938763,0.07567194722386845,0.3456676966760151,0.43761082866618667,0.2705251591536037,-0.9543510506847678,0.28630725832353016,-0.2755546745549572,0.03286495878343753,0.671720353589649,-0.3278487355588581,0.09791221779259397,0.6348452606575496,0.02295018275710074,0.1927082906724242,0.2542409273730711,0.12233161621195997,-0.24503000994865584,0.47879787727802536,0.2359199066697931,0.11380018779776191,-0.1371916306158199,0.2956955765050194,-0.027276783483974526,0.23559339698766482,0.1522374360925584,0.14712455470332786,0.13092366529435487,-0.01725265867871504,-0.06757332263058738,-0.6045473056481268,-0.09298984839535572,-0.015415639274012882,-0.1424772464490052,0.3652297246450837,0.17985577135526123,-0.23332217032744923,-0.39429935344857964,-0.764526843364345,0.022173441983594167,0.046543759533746315,-0.009568328634651,-0.1320314205636666,0.23841790485865363,0.21866162529537264,-0.06424533828340923,0.20879408787738202,0.15987498408820522,-0.1399470329546028,-0.07136929418122546,0.01474578957864451,-0.0945903175958848,-0.21416608286705266,-0.11369038560125705,0.021111738900012146,0.20373260180347533,-0.18636492745883476,-0.06759324920850508,0.033443972030495296,-0.015902166340175248,0.18743136493158405,0.31158869895788766,-0.03591098531961918,0.10707968676557747,-0.08321577680573532,-0.15946702432847049,-0.38288730612256805,0.022407151957349967,0.20384539007796698,0.19453180635289197,-0.018662417014789438,0.16181436475317493,-0.04659402110901983,0.07901021440499074,0.44028855764754016,0.07068828289836959,-0.1200525852985601,0.021759633605046205,0.06463490373334059,-0.1564796518325573,0.3100645609958344,0.007964619322277596,-0.0016727349223703714,0.21559182253073966,-0.07904405692545333,0.3403844738082955,0.02177230828732241,0.23154786482922302,0.18073609897027354,-0.022091308159537526,-0.3141183409167565,0.21341032455538136,0.3919371898237591,0.3394481695147333,-0.008051535798253982,-0.010797123317072822,-0.05883113180427084,-0.0935080634651216,0.24785643985408262,-0.009652588076848816,-0.03394405874759363,0.13564832363968388,0.6677424347411798,0.01075506233448119,0.28898026812584177,-0.7885014682777638,0.3802184744401664,-0.19261247635822507,0.018338611190305006,0.3644435010842253,-0.1103684954627242,0.13742060675490142,1.5123576398946184,-0.4181092196661666,-0.12321717709912981,-0.38047436761023723,0.5737304288787752,0.59498121747766,0.80424653342917,0.38868839067075645,0.008633997539552922,0.09196130878141406,1.1391370070268838,-0.035329281372395584,0.2186140278479049,-0.4014809715210355,0.2900751097520771,0.15678135940958293,-0.17741345945200673,0.2227758842963699,-0.02120336823075689,-0.2574703978622018,-0.06267841915342416,-0.04347431484548305,0.18467596430830358,0.13520957531793987,-0.6240573216354007,-0.7496955568734389,0.476974441325648,0.7744557188794585,-0.027392629489565338,-0.10734177943942305,0.6846917658484297,-0.39740428428353475,-0.4018523939985665,-0.006760522716149989,-0.15224831073351577,0.05397026401381626,-0.3757423484410602,-0.09449011306532423,0.03716139980127314,0.16654994984140709,0.2845775797074789,-0.3627035654200468,0.09332995383738889,0.3488195398759398,-0.3673582052093886,0.11700498423968317,-0.10677138445568474,0.06982724088156651,-0.05085685965140743,-0.35750768734058985,-0.10194621914697843,0.1699999278773876,0.35371071492386846,0.10928618494840765,-0.3514471419186353,0.1504948974443148,-0.07251790721837015,-0.17640328057306046,0.41340472599363315,0.39247898265626124,0.024619495737120214,-0.07142012563471967,-0.5568324371677561,-0.1975299349682002,-0.039376996129778234,0.09278055924675294,0.20548413540447893,0.06212349336747126,0.26879611293836064,0.24836970745280726,-0.044927911465728394,0.3076217277483897,-0.02419333986757582,-0.07194422324251233,-0.5887841349877052,-0.1785260944559077,0.23870978795665265,0.03169132542012538,-0.06299810941311985,0.09220925749309447,0.048089651453751645,-0.23679157786790977,-0.6627633620427218,-0.2687205368720392,-0.07547178166232014,-0.14150799770101688,0.002999813942283517,-0.19792912551718111,-0.08730820165852371,-0.14016735024772445,0.4249548993087819,0.2606911267519529,0.38028961743909373,0.08154241938103014,-0.2735885074628027,0.11349729439127049,0.0012124978344787807,0.665234471075387,-0.31823266039437315,0.006247601517724299,0.6987963072622703,0.1277058908563737,-0.05049456240131414,-0.07753425471305711,-0.1611495241514801,0.02437677385403414,0.3748249544933037,0.028633768725121956,0.020685853424401202,0.05906731188113625,0.3386431312326088,-0.03938526455820562,0.17156044881403068,0.14901776314047246,0.11354628350740457,0.055744068296359486,0.14580064528310366,0.048319304496460026,0.45521671943229397,-0.10912267095980281,0.18457977483702073,-0.05399615070760102,0.09430496450937516,-0.07755423998825262,-0.25441533952877954,-0.24130260249958732,0.22784742375424263,-0.01092134616827678,-0.015513701069799503,-0.18127721771453037,0.14155094895584874,0.2893948120587948,-0.03865060041957247,0.13059388168367808,-0.04535651982668824,0.09601576511094088,0.21167306700208313,0.03392232062411315,0.1150570871966562,-0.07030896346389112,-0.20299900577242055,-0.061356729610475266,0.022400590926853512,0.18577473562917887,-0.03570338247676071,-0.05268946392139735,0.27877041567429106,0.0027822545425510783,-0.10855023993637022,-0.24360978751113394,0.2868412716450752,0.03342028181141971,-0.09573910687950067,0.06518753291435353,-0.09285716888150224,-0.09694452684997923,-0.13590682189873537,0.10648980829759942,-0.05699407499765085,0.017945251367822605,-0.1546930834955881,0.004913922976726059,0.193426359657377,0.0808004662726009,0.1110673411676767,0.02491601716531103,0.24659292825431306,0.17254413625680984,0.44289022372056547,0.19188773039245244,-0.07606310793800819,0.012875297718561052,0.046665116047413316,-0.24147543361712578,0.2847137019449077,-0.028656146760319818,-0.06241458858343158,0.042798860057438645,0.4099008243480441,-0.08947646186881757,0.09442741634942746,-0.032355912621048456,0.028983039567757937,0.025629978841463136,-0.03453908587458116,0.09059363259455064,-0.2828025819060315,0.3171856053945947,-0.002904799630562542,-0.048834004745587356,0.4344188284381875,-0.03700645821381585,0.024966244170084615,0.3381390047375731,-0.11031686441390053,0.06013395634723827,0.13871081387807951,0.1811861550294518,0.07669946734103823,-0.15062473505288637,1.9615677455949192,-0.2070820046800594,0.04973154275159448,0.016175062277483932,0.3761771732507194,0.7401840937351308,0.6769758288725956,0.4776392123537635,0.3443720211782128,-0.10069371374583935,0.5445257064702338,0.18784042164285494,0.4410480415497821,-0.04347158829222714,0.4058615537614666,0.0028068841431772356,-0.19960703536505528,0.13649258944726675,0.21939680131967934,-0.031170733906612787,0.3526478086657983,-0.3386095612712437,0.3156382604412775,0.3621552417296399,-0.5128440993205446,-0.6123306481157264,0.16550332057016265,0.2498333158827475,-0.3066455539347749,-0.07449508211339316,0.29107009448003834,-0.3124844791981342,-0.09320991149322218,-0.026525020661996718,-0.40930089468440656,0.08981814821080733,-0.25126532742408025,-0.07271577536020093,-0.07282927758999146,0.17358674019657952,-0.09368094822474843,-0.2957676494858499,0.05160863580376953,0.24822176587153183,-0.4604780115131351,0.30460388316059034,-0.020250594953307263,-0.07213551308465427,-0.09702354909394625,-0.012589594819494312,0.24341772187722702,0.01668826667980248,0.42255206305541704,0.24942216203649809,-0.3947966875465182,-0.13390912427468654,-0.01985823615601149,0.19310087319575434,0.4264252513051499,-0.10294515627219962,0.019475008128120346,-0.1269150579252643,-0.48324798516073836,-0.007129345574607128,-0.04401938176038373,0.3373090674268222,0.4558794053920778,0.2758502585590424,0.5867930926265214,-0.10449510633789204,-0.32649271163151045,0.2401446460893497,0.07960755319219111,-0.106199698480216,0.05594584091075478,-0.08235179637520416,0.04909434798167683,0.02379467434659295,0.10515375442303498,0.01738759169082593,0.25946657644569304,-0.1990823479158206,-0.3005778894511115,-0.17043553423490163,-0.22597421185014233,-0.08226695827126843,-0.07011423195059795,0.18241207785105717,0.2726495750519037,-0.07255419465485745,0.9236387460677087,-0.1441679550122992,0.5747468739242263,0.15185815559805427,-0.13380166744667848,0.32340401133636,-0.12222397105512414,0.5923257847160257,-0.20970049598842272,0.07620046935244186,0.6356742953875367,-0.059183777906697224,-0.11113794357950862,-0.022174519260826333,0.10055688225204794,0.112069612531153,0.02309197194905216,0.04183607004868316,-0.08650922304529753,0.14282484305743853,0.2686453067096783,0.053327540889598964,0.2405597591319734,-0.08268725565921814,-0.1490649005568875,0.043811044689975376,0.05165302477984948,-0.10193899938113493,0.5308657344103925,0.0441562842580881,-0.11845093645220527,0.0976853045374323,0.06772995837204558,0.14861671460134773,0.07441487485442787,-0.1490352764540719,0.29792595584814174,0.14470481465753268,0.15084713668825928,0.11636268551179876,0.22723535992547853,0.021642599905527644,-0.03708673259039274,-0.030202418151297147,0.017470873063160815,0.062473267357237634,0.12301850578076062,-0.1394450021350131,0.02506512187884225,-0.04421458768779673,0.23625829472496593,0.1346925419257307,0.07389878623785164,0.11470594945752148,-0.005195996606263473,0.04177821921535103,-0.029058114204622527,0.22492150125171598,0.05183504829121958,0.03893544557991217,-0.11999882222891958,0.007678317740978366,-0.15102147915146932,-0.06876288452798056,-0.18476360597433714,0.19571943684375437,-0.027243709968003505,0.03442959025058568,0.16698177148705434,0.16418043668119092,0.0009353171232026892,0.13792229059911726,-0.04975688324606337,0.13609772731087144,0.052981994952721045,-0.0810229332165233,-0.07855214668171083,-0.053100286114896374,-0.025871704033094987,0.21066386365128034,0.1268056879169014,0.07507500889988664,-0.011090927650633497,-0.1869221158437303,-0.024066350500432637,0.053527506724185527,0.10625580132209118,-0.007163789945630042,0.4587240088518174,-0.0015217039018613496,0.19392709214480372,0.1059487660426819,-0.1006344989246871,-0.0060389186701319585,0.09851238673504352,-0.17743454312111234,0.10588527689298799,0.12925127891607235,-0.13853445056367822,0.13713059982369888,0.10221163165821481,0.006101845179807544,0.05244272684993522,0.8209928850510014,-0.03039776681237534,-0.09897435297722453,0.097467480326837,0.1103234062573259,-0.02703358560967677,0.06845639176623501,0.026356782774822653,0.09294515971656075,-0.02323264903946776,-0.06051562226620769,0.04430577775360414,-0.48666823549970284,-0.040698494207645264,0.0842512261617476,0.1876071626145291,0.10642275671612143,-0.06439847054704463,0.07969150338285667,0.039740052998562675,-0.030004526826583368,0.016463336921293408,-0.011386389068704074,0.13346655034756952,-0.15190930631332888,0.6529899349070662,0.01639686679425658,-0.232465117333271,-0.05133706034280992,0.19204105134748506,0.03821737834915774,0.23953483590053307,-0.032631025873659715,0.39362607544745376,-0.22446727124362503,-0.09236037230364222,0.04964645570744212,0.01659936638555304,0.2565934848710194,0.1319546644749648,-0.07338017235416094,0.4364190886333999,0.11512622857324832,0.10389573684945032,0.15696174768675952,-0.001695082213438141,-0.01498612729482146,0.08822519646140331,0.07658943273025683,0.038404197930713854,0.07262902916410782,0.004382934666839801,0.0900186444400625,0.3098814100034185,0.047127000559715596,0.04959066330404144,0.06313258089698208,0.013650556125873596,0.08618663814843357,-0.3049365910398917,-0.0807689225803932,-0.03558420303835342,0.005341138468022332,-0.11878207115201367,0.1641173103451988,0.05307476683194623,-0.1532632891408742,0.09168305836669847,-0.04337551213597982,0.4856055036737227,-0.053300047147420086,0.07349364366396888,-0.07904453050729986,-0.2240361717256544,0.023724730049264665,-0.047959114691671655,0.016096090105485652,0.11079575187225907,0.11399997566330043,0.27024038641908077,-0.3260044751400902,0.16970535219543895,-0.07749980855127306,-0.0716318256278718,-0.16669132347128926,0.44241586799031424,-0.04769627265269705,0.048815402770039415,0.09518009599533814,-0.06679553118273558,0.00839286729421568,-0.21300104832863184,0.22398858924238313,-0.040584897375244296,0.25602497758577264,-0.052588672127953526,0.13109188446307393,0.0357955099772641,-0.05090783522299503,-0.01998598325568758,0.6014546064059786,0.045998417836950536,-0.29798637198966393,0.015727616873341985,-0.0799931356756281,-0.13375726709031718,0.10874204539900047,0.16498130453602805,0.0,0.0,0.0,0.0,0.0,0.0,0.0,0.0,0.0]}