{"m_clampedOutputs":[0.5176613660257271,0.4871767385016708,0.3592970347547247],"m_hiddenNeurons":[0.5667529648776859,0.51899429816037,0.5596842064892752,0.5777227399202782,0.511815998760682,0.5779750558953021,0.579659946283247,0.5328058286179146,0.5347370447798028,0.502320080138301,0.4277927614661267,0.4487659269619955,0.41862845643361346,0.45919204358534266,0.5583239255771468,0.4809084449348376,0.43417112068130664,0.5047000262543897,0.4115459391104602,0.4709259011003663,0.3732617563855915,0.5564046458327101,0.6041018695592942,0.43437683429841906,0.5156139608607035,0.4086619305745678,0.49871975757349557,0.5531182768536721,0.5752506355636356,0.4614194982784391,0.658984025805604,0.4842213028294716,0.4486700767281585,0.579102675428046,0.5922545105809894,0.46691149526696457,0.3765571904311534,0.5940887350599485,0.5031952492910723,0.5255603737864122,0.44013970133869634,0.4244737828851114,0.5023825495514391,0.44363851330456594,0.6440546270086157,0.4847214053207016,0.5206056568626836,0.5802304347698012,0.6497174801286643,0.508423613727793,0.49418020868447443,0.5638040969482229,0.4749511723757536,0.4642564707309081,0.4802691833184962,0.5407884414101892,0.42524668780513414,0.5725822601058878,0.530288335193279,0.5625654976010623,0.44987938814390677,0.5228216805104519,0.5538676668390443,0.4189320021682953,0.48045683773600883,0.5089295448812452,0.550344178161763,0.4495576540959899,0.5264783236665621,0.41219831548253233,0.4904911722315215,0.41810754767271624,0.5313650595439765,0.5274252652784643,0.420643611393908,0.5308829575970533,0.4806243164937884,0.553717749787693,0.4604430329184926,0.3252861650735328,0.4016343494305198,0.41865728484642767,0.4926173344345911,0.5575556629697924,0.4210519796285375,0.5593678977241484,0.510786149105847,0.5052697469795131,0.5129533313499426,0.501196493378547,0.46894534083832135,0.492693834048919,0.47518218180119376,0.5474414684742206,0.3893656281033322,0.4740677579417043,0.5018091226268924,0.32924711257236117,0.44787821989960164,0.4596072416586773,-1.0],"m_inputNeurons":[1.0,-1.0,0.0,-1.0,-1.0,-1.0,-1.0,-1.0,-1.0,-1.0],"m_numHidden":100,"m_numInputs":9,"m_numOutputs":3,"m_outputNeurons":[0.5176613660257271,0.4871767385016708,0.3592970347547247],"m_weightsHiddenOutput":[-0.0716087186475124,-0.10592366532014476,-0.009041238981216712,-0.019709837591855447,0.046926663216661765,0.07809637247182465,-0.04778525459435477,-0.03996345453562405,-0.14376636853189825,-0.035499595966256445,-0.13733886352060906,-0.09349230427062176,0.04989990594232949,0.062484032116024574,0.0751085549485713,0.17830525309686895,-0.11784464779649823,-0.0813846455286252,0.06458801974881814,0.11703115080333715,0.09932569329549353,0.05344539892297601,0.09033811401469447,0.015132832062327427,-0.04685481040722162,0.16318600451396828,-0.04095122481728603,0.1375548645151688,-0.07396642586594639,0.058577399857324984,0.07985387557971006,0.06769162184028263,-0.002618828713227505,-0.14058913277915872,-0.02261291132345358,-0.05618075749398383,-0.026730413772027038,-0.013010474252174702,0.17379674348775637,0.03874313355807927,-0.21125030159124003,-0.1313240259713228,0.09609519392990057,-0.0777432635501582,0.03666229945910412,-0.06691981940469928,0.008658444648545921,0.08228909576112603,0.10022912091765826,-0.019745492487861366,0.11147846033308696,0.20709678257087158,-0.06058940492394704,-0.08759472634590844,0.02394582958138904,0.09630443424840957,0.10776323743529208,0.03709668948762947,-0.002804904198088579,-0.214162944376331,-0.14835457300410732,-0.026696479764050172,-0.11583481845057456,0.09484689846385926,-0.04357942669713359,0.20828673159664887,-0.048653587982173827,-0.1637770905817506,0.15761380442614978,-0.05911997699734521,0.050979791220270375,-0.15889317732096786,-0.04073049423292322,-0.008489147856992925,0.060475318472681644,0.098149437136774,-0.03538891526737809,-0.23964737282621748,0.0009679263064830803,0.09131791394048262,-0.09027194051982997,-0.05440475897052057,0.0621462997847115,0.031584040708259944,-0.049311442267096925,0.017888174062609636,0.02264852846832388,-0.112866249807343,-0.03188461482941875,0.02554008580344219,-0.07822181237319581,-0.03934528344240925,-0.02392557117764645,0.02512034117906256,0.014117692568125416,0.23645336771817238,-0.09540096941078424,0.023516275845763924,-0.09740326509217426,-0.1156146865893925,-0.007712431411196007,0.020854731404630438,0.0029636819639098674,-0.09854748397720056,0.01657530044478659,0.07840374600375888,-0.131138485103326,0.11110087565821682,-0.07207104356559482,-0.18229396972845674,-0.03619517549151577,0.12216301162531884,0.04533204168972457,-0.02390177796479287,-0.05297575824741076,0.18455146374309356,-0.1368414254667607,0.125589916871723,0.11387389887251255,0.06675469347841388,-0.07345084619309772,-0.053162772757911265,-0.04893267044741355,0.09598496445760346,0.018855656400399674,0.15698467641153713,-0.21194860006015717,0.15866576893928905,0.061035417244714,0.07063567249479857,0.08348879910856123,-0.16976340134660572,0.04292071688809249,-0.013042018002807831,0.07566982465713754,-0.042549441768668504,-0.025670801942763243,-0.0018703656614489008,0.18726317214594332,0.02153932626322243,-0.08853885737049205,-0.026475102030199715,0.05284506513974048,-0.09657112935762795,-0.23469707265458037,0.13364261482432097,0.00839274845319712,0.09554555735483308,0.09215088237827392,-0.16262357840481753,-0.04761213696805073,0.020799607349005482,-0.25412068377315306,0.11556923137540345,-0.05556026916089653,-0.023162473521782002,0.00984285713563082,-0.23663361409894343,-0.021809476501481198,0.09048376770734143,-0.09444371971085803,-0.12201750088157373,-0.0010620874733728775,0.050952155478021066,-0.15605933288126575,-0.11256246366350005,0.0036950338847517145,-0.10968944791915593,0.039036612382565256,0.039810982666182645,-0.06484991042385023,-0.0024753426104958043,0.02974971965184924,0.012212668621433356,-0.07056711997850555,-0.03566101150476091,0.15930354862086588,0.09001688902493496,0.06478108473911975,-0.12371891101506766,0.08452107434053276,0.02123349727694191,-0.08462473771257363,0.0031193156140917272,-0.047843181740484006,-0.06660153740558715,0.13187021048209321,0.09422678799013116,-0.10139072963421121,0.06162624605420496,0.0997835631865965,-0.05086683717153226,-0.01495745410632333,-0.015020805453844236,0.058912501296190606,-0.01624602909513311,-0.056156977283757355,-0.03184765917914598,0.02348067774110323,-0.06521828266382075,0.12336913900218303,-0.05234145759373086,-0.1670691583233199,-0.05958365841616119,-0.06308662699223903,0.14977056563358496,-0.015408218169017652,-0.012472155032646532,0.1297818461967852,-0.020365217548952284,-0.04003376882985393,-0.03497536160314034,-0.10715598634654641,0.02877910810277569,0.00889178150788061,0.027186797580228097,-0.03741137236053772,-0.014838055161313698,-0.004235999371440879,-0.1431434207865413,0.003349298735788419,-0.025183444401889663,0.0004592081500677381,-0.17103879548726014,0.004384395493407894,0.052241797607032694,-0.09076555383729239,-0.11465561046831384,-0.10005146252226846,0.05002307972345807,0.07220778644489621,0.07919890733874466,-0.06336060565978704,-0.09167499339629871,0.03580219716719556,-0.044838216075196266,0.1385350082331214,-0.03436085674744806,0.032823086356190155,-0.036982315372932895,0.08528715212481125,-0.10020546177471802,-0.06202630805851755,-0.29764990366236155,-0.034338177302455496,0.08182057038870491,-0.0007656583185040336,-0.0627140512322431,0.04602301189619829,-0.0921721257415463,0.047020284513591915,-0.17653244658664632,-0.08128145460410185,0.007154162489561294,0.11839144160602239,-0.04686700320169666,0.03590297177664257,-0.07604912891303914,0.08046188079184952,-0.09054066568897545,-0.08152553946823818,-0.06147631517086218,0.0214396997138478,0.03053001058337634,0.023165299651111554,0.14921144013470752,-0.11464102868333215,-0.018952684335456077,0.022473896649547524,-0.050296680042868885,0.07307808878610896,-0.03683402778188114,0.07475354687802223,0.09608239143009469,0.006063963592287052,-0.04342300737242761,0.024809910694073952,-0.020636524010949352,0.0430892081133163,0.030612594818194217,0.10108620173895942,0.029681083215639524,0.12002729118711292,0.0535917325984888,0.03846533569037267,0.046635131043034475,0.07334750458208204,-0.03323425791324491,0.06695454371437012,-0.14039321226280982,0.07669123968814959,0.11386152422747661,-0.06765148089839423,-0.08147491218810259,-0.04821795439681392,0.10407077110754545,0.08164785226276768,-0.20515815072921792,0.006419713839904969,0.001546853248588074,-0.012289874804903345,-0.0357706389720745,-0.10688112374378056],"m_weightsInputHidden":[-0.10957433414918163,-0.04078750481614629,0.09077446828674243,0.06253852434212366,-0.01557277660656972,0.14589443204519276,0.008278663335122668,-0.03503742543786983,0.04996813285856609,-0.107105073999995,-0.07091357815766676,0.088661163771807,0.009692455620346086,0.06344994893629337,0.061766886735716675,0.030794962527283747,-0.02978535143050892,0.058314615437038336,0.014319819730197853,0.11144169797272795,-0.1316970446317829,0.028310169032024605,-0.0146465699973966,-0.1467492301089677,-0.057410676554712846,-0.10747910821408162,0.04646047427074201,-0.013046231441968217,0.12746152859031917,0.03262172113489265,0.14864266614353158,0.04602885066028073,-0.04437569701482912,-0.0953821271466314,0.18717597087959495,-0.10465556381703706,-0.02632457232039882,0.13241122408405118,0.06359766475661453,0.0073523450880220425,0.08937270781663977,-0.03353553857204893,-0.011285486570638003,0.023040043096399544,0.010309215332475878,0.036348985831412196,0.08060964612723806,0.20699430473251895,0.08732915697702485,0.03854633289064921,0.009708281515807285,-0.004748367530356778,-0.17870899155076778,0.03253975368692421,-0.08935128408473204,0.08225435357932481,-0.10798092753401252,0.11451969090244114,0.03360066467915136,0.0885786628670224,-0.1150890535646787,0.07601066298686811,0.07889754997602573,-0.23223451693100536,-0.04813965091567222,-0.005560712833175927,-0.08035918967606667,0.13871915889844436,0.011516990430011665,-0.0966853724227421,-0.09103364272977253,-0.04698518889952416,0.127915023525979,0.1601354022871904,-0.02127394863012968,0.08030619956342715,-0.061012623017713895,0.024536657899609758,-0.13244791451622107,-0.07362288283630052,0.006598998328736411,-0.12432542642227001,0.019629327749155136,0.10607672295172225,-0.06504387483345557,-0.07013464866097112,-0.022780576956482074,-0.009142866834410028,-0.12505735462036394,0.007033751493361051,-0.03503121220148607,-0.06182159862528144,0.07743467912129515,0.020298455647238946,-0.13442525932167199,-0.13949957157359727,0.1312179545994412,-0.2362144442873425,0.07268419210079662,0.0501704444852246,-0.1248467101242997,-0.12384280634995572,0.016632985761812883,-0.003189750423124887,-0.048046309770601814,-0.07959027279487477,-0.0333251047213544,-0.03952431589045619,-0.023265029043068895,0.08093748260754405,-0.022020249393342,-0.11625859032609732,0.16233556843569744,-0.08528703578246179,0.09920227076312285,0.04227564011271031,-0.0012543066213874135,-0.11601014654303779,0.0416157568649672,0.02263444830996143,0.00226541335671239,0.11256334730938818,-0.0577121889433043,-0.15096895027769255,0.021417520002345664,-0.00028508562077142523,-0.07236840045797889,-0.1471892125683708,-0.02542931778020435,0.17962757084275718,0.032452233061468015,-0.03868249168706417,0.09875699384078636,-0.06824811024566745,0.010341576966910323,-0.03748681724311563,-0.1819008437407878,-0.13860724645313088,-0.03925796348579893,-0.002341216587060863,-0.08271080105365866,0.22064569104804366,-0.10178364662500453,0.04690630259404127,-0.0835796523956192,0.039791603681320745,0.16208013664613552,0.013908575348925428,-0.16032909964515435,0.08717753792189317,0.053075590890327845,0.009659885100853718,-0.07865524257979606,-0.005055146407722103,-0.08976634400042052,0.005162040357097129,-0.14147927987444325,0.011249148569979477,-0.01650580208860239,0.03348328020513602,0.1105343554438515,-0.01782121753045761,-0.00930498322209312,0.07409597755096291,0.008140609408642306,0.0742457448808549,-0.029256852705022866,-0.021809056976401786,-0.021981788501739756,-0.00854030420120331,0.013697065837086467,-0.1297483395682221,-0.08715745362129902,0.08382111240352126,0.18866473440183257,-0.052182135044889756,0.019246834265192574,-0.09846308803459619,-0.004518089331088818,0.04867930422041701,-0.034755662986854584,-0.011344576309135067,-0.10399860171978056,-0.07573692260863095,0.05958580611457201,0.05572031246160268,0.1642957428786839,0.040365097932639274,-0.09832951598791233,-0.12021818448417321,-0.09040638566377637,-0.025784688133906726,-0.048116968610844,0.01775868820276258,-0.06416077078988373,0.018806847632539647,0.010447542208496521,0.09955671419976382,-0.01243006042913985,0.03542424152763722,0.0725020280458382,0.021168770250940248,-0.11914540188894086,0.013469997950873771,-0.08694763447302513,-0.11420049220099336,-0.0711583003922793,-0.08229637451052,-0.016961637854847667,0.07794653182354051,0.20643550258137355,0.023430382716679656,-0.08367324599727356,0.02768340728965843,0.19513145789302944,0.046975839365585005,-0.01143118754563045,-0.11146515686089704,0.02654046148294594,-0.0028977573342477167,-0.02659717273716897,0.018542239604505944,-0.07583412559622249,0.0972628954227567,0.07928068950200133,-0.02492816276718525,-0.011716598139611472,0.055734848562723184,0.10612583010252846,0.04936825205624694,-0.04862704586102196,-0.02452560267788485,-0.06455007280933606,-0.0850267854512301,-0.07304855459443782,0.10026843808795434,0.11336609227974906,-0.004678770483806105,-0.019398727587343793,-0.013006984404614848,-0.08435833916711555,0.01646452034743383,-0.009716635989507878,0.023347091920267377,0.040707618235864,0.11061304679612272,0.12990285658354514,-0.06357153109448387,-0.1185933497255076,0.02863308455447666,0.01075475808656216,-0.023609569168797064,0.012317902209348258,0.012271016158563536,0.036655970266724035,-0.0795051172800502,-0.11228737599507008,-0.022182697403429825,0.14931680484170862,0.18913268903704497,0.03192114582784378,-0.01623782980471782,-0.11210430128688602,-0.06026858315792868,0.15526792767280104,-0.0006367000251706488,-0.261478968783131,-0.022893154168577793,-0.007413844593453159,-0.036303457118200426,-0.06604150379119207,0.10798599197362505,-0.01294982539945413,-0.13787624408332844,-0.09513299401344935,0.10804006852332997,-0.024446356489827986,-0.07700735311641335,0.08398642322476264,0.016001557061906348,-0.008593472266882372,-0.07375435528007628,0.036647239104553433,0.032407823041339386,-0.0009109239239340876,0.07952533853614797,-0.05464836986549327,0.02304060209401587,0.17787968785556735,-0.04684967669986324,-0.01814849961084887,-0.1411678246038449,0.010653375004849811,0.11265569218222243,0.0474218692189379,-0.11049550625048157,0.050878869400457,0.08320355490508546,-0.02669783951779851,0.024078379133810064,-0.0889762910959649,0.08005114924605358,0.03197521440780573,-0.04191820622278045,0.09557716832524381,-0.181609564231175,0.022030988252689926,-0.16509382717939675,-0.03547188107344112,-0.12462502160041837,0.08756807059189954,0.10811665385391878,-0.032217601268399135,0.1316654147245071,0.08997990220596357,-0.029044155719417677,0.1816414765898363,0.020084163069669526,-0.07260475547914437,0.21823520355056938,0.11274403665780963,-0.07331273093994138,-0.1856573466319074,0.048344143761461796,-0.023022701205137275,0.006790067966080865,0.024143897374585555,0.049874581136672105,0.14028256040303433,0.08105624902385059,-0.004428182046812253,0.051157991939386575,-0.09038248944792196,0.04359587004373514,-0.1640726152893652,0.0758167303169753,0.007220409999173758,-0.03483225297160765,0.06643620303174666,-0.016037313808679503,-0.009055160373752855,0.14226405947008425,0.04722613613205863,0.09461448692637997,0.06974094677337228,0.003355654408878628,-0.014276889002424693,-0.10194850100481002,0.08823895663447616,0.009826676848558098,0.018242827814706934,-0.08823799395251654,-0.12184820096871536,-0.021724871601276893,-0.02048023617789926,0.09175049391996568,-0.10707499009443087,-0.06464389495902059,0.13710580121298446,-0.04801389296840568,0.03988984786448731,-0.06503361186998809,-0.14831432923440105,0.04565067257879235,0.05109302745109426,-0.045754873986931593,-0.14314042530487106,0.11131296784959618,0.03863139143405073,0.0012077987429087171,-0.07970666430159039,-0.13635892563516153,-0.06076700380508953,-0.03187762423299367,0.14120732351950205,-0.05177920996307952,-0.12715596776906243,-0.079150252013553,0.05227120852297244,-0.027552235340048786,-0.09898106937161831,0.030507633504605305,0.014258088826174003,0.020941137235764344,-0.038343199458905845,-0.0438530403630178,-0.10859088389865365,0.1140374868654546,0.00011494531397118533,0.039054429279270664,-0.03476714473532952,-0.11273326970342834,-0.09796792164649652,0.0733520188219549,-0.047074946352816734,0.00848010518070266,-0.072873636890456,0.08814010072202831,0.08328189823427554,-0.09261653841823342,-0.07952270376976457,-0.023124302583960636,-0.11850691727588299,-0.00018170101676294798,-0.06666171334963565,-0.04659334815672825,-0.061786503110351484,0.09790704284925984,0.01103789352918558,-0.018899260352695853,-0.1330589955139313,0.06769356925912076,-0.050232930556358274,-0.1722252538843493,-0.04612337578373287,0.07460960003421206,0.21345088688431285,-0.03944276468177461,-0.007942917136477533,0.042340192315270926,-0.0261650540979101,-0.16768744338720942,0.006288030761269122,0.08103200043347328,-0.020225804035560183,0.12550862147040054,-0.0011969834751086876,-0.11778391394163129,-0.06895090811445204,0.1220836014544048,-0.15767816371596285,-0.0037854787006634536,0.08554563619873162,-0.05069729176952913,-0.015088169136133233,0.01404471715237103,0.1627472146878946,-0.003640838327236727,0.00965231030700134,-0.06322192232432734,0.09089222150954185,-0.06362611278629425,-0.04710251198211798,0.11107152018048205,-0.02474025242244411,-0.024267551638368936,-0.184004416003504,-0.16056467418446996,-0.13112139773235268,-0.08027177206644386,-0.07217932249913497,0.06065679232843586,0.04447987670903527,-0.017838257715752988,0.038743675618675706,-0.15952580374941028,0.08331117904154109,-0.07853481956937493,-0.0537973289606471,-0.08547363927014578,-0.12395553582743757,0.14308231235756746,0.038748702656436124,-0.067054217583966,-0.25862355385792707,-0.13793782968968799,0.07357228914475887,0.05730435894828047,-0.05157616462564393,-0.03207025453723543,0.14857523919902985,0.04972961073647877,-0.021579332733575814,-0.015453765903552647,0.01814422545705913,0.06157614711159456,0.05428417787071242,0.03215310425195395,-0.022696852520040646,0.027468384415495865,-0.030263209745675562,0.026818643329515664,-0.07063943796869027,-0.01866502171950493,-0.07491775950291318,-0.04858482693931123,-0.03077684084464761,-0.1399663948313677,-0.08002165615858468,0.011806523952213726,-0.0014651271531794016,-0.028303622101085297,0.08214473388094021,-0.12045961666649212,0.04186867812619924,-0.04773961129542307,-0.0060655669309743546,0.00582003219761761,0.09510123103903517,0.02280935995371603,-0.0587300049435324,-0.04067630460063866,-0.049222839730909296,0.1206841173857757,-0.0016070142250068631,0.10015728852402549,-0.041545461784414456,-0.11172719974886126,0.018848046283865827,0.0765657613417657,-0.02733910649536698,-0.05287534905535511,-0.03149321059120529,0.17175360136186835,-0.16044528122978854,0.12985445316528726,-0.18693638865643386,0.02080410501139401,0.03417967892192214,-0.01573789869011214,0.054702455371185586,0.05153538520268707,-0.06489535109894692,-0.019175421914920263,-0.0829652234629164,0.08677712992814096,0.1105772916736859,0.0441759137243092,-0.17710675573153586,0.05629008706198313,0.04616479893259374,0.04065469014419275,0.07499097431740939,0.028957343496632454,0.041533676907496125,-0.10517221565847944,0.1384177923020433,-0.0579042015153754,0.13319767154097564,0.007515208441972964,0.08514498565411903,0.011839976286133166,-0.05428920330712009,0.017154087974320897,-0.19332746113490115,-0.014239343732064572,0.25652540072828195,0.080073970589259,-0.1549809280648317,-0.03773930902127034,-0.050678096174587385,-0.18420389995242978,0.10347354746694855,-0.008974291991550832,-0.04823441431172963,-0.02683422659841313,0.17537932860700778,-0.11485428344620423,0.03684192962152058,-0.021782128083658425,-0.0957709192861291,-0.07866502687406289,0.01341086545792694,0.030586958759029025,0.027660565897465475,-0.03945017069098704,-0.006418274981149951,0.11743369722596773,0.01101081892327726,0.05575548841310867,0.038322812675643025,0.08930311873992874,0.13035037477739847,0.031022459988487308,0.01566554129460622,-0.174830354219913,0.10024225638794072,-0.03267696123193494,0.015621570521863033,0.06827642864758371,0.016008894788627378,0.07846736493320743,-0.04635843549835651,-0.03181950906356088,0.040940976932921924,-0.14130949932996825,-0.14290156784409416,0.03854426017732572,-0.18373481362780228,0.06476220394958057,-0.005566452944422708,0.1412399246370264,0.06888305449941305,-0.07238230670787199,0.1156066093648689,0.021751911877970622,-0.06360520980286889,0.2552159621089001,-0.04966161742853878,-0.0834790991143236,0.03937047192812765,0.04551672140849256,-0.09847071616611001,-0.16870072209064896,-0.12460138346503051,0.0835491083123748,-0.014284817793611536,-0.1372175635643158,0.11749307501989886,0.033758670954936204,0.07373274314598653,0.08510725173552895,-0.027793131383988298,-0.009894499220664085,-0.04024520679092764,-0.13618719273588284,0.08549129297905918,0.084361079394523,0.05407215692052454,-0.11647655154746832,0.15290593778460446,-0.00025716822276793344,0.05935210686455243,-0.0224140181527495,0.029456603308805795,-0.03929305222715996,0.076602382866808,0.05178374458055737,-0.010097029041585277,-0.06139146328233496,-0.08362122101227859,0.16051428621057826,0.032137286216565676,-0.2636997533577028,-0.029901807095757956,0.0839134077765464,0.008622474743643534,0.017805820235010025,-0.04271411514999306,0.0774495370501315,0.09381082242010778,0.001748371252688099,0.06394240813384086,0.04814633074953232,-0.10214052542897613,-0.06922882605778401,-0.19656071768419553,-0.016963470927439137,0.025438915242109377,-0.05519659589358797,-0.0024472423613990752,-0.10385423567205437,-0.09173339645260034,0.04962139847062166,0.03219912019381515,-0.09389940595721766,0.09707512292206256,-0.08070805805630805,-0.06874904886366755,0.006608305371179185,-0.03848659132104356,-0.0008826203110850637,-0.008854283689264077,0.07435243785851407,-0.051343447085483836,0.03785684357699935,-0.09994122338694085,-0.07182120898319666,-0.015931661718809012,0.19781774594915005,-0.07668703083449471,-0.03417016415775266,-0.04269553114253349,0.17195698453318448,0.13652656557865664,0.04834661075755368,0.014619395271680742,-0.0056942130369524524,-0.04995742949138727,0.17165941560888542,-0.016189716314578845,0.010853906071196908,-0.02524828734088475,0.030323744191769537,0.011632960101097605,0.011980192661197665,-0.017304486626360985,0.043904801833490215,0.01650883531626888,-0.06093787407993076,0.12209641639753316,-0.0030700594569393644,0.07260501559904967,-0.11640409781797396,0.011251869461188885,0.053223317099206004,0.16405573347770666,-0.1031910053448167,0.053948090610315795,0.029558835257686832,0.010392831268397311,0.04057347886885495,0.08801202257927816,-0.060548945338824024,0.01245095738723189,-0.14547098936439942,-0.15891383652528393,0.09435700016857505,-0.10874140400145382,-0.0914520346419049,0.12744294871471054,0.14413054817541365,0.09591279975669681,0.007652467836234887,0.05975368748356941,0.025157937013831032,-0.04452954828092298,0.056008764776809286,0.12355734419720762,0.038499820323009956,0.0788448912484294,0.09954392197480226,-0.013879275809103418,0.03700627551228245,-0.10838272888410697,0.011457887012405915,-0.08746090152171909,-0.0034701354580916784,-0.05313892874962119,0.05250696290999061,-0.10382197836047541,0.07398754925111953,0.018164373203516347,-0.08954197166703433,0.07870252113941373,-0.10902071918769939,0.17548632522831187,-0.08476934989472619,0.046326232532320225,-0.13849774239706364,0.05593941573378815,-0.023628769795007616,-0.029927355918201552,0.02861479628470176,-0.1585067658978492,-0.007613940852488214,-0.03956727759120253,0.022220621937965205,0.03875704397856307,-0.010501008161570876,0.02419381042255905,0.071612514216155,0.1597628177575506,0.07545621145504577,0.10045885069222317,-0.010528221700127157,-0.06894216614305698,-0.020429367928701776,-0.019782523676737458,-0.025496369496961793,0.06985671754277589,-0.07298231490597021,-0.12169540482513236,-0.05888326998025476,0.12283156055435264,-0.05886847246399371,-0.09459129161557499,0.009627229051402973,0.020836677041386687,-0.017248971849309257,0.05979355051153325,0.1876074502154179,0.09830170432439418,-0.040496704042991445,-0.07827260785810448,0.08259740671185599,0.02762173383078047,-0.11771743533421211,0.028091446073839108,0.17104291358100746,0.17042229181890514,0.010457919653128528,0.11245302329436689,-0.09274596732353169,0.016813344312648835,-0.042110669959177165,-0.004035679138859856,-0.011181881060837125,0.13071363147506113,0.025397877919050193,0.1548827057815811,-0.08851218736521634,-0.16781640441972817,0.0498604772313736,-0.0673766682900498,0.1278973128033829,-0.0628159542527749,0.07871726201005563,-0.056294021784099715,0.16540626706902592,-0.036499552828839224,0.03671243590174776,-0.08804942807883777,-0.06502061087332531,0.11678974208563712,0.002359678648993239,-0.015229589904681057,0.005692613518887238,-0.0004278792517261249,0.05435122052747791,0.05883590535188481,0.05641285169033692,0.2097820346823343,0.16937992781274147,-0.12939402055416313,0.013947091509488644,0.05797494956268129,-0.03771537460383828,0.041863544307031805,0.014686816788789263,0.018908117750426716,-0.18716917891366683,-0.04944903753360932,0.029318859123638765,-0.0716395506545871,0.02671620558746999,0.04807462325512498,-0.02780425814777414,-0.005128350612123642,-0.16736304200150592,-0.02527662359510225,-0.10481437536778386,0.13344813906343098,-0.026304437970680238,-0.06447392963507428,0.07237113271838377,0.16214599930848925,0.11875281340058867,0.0020251634718178963,-0.010060164424350393,0.07368139298775615,-0.001700749105420899,0.10275648762985849,-0.05909481511932006,-0.05477961284563089,0.1501539210282598,0.005119756389848687,-0.0005339482765040234,-0.14357084924989025,-0.033050303715415265,0.13295228305742238,0.051959064785453105,-0.02898345972126654,0.06377217004165925,-0.0011600279709592827,-0.02832208045730974,0.18370152423064537,-0.03020014426560515,-0.0796369640490705,0.04145804469635009,-0.011788856517546006,0.022414391215705144,0.016465067437728874,-0.03506265414654632,-0.0025993985015285784,0.021779580294879846,0.07499260450284417,0.016659120974234304,-0.07954288379599168,0.10003401058270144,-0.04382587588685221,0.18368354528959138,4.652354371738078e-05,-0.010340602436834429,-0.12822045649472094,-0.0568951016563806,-0.057563002105391094,0.080032519689385,-0.06344543464262661,0.04076613572132527,0.13212731639243466,-0.0506843177383964,0.08240356335840099,-0.0801831485217649,0.22312152867037452,-0.047967752454575005,0.03178659583351791,0.04629276543877378,-0.05613611721046401,0.05580265154607698,0.04770375900776451,0.018699174448307068,0.23882862811392372,0.0854606898722037,0.18774253022678045,-0.07210019017866105,0.06485247475030843,0.03393056743438092,0.06789414547227604,-0.016805394156752567,-0.03937781009419106,-0.13201164943680777,0.06852362110902613,-0.03201760924042134,-0.046747020114907174,0.09862624079828942,-0.010044607773087575,0.08915672144244358,-0.06867706873554723,-0.12702227999589502,0.05478746019666515,0.0019923313245526243,0.011805181083483727,0.01400104484587958,-0.04532364498944956,-0.013415045385655976,-0.07077075842933064,0.05142413023442937,0.15715722136281615,0.023687403370499925,-0.007653796808440969,-0.03348899141383774,-0.13127941773161153,0.11412351374051764,0.1354750510855675,0.04434876238509325,-0.04679045454742701,-0.07591085347707166,0.02372368868113143,-0.07555887072595975,-0.21391816994524343,-0.06986756856284869,-0.19099103057043923,0.01146534943714058,-0.043158562680099065,0.0334259387662769,0.005123155314682839,-0.06528763776478366,-0.12484900864547302,0.05021526046171356,0.022264937308328483,-0.01664346630511817,-0.0016380709721227106,-0.037964499176571624,-0.03536373594549738,0.01953088005853767,0.008824316148751954,0.04708231178296169,-0.09290107812830906,0.12460346370235927,-0.07017135300031863,-0.07895587834568339,-0.06492567424889203,0.040500959657429246,-0.02214763610653297,0.140934422230068,-0.028680162179782386,0.20024654823775676,-0.023177258485268883,-0.06378551927832167,0.13578995651319778,0.05454855646271369,0.08213174483599345,0.03123874313330806,0.13291347998530323,0.10684648759073535,-0.057637426549575224,0.12247016265291534,0.004058132100401383,-0.03875584753895429,-0.11316284243509325,0.07351546580609271,-0.014209450482221067,-0.13830773298819543,0.005142591630453281,0.09978355243287056,-0.014766487283288466,0.030349503473084176,0.07074489681442048,0.15562012020440494,0.2668900804665934,0.10888580495379577,0.08629222338280415,0.12271473303234776,0.014578873594233785,-0.052606464803385246,0.04159525174316828,-0.1622187716511782,0.09400241459545626,-0.01341985923838987,-0.10313024827268664,0.06586987313991328,0.02822745998325288,-0.08722584015503185,0.13769698947534867,-0.14599713835585154,0.08998604995286817,0.017188145582860005,0.1000917995744095,0.1517966755220529,0.0,0.0,0.0,0.0,0.0,0.0,0.0,0.0,0.0,0.0]}