{"m_clampedOutputs":[0.5978710931672228,0.460206045987931,0.5403486091767334],"m_hiddenNeurons":[0.5313744346998763,0.45776989514728406,0.513921079081958,0.5617130910646756,0.45537268214583726,0.48562674620921914,0.4741524821472694,0.5089372726345798,0.42815711904994996,0.47943240784341873,0.48063794088183853,0.4149122315215517,0.5232187766277367,0.47931039998982955,0.38269573466551093,0.5245861117636849,0.4462708732716623,0.5434931437461299,0.498507850241859,0.572044067579309,0.4805642327066039,0.46206288384552113,0.5590286372048526,0.46886412420529183,0.4811254106261498,0.5247636762208687,0.5996913161231667,0.4519268113058143,0.5373438522500263,0.48710325053047215,0.5736961654211711,0.608513741030832,0.4943200288163063,0.5038010479377036,0.588696081513702,0.5902154139571216,0.5116214649240639,0.535340760244648,0.5002398062046898,0.5524257632029727,0.32732876794674076,0.49065613911620815,0.4893979550332099,0.43641584733968397,0.4293085299410074,0.463031962777798,0.5391001129803898,0.6505861452789122,0.594957342786272,0.4227693752832691,0.5175943776150626,0.5248270869063724,0.5899490598703082,0.4794675348740118,0.46030475999852183,0.5428146570572311,0.5147776806177097,0.6053423076257197,0.5196135499770123,0.39891123031188147,0.523105058922623,0.5480147037334496,0.4800635468102057,0.5684485772680221,0.3680809397439832,0.5134600838295853,0.5342005704029881,0.5429103468774732,0.5543000514124121,0.5749206009156551,0.36065489306650933,0.456332238694433,0.5002909987676578,0.420276905295266,0.4208248329986376,0.3972039759270018,0.5083011394748234,0.5051034175533892,0.546567898250947,0.551635572880933,0.5572784603208555,0.5549699263144469,0.49710730732012076,0.432484414510722,0.4654130128309322,0.41337079316259456,0.3971514531125898,0.6368608534244379,0.5609699195940548,0.4740355560891212,0.4438168719873576,0.5112136917397874,0.6274165656239249,0.347358269065645,0.4882057011460103,0.3770493136104436,0.4462831972638212,0.5428803782372726,0.5999292534561192,0.4344018821571264,-1.0],"m_inputNeurons":[0.0,-1.0,0.0,-1.0,-1.0,-1.0,-1.0,-1.0,-1.0,-1.0],"m_numHidden":100,"m_numInputs":9,"m_numOutputs":3,"m_outputNeurons":[0.5978710931672228,0.460206045987931,0.5403486091767334],"m_weightsHiddenOutput":[0.08674049301927998,0.1076552850671257,0.011751435622360614,0.08587026070308772,-0.0329677884508687,0.03809663354542049,0.09737500763426596,-0.06473639820482968,-0.004812397076729225,-0.06870268713446277,-0.11831798495691292,-0.014565109613731104,-0.10862532270015424,0.09367204129370295,0.13191616359676142,0.07282264070466739,0.01762753081464112,-0.09342743115474816,0.01430756997587502,-0.03133116345281401,0.05291832230080444,0.024617973025338028,-0.015718982206772317,0.0002714251959229146,0.046635233910199324,-0.10689007227228009,-0.03842725745375058,0.0822599476123385,0.09257893190861939,0.040364665779232665,-0.05470733012522136,-0.07885681629560946,0.10292207156916572,-0.01736844093797454,0.153322146041328,-0.03536990960692694,0.24778116694372995,-0.03875563217969429,-0.036059040335829656,-0.012562617300269127,0.1355867831850464,-0.007427890002165897,0.0018864157427086411,0.052273600193513424,-0.014811844357239064,-0.09275578357560647,-0.038768546865619334,-0.14586607998711643,-0.025683358530290024,-0.20299086377636905,-0.09465905756358337,0.10724866030047883,-0.03446585131349295,0.08233649530092402,0.058270632871675485,0.07862118622412863,-0.042750319042771774,0.014164903878830681,0.07247609289219746,0.039858325928021535,0.02881861323554709,-0.12065365977129903,-0.05945148660865222,-0.0859122027722773,0.10035480163944412,-0.02822921437660437,0.06158729922480848,0.054630114074515936,0.1653271740320189,-0.15185928941457041,0.05197007652950836,-0.023169252211883005,0.07995977235887908,-0.15808036686559085,-0.12892397964045335,-0.050550476431287295,-0.11830240036284788,-0.11343825365127475,-0.0236683053161872,-0.027888504421394143,0.06034771915667262,0.08696605135019818,-0.01679622253698816,0.11738531993070606,0.1306637821126129,0.014301413188198428,0.09083713461309885,-0.001344226167252084,-0.1701288682692459,-0.1368796760576765,-0.06441884197823072,-0.02687125178935883,0.014958703825978944,0.021800753795885707,-0.18933522894493332,-0.10215244592123723,-0.07907651502348673,0.06236415901632158,0.010385670926294667,-0.06323518732308378,0.014112369663079107,-0.09471312146592682,-0.04812535936401881,-0.08384839328868697,0.12359422505555512,0.08554613714934585,-0.029556205278810154,0.19645835722413793,0.049716585247691146,-0.08942808419216774,-0.06196351350009582,-0.14040274943608003,-0.13346576332785204,0.018832649600278546,0.23256413492372643,0.14839920009658752,-0.033045861257032946,0.017559717384206773,-0.1379982704090195,0.16000302650300122,-0.15848944982324978,0.04761952558303708,0.08261730616394292,0.0005768592396029745,-0.003719064614654311,0.03666644970531624,0.03135242496687384,0.0031837423707421555,-0.014084321911689875,0.11434918968550505,-0.06401133206557631,0.019715794737223083,-0.03439230306229344,0.04343328277042869,0.11800231884638293,-0.18180559750028688,0.03406912827483851,-0.10769308973537467,0.04468486725211242,0.026380590923871763,-0.017531393861671785,0.11642549577542581,0.0786050586092692,-0.016286084799499573,-0.039987503126983806,0.06690668069780101,-0.11155131278211335,-0.05218207623158578,0.19225740108327524,0.11914616386032266,0.037371991494427076,0.0160595589301936,-0.042246678580816634,0.1909169089849962,-0.0933131888131099,-0.09088682476386985,-0.05300852334883882,-0.048985327623630524,0.07322724474947663,-0.15647133438669059,0.12738657659869707,-0.02327586839237127,-0.037028071503153334,0.1310281267048387,0.1848800226018608,-0.0434307184020112,0.12052373543557288,0.004956084689386825,-0.16756403368058034,0.06524844477677316,0.042604670653660734,0.12611237395664576,0.10158717154325779,-0.2690797113007649,-0.021540821093550974,-0.06930121197053536,0.07091306737318176,0.1879007916524433,-0.08111331017319934,0.0649048231694776,-0.05922761391799647,0.04426563022352383,0.08503110084275675,0.09713999560462758,0.06874858886995608,0.01901546053598685,-0.005079611889583341,0.053359244977160034,0.06985321028820257,-0.13925204662594645,0.060264820778778164,-0.06624561397227566,-0.0028773339882147866,-0.07165050348795488,-0.049096053046993535,0.040161656187279716,0.04005458123033483,-0.030405717027105962,0.011393888253816556,0.09181499055331124,0.04273778876103043,0.04782659046320385,-0.1419817629252889,0.12399930872926185,-0.09844798279193641,-0.19742563206360958,0.13371953311071072,-0.0068556350891926625,0.10409770457755746,0.08675863359848766,0.06282141326904053,0.07248815572247841,0.0553578384478631,-0.014409170079236845,0.027119097871546465,-0.04969595987992509,-0.10307620886129612,-0.08528460016118052,0.055860198418267004,0.008714242298514795,0.0865321349606209,-0.009064905222268592,0.0049290725929847555,-0.05558240434771171,0.08007017521343662,-0.005060719610928425,0.03430891136404942,0.020506463324957817,0.05011672813728697,-0.11797036378977167,-0.09134411810794091,0.05390544310766043,-0.0073720450683362245,-0.04041828437753493,-0.07000551049393641,-0.05019413701748897,-0.16086671223341317,0.12202390229760239,0.10185443695451295,0.03922869737009452,0.051821668120849665,-0.03220635959584027,0.20279671733808757,-0.0285922230358792,-0.1013989777726921,0.025882072329763375,0.009630921440307381,0.11647507729346379,0.053317378948652926,0.06032142476220305,0.047557317219938014,-0.0938773131862802,0.05791758355458762,-0.17016183969095047,0.0938338015543055,0.019782316975143103,0.13232500287334845,-0.1869865828784798,0.18429645442554352,0.008091876373449063,0.08187973203631874,-0.13638810058216497,0.0010563602335197737,0.056892855620572155,0.01934973322302471,-0.003331323057873402,-0.061685665988124715,0.09633928448230117,-0.09367646828507147,0.010629604463537825,-0.03412568874259127,0.17578535951023028,0.06711514170303944,-0.1418792333122345,-0.041025141899663706,0.01877561552942508,0.07328964811424332,-0.002114215190791221,-0.21586156451217528,-0.003972760364499105,0.019228756681870234,0.06498611612545127,-0.026959927412804355,-0.21450740788266762,-0.020349624431018485,-0.09014964013266119,0.10391259210889024,-0.12911133797687638,-0.058020717516287346,0.020762246908932427,-0.07898575758215973,0.10639752322675008,-0.028794402781250714,0.023843688264745217,-0.028578529347568167,0.06595863748393001,0.026840799132748085,-0.09368817552742705,-0.06103885122664011,0.08696239219595654,-0.07655982131061927,0.015183808625590135,0.12409018510648952],"m_weightsInputHidden":[-0.11391921665035089,-0.024096854160974897,0.16910674143139132,0.010339893159382463,0.024267473459827965,-0.10380918195660599,-0.0953635966869171,-0.030259374915994782,0.07217216396737389,-0.05509563103219439,0.07682528837323743,0.07562607693770365,-0.03476746414583441,0.1404755255659604,0.03917979544087687,0.06639490930982327,-0.06365332787483624,-0.039380456947856975,0.03723966787697277,0.053657694002841844,-0.0639767898644009,0.0070147246114765196,0.020992036910853665,0.09630107610583866,0.16092660416517454,-0.14498390647709802,0.18807718541392254,0.1457883334195716,6.112107293507703e-05,-0.09009400346246184,0.08721849118373427,-0.05591546510307355,0.07164200711785958,0.046715049163445994,0.027142615166471793,0.04674263714029653,-0.006315688487882179,-0.06162046254858397,-0.0955104007716698,0.09302648865943774,0.01965241662973677,-0.034510792432788706,0.02083431959128769,-0.027635688861691588,0.013495558871299383,-0.08777654715475637,-0.05647068675100565,-0.059183766514925754,0.03940219737715418,0.015078727397618664,-0.03665950935495494,-0.04940043337451291,-0.011259098102480016,-0.09271606042238323,-0.008696232434837034,-0.020324724802811986,-0.1779817162854643,-0.020635140523827037,-0.11635245729778033,-0.08932003597436486,-0.08359629136667222,-0.07280002669071899,0.1035032749966185,-0.11853996907300793,-0.038936225491981356,0.015456849169929024,0.062417588052308404,0.0453030905860051,-0.04574450257326768,0.1359408572641117,0.040690281252065835,0.06698179626629205,-0.020913347300864756,0.006224837061840331,0.037262927031324874,0.026419578719521403,-0.027768943339949666,0.12253579483089473,0.041641716474298936,-0.09880042592660127,0.10684144069333965,0.09991117218954902,0.05496476031907809,0.10446121189383849,0.051222002128352206,-0.024936353642283162,0.08434699434077467,-0.05390743176364753,-0.05210665396117823,-0.04601994070853397,0.006002661772701531,-0.03230544487990203,0.03849742365810276,-0.06356672231360751,0.10562859599472682,-0.019020725256633144,0.1254597948495832,0.06341169950351168,-0.01368427173565804,-0.107548569738759,-0.06710152024282899,-0.03916755899763908,-0.07850080404187054,0.1126853123179255,-0.009715171226233905,-0.05755289466979909,0.05291839485726168,0.09957501364787757,-0.06541152668206009,-0.020490772712426417,0.09255736495476051,-0.051190754052939665,0.015502843221008282,-0.047545441074999306,0.25246683712705076,0.04891711389696611,-0.09749975505430769,-0.07978876998796353,0.10028836449362197,-0.15863491810298597,0.07668687026848753,-0.03904634069985681,-0.02995375942542446,-0.004078589086253755,-0.08693560675450152,0.04464681779622528,-0.09849459249202606,0.10135862759553545,0.06205364919784366,0.005938369423701166,-0.16524197910731886,-0.05475160666566098,0.08694764024227515,0.1449802628644247,0.036526359260779816,-0.009833710531004024,0.05496387013871819,-0.09265917073939933,-0.13841981607917686,-0.0474328037788446,0.15056388716939223,0.16389113009189318,-0.08235749501036595,-0.07365101257851343,0.10438806933675777,-0.014951187928451638,-0.25786836465081237,-0.045747596662699785,-0.11017297078500944,0.00017127024424630868,0.07904584491791634,-0.05830294459259132,-0.1112719041324866,-0.1692030946640082,0.17354340726189693,0.00020069148567712798,0.059738481481466404,0.014569214028267483,0.013235854544668421,0.05599451310288677,0.08361597466898517,0.04846919801829659,-0.05213320216941919,0.0836243010861625,0.11262768353595755,0.08887662544668237,0.003655786749055418,-0.057724662018152795,0.021130133348852286,0.1411612718416253,0.01523715567360274,-0.08167484047164131,0.08039703068164712,0.05751052264040701,0.09050897366726643,0.09532222737086274,-0.09633065703206405,-0.05946147332516313,-0.12818633764677073,-0.10243184383450044,-0.022742885667596874,-0.08944132750413702,0.023017520674117452,-0.06987220736500196,0.05603906237807296,0.1326993238213137,0.07803629713214805,-0.03539766448506412,-0.13651063550147988,0.0006743493960161797,0.03569450337296824,0.030118031334982708,-0.11267069732195696,0.19582843877913284,-0.015314626576933813,0.034904810281201896,-0.07135928219867214,-0.0025119545803624845,-0.11325461683686704,0.09940694178091193,0.036494046192568665,-0.0020357442622107144,-0.0014258694110414682,0.13119992514290504,0.12346589812475177,-0.07155841016673542,-0.05790341516697072,-0.025678391574734487,-0.04931213214959322,-0.0507341303983017,0.18122362838369568,-0.012677842958948428,0.051023062723438206,-0.20443736199957063,-0.08632536720847281,-0.06056604743787552,0.11979004010976871,-0.06282520317128167,0.02357724375736064,0.08283123543233385,0.11678127449826309,0.07217419745846522,-0.016808708987508473,-0.05319548165719599,-0.02215989812939977,0.03768982506509321,0.1150067716603594,0.03786156924414423,0.08866514363531035,0.0407074787624514,-0.00699657899880542,0.0499415857523595,-0.08430494950960507,-0.02649939027331155,0.052063363867628255,-0.03670831012582641,-0.14313441832170076,0.11075764625240912,-0.10338459128933934,-0.16193590150921924,0.0007044618367442404,-0.002067088764849626,0.17634951350650416,0.018422506903951537,0.05119468373689661,0.07967963090856495,-0.004196724766125215,0.07535989579411177,-0.05209359522251811,-0.04364017312714964,0.012920950147847986,-0.04222695445415485,0.05845603525550057,0.03973035028880987,0.08947471173849164,-0.16121012417249111,-0.05494348081106249,-0.056140337061075296,-0.1160947196867526,0.1516791065694652,0.010718847882505093,0.14886420640331402,-0.0579951201063063,0.052763018769750994,-0.15039159822498385,-0.2555688032139981,0.17591174498558187,-0.15772059362424962,0.06353522946730474,-0.13719892938666842,-0.06018936415879204,0.1288762333126148,-0.03387612352730073,0.13637226895499294,0.0007758622747435864,0.05155651319945081,0.03697524308838822,-0.019491613365830964,-0.0502282356671931,0.08207420187046945,0.013857654128771874,-0.023400851500001294,-0.03389414795442962,-0.016405264630863947,-0.09200307851856832,0.0030717257755555156,0.09057209551673306,-0.04829996464819261,0.1822482345992824,0.04893898053192725,0.11792776007733147,0.20984963124576558,0.018791109475692677,0.02127519935106119,0.0295417818284307,0.014119802006275446,-0.02868203787705154,0.1391258243949691,-0.008351210543073527,0.01391459023144969,0.09510892103419237,0.1524559251026356,-0.008459029425609521,-0.17187388545662582,-0.0020131864765257504,0.1424815252638142,0.06337849227252654,0.041424329851062,0.01478109981668659,0.04966384640369604,-0.06944306097073841,-0.022027579187149614,-0.0055027748821176335,0.007468093123896845,-0.02841220566013914,0.026227859520425337,0.1020671949503943,-0.17738961389326763,0.030333745459013326,0.015858006174713387,-0.14119777401484687,0.08318429793712048,-0.1024023209838294,-0.11574177975903541,-0.07118487416566815,0.019842455717380764,-0.07576275644365259,0.10620242471577543,-0.004475790437989828,0.001962183573596499,0.00041858159046128795,0.016975053732283592,-0.023481103030333784,-0.006518249348199745,-0.003079902546980862,-0.0007579498869672083,0.03924866295145025,-0.06118366592029585,0.017399489076793055,-0.1285775022394469,0.14107387256032713,0.003525383882321187,0.17014569975795796,-0.025586484440129658,-0.13559882250040473,0.07784538423021649,0.0277912939976971,-0.1770191851223291,0.030852135661438265,0.007433903494425919,-0.07318746883874676,-0.02392216315278514,0.013729001584436334,0.008489648863501632,-0.03974305743354787,-0.0483791369176038,0.030550206149898385,-0.09031048899002043,0.014629953868795346,0.12565639617091692,-0.11013958974647385,-0.023334554950815125,-0.03304824231682966,-0.1554504005351335,0.12401344270454173,0.012829454007451465,-0.01967151600214205,-0.0012879247323666465,-0.022148818851117996,-0.08384009461645185,0.14855168715715103,0.06367951767175209,0.10302593990373629,-0.04553296905024639,0.01417047300568339,-0.04293523190332503,-0.06185725162609863,0.02159542253456962,0.09505470288780549,0.006227400272177988,0.09548022405627751,-0.06485390263664403,0.10080406067385822,-0.13057535315613902,0.10838967794968997,0.06309916412160585,0.03749367959189344,-0.22285947743811513,-0.09409835639580402,-0.02693869288177844,-0.02172085097493451,0.03805220607178981,-0.08599301389994218,0.13794760882567222,-0.027617195722949975,0.16490373964479932,0.07313095841775405,0.0011935820756839625,-0.15530829356020867,0.03374031134849353,-0.17673503969065862,-0.03433232667158144,-0.0768987819307581,-0.02073875142088213,0.04710590948718367,0.006642212773285918,0.04655336544509007,-0.08988585887526808,0.13801416093048807,0.02788158984952813,-0.00241370637354893,0.08199695447440064,-0.07738085718885875,0.051166952641353576,0.14934747921827493,0.11785165593691407,0.03740060649826938,0.08988991304404804,-0.04889970978945142,0.11476095717971205,0.11062703290539137,-0.07010092686807119,-0.03309046453900453,0.013760326541671945,0.017592188778439353,0.01346980326196057,-0.14201762094925696,-0.058582769405819,-0.034314682846101535,-0.13936571007142992,0.06529991199984993,0.05262963371417002,-0.036658149860990925,-0.22969556705947167,-0.1164585956898026,-0.04391351536081482,-0.033935021634879194,0.03111897110181927,0.1845878257488615,0.0071774660508566995,-0.002366750117861227,-0.09724135812295531,-0.021742612796436783,0.031118251131130054,0.01639884767518474,-0.11138969256125335,-0.015597062537424503,0.03466143558762523,-0.019117306358892437,0.021023595103366884,0.03063937882583934,0.03925739025568205,-0.0016958937747961285,0.08195856102255997,0.03299857841304499,-0.059524919601065186,-0.06585431861245972,0.023086126693485007,-0.007030580535496953,0.030084714151588074,0.0411191054012987,-0.0062269054464021475,-0.0029739473853801534,-0.03925443203955989,-0.00043308888869691015,-0.0752032241204694,-0.07133287050130023,0.010664245970252903,0.003526269337342106,0.046046783605636,0.033263628071305555,0.02363198257854219,0.008987065380093789,-0.06022590039100583,0.05171817099057568,-0.07597016117676748,-0.11135611382344289,-0.1701544590041063,-0.04668942131333823,-0.016398005485329,0.01790626306937028,-0.03459953889194396,-0.0869007739883098,0.05302529472636285,-0.0952981252258267,0.1735672761076432,0.07554606203357045,0.009777823550045141,0.03796893249705069,0.07217212014787833,-0.09607981090312197,-0.027300314198182043,-0.17727171376018264,0.11552181786565938,0.0182842227758698,0.013901581011108487,0.05784989964841865,-0.012136232096352879,0.021627606910670397,0.07899844152880756,-0.10200022012178764,0.05510358015980998,-0.002764675198533197,-0.10031573841350704,-0.10361364603410315,-0.04890786661661237,0.06321391030736026,-0.007212856878494939,0.024864879576704125,-0.046039471160924855,-0.07071017973998617,0.0278612198582418,-0.12738843509564862,-0.0470874448819181,-0.0953654692886651,-0.22231416382895516,0.03958001636273797,-0.004825142284708696,-0.011483331366699726,-0.0882706640811054,-0.14631915769004203,0.12725162083795596,0.08170103648465092,-0.04491085862850228,0.06607710224089476,-0.1919911404091647,0.012523513750542132,-0.01710815307539549,-0.056900678185510485,-0.11147678531039908,0.032894943323835524,-0.00914488043066639,0.06951426323189118,0.04638851764436133,-0.12352462888434974,-0.010028450255074636,0.14608715001848951,-0.09076198259664986,0.05693300753246612,0.013616259341975374,0.028778944968548704,0.06165294508271745,-0.008735523614145134,0.10602249204675586,-0.0018473510472824036,-0.039561040776740636,-0.11744858365032818,-0.07216110150078364,-0.06265534171362308,-0.007857383338464242,-0.03651402246371451,-0.0003110602312398825,0.026114223838765927,0.051307266893533855,0.0852882426075353,-0.07823264308593823,-0.0033464959279130707,-0.026636142559086216,-0.05556406197629945,0.0800477494962653,-0.18353796892289392,-0.127356102961823,-0.14508353251036862,-0.22741940478605047,0.11228064145337198,0.020050618170156558,0.06984215228295501,0.08566736862153583,-0.06425265486166833,-0.11895331675741157,0.17047776197158307,0.16611106246656226,0.08667284382292788,0.1352295055814093,-0.04821889661637836,0.052503428070739315,0.21410703262697356,-0.020857719959135237,0.055854551474145135,-0.030237888160682097,-0.14378274198280147,0.049600566728827636,0.07682834467030235,-0.08050943369613027,0.011945435033990462,-0.006477463221711308,0.008651788459701684,-0.02322170574847578,0.02263523494298768,0.12033133435601766,-0.026676272694462846,-0.15666256608318402,-0.12201665548810506,0.04946992835549285,-0.054726121972993015,0.03284105966790542,-0.04874626754884313,-0.039704582153177743,-0.0006200245730785738,-0.07021321813833421,0.07130534059842,-0.13767456802679273,0.08414849089512054,-0.11638762706147043,0.01747092257389776,0.057254770255499694,-0.009648573829921108,-0.08096590803132488,0.06766535473423974,0.12006969849360123,0.05123032415904211,0.0016377580894499065,0.15235687960152858,0.04495453754617001,0.1454438983701693,-0.047675554836979474,-0.1164519797688437,0.04205361536062247,-0.0625447210733969,0.06600668592580411,0.10276541948709092,-0.12445128457175077,-0.020917127687889864,0.12521793423382313,0.05115224909262126,0.06477238512238702,-0.08739942101579087,-0.08683621657465401,0.07628896797051465,0.07674458076547361,0.03448603001159127,-0.07916513181169592,0.054167945689665785,-0.05103610383857497,0.042639942874204174,-0.09979239131874992,-0.04155899708446727,0.10967536416516913,-0.17457573108448976,-0.11450580542021827,0.05203419547850463,-0.00585493662177389,-0.03658860715803601,0.07464762924470221,0.10893629129556373,0.0179515457879973,-0.013742407082564804,-0.07239316443429179,-0.027900156981912415,0.057993081734024524,0.000635284064794094,-0.059645573296222325,-0.07142423182295618,0.06187362372108162,0.0935265963528354,-0.05991040765100052,-0.12455601259976941,-0.07811577769447503,0.019703428908263293,0.09664149153380613,-0.03578841074924793,0.01180965746516136,0.19069595265602501,0.12626319455940413,0.036813074636647306,-0.054092988071350837,0.17566605446251024,0.004612117248243413,-0.16491494311918597,-0.0787678841812335,0.09883217562018402,-0.04238333848924368,-0.12377527692952278,0.038859301762113406,0.15943982531480194,-0.0533649239333131,0.10223023364464769,0.06808858001818134,-0.049780922851191914,-0.01677482786896738,-0.09715074987842058,-0.12562563526878529,-0.028722145314383832,0.1749346969378826,0.0077463884520075086,-0.016374983122962882,0.04105403934985003,-0.11658027034082424,-0.1197916660094466,-0.10370625083209913,0.05175280844755465,0.08844468862016984,0.011328721835204794,0.04517462798753433,0.1291453914629096,-0.0021217772060359557,-0.04362426403794405,-0.009975005237158064,0.03166884731945909,0.03683511121979165,0.08036203393883184,0.12219617092981246,0.03711235141417343,0.05834578809021469,0.016554939816153996,-0.05506860653854371,-0.021472187715530836,-0.08642981523877556,0.09592446774514655,0.07769624944364403,0.018413971454637027,0.2374342861741157,0.09739486342114319,-0.048410554042963495,-0.008095713863252267,-0.06590014561727099,0.11202916052555567,-0.01722504164707827,-0.08532614615012057,-0.062109571491568163,-0.04057845415220679,0.06961329600561973,-0.05447476257153836,-0.01333735540277749,0.09836049161022066,-0.015290663867886557,0.015512218299660792,0.0681831259129149,-0.054578858469081525,0.12678147166562279,-0.12388606257623701,-0.08508963243515329,0.01354928741376776,-0.056764345598049396,0.1002205854735373,-0.10809965517319033,-0.20425919711924298,-0.05871124317019887,-0.010718680827466591,-0.025244168966214925,0.09034479052160804,0.07221219770438235,0.02937266108576529,0.0204198776368696,0.12597063079049725,0.08975416088162677,0.22370920167219904,-0.11869042343317784,0.05297436466247559,0.1715912378774465,0.006485056023487177,0.001437941241132417,-0.0750061921011537,-0.027827084740613343,-0.0027652001615714773,-0.12101072315461424,0.10261177313463124,-0.1359952636502911,-0.03179412887151298,-0.09027925149994628,0.005321721960020408,-0.06257130863894719,-0.027320852011143995,0.05032540985555922,-0.047263328869200746,0.012743895004752134,-0.13946563439539567,-0.05395240481526502,-0.09878289121662799,-0.09850398314124083,-0.12632718212774235,0.040562846586279046,-0.07475671739638028,0.028453790071970724,0.10745850279949158,0.10846359677006756,0.05405280031677453,0.029910862753435952,0.0321101955952052,-0.10790798811497185,-0.13859991402938712,0.0828047463071334,-0.09864232281451522,0.03695378785515075,-0.03619163769926573,-0.09343168707675847,0.0832386934672125,0.020025346948711296,0.04138354379848221,0.06820883033033354,0.18716506587308454,0.04330251495028925,0.13572897445261112,0.0015551093408041152,-0.025274114955085702,0.0012048455735021771,0.0588632192184338,-0.14889994633454354,-0.05953705219543789,-0.049915005070511186,0.03222767550349407,0.060208716081775276,-0.021389254316324956,-0.00624598030584928,0.15088411104936428,0.04326908626742566,-0.1315738978199003,0.06540173128678684,0.02650883736183976,-0.006134895041699939,0.128529512475365,0.0009609435030776363,-0.10792896966003064,0.060882766546096784,0.058225833589009054,-0.034545456673744396,0.005206544889616266,-0.10128998524412477,0.12661804954310565,-0.08158731700200754,0.04991011910068758,0.014470383296879987,0.05727933645371302,0.1202284630401805,0.011539937420550062,-0.07072143119167766,-0.09290380571124009,0.011629996277215815,-0.004939511908303668,0.06852321716136951,-0.11072600188677413,-0.16724990155919986,-0.0931943774636272,0.1682353209947246,-0.2312199590625574,-0.04210141643133257,0.04369113621977092,0.10655961409489062,0.10174510685058177,0.08930161853154514,0.1268082399177409,-0.07585830776139864,-0.0028302678229867604,-0.02076894013348326,-0.0010956597354353944,0.029046636789414798,-0.08083077152058926,-0.07928424375012019,-0.10085245202125225,0.07713980781138846,-0.055563313446122774,0.027112742200082116,-0.07694122802900077,0.10001258335654431,-0.0391297959606584,0.12044043870326097,0.013370992690180336,-0.04386430189993252,0.02764370516405173,0.057728617794859986,0.04692409101202381,-0.0527652198298602,0.07219148581560944,-0.12376309180841882,0.15297446594473274,-0.012719197041002337,-0.2033345581622273,-0.1285093809302879,0.032346863787873145,-0.0601447369051397,0.08770477789779547,0.009920399234523269,0.006742710557379252,0.07986789809884691,0.0540942146173213,0.2676427332756171,-0.026740666848800096,0.10816286670823201,-0.11512992693000612,-0.14890234571630526,-0.1719964484873986,0.023210006755521647,0.0640868541253342,0.13097373347211438,-0.041917690378472115,0.025946538284397275,0.0799289115241374,-0.14368417317580956,-0.09102114795358293,0.00949157387166552,0.051229566333431044,-0.13674040674063007,-0.06555968335708044,0.06635477925784695,0.0933141708014938,0.1651602957328317,0.15557151575798991,0.050119022125954676,-0.19950153236739773,0.05192726969402646,-0.05883003250339271,-0.009466125055152364,0.011052991016744229,-0.0035865840063952163,0.06231169578473556,-0.03060936704000252,0.040112814923748935,0.022340465699181022,-0.012973232290328925,-0.12032942615737009,-0.07067724192807948,0.06702203115218311,-0.03999550250149363,0.06137677279917034,0.004511132549837664,0.07901486676493583,0.13341773101129403,0.07416165227159256,-0.04301763436454609,-0.09621897959042199,0.06588820530063136,0.09111962888208239,-0.13536270255448846,0.04356672156534785,-0.011067238301823601,0.036135956910770275,0.06436337404562643,0.0680415537642449,-0.1327871889464494,0.02249111559458905,-0.030193032241684604,-0.1152726121293638,-0.04812464409143107,-0.03079432031303494,-0.063681459001712,-0.05032886797663288,-0.050731836977902185,-0.0856370468962714,-0.03791042610987786,-0.004811706400087075,0.13305444634152588,-0.0849472589209592,-0.004849317097057376,0.14351928156643332,0.0675208807117965,0.09944667953231423,0.07726625633848218,-0.09098238939082078,-0.14762559462887395,-0.016080448327245308,-0.0219473394263324,-0.02501641713354258,-0.06725857333282317,-0.02443543120697998,-0.14460295305416812,0.07473764304185232,-0.07164256926706535,-0.09050867408327784,-0.05931864907282647,0.054129484469715085,0.05999897231965373,0.019322767045321904,0.07746045229786001,0.010150243378453841,0.0494455672717172,-0.046338530320961885,0.04762435000395758,-0.031534009441670584,0.07503585699726276,-0.04895401289398862,0.14478285156237305,-0.004730440035356514,-0.08845759122193553,0.0874746255436706,-0.1097829717410315,0.06546726048430929,-0.10731298644874006,0.0023015411209121174,-0.03004584527458539,0.20914421984368692,0.23076220295706518,-0.06186697974885604,-0.03890063821042474,0.15679140371216665,0.1278561406429506,0.07101978198661268,0.01339882567377439,-0.04982498584241251,0.09433474081324954,-0.03628198279071992,0.04432057062369015,0.07592355635237015,-0.10469563383602477,0.01881929435356822,-0.07062577733170018,0.09129682164978803,0.03401386843850872,-0.01002877051254144,0.06975472577389288,0.08313383311137759,0.0,0.0,0.0,0.0,0.0,0.0,0.0,0.0,0.0,0.0]}