{"m_clampedOutputs":[0.4496144876458307,0.4651714129284071,0.4817205939550444],"m_hiddenNeurons":[0.35129302212593405,0.548552736590686,0.32746900323122685,0.48867903391762385,0.5555388921690894,0.471522470243356,0.5141456661362404,0.4228877444551181,0.5773017384642524,0.48495399334034933,0.4893905515526532,0.4088058589424241,0.45210145684992825,0.42617628201603047,0.5396852749724288,0.5241484677309597,0.597863241121552,0.5257595872106373,0.3896726693086299,0.43982435068802733,0.5904832256548418,0.5366875293928486,0.5254031294653053,0.5133151820406741,0.47489239291626395,0.6245323433789768,0.45405820241376577,0.4846688792806477,0.47167187963157464,0.3562133722194199,0.38624734740796474,0.5397161901688595,0.6399256770436523,0.4018938288115951,0.5112035770507004,0.3927909725074566,0.4991245778547358,0.6058222416122607,0.5471205252754295,0.5878784299507597,0.47973316351048784,0.4594631228254267,0.5631087688025268,0.5681081901174141,0.5076364515541765,0.46080103259794214,0.4815195242072043,0.5441968264098413,0.4948397393333011,0.5820731397447696,0.48806686827218,0.5083865971427336,0.37155776557941694,0.4475743319818818,0.456484493198529,0.4050731036560867,0.4162342681063675,0.5140482045789457,0.4399357904549659,0.4231141052511933,0.3821708716601415,0.4402915215987637,0.4542707453113865,0.5768349594058951,0.5322034063697395,0.45706663690952654,0.4304227614643371,0.47804996943005795,0.4808042868526236,0.4946860646052745,0.49532089513166366,0.4180966005681218,0.5125566418706973,0.43197630726896813,0.46888115744914205,0.5331948193034864,0.5812679902306409,0.586969983930993,0.38671945598099494,0.5467542487250132,0.4903220417607698,0.5375926829528047,0.4881975596363674,0.6030730465483591,0.5768659260701975,0.5916756069800754,0.5721922906086003,0.44840012275946806,0.4684520529661097,0.6788313178001688,0.43707566297660677,0.552196458817207,0.4013034952040163,0.43442779847413643,0.43336431240365425,0.40741810633119824,0.4229916593091948,0.43452799155567,0.4156699808482162,0.5420059756345728,-1.0],"m_inputNeurons":[0.0,-1.0,-1.0,-1.0,-1.0,-1.0,-1.0,-1.0,-1.0,-1.0],"m_numHidden":100,"m_numInputs":9,"m_numOutputs":3,"m_outputNeurons":[0.4496144876458307,0.4651714129284071,0.4817205939550444],"m_weightsHiddenOutput":[-0.05619332532372681,0.2610012416348507,0.08326309540137257,-0.026393868816088746,-0.23355126329507442,-0.028158798196437886,0.016736605964609783,-0.05390362205155448,-0.09149078479882242,-0.026972242736451654,0.0337638615466832,-0.16677756604415614,-0.02159350130893503,0.03527991464249315,-0.04722107123670035,-0.0615759036827254,0.1559533518242419,0.08632249388608526,0.02318625561445041,-0.11972898891779261,-0.13337023847541923,-0.14727974423450735,0.060887236001810764,0.005469777384593565,0.02193143135977506,0.05738728577972759,0.06495333433104009,-0.014321955295875146,0.156212402433394,-0.18563155017253666,0.021718664921745363,0.04502449075706142,0.02511765803067044,0.04833589109186399,-0.15032077695670093,0.06896037048500075,0.14509602892231974,-0.07678423833327087,-0.007522863521067133,0.027893985438630264,-0.0107319780642047,0.01157494344525782,-0.047345186322729896,-0.11129307575525245,-0.35053917951815144,0.1371380851156341,0.1144565331348814,0.169993250992825,0.013761555694562031,-0.07994245624888628,0.03552510703967713,-0.04229836504802862,0.09516811997962014,0.048495993993902975,0.02892321379462041,-0.10844315963647719,-0.004928303904175992,0.008574469426785603,-0.01781652250111385,0.05801922749608329,-0.10429158531292042,0.018945712445432007,-0.2046522643914596,0.07487649426546637,0.10971233656330641,-0.11613141993827608,-0.09504845135514382,-0.0639837425082469,-0.013492683982981382,0.13677554158151323,0.05193273438294765,-0.14763246875926397,0.12465355734645092,0.07731898893503379,0.000575135588134839,-0.10376560713124858,-0.06813377090986784,-0.003340542716387463,0.008155979293166688,-0.13123262499045824,-0.009118671047794173,0.05589048758235201,-0.03079585151467387,-0.06341999531257383,0.0858403524634774,-0.12798978250182658,-0.08965230503221573,0.013567321285564371,-0.10372630189772607,0.024237842757320566,0.0006828730131716305,-0.027719735382714685,-0.022298238232510512,0.0036129782002330586,0.05404735090247675,0.012373514307693517,0.08756546258677961,-0.05500632728239913,-0.1525540337578387,-0.0008894814274145123,0.022186516854178807,-0.006227998499012407,0.06367580105598339,-0.022752605419727578,0.03261579218644614,-0.07002331753678749,0.01159515763688394,0.08547784390255972,-0.05286553047481023,-0.18728649411602166,-0.08841456994335074,0.1247618560947414,0.027554456388289537,0.03895434935508959,-0.1044770566203984,0.10745561021356752,0.03619085003885546,0.06802294871944725,-0.05667395204785888,0.05678392075320468,-0.04218373476696645,0.08893721332770509,-0.09114036222811626,-0.08509701768123164,0.1525113940455787,0.10816000064783793,-0.008904146906134535,-0.03938683674595839,-0.0016307710434479278,0.10479049540934876,-0.008114894506542599,-0.04602662461477084,0.10294498275269821,0.08093155984269305,-0.15406439055843035,-0.07210595884281183,-0.09876894075151896,0.031019341887255275,-0.021470539378513367,0.14736490774962702,0.008500965373209357,0.13285818300260963,0.06061159143746808,-0.06296698126615259,-0.04894342625701146,-0.12122711554994786,-0.013378078657559396,0.10801565686302461,-0.17535375172764958,-0.011392720753473857,-0.03902874952849183,0.18788301384483228,-0.005755369904954822,0.11873736214940547,-0.05415462842579711,0.025534108702975965,-0.0570690130947357,0.12105662024043538,-0.06629238174187335,-0.016659186788904972,0.08113219895472892,-0.0695363298903292,-0.05622790152115996,-0.10291004123209055,-0.015185575958973258,-0.11670902397935018,-0.03590523215400426,0.06682294017154221,-0.06380370713218884,0.15927482580951838,0.046332976052612614,-0.10791921883428923,0.05652321904491537,0.053151430430114104,-0.010070341791658314,0.13336848849403454,0.01681206009602198,-0.17458995930343005,-0.011868881985051477,-0.08797976198922457,0.05592220164568986,-0.08804165075378353,-0.11788327830044075,-0.07137574505259452,-0.17077289177125626,-0.06052784876200979,0.04802120601475591,-0.04168141330873876,0.009670174656657322,-0.23996593156867213,-0.07019682275118143,0.12193296629228176,0.022171578083128144,-0.13717776840812868,0.190479093353961,0.03838493884999622,-0.006354913323640705,0.017658044354423953,0.03495975536786171,0.04739313983825883,0.021965579142120637,-0.03180328060120517,0.03130210091487727,-0.059103600879187736,0.03189463067291012,0.005627635962534461,0.08209941398816353,-0.02560370653291343,-0.04009168708215184,0.0985187310237962,-0.0008381318401568599,0.042526999765180165,-0.033824847476763724,0.06484991322321927,0.024044154186489863,-0.10432874093414383,-0.019999954260036482,0.07280187779979873,0.06850793792202135,-0.013965187249195722,0.07071908461435425,-0.058678273458905326,0.16125300325602446,0.011621575997216143,0.20365776286811804,0.062077157326775136,-0.029969190238522937,0.12372899340674527,-0.08742300289080063,0.0009673962466152415,-0.20176513250901837,-0.05785310805608285,-0.03859007986411266,0.129908074996939,0.034498298957805845,-0.04946724329176686,0.08138619233730957,-0.10637082005187065,0.005236007092921709,0.01051548703929341,0.025625728879477602,-0.07423438360783216,-0.004237522130642015,0.092249770533531,0.05915218062141776,-0.004134966733005545,0.039514545586647715,0.06753312492256676,-0.0011671892859234393,-0.12992938663055692,0.008148780651076055,-0.03283650845793518,-0.09905112382624463,-0.07848491307225165,-0.04466034625249932,-0.026324107526228824,0.11452013427446266,0.13111843988762448,0.03835382011487275,0.04649334776157033,0.06939544256407212,0.16296269749188425,-0.09623816825074771,0.10954401686576788,0.022474291803871883,-0.14332696368472153,0.048247079800433745,-0.05634871450117714,-0.16042101983921697,0.0028241747586978056,-0.07876630491065685,0.05697488761222274,-0.08294264122786989,-0.1883985880476857,0.06257355299544208,0.01111427591547184,-0.01793563131663096,0.02725386480914047,0.1327466274431682,0.041407882099946385,-0.06686372661488361,-0.0649279007653894,-0.14773436591919653,0.11597020974529844,0.08491701036898316,-0.049792003965725994,-0.07123845542741822,-0.05112349902551958,0.132331974034864,0.00655430227176885,-0.0815900221381949,-0.0963804518689302,0.030075826041504126,0.1301952196845639,0.11567580649713924,-0.04057348580622848,0.017741818340617384,-0.01574562979073201,0.031208966228120773,-0.029884102434574306,0.022483641511363128,-0.01706727706436693,-0.15561487904770488],"m_weightsInputHidden":[0.05166469472560194,-0.09676696771658662,-0.028519651371705843,-0.06591938562121692,-0.04361177765503409,-0.03836677691012646,0.2009910775978538,-0.00860935311260645,-0.05224871091053201,0.050479732410430564,0.10261576459955606,0.09595296514508335,-0.013419392762773725,-0.11065577824604292,-0.08074013683973949,0.022996812031043406,0.017205091641418434,0.08540206662162356,0.020664935449401147,-0.06956909406252927,-0.08694218839521597,0.036919761888676225,0.1715091545591229,4.9782600147164575e-05,0.15864864988744085,-0.07029504083766415,0.07615987840695553,0.22376190085304412,-0.07545557713722409,-0.03136976674788823,-0.16570149706557413,0.009073948223804725,0.09033758080733983,-0.19566868118917213,0.016168546024123626,-0.06595070041166247,-0.022298619473013013,-0.0659599164099675,-0.005206251812265515,-0.019393897649690073,0.008951292789261106,0.1255272638398254,0.07335104110188582,-0.08794810511154784,0.06438326316380606,-0.15005182406292247,-0.048933302215515354,0.005200101552118374,0.08752870510819191,-0.1644958739713287,-0.09991434822048642,0.019831246008164136,0.029060432623187804,0.06282582653071578,-0.04054927374292374,0.14663530966933325,0.21989352392653083,-0.06112428924367235,-0.08492116858873547,-0.011989217176604563,-0.04937394729718716,-0.054486548463119344,-0.07387147446844962,-0.03769928303168241,0.06704938206283098,0.09720788287916989,0.03046653412887364,-0.14991852554274887,0.006662241203180862,0.10765397431118348,-0.12007681644477304,0.015226329543392779,-0.028562988867700853,-0.04719170561738327,-0.06626875875738308,-0.006709390193782728,-0.042176666717193424,-0.16904320034800505,0.13140767973053105,0.1663504624505831,0.02324225445085827,0.13951075845941407,0.12547991656416868,0.007092689498389757,0.21039554447037037,-0.06505397293807204,0.13517836096130526,0.22644560413478804,0.029420192965442547,-0.11506618130704249,0.15139133651715966,-0.04829254464175142,-0.06824007893958955,0.026902951408934925,0.08477897579744235,-0.0011332270124978518,-0.031156589849243337,0.034385247555555595,0.05355910152372403,-0.04606771342665288,-0.020741900310715523,0.050606708597446884,0.05102666685034063,-0.04662322678273212,-0.07672406266326458,0.022721456079266504,0.016809199129543775,-0.056934771361742006,0.0201142204383574,-0.09700714651903891,-0.0067139777689168,0.07228899145394607,0.005044739730050023,-0.03088236791415021,-0.04465656374955022,0.03699240316304065,0.004525265496959945,-0.05800353747948546,-0.04167650487663928,0.01956539439469434,-0.14633470153214134,-0.1181531740442674,0.04227153305535867,0.02557959061564597,0.07588842803168591,0.0370287736459153,0.02186540395493871,0.10340154122707437,-0.019341400734909937,0.15077564558163836,-0.0026665902655675458,-0.07674774857614397,-0.16432386050149972,-0.03152782031055266,-0.10346334965372987,-0.05997268595548115,-0.13041607285856635,-0.06157474480323464,-0.12738713715525005,0.08648323962629606,-0.1730344790837933,-0.015101695649837477,0.056902874334712875,-0.0002401717624153013,0.14423420432908254,0.045612995929670705,0.054129145323855495,-0.07493763727383008,-0.06985894500347235,-0.06303043479415399,0.08819331360401649,0.046642620984074366,0.1030675825000401,0.11131638052984714,-0.09150344492718343,-0.06701132571391576,0.07389992168178129,-0.01628635326260994,0.040927086168065806,-0.042629979835624304,0.0646181812236168,-0.0167801751593853,-0.05303675728390428,0.004438008138975025,-0.1156066095355104,0.05227921186314893,0.12826998534307577,-0.13279225748820941,0.00937753278476649,-0.04040347385439112,0.003378420694970589,-0.03392703194880634,-0.10141839269864167,0.1156549790964911,0.0406632585249645,0.13829613422820233,-0.05498979441134283,-0.12897859688074903,0.014935750833827264,-0.12863069581248737,-0.020203854772098816,0.0014825370625843493,0.05803295806543104,0.04605960967964649,-0.08912722659714996,-0.11513824572091878,-0.11278498771277447,0.09458409205912624,-0.06752299166596577,-0.2404259003193775,-0.122695459974361,-0.08550434613165023,0.05408916435561316,-0.003432657057343663,-0.02612282788607476,0.11119958777271713,0.015002458529072256,0.0191475462904048,0.09031617595556328,-0.0757975234751984,0.08690827394156336,0.16933668987989833,0.1147027318954973,-0.04007881926266725,-0.16386414527654372,0.07749389514059839,0.07238639827156619,-0.14543403364448523,-0.018809558794573154,-0.0626825631221732,0.07440770962752805,0.07630283941976106,0.12837889358638674,0.06647940721497397,-0.009276333555887384,-0.0569055538991762,0.033735619404067746,0.09982284159601464,0.11223997890146499,-0.06877136204142877,-0.0063609043891495,-0.04035901810618477,-0.032695951707614614,-0.06633015415125297,0.003487131124993799,-0.25689817277564414,0.16951056323948893,-0.051955193548503524,-0.05115857027215374,0.062152291531369565,0.06826049824041673,0.07244745096504339,-0.049682898143130476,0.1023671044494725,0.03887036576002145,-0.09623018988576494,0.055554052120542166,-0.0976292705516044,0.03313255538332178,0.0464114051262607,0.07157293827957527,0.03953044589928021,-0.13631379591268244,-0.011834454764919613,-0.09347110473434685,-0.037228849844457255,0.014669057165737607,0.006803259035982298,-0.03554815269132573,0.012916642967756704,0.037048786267378286,-0.019636822503750994,0.1312395650289525,0.03836757030080421,-0.02548826994713705,-0.08685643135417423,0.030717206723073764,0.08003920129811667,0.020802725990990856,0.026507539951141693,0.0762731258744829,0.019249500575065314,-0.014565313480769638,-0.05677663364201575,0.10311970757718555,0.010015299732979667,0.07614000087336527,0.06467874279242344,-0.10006314886922775,0.11291807476723828,-0.055381567655020114,-0.03205573041511319,-0.18500695093784233,-0.09117649583766774,0.11620117176892088,-0.12029145078810487,-0.03222052140956982,0.07851788702035975,0.31017542163283246,0.010663964849360297,0.038188211246352306,-0.012056337939615882,0.036078067351875034,-0.270131904122584,0.07599451427873541,-0.03594429623237486,-0.10549314507055516,0.1387704147356364,0.044754412956226425,-0.06985772800910836,0.09970956365273316,-0.07476707945209164,0.052010064011317726,0.22049661346811114,0.04730206257956648,-0.01711123536195911,0.03716677337670708,0.02195679042268295,-0.011617553182527994,0.07278994431560172,0.09697848291247464,-0.1232229924075705,0.05276766114500651,0.001235794326090041,0.04707115170050586,0.04123761192005521,0.07773678153918209,0.18600634026374693,0.03376701282543273,0.05697238924697865,0.029628890795316058,0.007257598732729662,0.21662169021549935,0.01546988194558828,0.03443102729338183,-0.041908878297927034,0.06376735752038823,-0.10068634202640973,0.036252829811671876,0.061336646146477304,0.03117916626037239,0.01182823395074001,-0.11502212290638009,0.03641378669144907,0.06879129174813473,0.04099462071379536,-0.06602971803635657,0.06250658552273482,-0.06822453647582466,0.08295971631434178,0.03649417424255279,0.023707219263665587,-0.17260277426463655,-0.0013192313774881988,0.053182032079410906,-0.027402103722959113,-0.06366617863314261,-0.017371012717710455,0.07102466703816789,-0.08708544658329395,-0.0160052212138442,0.16888299717132707,-0.11845086228671513,0.12618876088277486,0.06395767059453723,0.19336065182326595,0.004795105150699533,0.08090871806526699,-0.029510135566655802,-0.0910800083959383,-0.09832059705994901,-0.09454760868757901,-0.10300198983503689,-0.09703425535647747,-0.017659405861633178,0.09670036907891125,0.05399077273338357,-0.044670055772114324,-0.04734308200239252,0.029414184815038224,0.14830590076495814,0.0748881603253913,0.12644773587997254,-0.046825257185564226,-0.12785266336135523,-0.006517504363823811,0.08025462847025643,-0.04332530403288439,-0.004135710265713818,0.19793732595066815,0.07408960075019977,0.06617418881591376,-0.02085395798683092,0.12387448916729767,0.15007462172052924,0.07053792780256228,0.03410107945701232,-0.16971822850171162,0.14890490542900528,0.010222895494129983,-0.062199301110377976,-0.03148399051029394,-0.048851375580646395,-0.01651402300996319,-0.11947767504396346,-0.008814093809282908,0.013158573073801458,-0.06413576521306279,0.07341255014102263,-0.09213602807332719,-0.03475676075313844,-0.017553564980505438,0.05202582008574395,0.03269444826664046,0.10725015008790405,-0.015084753454072192,0.11801186707610649,-0.004718223416952085,0.03696986475320624,0.031525928827186245,0.09571230922960279,-0.05715529353574762,-0.059347329983034366,-0.027011544637214367,-0.11167936822615347,0.13414726180668263,-0.0448306835408479,0.07207015829402255,-0.11778428287200501,-0.06920501081349684,-0.02547460946277545,0.010970799980063515,0.048303985088116806,0.020527741285069526,-0.15433500293494612,0.026372512660877777,-0.14750791462570703,-0.012289784697469329,0.066080186905782,0.2199334000021524,-0.21482396752861674,0.11125244137128133,-0.044624655332853105,0.02988685769946111,-0.0642447759980408,-0.23443899053517375,0.024419076727177805,0.036618201065829116,0.09711135155591709,0.15045433805601585,0.05710348025652568,-0.1666340116048342,0.034717163676447615,-0.13812935846532115,-0.04464985681480832,0.022195706211585686,-0.02341713690194141,-0.08541103347683783,0.06632261946859491,-0.09710944560295634,-0.01859940988667471,-0.1350380582580824,0.1570038238314859,-0.019823555451788683,-0.01579962654923283,-0.13598100184789644,-0.045641101654836244,0.004775612213223377,-0.05239579094722816,-0.09051489844220281,0.019532897408854485,0.08363491774620686,0.12236991190600874,0.06967759437688284,0.09899486110703028,0.035184489775631954,-0.07590226250393295,-0.04750147574824238,0.08933404126255506,0.051476280080733586,0.12892414591963935,-0.007494315712138246,0.05336375854585719,-0.029082154366717284,-0.07517684922686774,-0.005569582741714798,0.07496942766487528,-0.029429499122654267,-0.023072658070444306,-0.03437467770189417,0.10494616155948554,0.09641038035503383,0.030790730899517598,-0.07717394922242568,-0.022042132344552885,0.03436990527922353,0.10372226967686379,-0.15051683516636866,0.08693780260420544,-0.09657039547100257,0.0457249593330596,0.0190375849824107,0.029492472453935346,-0.07251288513621228,-0.009564811144318803,0.01070789928821902,0.096984377272155,-0.16256631117708567,0.10243946420050182,-0.09934985869012071,-0.031532544358529924,0.05687881113353556,0.0536842726468879,-0.014287160555596791,0.04602999560035005,0.05319774202286951,-0.01558654307964124,0.031982167228688844,0.05501104803597152,0.014536171638339064,0.0900604269644471,-0.030593365613518313,0.049721125314108175,0.020572259160091408,0.039902883363442845,0.007209314987568625,-0.018119666789080672,0.05823083108426868,-0.09981145963157378,-0.03670595605125683,0.013779461769863319,0.13007272437319967,-0.051324068733713715,0.06796285463717046,-0.11879801748951585,0.029625502311378307,-0.15061963690475297,-0.16541507722348228,0.05826376517217672,0.04778192740938705,0.06794648905873774,-0.04793548953006541,-0.056814669769415675,-0.0294452094126603,0.002610360729690708,0.13396733263319252,-0.01396818743791198,-0.16467123275963325,0.06013154000337129,0.057492182110782705,-0.05960228364768288,0.06742595092855024,0.0035300426117657615,0.0473672298996892,0.0648140973929398,0.12645588977889602,0.010072798713010925,0.012801334928938961,-0.17049260373652392,-0.13523720735998854,0.14748771814903594,-0.04251572218257194,-0.04910640119038739,-0.09504697980941593,-0.09212277184485947,0.15664002242501673,0.11504958169242219,-0.11806588418312362,0.012829840812654592,0.018221820008294625,0.048490142950699026,-0.0008993967543493385,0.039941672010825886,-0.01418702307876122,0.07493061821559484,0.09578960170319872,0.159400020434552,0.09948820384382843,0.11496941735351374,0.09568705363537912,-0.0059978300428091295,-0.04941097759965194,-0.04733711558018226,-0.12825198364879434,0.07629479836137736,-0.08259123737485839,-0.055636653731204265,0.1115932197087061,0.1729526383624561,-0.03482133380981694,0.028682130906701082,0.09056831647707034,-0.003246549553709196,0.15690837576096417,0.006044576256173885,-0.14167996236796265,-0.21836837729685094,0.10971996176598232,-0.04804765593650989,0.03509196818562339,-0.031251314947242065,0.01511052982492265,-0.11257900566099327,0.03391328037201467,-0.08940005051680373,-0.032147146353521304,-0.12655892716780082,0.10867145086065214,-0.10744931818893537,-0.01839810061707701,0.009632629864394431,0.08695847717240068,0.09302980865496557,0.05006241023046163,-0.11568526806257286,0.06677793049775628,0.026014793654059096,0.05851172373457707,-0.06030359290464473,-0.1020338746232705,0.013747808010556058,-0.014595916716833296,0.009549326274485842,0.07566201721720332,-0.08114446450092344,-0.006956958801056493,0.015970885175689238,0.08415237812528599,0.012356981068520583,0.08636439183202442,-0.04438359944327139,0.056154434951443254,0.04611475064700916,0.04698263482389124,-0.07583389436666918,0.12482445002621881,-0.09914680766053413,0.04150687435299653,-0.0297142021202412,0.13337280625708,-0.2498020459151311,-0.15932986218911316,-0.13791901329266423,0.06578190733970098,-0.09323855358242396,0.015767459971629785,0.009245439079645278,0.028059794103734343,-0.04405101495677355,0.14137139767030749,0.0007363973455906489,-0.059005397375985306,-0.14640476419881773,0.19242958968488202,0.1092110458973116,0.17681272352007554,-0.07179816365716576,0.07787131882248884,-0.04145153439883,-0.08621281662380628,0.027851857380116037,0.08064032557416416,-0.1425942533373646,-0.07974158207631904,0.04317604318184783,0.17674330916860473,-0.03366581106712367,-0.07165578174160393,0.05342300180198864,0.09208866080195278,0.05644403799916658,0.059480423893459616,0.23074516687685429,-0.047438227763840546,-0.02043328803698976,0.13145676138659693,-0.2199023433960939,-0.06131033067967368,-0.05867186715034353,-0.16253228519685936,-0.002686488828761818,0.09229899775850603,-0.01494424960855655,-0.043501018514887156,0.09343799354207538,0.11548559951156023,-0.019040552921700798,0.017463055380572513,-0.03706377056171018,-0.039946916730008296,0.07936593744045366,0.05891971790164686,0.1635830350454409,0.013961846339859802,-0.18249165705590764,-0.029192543520853088,0.115075855634129,-0.03978534700369665,0.0022039323880220555,0.08035544886095494,-0.058570469525392334,-0.0007094705918582413,-0.12792724214606815,-0.0341636387912593,0.03395939918775417,-0.11525767487121945,0.127988757294349,0.04006323507935143,0.09639133963362366,-0.04915898322406288,0.09100119345146981,-0.07785828462109694,0.14836202584651556,-0.057478880853864746,0.12646116132202345,-0.06593700724300064,-0.03437217972831,0.0710623442820714,0.10132735936808857,0.03317328215286816,0.15018161357221432,0.0031904507394776333,0.15703749821998267,0.15198863743538393,0.0634481326121735,-0.08799854689619027,0.03238178346392012,0.016548154276180265,-0.1046009618081155,0.13184213531019504,-0.036885292086305435,0.15473705614988914,-0.03635977055499145,0.055366764002127936,-0.07480322168543439,-0.17120944176599412,-0.040144262951222955,-0.03271356936572269,0.017954630494454685,-0.065578135110158,0.13981226284806172,-0.03500564394219139,0.15767282236511418,0.12745496894768102,-0.013188434551041302,-0.1304074147716016,0.12325067181797089,0.007763902138387665,0.24855449693212436,-0.06163432695775761,0.19284306044725494,0.052322282731218896,-0.035730759069726385,-0.03209148049300689,-0.05527490588145587,0.14964138891350923,0.14397305288749646,-0.08177139483454457,0.05460863778585076,0.04027482669409223,0.004108639397960293,0.08002798415870495,-0.015008131113150374,0.03570830029782758,0.043775217662433225,-0.03516551430038388,0.10932815631520217,0.043145756900150656,0.07128860136316977,-0.12128689025619997,-0.029982147328072615,-0.0565815138191727,-0.017912304686508743,0.08837685463672264,0.008172757027506021,-0.06180321929155101,0.11862840732742977,-0.025254504765191386,-0.02678537741756652,0.1733853112397645,-0.06112528380633349,0.050613161802832075,-0.039970198131601214,-0.05447753325262685,-0.0466036487085947,-0.04210358040251514,0.003198362422570052,-0.1150457808433691,0.02679822014146543,-0.12802771832310378,-0.08431411014024484,-0.07212457219288337,-0.023938723103833746,0.06192198620692343,0.07929885161748196,-0.0821944900620268,-0.10332845330418891,-0.004134621398064448,-0.1056776947815249,-0.09707073675103221,-0.06596875372717903,0.03880396180641038,0.0466730993423163,-0.03411859806966535,-0.13086737749900107,0.050045803993742276,-0.07055341249195042,-0.07011350143438098,-0.029133214187709266,-0.04352121122372739,0.07615978779229803,-0.0039962602541885,-0.063526798004891,0.017995466823970505,0.034322884533389754,0.13395096301418716,0.06543523514832347,0.029854289897948763,0.08947178953058696,-0.04437009927912709,0.009105070055690256,-0.13142160766046188,0.07335027433570458,-0.09328326350054408,0.003953026361779619,-0.12638753724999297,-0.1357710086538417,0.05786324485435404,0.0523258250411577,-0.16200826710794078,0.06372595259371668,-0.10232003971304583,-0.07654521515591499,0.047177657423992485,0.12310456522397506,0.029371174821201676,-0.0015257012273490011,-0.00631733347053776,0.09513193041426303,0.05832744552781737,-0.07385414593783363,0.13157335034165824,-0.0614130030027016,-0.12290453971508844,-0.012110918196156962,-0.12562083066040242,0.043503384321395874,0.028902846501706523,-0.15207451163112196,-0.039412096578798766,0.11516392377051615,-0.13465426669572159,0.006892464175218854,0.08740832807261471,-0.01996377421434941,0.015120061426305774,0.05697138261817352,-0.036615078918311346,0.026506843832705004,-0.06187522750069971,0.09735484799397279,0.04571244753514334,0.10691767580601055,-0.11197146853156023,-0.23143018054116343,-0.12083282144134025,-0.04683418747174548,0.055586014231898816,0.03895486157761644,-0.03302786841007556,0.016243127875085576,-0.01966805372702593,0.026778530681131656,-0.05760725573513473,0.002953850135264886,0.232921254835955,-0.07940439642266409,0.017266370454398074,0.07722705984384493,0.08714463065847042,0.008838776893835106,0.08273752061161894,0.006085507166643255,0.0032930394901974987,-0.02615715719904918,0.08618854528055747,0.08622139112239861,0.18738047611433292,0.04095035998743843,0.04917751169683587,-0.03263589723245003,0.07504159070458155,0.09160109854590032,-0.054664854875620374,0.03296587878676143,0.050212162083188315,-0.08134556257644937,-0.047215449096478276,0.03530691541746606,-0.003903895334852389,0.04688190582638984,-0.1223895054299386,0.1482517386265241,-0.07090549153291571,0.04387506293997496,0.001805519552889344,-0.0967828263945792,-0.08344775357518713,0.04305596416116705,-0.1836536155888035,0.024032287421058746,-0.06351138719209432,0.0178771290812498,-0.020436328149873662,0.19292978686165627,0.09091491942192764,0.05766451259104848,-0.0013249024103189001,0.03601321461012392,-0.04462025598756942,0.09140833642125937,-0.06096953235050994,0.2708468442373585,0.0028297511197782075,0.05596078177696271,0.05256703253294686,-0.07316145664018212,0.03842773174358675,-0.08926425489729671,0.2126322298721595,-0.025640371428118123,-0.03656031685527131,-0.08805149195384723,0.008384595982308791,0.16109173611739966,-0.07383124999270389,-0.05965372609094905,0.13096627168458908,0.13415572899152597,-0.16409317277984195,0.08627448436751631,-0.0008851720754351513,0.14684497708848385,-0.11971053195286266,0.13252044101454685,0.010776436044099664,-0.12750965040460926,0.010717268016654248,0.042486602792841256,0.04767828868030202,0.05478138001582189,0.06193836985387351,-0.051436191478219706,0.17107597422195972,-0.08754746515926483,0.12897470929531082,0.026227957870746582,-0.1400847598408288,-0.10130713520886989,-0.06085112375489287,-0.059625103934499386,-0.05963454517685378,-0.11313946938946394,-0.11737560813384816,0.10713236629830351,-0.08603049763186907,-0.09787435279964925,-0.10380997244996779,0.03145849421445039,-0.055576691230845604,-0.08990796891493774,-0.031974102214798975,-0.007688365787160559,0.11900461999866327,0.14453582925416347,0.007989480616730405,0.27682418551178767,-0.05797866704905701,0.030962647530224156,0.05154986049928282,0.12319358326381585,-0.006122855314043099,0.16738623911571238,0.041389609453944584,-0.010447758072866195,0.044970646920041435,-0.09425008227269925,0.02733393832981676,-0.008922854067205126,-0.061202250072112455,-0.09941371045176377,0.08158508623768057,-0.0017474206041222114,0.02448601131470642,-0.09607810483227164,-0.053032556004163275,-0.09062728265505532,0.0006578138935300938,0.016383600906656484,0.0022764912596058965,0.1461152862025778,-0.05845034644510378,0.01804782020988062,8.759008025524201e-05,-0.0253126228127508,-0.12615434993769511,-0.016759698578130002,0.20531109706226458,-0.029588557401955037,0.04809523127082545,0.14148820758269776,-0.03019564019748136,-0.007514673690586816,0.038194293179641764,-0.1443501164905686,0.01674098752415925,0.04116734319957293,0.03692869444673895,0.003385988188083965,-0.053624463311727266,0.0,0.0,0.0,0.0,0.0,0.0,0.0,0.0,0.0,0.0]}