{
  "input": 76,
  "network_layers": [
    50,
    10,
    3
  ],
  "observer": {
    "cellInterpreter": {
      "type": "WallFoodBody"
    },
    "height": 5,
    "type": "GridObserver",
    "width": 5
  },
  "type": "GeneticBot",
  "weights": [
    0.30498069524765015,
    -0.8012909293174744,
    0.30017098784446716,
    -0.5668660998344421,
    -0.9518723487854004,
    0.7048035264015198,
    0.40558192133903503,
    -0.5833460092544556,
    -0.6715386509895325,
    -0.1400282233953476,
    -0.9676259756088257,
    0.6421949863433838,
    -0.1338663101196289,
    0.07073883712291718,
    -0.7392316460609436,
    1.0,
    -1.0,
    -0.7199256420135498,
    -0.17828905582427979,
    1.0,
    -0.347126841545105,
    0.5083589553833008,
    0.9188421964645386,
    0.33033233880996704,
    0.7565749883651733,
    -0.8625996112823486,
    -0.726435124874115,
    0.4986388683319092,
    -0.42666399478912354,
    0.6276192665100098,
    -0.8391796350479126,
    0.48359644412994385,
    -0.66995769739151,
    0.5200139880180359,
    -0.6089144945144653,
    0.28727084398269653,
    -0.05606253817677498,
    -0.5446029901504517,
    -0.4576554298400879,
    -0.9329630136489868,
    -0.17809690535068512,
    -0.8819513916969299,
    0.435310035943985,
    0.5822504758834839,
    0.05184183642268181,
    -0.1278388798236847,
    -0.6691672205924988,
    0.8172064423561096,
    -0.19684743881225586,
    0.9153903722763062,
    -0.1424207240343094,
    0.3178960084915161,
    -0.5673515200614929,
    -0.6290658712387085,
    -0.6251869201660156,
    -0.1372632384300232,
    0.44288167357444763,
    0.8361461162567139,
    1.0,
    0.0027588647790253162,
    0.8572131395339966,
    -0.8217291235923767,
    0.20247496664524078,
    0.5621112585067749,
    -0.7157629728317261,
    -0.13089393079280853,
    -0.5681142210960388,
    -0.693768322467804,
    -0.847526490688324,
    -0.21869876980781555,
    0.8355845212936401,
    -0.7702230215072632,
    0.5807640552520752,
    0.16002677381038666,
    0.5026857256889343,
    -0.7835536003112793,
    -0.48135629296302795,
    0.003320376155897975,
    0.8638598918914795,
    -0.35223859548568726,
    -0.344575434923172,
    0.7523332834243774,
    0.9450300335884094,
    0.6616199612617493,
    -0.37072956562042236,
    0.10878922045230865,
    -0.48987099528312683,
    -0.16001763939857483,
    -0.07407749444246292,
    0.2081974446773529,
    -0.9678731560707092,
    -0.5585864782333374,
    -0.3363291919231415,
    -0.3015594482421875,
    0.578902542591095,
    0.5541398525238037,
    0.5354840755462646,
    -0.7311716079711914,
    -0.8631336092948914,
    0.11430106312036514,
    0.021713925525546074,
    0.05559563636779785,
    0.45540323853492737,
    0.46766865253448486,
    -0.6716117858886719,
    -0.3848109543323517,
    -0.5294685959815979,
    -0.3340310752391815,
    -0.42146965861320496,
    0.5815179347991943,
    0.7515578866004944,
    0.041120655834674835,
    0.7508957386016846,
    -0.42361822724342346,
    0.28203675150871277,
    -0.9226569533348083,
    -0.9553666114807129,
    0.4612966477870941,
    -0.5091953277587891,
    0.23068636655807495,
    -0.5497421622276306,
    0.18156379461288452,
    -1.0,
    -0.32626426219940186,
    -0.023004857823252678,
    0.2920345067977905,
    0.45588240027427673,
    0.533670961856842,
    -0.2498214989900589,
    0.010016151703894138,
    0.24953165650367737,
    -0.935486912727356,
    -0.2996062934398651,
    1.0,
    -0.00625013280659914,
    -0.8883236646652222,
    0.5376170873641968,
    -0.6360360980033875,
    -0.36710700392723083,
    -0.14498429000377655,
    0.012329435907304287,
    0.34131598472595215,
    -0.23335985839366913,
    -0.049113448709249496,
    0.14307080209255219,
    -0.2340647131204605,
    0.4346963167190552,
    0.6234626770019531,
    0.43706458806991577,
    0.7585680484771729,
    0.559264063835144,
    0.6175327897071838,
    -0.6545700430870056,
    -0.8802514672279358,
    0.1231299638748169,
    -0.38416996598243713,
    -0.08812218904495239,
    -0.242191880941391,
    -0.5166599154472351,
    -0.6518540978431702,
    0.47847819328308105,
    -0.9914669394493103,
    -0.36733293533325195,
    -0.08333989977836609,
    -0.5013731122016907,
    0.5775567293167114,
    -0.9460799694061279,
    -0.6524552702903748,
    -0.5252816677093506,
    -0.5934843420982361,
    0.12868128716945648,
    0.5054721236228943,
    -0.7401043772697449,
    -0.6396771669387817,
    0.7788354754447937,
    0.797393798828125,
    -0.5636767148971558,
    0.47160249948501587,
    -0.9979279041290283,
    0.8888485431671143,
    -0.7527543306350708,
    -0.7744193077087402,
    -0.7890529632568359,
    0.04706549271941185,
    -0.8857051134109497,
    -0.3618794083595276,
    0.03125092759728432,
    0.44764235615730286,
    -0.7036255598068237,
    0.2557023763656616,
    -0.7074161171913147,
    -0.772072434425354,
    -1.0,
    -0.7607898116111755,
    0.02609647996723652,
    -0.6808069348335266,
    -0.17569197714328766,
    0.7152774930000305,
    -0.6256570219993591,
    0.7040985226631165,
    0.9510025382041931,
    0.06624023616313934,
    0.6191290020942688,
    -0.8892972469329834,
    0.41854000091552734,
    0.8037506937980652,
    0.7708731293678284,
    -0.07752923667430878,
    -0.42686837911605835,
    0.6103793382644653,
    -0.1800042986869812,
    -0.26657629013061523,
    -0.5975737571716309,
    -0.13099464774131775,
    1.0,
    -0.25465264916419983,
    0.6582751870155334,
    -0.5796747803688049,
    -0.043690357357263565,
    1.0,
    0.1340770125389099,
    0.675481379032135,
    -0.02309347130358219,
    0.7003479599952698,
    0.008954283781349659,
    -0.7956724762916565,
    1.0,
    0.7231605052947998,
    -0.24712349474430084,
    0.4822199046611786,
    -0.013510570861399174,
    0.9674550294876099,
    -0.48622074723243713,
    -0.7411482334136963,
    0.7640368938446045,
    -0.8843135237693787,
    -0.8115572929382324,
    0.9367351531982422,
    -0.3178441822528839,
    0.9431564211845398,
    0.4576341509819031,
    -0.1539383977651596,
    0.4310618042945862,
    -0.4476883113384247,
    0.5098207592964172,
    -0.9261451959609985,
    0.327872633934021,
    -0.9678395986557007,
    -0.8666190505027771,
    0.07533194869756699,
    0.00829788763076067,
    0.41963866353034973,
    0.7330760359764099,
    -0.8215703368186951,
    0.4852502644062042,
    0.9815759658813477,
    0.587731659412384,
    -0.4000854194164276,
    -0.5519639849662781,
    0.23338736593723297,
    -0.12145140767097473,
    0.925055742263794,
    -0.8389447331428528,
    -0.8890225291252136,
    0.8432721495628357,
    -0.6187657713890076,
    0.1714133769273758,
    -0.8469313979148865,
    0.36645397543907166,
    -0.7076937556266785,
    -1.0,
    -0.43785810470581055,
    -0.007037450559437275,
    -0.6926419734954834,
    -0.010562386363744736,
    -0.8013671040534973,
    -0.7514846324920654,
    -0.3207678198814392,
    -0.738407552242279,
    0.03028656542301178,
    -0.33747994899749756,
    0.5508529543876648,
    -0.2947874665260315,
    -0.3787223696708679,
    0.7291574478149414,
    -0.7517472505569458,
    0.15933409333229065,
    -0.4542466700077057,
    -0.7786675691604614,
    -0.974553644657135,
    0.018247146159410477,
    -0.5756154656410217,
    0.11890313029289246,
    0.6272376775741577,
    0.34163960814476013,
    -0.8903378844261169,
    -0.7628925442695618,
    -0.7288247346878052,
    0.3835107982158661,
    0.7271829843521118,
    -0.9408215880393982,
    0.6883540749549866,
    -0.7036775350570679,
    -0.965282142162323,
    -0.22164388000965118,
    0.8825801014900208,
    0.8262306451797485,
    -0.2275519073009491,
    -0.960979163646698,
    0.17326268553733826,
    0.047791991382837296,
    -0.09849239885807037,
    -0.3734213709831238,
    0.2109927535057068,
    -0.2124057412147522,
    -0.9413342475891113,
    -0.7502487301826477,
    -0.46247440576553345,
    0.5648426413536072,
    0.9716879725456238,
    -0.8177434206008911,
    -0.33740371465682983,
    -0.5989349484443665,
    -0.12575139105319977,
    0.14896366000175476,
    -0.021854259073734283,
    -0.34762099385261536,
    0.4522262215614319,
    0.14708389341831207,
    -0.39971306920051575,
    0.7449293732643127,
    -0.22011472284793854,
    -0.5633198618888855,
    0.13257841765880585,
    -0.28744781017303467,
    0.0805354043841362,
    -0.7591389417648315,
    -0.21616867184638977,
    -0.4885372221469879,
    0.8716300129890442,
    -0.4705313742160797,
    -0.4145088493824005,
    -0.41522857546806335,
    -0.6855464577674866,
    0.7927122116088867,
    -0.1316537708044052,
    0.8780052065849304,
    -0.5406690239906311,
    -0.01805180124938488,
    -0.7900357842445374,
    0.5649740099906921,
    -0.539081871509552,
    -0.6415662169456482,
    -0.1916714906692505,
    -0.02878195233643055,
    -0.21082790195941925,
    -0.6440442204475403,
    0.25247347354888916,
    0.35748445987701416,
    -0.5174018740653992,
    0.6264898777008057,
    0.7156345248222351,
    0.44959867000579834,
    -0.35790276527404785,
    -0.9185429811477661,
    -0.051930468529462814,
    0.023584680631756783,
    -0.7446213364601135,
    0.40554824471473694,
    0.9837977290153503,
    0.12891627848148346,
    0.14828340709209442,
    0.909997820854187,
    -0.03006373532116413,
    1.0,
    -0.2520340383052826,
    -0.5295846462249756,
    0.7889187932014465,
    0.7559432983398438,
    0.37593913078308105,
    -0.924778163433075,
    -0.44252145290374756,
    0.9125736355781555,
    -0.028055664151906967,
    0.6722983121871948,
    -0.6238592863082886,
    0.12723156809806824,
    0.6393477320671082,
    0.622418999671936,
    0.533423900604248,
    0.881255567073822,
    -0.14586324989795685,
    -0.8799004554748535,
    -0.42193979024887085,
    -0.44609516859054565,
    0.5540604591369629,
    0.4879847466945648,
    -0.9648793339729309,
    -0.006888144183903933,
    -0.539734959602356,
    -0.44490501284599304,
    0.8069307208061218,
    0.8225927948951721,
    -0.7203070521354675,
    0.26900845766067505,
    -0.8445417284965515,
    0.013223696500062943,
    1.0,
    0.6832026839256287,
    0.9137118458747864,
    0.052937526255846024,
    -0.07411092519760132,
    0.16891103982925415,
    0.34481024742126465,
    0.38157904148101807,
    -0.9832392334938049,
    -0.6252450942993164,
    0.8903958201408386,
    -0.3481767773628235,
    -0.9763389825820923,
    0.4002441465854645,
    0.06360373646020889,
    -0.5229468941688538,
    0.41852468252182007,
    0.16408281028270721,
    -0.7919736504554749,
    0.7382521033287048,
    0.6648456454277039,
    -0.415607213973999,
    -0.34032103419303894,
    0.340043306350708,
    -0.6579424142837524,
    0.4731863737106323,
    0.06841637194156647,
    0.8623430728912354,
    -0.5206977128982544,
    -0.9101474285125732,
    0.4862208664417267,
    -0.23067119717597961,
    -0.22893469035625458,
    -0.8303812146186829,
    -0.22114020586013794,
    -0.5003206133842468,
    0.9215308427810669,
    -0.6642231941223145,
    0.27491381764411926,
    0.21380053460597992,
    0.26956701278686523,
    0.6278754472732544,
    -0.008612258359789848,
    0.4531998038291931,
    -0.6054168939590454,
    -0.11173757910728455,
    -0.44710227847099304,
    0.20236225426197052,
    0.913821816444397,
    -0.035407643765211105,
    0.06135440245270729,
    -0.8409833312034607,
    0.8291908502578735,
    -0.7903715372085571,
    0.6652058362960815,
    0.2830713987350464,
    0.004284804221242666,
    -0.7304268479347229,
    0.3117523491382599,
    0.6786186099052429,
    -0.5896725058555603,
    0.4271494448184967,
    -0.36976832151412964,
    0.8743400573730469,
    0.0585588663816452,
    -0.07305216044187546,
    1.0,
    0.7105777263641357,
    -0.6721638441085815,
    0.15625177323818207,
    0.010687603615224361,
    1.0,
    -0.3028504252433777,
    0.2640033960342407,
    -0.276699036359787,
    0.2268868237733841,
    0.26888635754585266,
    0.07132493704557419,
    0.9500778317451477,
    -0.5293313264846802,
    0.7814356684684753,
    -0.07803580164909363,
    -0.19638651609420776,
    -0.9235754013061523,
    0.4352976083755493,
    -0.12749730050563812,
    0.4686085879802704,
    0.144291490316391,
    0.7628650665283203,
    -0.7720756530761719,
    0.6686971783638,
    -0.016666151583194733,
    -0.19745773077011108,
    -0.3966732323169708,
    0.8974394798278809,
    -0.33995795249938965,
    0.2646627128124237,
    0.40534064173698425,
    0.3254341185092926,
    0.12479323893785477,
    0.839463472366333,
    0.11293386667966843,
    -1.0,
    0.41736218333244324,
    -0.49812623858451843,
    0.18467365205287933,
    0.6563310027122498,
    -0.5736502408981323,
    -0.9251899719238281,
    -0.7166478633880615,
    0.6930875778198242,
    -0.05555889382958412,
    0.3916410207748413,
    0.48408451676368713,
    -0.8202916383743286,
    -0.4710899591445923,
    0.2886257767677307,
    -0.5305246114730835,
    0.526300847530365,
    -0.22779010236263275,
    -0.0779535174369812,
    -0.912601113319397,
    -0.6300057172775269,
    0.8484236598014832,
    -0.12880030274391174,
    -0.005340677220374346,
    -0.7073397040367126,
    -0.26045405864715576,
    0.9054322838783264,
    0.07526784390211105,
    0.14193855226039886,
    0.5691123008728027,
    -0.7666921019554138,
    -0.5748711228370667,
    0.011911447159945965,
    0.8906582593917847,
    0.040577299892902374,
    -0.326447457075119,
    0.499124139547348,
    -0.5409955978393555,
    0.5027315616607666,
    0.44162717461586,
    0.2054751217365265,
    -0.5250588059425354,
    0.7135440707206726,
    0.21526837348937988,
    0.4735007584095001,
    -0.9942899942398071,
    0.2539750933647156,
    -0.9908596873283386,
    0.6772546768188477,
    -0.6788232326507568,
    -0.5184240937232971,
    0.9142186045646667,
    0.9689260721206665,
    -0.5144748687744141,
    -0.0934232547879219,
    0.4321023225784302,
    0.9278908967971802,
    -0.08364208787679672,
    -0.4068087041378021,
    -0.3416150212287903,
    -0.7742363810539246,
    -0.23940853774547577,
    0.15061189234256744,
    0.02609039470553398,
    0.49963369965553284,
    -0.926203191280365,
    -0.09318824112415314,
    -0.3864530920982361,
    -0.8186255097389221,
    0.5381878614425659,
    -0.2420605719089508,
    -0.20767836272716522,
    -0.770070493221283,
    -0.8980072140693665,
    0.6170810461044312,
    -0.8394792079925537,
    -1.0,
    -0.5895047783851624,
    -0.6845911741256714,
    0.9512284398078918,
    -0.9644641876220703,
    -0.4962157607078552,
    -0.4679615795612335,
    -0.6643636226654053,
    0.9305185675621033,
    -0.09802854806184769,
    -0.7662832140922546,
    -0.17330236732959747,
    -0.6412366628646851,
    0.6827172040939331,
    -0.8266671299934387,
    0.541532576084137,
    0.639887809753418,
    -0.6572068929672241,
    -1.0,
    0.06691191345453262,
    -0.5150332450866699,
    -0.9342600107192993,
    -0.7919769287109375,
    -0.4781578779220581,
    1.0,
    0.19043242931365967,
    -1.0,
    0.5230690240859985,
    -0.8979796767234802,
    0.2997038960456848,
    -0.06883742660284042,
    0.45425572991371155,
    0.6786155104637146,
    -0.28349554538726807,
    -0.6130345463752747,
    -0.36138197779655457,
    -0.23833425343036652,
    -0.7019408941268921,
    -0.22640764713287354,
    -0.8192785382270813,
    0.2103763222694397,
    -0.7332866191864014,
    -0.1938292235136032,
    0.9397503137588501,
    0.7784537672996521,
    -0.0789300799369812,
    -0.8224006295204163,
    -0.20054008066654205,
    0.9483321905136108,
    0.8633472919464111,
    -0.7496872544288635,
    0.44316554069519043,
    -0.9825160503387451,
    -0.1565294712781906,
    -0.07165441662073135,
    0.5420879125595093,
    0.20571616291999817,
    -0.07092193514108658,
    -0.25408807396888733,
    -1.0,
    1.0,
    -0.13575248420238495,
    -0.7909727692604065,
    0.6132206320762634,
    1.0,
    -0.915668249130249,
    0.7632923126220703,
    -0.4350079894065857,
    -0.9886288046836853,
    -0.4074251055717468,
    -0.7868891954421997,
    0.6129031181335449,
    0.2112581878900528,
    0.9113346934318542,
    -0.7878018021583557,
    0.42550140619277954,
    0.7283944487571716,
    -0.3245123326778412,
    0.08453628420829773,
    0.2861354947090149,
    0.2298409342765808,
    0.04087025299668312,
    -0.41429179906845093,
    0.17706549167633057,
    -0.8680346608161926,
    -0.289733350276947,
    0.5540574789047241,
    0.3132968842983246,
    0.1297738403081894,
    0.6066896915435791,
    0.47866150736808777,
    -0.7094240188598633,
    -0.4403727352619171,
    -0.6613056063652039,
    0.5226171016693115,
    0.533423900604248,
    -0.24691008031368256,
    0.8018463850021362,
    0.866310715675354,
    0.5792016983032227,
    -0.39291059970855713,
    0.340470552444458,
    0.6237220168113708,
    0.7287453413009644,
    -0.9000182151794434,
    0.16667082905769348,
    -0.4680624008178711,
    -0.37455347180366516,
    0.16954262554645538,
    0.09326743334531784,
    1.0,
    0.05913886800408363,
    0.12524189054965973,
    -0.042475685477256775,
    0.6530322432518005,
    0.7743216156959534,
    -0.9338175654411316,
    -0.6969481706619263,
    0.020062683150172234,
    0.7062318921089172,
    0.563197672367096,
    -0.6362468004226685,
    -0.5371288657188416,
    -0.8373578190803528,
    0.26822105050086975,
    -0.30059805512428284,
    0.39642032980918884,
    0.7351145148277283,
    0.7389599084854126,
    -0.47174596786499023,
    0.8117282390594482,
    0.20034483075141907,
    -0.9278361201286316,
    0.5288918614387512,
    0.2539292573928833,
    0.8744134306907654,
    0.7402722239494324,
    -0.7497450709342957,
    -0.7733176946640015,
    0.5619862079620361,
    -0.7319561243057251,
    -0.37482529878616333,
    0.662703275680542,
    -0.9613422155380249,
    0.9963713884353638,
    -0.9896360635757446,
    0.2384166717529297,
    -0.3010590672492981,
    0.46104612946510315,
    -0.4040621519088745,
    0.7512282729148865,
    -0.25099942088127136,
    0.2952483296394348,
    -0.3771781623363495,
    1.0,
    -0.03816948086023331,
    0.33986330032348633,
    -0.3438031077384949,
    -0.8680533766746521,
    0.34723344445228577,
    0.16050288081169128,
    0.08053828030824661,
    0.7802850008010864,
    0.2596576511859894,
    0.2842647433280945,
    -0.7311381101608276,
    -0.5237341523170471,
    0.7928677797317505,
    -0.37728509306907654,
    -0.6170538067817688,
    -0.4865047335624695,
    -0.7655384540557861,
    0.42650535702705383,
    -0.4169713258743286,
    -0.0302315354347229,
    0.7751732468605042,
    0.2628161907196045,
    -0.86931973695755,
    0.9275185465812683,
    -0.6861262321472168,
    0.49824830889701843,
    0.9952208399772644,
    0.5135350227355957,
    0.0034427179489284754,
    0.5427656769752502,
    0.8229222297668457,
    -0.0125187449157238,
    -0.5699820518493652,
    0.5665302276611328,
    0.05185718834400177,
    -0.6152073740959167,
    0.3054749369621277,
    0.6975343227386475,
    -0.9606829881668091,
    -0.19594402611255646,
    -0.5164158940315247,
    -0.6595751047134399,
    0.528190016746521,
    -0.23257847130298615,
    0.8179174065589905,
    -0.45001986622810364,
    -0.4943661689758301,
    0.43550530076026917,
    0.7844630479812622,
    0.5032105445861816,
    0.6706532835960388,
    0.9135714769363403,
    -0.02956640161573887,
    -0.3000762462615967,
    0.8549516201019287,
    0.2156742960214615,
    0.3519425392150879,
    -0.767772376537323,
    -0.7907131910324097,
    -0.4200110137462616,
    0.21751151978969574,
    0.5429913997650146,
    -0.602279782295227,
    -0.5178655982017517,
    0.9893581867218018,
    -0.9196692705154419,
    -0.703018307685852,
    -0.014838090166449547,
    -1.0,
    0.22706983983516693,
    0.8778008818626404,
    -0.9714559316635132,
    -1.0,
    0.7608325481414795,
    0.9274208545684814,
    0.3336802124977112,
    0.3147343397140503,
    -0.1773461550474167,
    -0.896731436252594,
    -0.8577073216438293,
    -0.3032687306404114,
    -0.5518448948860168,
    -0.36341121792793274,
    -0.7050997614860535,
    -0.8356335759162903,
    0.8350932598114014,
    0.26396074891090393,
    -0.44793540239334106,
    -0.10157168656587601,
    -0.7969635128974915,
    -0.7090181112289429,
    0.7819725275039673,
    0.08995343744754791,
    0.046403490006923676,
    0.5612475275993347,
    0.9632526636123657,
    0.29326748847961426,
    0.9243873953819275,
    0.7442548274993896,
    -0.10236211866140366,
    0.9627887606620789,
    -0.6533219218254089,
    0.9136906266212463,
    0.03767823055386543,
    0.7699850797653198,
    -0.45978572964668274,
    0.6743581295013428,
    -0.11576274037361145,
    0.5229681134223938,
    -0.14994649589061737,
    0.7638630270957947,
    0.7744073271751404,
    0.3235969841480255,
    -0.7943724393844604,
    -0.8965787887573242,
    -0.19775992631912231,
    -0.8519150018692017,
    -0.7970455884933472,
    0.798528790473938,
    0.3815057873725891,
    -0.7276804447174072,
    0.6258155107498169,
    -0.46860265731811523,
    -0.6475511193275452,
    0.8619312047958374,
    0.5183660984039307,
    -0.058653395622968674,
    -0.7288949489593506,
    1.0,
    -0.3353983759880066,
    -0.8460738658905029,
    -0.12029794603586197,
    0.7150455713272095,
    0.9154423475265503,
    0.6157841682434082,
    0.1565568894147873,
    -0.15299540758132935,
    0.8210335373878479,
    0.38091376423835754,
    0.3508349061012268,
    -0.7859643697738647,
    -0.826056718826294,
    -0.26133012771606445,
    -0.1603534072637558,
    -0.06348153203725815,
    0.08536040782928467,
    0.8973175287246704,
    0.5755484700202942,
    0.46123838424682617,
    1.0,
    -0.09112825244665146,
    0.0264870785176754,
    0.42708513140678406,
    -0.3942198157310486,
    0.19542835652828217,
    -0.05245497450232506,
    -0.36690258979797363,
    -0.33171483874320984,
    -0.21377602219581604,
    0.949626088142395,
    0.7623218297958374,
    -0.0955413281917572,
    0.7163853049278259,
    -0.695980966091156,
    -0.9364238977432251,
    0.2436721920967102,
    -0.7072266936302185,
    0.39340201020240784,
    0.3757895529270172,
    -0.870415210723877,
    -0.8669939637184143,
    -0.5732901692390442,
    -0.007718176580965519,
    0.7426801323890686,
    -0.6306314468383789,
    0.16939608752727509,
    -0.2110997438430786,
    0.5453842282295227,
    -0.5442396998405457,
    0.5243473649024963,
    0.429609090089798,
    -0.015955371782183647,
    -0.9418042898178101,
    0.7195956110954285,
    0.32624587416648865,
    -0.2804557979106903,
    0.8045471906661987,
    0.4414992034435272,
    0.754783570766449,
    -0.21850349009037018,
    -0.5345286130905151,
    0.3458906412124634,
    0.11678825318813324,
    0.22995100915431976,
    0.1280648410320282,
    -0.6783930063247681,
    0.3260384798049927,
    -0.00907924585044384,
    -0.07066559046506882,
    -0.579925000667572,
    0.424292653799057,
    0.008154676295816898,
    -0.39429008960723877,
    -0.34797197580337524,
    0.024515334516763687,
    -0.9827142953872681,
    0.5838284492492676,
    0.6250374913215637,
    0.13391512632369995,
    0.8020844459533691,
    0.13073842227458954,
    0.2663350999355316,
    -0.37684863805770874,
    0.9174107909202576,
    0.8664570450782776,
    0.015060927718877792,
    0.5426008105278015,
    0.4192543625831604,
    -0.15424662828445435,
    0.8543596267700195,
    0.8163792490959167,
    0.12339252233505249,
    -0.15627308189868927,
    0.6152989268302917,
    0.5674123167991638,
    -0.12502522766590118,
    -0.16666163504123688,
    -0.9482589364051819,
    -0.03901783376932144,
    -0.22563853859901428,
    -0.9197520613670349,
    -0.8893429040908813,
    0.6380658149719238,
    -0.7440291047096252,
    -0.6469374895095825,
    0.3983887732028961,
    -0.8957458138465881,
    -0.044904932379722595,
    0.510379433631897,
    -0.4098879396915436,
    -0.6318552494049072,
    -0.45907455682754517,
    0.8936644196510315,
    -0.9826929569244385,
    -0.40338149666786194,
    0.7489058971405029,
    -0.48856472969055176,
    -0.37540507316589355,
    -0.2061433345079422,
    -0.3918638527393341,
    -0.38067877292633057,
    0.20503856241703033,
    -0.9880672693252563,
    1.0,
    -0.833042323589325,
    -0.11339154839515686,
    0.8700491786003113,
    -0.8688589930534363,
    0.49783024191856384,
    -0.6039063930511475,
    0.23531600832939148,
    -0.5564072728157043,
    -0.6435223817825317,
    -0.7598773837089539,
    -0.2909298837184906,
    0.5744835138320923,
    -0.14417557418346405,
    0.1354929357767105,
    -0.5564379692077637,
    -0.10888082534074783,
    -0.7827938795089722,
    -0.17583239078521729,
    0.8410565853118896,
    -0.6541886925697327,
    -0.8910459876060486,
    -0.9743492603302002,
    0.0822107195854187,
    1.0,
    -1.0,
    -0.4622638523578644,
    -0.9145756363868713,
    0.0318644754588604,
    0.9527909755706787,
    -0.4863918423652649,
    0.3009430468082428,
    0.002163792960345745,
    0.39268171787261963,
    0.7587175965309143,
    -0.979570746421814,
    -0.5262458324432373,
    -0.6011871695518494,
    1.0,
    0.4936307966709137,
    -0.9233008623123169,
    -0.6311777830123901,
    0.7868738770484924,
    -0.3043183386325836,
    -0.01299804076552391,
    0.336921364068985,
    0.6310527920722961,
    -0.4515915513038635,
    0.638340413570404,
    0.12414314597845078,
    0.9708915948867798,
    0.7645037174224854,
    0.254686176776886,
    0.6867397427558899,
    0.5227789878845215,
    -0.5377604961395264,
    0.5128909945487976,
    0.783871054649353,
    -0.722714900970459,
    -0.38808873295783997,
    0.04559461027383804,
    0.3457809090614319,
    -0.6187199354171753,
    0.29909655451774597,
    -1.0,
    0.8397046327590942,
    -0.8835963010787964,
    -0.3140721321105957,
    0.25973084568977356,
    0.9429121017456055,
    -0.04258835315704346,
    0.6505386829376221,
    -0.4322061836719513,
    -0.6862300634384155,
    0.6404036283493042,
    -0.5707968473434448,
    0.7669880986213684,
    0.20603343844413757,
    -0.758540689945221,
    0.24051015079021454,
    -0.5994902849197388,
    0.9391092658042908,
    0.14978788793087006,
    -0.42422574758529663,
    0.24130691587924957,
    -0.22089290618896484,
    -0.4254890978336334,
    0.7165319919586182,
    1.0,
    0.35846737027168274,
    0.23542903363704681,
    -0.8530899286270142,
    0.6065706014633179,
    0.8009248375892639,
    -0.2342141717672348,
    0.45646828413009644,
    0.35522010922431946,
    -0.5851526856422424,
    0.12315139919519424,
    -0.9864528179168701,
    0.02127734199166298,
    0.9797417521476746,
    -0.7836695909500122,
    -0.43937498331069946,
    0.26859039068222046,
    0.17161768674850464,
    -1.0,
    -0.6578050851821899,
    0.3615131080150604,
    0.9046233892440796,
    -0.21183504164218903,
    -0.46752819418907166,
    0.9409101605415344,
    -0.7179449200630188,
    -0.2518814504146576,
    -0.17490464448928833,
    -0.7292215824127197,
    -0.23914600908756256,
    -0.08275711536407471,
    0.6212377548217773,
    0.8563767671585083,
    -0.9541550278663635,
    -0.4793115258216858,
    -0.8702383637428284,
    0.08567151427268982,
    0.9925993084907532,
    -0.013068025931715965,
    0.5374644994735718,
    -0.3410137891769409,
    -0.7076724171638489,
    -0.11353809386491776,
    0.7148563265800476,
    -0.6138463616371155,
    1.0,
    -0.16732394695281982,
    1.0,
    -0.9515335559844971,
    -0.5295631885528564,
    0.9176152348518372,
    -0.8794823288917542,
    0.31103232502937317,
    0.1903195083141327,
    0.30733659863471985,
    -0.09083224833011627,
    0.406082421541214,
    0.4599199593067169,
    -0.6025758385658264,
    0.3444654643535614,
    -0.7642873525619507,
    -0.2537219822406769,
    0.14846648275852203,
    0.7029083967208862,
    -0.44186830520629883,
    -0.04248480126261711,
    0.6804713010787964,
    0.6981656551361084,
    -0.4566028118133545,
    -0.5102053880691528,
    0.3310282528400421,
    0.8326058983802795,
    0.26491600275039673,
    -0.4098421335220337,
    0.24982476234436035,
    -0.6463575959205627,
    -0.43020114302635193,
    0.8138097524642944,
    -0.43314626812934875,
    -0.8767693042755127,
    -1.0,
    -0.9531968235969543,
    -0.9801751375198364,
    -0.6581439971923828,
    -0.2906094193458557,
    -0.7272958159446716,
    -0.1227271631360054,
    -0.9002838134765625,
    0.8300603628158569,
    0.4010895788669586,
    -0.6894832849502563,
    -0.36072883009910583,
    -0.8908076882362366,
    0.7928921580314636,
    -0.49590444564819336,
    0.014142276719212532,
    -0.7626760005950928,
    0.5843105316162109,
    -0.5996764302253723,
    -0.05139001086354256,
    0.9255837202072144,
    -0.03904841095209122,
    -1.0,
    -0.4773554503917694,
    0.5815851092338562,
    -0.15378282964229584,
    0.5284429788589478,
    -0.6943021416664124,
    0.16967681050300598,
    -0.3734031617641449,
    0.3708091676235199,
    -1.0,
    0.7097292542457581,
    -0.19306614995002747,
    -0.07055282592773438,
    -0.7370282411575317,
    -0.8695364594459534,
    -0.6127018332481384,
    0.7653371095657349,
    -0.044181596487760544,
    0.5203529000282288,
    -0.06267573684453964,
    0.06150376424193382,
    0.9498122930526733,
    -0.7201787829399109,
    0.9542832970619202,
    0.1635303646326065,
    -0.4455733299255371,
    -0.3075594902038574,
    0.8792626857757568,
    -0.08892475813627243,
    0.6546310186386108,
    0.5091341137886047,
    0.2925870418548584,
    -0.009283491410315037,
    0.4940061569213867,
    0.54832923412323,
    -0.20393693447113037,
    0.3895290195941925,
    -0.5192540287971497,
    -0.663508951663971,
    0.690148651599884,
    0.49832451343536377,
    -0.4232918620109558,
    -0.9820398688316345,
    -1.0,
    -0.5339239239692688,
    -0.267445832490921,
    -0.7284615635871887,
    0.5153965353965759,
    -0.011703906580805779,
    -0.4677664041519165,
    -0.6617053747177124,
    0.4596271514892578,
    -0.6781518459320068,
    0.7310678362846375,
    0.48768261075019836,
    -0.5108767747879028,
    -0.29011818766593933,
    0.28624826669692993,
    0.7028048038482666,
    -0.6376110315322876,
    0.9489272832870483,
    -0.3930601477622986,
    -0.8512710332870483,
    0.8225715160369873,
    0.9486373066902161,
    0.443464457988739,
    0.08175903558731079,
    -0.9349772930145264,
    -0.3276650607585907,
    0.11644954979419708,
    -0.49579161405563354,
    -0.4877864718437195,
    -0.3139285445213318,
    -0.9454665780067444,
    0.48906221985816956,
    -0.44698917865753174,
    0.9119448661804199,
    0.23371995985507965,
    -0.15754581987857819,
    -0.4860379099845886,
    0.5712728500366211,
    0.8344767093658447,
    0.052958663552999496,
    -0.2614825963973999,
    -0.1074465662240982,
    -0.5733452439308167,
    -0.5307656526565552,
    -0.0729026049375534,
    0.27893000841140747,
    -0.7867549061775208,
    0.028687555342912674,
    -0.5094332098960876,
    -0.18406322598457336,
    0.2337809056043625,
    -0.8505814075469971,
    -0.48160016536712646,
    -0.3085635006427765,
    -0.6502884030342102,
    0.8489425182342529,
    -0.3857324719429016,
    0.8210976123809814,
    0.01731003448367119,
    -0.3416302800178528,
    0.8078036904335022,
    -0.8414777517318726,
    -0.584301233291626,
    -0.09868773072957993,
    -0.5136540532112122,
    0.6148015260696411,
    -0.20222173631191254,
    0.14607080817222595,
    -0.8454452157020569,
    -0.31345853209495544,
    0.3157414197921753,
    -0.4372691512107849,
    -0.30403152108192444,
    0.1895260214805603,
    0.226270392537117,
    0.7795101404190063,
    -0.9328317046165466,
    0.006372479256242514,
    -0.0824822336435318,
    -0.9256203174591064,
    0.7907529473304749,
    -0.5926696062088013,
    -0.5025941729545593,
    0.6018524765968323,
    -0.7751518487930298,
    -0.6876307129859924,
    -0.745969831943512,
    0.7621142864227295,
    -0.1096925139427185,
    -0.52059406042099,
    0.8576372265815735,
    -0.8569324016571045,
    -0.29982611536979675,
    -0.4523577094078064,
    -0.735251784324646,
    -0.1872616559267044,
    -0.6779594421386719,
    -0.006357003003358841,
    0.06392688304185867,
    -0.3231300413608551,
    0.4722312092781067,
    -0.09090238064527512,
    0.6062712669372559,
    0.5510728359222412,
    -0.5459975004196167,
    0.6660268902778625,
    0.7764336466789246,
    0.31032443046569824,
    -0.6434858441352844,
    -0.5361095666885376,
    -0.08434703946113586,
    0.17635425925254822,
    0.8069369792938232,
    -0.4302438199520111,
    0.5361860394477844,
    0.14705945551395416,
    0.5268867611885071,
    0.6923063397407532,
    -0.3243231475353241,
    -0.4491501450538635,
    0.3370189964771271,
    -0.6250921487808228,
    0.4311898946762085,
    0.08221390843391418,
    -0.28986483812332153,
    -0.5166938304901123,
    -0.5037140846252441,
    0.6396585702896118,
    -0.3549119234085083,
    -0.2137821912765503,
    -0.7537035346031189,
    0.043250810354948044,
    -0.7858272194862366,
    -1.0,
    -0.07953130453824997,
    -0.9822351932525635,
    0.7340737581253052,
    -0.3556596040725708,
    -0.343153178691864,
    -1.0,
    0.8640491962432861,
    0.42325201630592346,
    0.39309367537498474,
    -0.4483109414577484,
    0.21405678987503052,
    -0.3964231610298157,
    0.8213294148445129,
    0.861085832118988,
    -0.021353811025619507,
    -0.6163944602012634,
    -0.11803654581308365,
    0.9865108132362366,
    0.644361674785614,
    0.33694860339164734,
    0.9294198155403137,
    0.37811213731765747,
    -0.4537370502948761,
    -0.9091587066650391,
    -0.12305064499378204,
    0.8091098070144653,
    0.7034302353858948,
    0.5752097964286804,
    0.013126020319759846,
    0.7986480593681335,
    -0.12606273591518402,
    -0.1909971684217453,
    0.7212713360786438,
    -0.994521975517273,
    -0.1972106695175171,
    0.2191687971353531,
    0.7957578897476196,
    0.9187964797019958,
    0.02899567037820816,
    -0.8273934721946716,
    0.08330023288726807,
    -0.5543839335441589,
    0.9495010375976563,
    -0.021933628246188164,
    -0.9610065221786499,
    -0.42564165592193604,
    0.4772942066192627,
    -0.4717244505882263,
    0.8393935561180115,
    0.014096594415605068,
    0.5040193796157837,
    -0.6321972012519836,
    -0.7935850024223328,
    0.7997864484786987,
    -0.22643209993839264,
    -0.12030090391635895,
    0.8839898705482483,
    -0.4575549066066742,
    0.9286262392997742,
    -0.10521257668733597,
    -0.8026521801948547,
    1.0,
    1.0,
    0.637421727180481,
    -0.2612505853176117,
    -0.7583452463150024,
    0.8380627036094666,
    0.22139644622802734,
    -0.7924405336380005,
    0.7485641241073608,
    -0.8424420952796936,
    -0.11566515266895294,
    -1.0,
    0.27401041984558105,
    0.5503922700881958,
    -0.28317511081695557,
    -0.39943233132362366,
    0.3168797791004181,
    0.15793320536613464,
    0.4727805256843567,
    0.7334818243980408,
    -0.5980103015899658,
    -0.2083987146615982,
    0.5883815288543701,
    -0.8149111270904541,
    0.3658467233181,
    0.8717734217643738,
    -0.6418256759643555,
    -0.19627965986728668,
    0.9159245491027832,
    -0.13510866463184357,
    -0.20126044750213623,
    0.5344432592391968,
    0.0646076574921608,
    -0.9385448694229126,
    0.2093845009803772,
    -0.011108954437077045,
    0.5434796810150146,
    0.902603030204773,
    0.3063080608844757,
    -0.20250552892684937,
    0.23487041890621185,
    0.185757115483284,
    0.11070886999368668,
    0.8595904111862183,
    -0.33037516474723816,
    -0.7578447461128235,
    -0.15829329192638397,
    0.895571768283844,
    -0.4813440144062042,
    -0.8873379230499268,
    0.5619006752967834,
    -0.917664110660553,
    -0.5331829786300659,
    -0.7153691053390503,
    0.8289009928703308,
    0.5682210326194763,
    -0.7912687063217163,
    -0.6932797431945801,
    0.32970696687698364,
    -0.13596917688846588,
    -0.863579273223877,
    0.6180059313774109,
    0.34965983033180237,
    -0.8505265116691589,
    0.08677619695663452,
    0.558519184589386,
    -0.3632863163948059,
    -1.0,
    0.4708365797996521,
    0.5895993709564209,
    -0.5992705225944519,
    0.9102633595466614,
    0.6059237122535706,
    0.41214635968208313,
    -0.7478436827659607,
    -0.7437360882759094,
    0.24860984086990356,
    0.7263314723968506,
    0.23288358747959137,
    -0.05712152272462845,
    0.8153476119041443,
    0.8823786973953247,
    -0.06391790509223938,
    0.6983336806297302,
    -0.8061158657073975,
    -0.015112809836864471,
    0.9948118329048157,
    -0.16624343395233154,
    0.36996063590049744,
    -0.027408767491579056,
    -0.5081300735473633,
    0.4578965902328491,
    0.4979095160961151,
    0.06944186240434647,
    -0.7357310056686401,
    0.6673422455787659,
    -0.8649706840515137,
    0.01355016976594925,
    0.5943356156349182,
    0.41352298855781555,
    0.6344766616821289,
    0.5617418885231018,
    -0.7119786739349365,
    0.07921404391527176,
    -0.4959595501422882,
    -0.9929869174957275,
    0.07661063969135284,
    0.8752495050430298,
    -0.6354960203170776,
    -0.7922574877738953,
    -0.3833489716053009,
    0.7610340118408203,
    -0.5018922090530396,
    0.8943143486976624,
    -0.8624042272567749,
    -0.4380902349948883,
    -0.4681021273136139,
    0.3357982039451599,
    -0.13038411736488342,
    0.215463787317276,
    -0.004684698302298784,
    0.5721457004547119,
    -0.9112521409988403,
    -0.142347514629364,
    0.01991936005651951,
    -0.5160953998565674,
    0.8675742149353027,
    -0.6887603402137756,
    -0.4319283068180084,
    0.2507370114326477,
    -0.5393048524856567,
    0.12794587016105652,
    0.1089785099029541,
    0.30738842487335205,
    -0.6754111051559448,
    0.2422376573085785,
    0.43471163511276245,
    -0.09954222291707993,
    0.20237118005752563,
    0.622779130935669,
    0.2714652717113495,
    -0.25367578864097595,
    0.2804497182369232,
    -0.3896694481372833,
    -0.07654932886362076,
    -0.21407826244831085,
    -1.0,
    -0.34947970509529114,
    0.8388714790344238,
    -0.49807441234588623,
    0.6400617361068726,
    -0.7217536568641663,
    0.7945768237113953,
    0.29641714692115784,
    0.8333565592765808,
    -0.5334088802337646,
    0.8166750073432922,
    0.4038086235523224,
    -0.46969810128211975,
    0.08075810223817825,
    -0.8543991446495056,
    -0.06920386850833893,
    -0.16256894171237946,
    0.657823383808136,
    0.5909359455108643,
    -0.4246252775192261,
    0.3632587790489197,
    0.15864136815071106,
    -0.7258858680725098,
    0.502731442451477,
    0.5842068791389465,
    -0.6141272783279419,
    0.3462813198566437,
    -0.13742785155773163,
    -0.022217493504285812,
    0.8372691869735718,
    0.9498488306999207,
    0.35532695055007935,
    0.4214453399181366,
    0.2582229971885681,
    -0.5056641101837158,
    -0.5868860483169556,
    -0.3590960204601288,
    0.089425228536129,
    0.9192754626274109,
    0.08908657729625702,
    -0.11163388937711716,
    -0.8030948042869568,
    0.4877804219722748,
    -0.41739264130592346,
    -1.0,
    0.8039032816886902,
    0.45257726311683655,
    0.27108675241470337,
    0.5657643675804138,
    0.049931030720472336,
    0.6560837626457214,
    0.27121803164482117,
    -0.9088717103004456,
    1.0,
    0.8354655504226685,
    -1.0,
    -1.0,
    -0.7165382504463196,
    -0.06146734207868576,
    -0.4800896644592285,
    0.0066225468181073666,
    -0.3513810634613037,
    0.17542652785778046,
    -0.2055421769618988,
    0.328546941280365,
    -0.7950559258460999,
    -0.1039186641573906,
    0.4245154559612274,
    0.7348460555076599,
    -0.4030762016773224,
    -0.6966336369514465,
    0.6874600052833557,
    -0.8096193075180054,
    0.5955352783203125,
    -0.9429090023040771,
    0.4463759660720825,
    -0.10925609618425369,
    -0.20565499365329742,
    -0.6569110155105591,
    -0.6875239014625549,
    0.12517458200454712,
    0.6016815900802612,
    -0.8160343766212463,
    0.19122272729873657,
    -0.6443893313407898,
    0.15762200951576233,
    0.3858393430709839,
    -0.8610339164733887,
    -0.20897845923900604,
    0.9123477935791016,
    -0.5073792338371277,
    -0.09189771115779877,
    0.49390822649002075,
    -0.6113253235816956,
    -0.4228520393371582,
    -0.40096741914749146,
    -0.264812171459198,
    -0.45535144209861755,
    0.2677052915096283,
    0.5357860922813416,
    0.004471005871891975,
    0.013657011091709137,
    0.7045992612838745,
    -0.7173192501068115,
    -0.5550368428230286,
    -0.052061665803194046,
    0.3969053328037262,
    0.5131840109825134,
    -0.4908108115196228,
    -0.5233162641525269,
    0.17853328585624695,
    0.7379708290100098,
    0.05828413367271423,
    0.2754966914653778,
    -0.1379069983959198,
    0.46476948261260986,
    -0.39492782950401306,
    -0.9515578746795654,
    -0.178124338388443,
    0.08926369249820709,
    0.47732770442962646,
    -0.7405163049697876,
    0.11956848949193954,
    0.06549268215894699,
    -0.2804557979106903,
    -0.9442030191421509,
    0.4935514032840729,
    -0.2925870418548584,
    -0.2006104588508606,
    1.0,
    -0.8099033236503601,
    0.465282142162323,
    -0.008349762298166752,
    0.6736869812011719,
    -0.24150516092777252,
    -0.005356194451451302,
    -0.012244096025824547,
    -0.06479073315858841,
    -0.7721244096755981,
    -0.7862789630889893,
    -0.3736594319343567,
    0.6061220169067383,
    -0.6280463933944702,
    -0.8949888348579407,
    -0.5071351528167725,
    -0.45153045654296875,
    0.9981963634490967,
    0.2881985008716583,
    -0.5816310048103333,
    -0.2563096880912781,
    -0.39976823329925537,
    0.28663283586502075,
    -0.9073855876922607,
    -0.41925111413002014,
    0.17921693623065948,
    -0.11260703951120377,
    0.8230535984039307,
    0.6095951199531555,
    0.4382243752479553,
    0.7616410851478577,
    0.49146708846092224,
    0.9703848361968994,
    0.5025573372840881,
    -0.5449904203414917,
    0.27547842264175415,
    -0.8609821200370789,
    0.8782098889350891,
    -0.30050355195999146,
    0.6820734739303589,
    -1.0,
    0.07127290964126587,
    0.2586991488933563,
    -0.6474593877792358,
    -0.3449690341949463,
    0.10755948722362518,
    -0.018381230533123016,
    -0.8315653800964355,
    -0.499072402715683,
    -0.46539804339408875,
    0.1082887127995491,
    1.0,
    -0.9056215286254883,
    -0.8790184855461121,
    0.18901944160461426,
    1.0,
    -0.8686483502388,
    0.1854882687330246,
    0.3488265573978424,
    0.860896646976471,
    0.2960386872291565,
    0.14101986587047577,
    0.7692098617553711,
    -0.7538773417472839,
    -0.6149449348449707,
    0.9489455223083496,
    -0.5163854956626892,
    0.9769127368927002,
    1.0,
    -1.0,
    0.29505598545074463,
    -0.23655220866203308,
    0.31400802731513977,
    -0.9988067150115967,
    -0.10138259083032608,
    1.0,
    0.9896695017814636,
    -0.8127598166465759,
    0.03503222391009331,
    -0.39274266362190247,
    0.8481216430664063,
    0.5061370730400085,
    -0.05454576388001442,
    0.7179204225540161,
    -0.834266185760498,
    1.0,
    -0.5414348840713501,
    0.7914639711380005,
    0.5244759321212769,
    -0.1501571089029312,
    -0.0762169361114502,
    -0.06261485069990158,
    -0.3057648241519928,
    0.6982817649841309,
    0.45464026927948,
    -0.9146183729171753,
    -0.8324808478355408,
    -0.03716240078210831,
    0.886049747467041,
    -0.3947415351867676,
    -0.4465375542640686,
    -0.8145174980163574,
    -0.5336984395980835,
    -0.6161656379699707,
    -0.6944457292556763,
    0.9520706534385681,
    -0.03238624334335327,
    0.5329477787017822,
    0.8359905481338501,
    -0.6367563605308533,
    -0.5168217420578003,
    0.11760002374649048,
    -1.0,
    -0.7019104957580566,
    0.394634872674942,
    0.3603687286376953,
    0.14294873178005219,
    0.895004153251648,
    -0.19679565727710724,
    -0.3177099823951721,
    0.902233898639679,
    -0.1543748825788498,
    -0.8443372845649719,
    0.08597366511821747,
    -0.2586901783943176,
    0.285845547914505,
    1.0,
    0.7135166525840759,
    -0.7940977811813354,
    0.6408763527870178,
    0.38171935081481934,
    -0.03332618996500969,
    0.6135260462760925,
    -0.4549301862716675,
    -0.7174381613731384,
    -0.810843288898468,
    0.08670617640018463,
    -0.3649616241455078,
    0.19018523395061493,
    0.3195257782936096,
    -0.9155400395393372,
    0.2039094865322113,
    0.8051729202270508,
    -0.6451215744018555,
    0.9629198908805847,
    0.5260567665100098,
    -0.4785975217819214,
    -0.06443991512060165,
    -0.2547561824321747,
    0.7921721339225769,
    -0.9231667518615723,
    -0.9526017308235168,
    -0.5348520874977112,
    -0.40538349747657776,
    -0.4075320363044739,
    -0.9641255140304565,
    0.2568499445915222,
    1.0,
    0.608441174030304,
    0.19352389872074127,
    0.7561326622962952,
    -0.7797234654426575,
    0.8960204720497131,
    -0.3548448383808136,
    -0.46351808309555054,
    0.7248633503913879,
    -0.9050264358520508,
    0.8441632986068726,
    0.28905609250068665,
    0.6239204406738281,
    -0.7429212331771851,
    -0.4802941083908081,
    0.7868618369102478,
    -0.15831789374351501,
    0.6258065700531006,
    0.8832209706306458,
    -0.812762975692749,
    -0.8508408069610596,
    0.795883059501648,
    -0.07929935306310654,
    -0.664641261100769,
    -0.8902067542076111,
    -0.8638874292373657,
    0.15363015234470367,
    -0.948039174079895,
    -0.3358500897884369,
    -0.8564226031303406,
    -0.5727134346961975,
    -0.33992117643356323,
    0.8641651272773743,
    -0.7488540410995483,
    0.7072697281837463,
    0.8664997816085815,
    0.6494185328483582,
    -0.7323284149169922,
    0.6834589838981628,
    0.32768934965133667,
    0.8989347815513611,
    -0.4819939434528351,
    -0.12068537622690201,
    -0.40953364968299866,
    -0.5932860970497131,
    -0.7618304491043091,
    -0.20098574459552765,
    0.14231708645820618,
    -0.2627643942832947,
    0.9056733250617981,
    0.054377853870391846,
    0.0884731262922287,
    0.8860377669334412,
    -0.19075609743595123,
    -0.17341241240501404,
    -0.8304086327552795,
    0.39713728427886963,
    0.1388317346572876,
    -0.1313638985157013,
    0.02421336993575096,
    0.24565871059894562,
    -0.23727525770664215,
    -0.29813846945762634,
    -0.7604237198829651,
    0.7083224058151245,
    -0.0681171640753746,
    0.8792043328285217,
    0.6504164934158325,
    0.3515791893005371,
    -0.09620345383882523,
    -0.025794195011258125,
    -0.809698760509491,
    0.7211187481880188,
    0.49474793672561646,
    0.6288918852806091,
    0.5926573276519775,
    -0.8282572031021118,
    -0.6684805154800415,
    0.1699940711259842,
    -0.665101945400238,
    0.09974367171525955,
    -0.9717856645584106,
    0.09949028491973877,
    0.7788751721382141,
    -0.155293270945549,
    0.8209295868873596,
    -0.4836939573287964,
    -0.6315622329711914,
    -0.10378143191337585,
    -0.47867992520332336,
    0.29218724370002747,
    -0.024448245763778687,
    -0.8187779784202576,
    0.9460859894752502,
    -0.08421574532985687,
    -0.12098155915737152,
    0.2872248589992523,
    -0.3658468723297119,
    -0.38446611166000366,
    0.9554673433303833,
    0.8298593759536743,
    0.5764976143836975,
    -0.5953303575515747,
    -0.734287440776825,
    -0.7481520771980286,
    -0.38380688428878784,
    -0.6111667156219482,
    0.5209234952926636,
    -0.5502641201019287,
    0.17988239228725433,
    0.4072236120700836,
    -1.0,
    0.7567644119262695,
    0.7959990501403809,
    0.006244012154638767,
    0.9010407328605652,
    -0.3802422881126404,
    -0.11645864695310593,
    -0.4659261107444763,
    0.34389781951904297,
    0.33932003378868103,
    0.6907802820205688,
    0.818356990814209,
    -0.6861751079559326,
    0.8155614137649536,
    -0.5242165327072144,
    -0.47841721773147583,
    0.01759663224220276,
    0.5019532442092896,
    0.7615923881530762,
    -0.4289681315422058,
    0.5190984606742859,
    -0.6433240175247192,
    -0.7656146883964539,
    0.8735010623931885,
    -1.0,
    -0.25598016381263733,
    0.02951139584183693,
    -0.0012544285273179412,
    0.9550614953041077,
    0.43753156065940857,
    -0.12097230553627014,
    0.2760950028896332,
    0.5493454337120056,
    0.3436993956565857,
    -0.1961362510919571,
    -0.05859269201755524,
    -0.41455432772636414,
    -0.8548997640609741,
    0.12568442523479462,
    0.21154528856277466,
    0.890020489692688,
    0.8947293758392334,
    -0.7015626430511475,
    0.4517625570297241,
    -1.0,
    -0.8395336866378784,
    0.4386977255344391,
    0.8606585264205933,
    0.25603798031806946,
    -0.5925506949424744,
    0.16073495149612427,
    0.032984305173158646,
    -0.5075408816337585,
    0.7734182476997375,
    -0.13241681456565857,
    -0.5591511130332947,
    0.37890562415122986,
    0.8795159459114075,
    0.5648488998413086,
    0.6151463985443115,
    0.11903128027915955,
    -0.0014984755543991923,
    0.6236365437507629,
    -0.33064034581184387,
    0.7806819081306458,
    0.9063388109207153,
    0.5196354985237122,
    -0.5677695870399475,
    -0.25573593378067017,
    0.8102023601531982,
    -0.3100896179676056,
    -0.11132843792438507,
    -0.7948026061058044,
    -0.11220129579305649,
    -0.7929868698120117,
    0.7448713183403015,
    0.580721378326416,
    0.5727071762084961,
    -0.9206548929214478,
    -0.2760094404220581,
    -0.2167302519083023,
    1.0,
    -0.3964506983757019,
    0.04867392033338547,
    0.218726247549057,
    0.006778167560696602,
    0.5706441402435303,
    -0.6511306762695313,
    0.4546007215976715,
    1.0,
    0.36355793476104736,
    0.3904843032360077,
    -0.22459164261817932,
    -0.6848201155662537,
    -0.30694296956062317,
    -0.6586291193962097,
    -0.5673666000366211,
    0.26004502177238464,
    0.8648334741592407,
    -0.425052672624588,
    0.759871244430542,
    1.0,
    -0.944392204284668,
    -0.6890714168548584,
    -0.3263740539550781,
    0.35549789667129517,
    -0.23235580325126648,
    -0.7901914119720459,
    0.24430055916309357,
    0.4799007177352905,
    -0.6159825325012207,
    0.31189000606536865,
    0.7743645310401917,
    -0.7648090720176697,
    -0.7490829825401306,
    0.5801811814308167,
    0.8605578541755676,
    0.11937616765499115,
    -0.6308634877204895,
    -0.03727216646075249,
    0.8444074392318726,
    0.4415019750595093,
    0.6683370471000671,
    0.8690847754478455,
    0.278667688369751,
    -0.41142916679382324,
    0.01432542409747839,
    -0.6539292335510254,
    -0.181649312376976,
    -0.7141116261482239,
    -0.5884976387023926,
    0.03964664414525032,
    -0.41999590396881104,
    0.7390209436416626,
    -0.2519516944885254,
    -0.12872393429279327,
    0.015558356419205666,
    -0.3047456443309784,
    -0.9905728101730347,
    -0.08605004101991653,
    -0.5447646379470825,
    0.24424581229686737,
    0.4100346863269806,
    -0.6121920347213745,
    -0.03822439908981323,
    -0.8462569117546082,
    -1.0,
    -0.9229285717010498,
    0.3604479730129242,
    0.4942900836467743,
    -0.49635323882102966,
    -0.8901976346969604,
    -0.35201266407966614,
    -0.5065765976905823,
    -0.6239264011383057,
    -0.05740838870406151,
    0.22471089661121368,
    -0.0019591832533478737,
    -0.7485885620117188,
    -0.8565019965171814,
    0.6417219042778015,
    -0.6364604234695435,
    0.0969846174120903,
    1.0,
    -0.19785143435001373,
    -0.16983860731124878,
    0.6612934470176697,
    -0.10301519930362701,
    0.4318675994873047,
    0.6084476113319397,
    -0.660866379737854,
    -0.7954772114753723,
    -0.25735652446746826,
    -0.33872169256210327,
    0.8792628645896912,
    -0.018182845786213875,
    -0.5138614773750305,
    0.8450667858123779,
    -0.450492799282074,
    0.951429545879364,
    0.752845823764801,
    -0.7505783438682556,
    0.6871241927146912,
    0.01488082017749548,
    -0.231843039393425,
    -0.15007784962654114,
    -0.2969602644443512,
    0.11993776261806488,
    -0.08299815654754639,
    -0.4587602913379669,
    0.5144596099853516,
    -0.6022737622261047,
    0.554326057434082,
    0.7948851585388184,
    0.5974730849266052,
    0.5314981341362,
    0.45919978618621826,
    0.31923261284828186,
    1.0,
    -0.13778799772262573,
    0.545194685459137,
    -0.6883235573768616,
    0.5983763933181763,
    0.47608867287635803,
    -0.5859158039093018,
    -0.5732381939888,
    -0.6399760246276855,
    -0.9766197800636292,
    -0.7609851360321045,
    0.28252506256103516,
    -0.6707297563552856,
    0.8949797749519348,
    0.6985718011856079,
    0.058970969170331955,
    0.4873046278953552,
    -0.670497715473175,
    -0.10791043937206268,
    1.0,
    -0.6404888033866882,
    0.035215336829423904,
    -0.5707846283912659,
    -0.9448255896568298,
    0.7228522896766663,
    -0.7569721937179565,
    0.47997400164604187,
    -0.6517381072044373,
    -0.13730251789093018,
    0.5741752982139587,
    0.07438579946756363,
    0.9162695407867432,
    0.21657174825668335,
    -0.09354838728904724,
    -0.6473891139030457,
    -0.07856691628694534,
    -0.7257728576660156,
    0.7528733015060425,
    -0.577165961265564,
    -0.6278848648071289,
    0.13146454095840454,
    -0.01659918576478958,
    0.07364722341299057,
    -0.7067778706550598,
    0.7027435302734375,
    0.9034000635147095,
    0.4901091158390045,
    -0.9514480829238892,
    0.5301615595817566,
    -0.4057374596595764,
    -0.5029664635658264,
    0.7940976023674011,
    0.6949432492256165,
    0.858626127243042,
    -0.1471724510192871,
    -0.0014252953696995974,
    0.08983416855335236,
    -0.1067812517285347,
    0.8268532156944275,
    0.43040549755096436,
    -0.5541519522666931,
    -0.4942350685596466,
    0.2817772328853607,
    0.1447555273771286,
    -0.31675782799720764,
    0.9020478129386902,
    0.3623431622982025,
    1.0,
    0.4010225534439087,
    0.05644691362977028,
    -0.745097279548645,
    0.08500011265277863,
    -0.04914705455303192,
    0.697787344455719,
    -0.22198855876922607,
    0.737171471118927,
    0.6408489942550659,
    -0.20866428315639496,
    -0.7519273161888123,
    -0.6432811617851257,
    0.9587542414665222,
    0.8849726319313049,
    -0.6506668329238892,
    0.15166795253753662,
    0.5224525928497314,
    0.8141363263130188,
    0.01701715588569641,
    -0.02763455919921398,
    -0.3679707944393158,
    0.37925347685813904,
    -0.8638876080513,
    -0.90555739402771,
    0.498300164937973,
    0.2544907331466675,
    0.0347912423312664,
    0.2824365794658661,
    0.13717758655548096,
    1.0,
    -0.35571780800819397,
    0.5812799334526062,
    -0.7969542145729065,
    0.9047763347625732,
    0.18383121490478516,
    0.3490948975086212,
    0.39711910486221313,
    -0.3625597655773163,
    -0.4445813298225403,
    -0.9344309568405151,
    0.15408484637737274,
    -0.44623854756355286,
    -0.349854975938797,
    -0.098614402115345,
    0.6780752539634705,
    0.8039155006408691,
    0.5255959630012512,
    0.6057283878326416,
    -0.9334267377853394,
    -1.0,
    0.30483704805374146,
    -0.1811426281929016,
    -0.9519669413566589,
    -0.27598506212234497,
    -0.6791101694107056,
    1.0,
    0.2921963930130005,
    -0.7758508920669556,
    -0.9577714800834656,
    0.39387810230255127,
    0.913547158241272,
    0.24033325910568237,
    -0.9799066185951233,
    -0.7323434948921204,
    0.39281898736953735,
    0.5733359456062317,
    0.24290600419044495,
    -0.7572954297065735,
    0.9831690192222595,
    -0.60343337059021,
    -0.11557649821043015,
    0.8058105111122131,
    -0.6424360275268555,
    0.9152377843856812,
    0.7956234812736511,
    0.863167405128479,
    0.02274542674422264,
    0.806912362575531,
    -0.615027129650116,
    0.9445631504058838,
    0.4218054711818695,
    0.40679654479026794,
    0.9539476037025452,
    -0.9221014976501465,
    0.5289772152900696,
    -0.6887508630752563,
    -0.12050238996744156,
    -0.6701774001121521,
    -0.551979124546051,
    0.06015799194574356,
    -0.5805292725563049,
    -0.5153751969337463,
    -0.8738090395927429,
    0.24406874179840088,
    -0.26401856541633606,
    -0.9953703880310059,
    -0.020154457539319992,
    1.0,
    -0.002490293001756072,
    -0.3565874397754669,
    0.10538343340158463,
    -0.04915304854512215,
    0.15142980217933655,
    0.0008727965760044754,
    0.015979506075382233,
    -0.6077484488487244,
    0.5535172820091248,
    -0.2408672273159027,
    -0.868431568145752,
    -0.34082767367362976,
    -0.7770534157752991,
    0.48503974080085754,
    -0.6862208843231201,
    -0.8242043852806091,
    0.09120754152536392,
    0.0715022012591362,
    0.08560436218976974,
    -0.36364930868148804,
    0.6823235154151917,
    0.6917020082473755,
    0.2969297766685486,
    -1.0,
    0.7222111821174622,
    -0.7751426100730896,
    0.393685907125473,
    -0.2519456744194031,
    -0.9074159860610962,
    0.25098109245300293,
    -0.3729086220264435,
    -0.21188707649707794,
    -0.9332163333892822,
    -0.6706412434577942,
    -0.15133213996887207,
    0.4542100429534912,
    0.8493331074714661,
    -0.11603138595819473,
    -0.029099328443408012,
    0.6050293445587158,
    -0.9463605284690857,
    -0.921964168548584,
    0.15279404819011688,
    0.2225806564092636,
    0.19428995251655579,
    0.6838679313659668,
    0.9597522020339966,
    -0.2541610896587372,
    0.7224524021148682,
    0.3956511914730072,
    0.003506638575345278,
    -0.9322854280471802,
    -1.0,
    -0.8502580523490906,
    0.451591432094574,
    -0.19245585799217224,
    -0.20189513266086578,
    -0.035291656851768494,
    0.8903288245201111,
    0.3307993710041046,
    -0.7575672268867493,
    0.5961302518844604,
    0.5955383777618408,
    -0.5904873013496399,
    -0.9080387353897095,
    -0.9546037316322327,
    0.3319895267486572,
    -0.2155553102493286,
    -0.11398646235466003,
    -0.4351451098918915,
    -0.4656361937522888,
    0.45972782373428345,
    -0.6691581010818481,
    -0.7189764976501465,
    0.18143273890018463,
    0.24007074534893036,
    0.2626878619194031,
    0.1011292114853859,
    -0.11314735561609268,
    -0.9889767169952393,
    0.9582781195640564,
    -0.18320561945438385,
    -0.09357590228319168,
    -0.7186347842216492,
    -0.2016754448413849,
    0.372353196144104,
    -0.857133686542511,
    0.46511411666870117,
    1.0,
    0.3714072108268738,
    0.4595566987991333,
    0.9140018820762634,
    0.5749228000640869,
    0.5020508766174316,
    0.38766148686408997,
    0.29270610213279724,
    -0.2970702648162842,
    -0.8376811742782593,
    -0.7356058955192566,
    0.2596363425254822,
    -0.6615346670150757,
    0.7832698822021484,
    -0.5811914801597595,
    -0.7328653335571289,
    0.5578815340995789,
    -0.26858726143836975,
    -0.21009857952594757,
    0.5427627563476563,
    -0.887673556804657,
    -0.220902219414711,
    -0.9006927609443665,
    0.27479174733161926,
    -0.18432259559631348,
    -0.5605517625808716,
    -0.6859065890312195,
    0.9912046194076538,
    -0.06918250769376755,
    0.9726126194000244,
    0.17538703978061676,
    0.9118198156356812,
    0.9727592468261719,
    0.6768273115158081,
    0.25516220927238464,
    0.049922190606594086,
    -1.0,
    -0.643211305141449,
    -0.7907895445823669,
    0.1209387257695198,
    -0.707779049873352,
    -0.2631458342075348,
    -0.77029949426651,
    0.29639875888824463,
    0.8553849458694458,
    0.15151837468147278,
    0.16510213911533356,
    -0.9592944383621216,
    0.47563403844833374,
    -0.09118930995464325,
    -0.7028626799583435,
    0.492901474237442,
    -0.1651904582977295,
    0.7401836514472961,
    0.5782585144042969,
    0.44675132632255554,
    0.5426191091537476,
    -0.640211284160614,
    -0.6334604024887085,
    0.24139849841594696,
    -0.6668967008590698,
    -0.36282843351364136,
    0.7448956370353699,
    0.6987517476081848,
    -0.6805870532989502,
    -0.8003848791122437,
    -0.37640926241874695,
    0.35660576820373535,
    -0.1679372936487198,
    0.8969969153404236,
    -0.6046479344367981,
    1.0,
    0.5732200741767883,
    0.14080935716629028,
    0.0983213260769844,
    -0.4377208650112152,
    0.43985411524772644,
    0.3872189223766327,
    -0.3439955711364746,
    -0.0008178908028639853,
    -0.7815118432044983,
    -0.11588180065155029,
    -0.37834712862968445,
    0.8628315329551697,
    0.759434700012207,
    -0.5906583070755005,
    -0.6200049519538879,
    -0.42230916023254395,
    -0.42957255244255066,
    0.0006104246131144464,
    0.8687307834625244,
    1.0,
    0.9503860473632813,
    0.2805173397064209,
    1.0,
    0.8337321877479553,
    0.008078179322183132,
    0.5818385481834412,
    0.4993988871574402,
    -0.9081545472145081,
    -0.6794672012329102,
    -0.14113271236419678,
    -0.5781915187835693,
    -0.10499276220798492,
    0.4509719908237457,
    -0.9407298564910889,
    -0.18142952024936676,
    -0.6384412050247192,
    0.004388514906167984,
    -1.0,
    0.7286539673805237,
    0.9456983804702759,
    -0.8108401298522949,
    -0.979107141494751,
    -0.5955657958984375,
    -0.1852961927652359,
    -0.7833337187767029,
    -0.506790280342102,
    0.15297096967697144,
    -0.6615282893180847,
    -0.05600762739777565,
    -0.22240647673606873,
    -0.9422620534896851,
    -1.0,
    -0.9446638226509094,
    -0.4855281710624695,
    -0.9935941696166992,
    -0.38630038499832153,
    -0.23650014400482178,
    -0.2239631563425064,
    -0.22474749386310577,
    -0.950874388217926,
    -0.013711927458643913,
    1.0,
    0.6446148753166199,
    0.8942198157310486,
    -0.19970715045928955,
    -0.3744407892227173,
    0.5209905505180359,
    0.15697509050369263,
    0.4895413815975189,
    0.33781540393829346,
    -1.0,
    -0.7045592069625854,
    0.43053680658340454,
    -0.21166428923606873,
    0.3835047781467438,
    0.21709328889846802,
    -0.9047364592552185,
    -0.1412183940410614,
    -0.6091738343238831,
    0.6007936000823975,
    -1.0,
    0.8889034390449524,
    0.27400732040405273,
    0.047852952033281326,
    -0.5500812530517578,
    0.4203406274318695,
    0.0533585324883461,
    0.6285133957862854,
    -0.6505630016326904,
    -0.27049773931503296,
    -0.04756934195756912,
    -0.4889339506626129,
    -0.9373882412910461,
    0.7820367217063904,
    1.0,
    0.04986722394824028,
    0.5144292712211609,
    -0.7830102443695068,
    0.6033936738967896,
    -0.07779160141944885,
    0.7214822769165039,
    0.795852541923523,
    0.4784267246723175,
    1.0,
    -0.1109255999326706,
    0.09460735321044922,
    -0.9621295928955078,
    -0.2864772379398346,
    -0.9147892594337463,
    0.27536851167678833,
    0.10137033462524414,
    0.6751914620399475,
    0.1675800234079361,
    0.6349466443061829,
    0.8770349621772766,
    0.616870641708374,
    -0.06993334740400314,
    0.6892299652099609,
    0.056621015071868896,
    0.03400677070021629,
    0.6978027820587158,
    0.876131534576416,
    -0.4550492465496063,
    0.07114782184362411,
    0.35016632080078125,
    0.42115235328674316,
    0.9201970100402832,
    0.6464032530784607,
    0.6475600600242615,
    -0.018378227949142456,
    -0.7314736247062683,
    0.5817957520484924,
    0.22099977731704712,
    -0.35077059268951416,
    -0.46645697951316833,
    -0.6750572323799133,
    0.25603818893432617,
    0.7664326429367065,
    -0.6737875938415527,
    0.022855209186673164,
    -0.2517624497413635,
    0.8112735748291016,
    -0.2547776699066162,
    -0.6878108978271484,
    0.07814877480268478,
    0.3357798755168915,
    0.8440626263618469,
    -0.8438154458999634,
    -0.3319740891456604,
    -0.6360330581665039,
    -0.08821680396795273,
    -0.5567643046379089,
    0.9960295557975769,
    -0.5046510100364685,
    0.10906404256820679,
    -0.08191771805286407,
    -0.6174260973930359,
    0.40123000741004944,
    -0.3033601641654968,
    0.7578814029693604,
    -0.4577562212944031,
    -0.4978943467140198,
    0.41357463598251343,
    0.3256355822086334,
    -0.7856868505477905,
    -0.7940091490745544,
    0.5731984376907349,
    -0.2667684555053711,
    0.04065975546836853,
    -0.6163730621337891,
    0.23079024255275726,
    0.5565202236175537,
    -0.1985931545495987,
    0.11107515543699265,
    0.40963780879974365,
    -0.10952179878950119,
    0.8065522909164429,
    -0.6495682597160339,
    0.5343424677848816,
    -0.45859548449516296,
    -0.6960692405700684,
    -0.07917109876871109,
    -0.9282479286193848,
    -0.4564345180988312,
    -0.8864589929580688,
    -0.7956938743591309,
    -0.5832911729812622,
    -0.22617873549461365,
    0.05617538467049599,
    0.3198401927947998,
    0.10483106225728989,
    -0.32823583483695984,
    0.9596056938171387,
    0.7277809977531433,
    0.18850678205490112,
    -0.7235724329948425,
    0.30144354701042175,
    0.9435835480690002,
    -0.8530288338661194,
    -0.17362290620803833,
    0.4434339106082916,
    -0.4244697690010071,
    0.4982757568359375,
    -0.6080021858215332,
    -0.6968231201171875,
    -0.31636714935302734,
    0.7119266390800476,
    -0.03481869027018547,
    1.0,
    -0.2637959420681,
    0.5337779521942139,
    -0.5341625213623047,
    0.926706850528717,
    0.5084322094917297,
    0.942396342754364,
    0.6501144170761108,
    0.8604052662849426,
    -0.1248144879937172,
    0.4271034300327301,
    -0.5644918084144592,
    0.4567491412162781,
    0.2738211750984192,
    -0.48124638199806213,
    0.14252127707004547,
    -0.17892082035541534,
    -0.12329485267400742,
    0.020157406106591225,
    -0.3384137451648712,
    -0.8735800981521606,
    0.8212348222732544,
    0.4398327171802521,
    -0.296328604221344,
    0.2682727873325348,
    -0.0009368775645270944,
    -1.0,
    -0.049794141203165054,
    -0.45211949944496155,
    0.15745100378990173,
    0.9097872972488403,
    -0.1646045297384262,
    -0.03890189528465271,
    -0.1444624662399292,
    -0.3251136839389801,
    0.405487060546875,
    -0.25913575291633606,
    0.6894375085830688,
    0.20458386838436127,
    0.18948329985141754,
    0.14067496359348297,
    -0.6831477284431458,
    -0.4097416400909424,
    -0.9759392142295837,
    0.1273842304944992,
    0.1981567144393921,
    0.31773436069488525,
    0.7267494797706604,
    0.9826716184616089,
    0.6333964467048645,
    -0.6083528995513916,
    -0.663735032081604,
    -0.7327524423599243,
    -0.2055267095565796,
    -0.9420117735862732,
    -0.29031655192375183,
    0.7299997806549072,
    0.8097933530807495,
    0.4870509207248688,
    -0.7441602349281311,
    0.20311886072158813,
    -0.2101382166147232,
    1.0,
    -0.6902098059654236,
    0.12736599147319794,
    -0.5800318717956543,
    -0.6951292753219604,
    0.2753349244594574,
    0.13050644099712372,
    0.5444044470787048,
    0.05050506070256233,
    -0.6483443379402161,
    0.9289681911468506,
    0.10674475878477097,
    -0.9264839291572571,
    0.9410290718078613,
    -0.4869045615196228,
    -0.6118167042732239,
    0.2142491191625595,
    -0.006460721138864756,
    -0.15767696499824524,
    -0.4031430184841156,
    -0.46771442890167236,
    -0.7863307595252991,
    -0.7151006460189819,
    0.3673085868358612,
    -0.47410207986831665,
    -0.9121555685997009,
    0.18125861883163452,
    -0.5982024073600769,
    0.6479568481445313,
    0.26015204191207886,
    -0.6007965207099915,
    -0.4192328453063965,
    0.8356913924217224,
    0.39980772137641907,
    -0.42057862877845764,
    -0.9778984785079956,
    -0.9323130249977112,
    -0.43133020401000977,
    0.24559466540813446,
    -0.3043702244758606,
    -0.2581256330013275,
    -0.25633424520492554,
    -0.1835108995437622,
    -0.792486310005188,
    -1.0,
    -0.4342845380306244,
    -0.43110448122024536,
    -1.0,
    0.5626423358917236,
    0.5311076045036316,
    0.03614302724599838,
    -0.8471999168395996,
    0.33376264572143555,
    0.2689932584762573,
    0.36451008915901184,
    -0.07334212958812714,
    0.7698720097541809,
    -0.9331492185592651,
    -0.41316869854927063,
    -0.28857386112213135,
    -0.5099794864654541,
    0.9022400379180908,
    0.9492141604423523,
    0.27434003353118896,
    0.38882410526275635,
    -0.43025606870651245,
    0.03817860782146454,
    0.8137547373771667,
    -0.270375519990921,
    0.10280168801546097,
    0.02120114304125309,
    0.2456311732530594,
    -1.0,
    0.8303962349891663,
    0.41798460483551025,
    -0.31277501583099365,
    0.7527115345001221,
    -0.4472180902957916,
    0.625104546546936,
    0.7519181966781616,
    -0.05870843306183815,
    -0.6665213108062744,
    -0.29386892914772034,
    -0.5442852973937988,
    -0.7824335694313049,
    0.48532360792160034,
    0.8465132117271423,
    -0.7465102076530457,
    0.9690267443656921,
    0.24275031685829163,
    -0.4368267059326172,
    -0.6444805860519409,
    0.5491257309913635,
    0.6941130757331848,
    -0.5876094698905945,
    0.7881069779396057,
    -0.8638294339179993,
    0.6825953125953674,
    -0.7729301452636719,
    0.6722221374511719,
    0.13485507667064667,
    0.33723872900009155,
    0.8205086588859558,
    0.02022159844636917,
    0.8506209850311279,
    -0.7043581008911133,
    0.03495606407523155,
    -0.6665028929710388,
    0.8170963525772095,
    -0.7609148621559143,
    0.25905635952949524,
    0.5020996928215027,
    -0.36192816495895386,
    0.47743159532546997,
    0.8592394590377808,
    0.02897726185619831,
    0.7472884058952332,
    1.0,
    -0.13898137211799622,
    -0.869414210319519,
    0.765938401222229,
    -0.689547598361969,
    -0.022180991247296333,
    0.30256664752960205,
    0.22612397372722626,
    -0.49978020787239075,
    -0.17249663174152374,
    0.2013121247291565,
    -0.1930600255727768,
    0.6797114014625549,
    0.6402844786643982,
    -0.5891934037208557,
    0.9345590472221375,
    -1.0,
    0.03444904461503029,
    -0.8984741568565369,
    -0.401724249124527,
    0.9467756152153015,
    -0.7369853258132935,
    0.7891659140586853,
    0.520508348941803,
    -0.5509719848632813,
    -0.9029725193977356,
    0.3104526400566101,
    0.37397074699401855,
    -0.7247138619422913,
    0.31746575236320496,
    -0.36414989829063416,
    0.28022414445877075,
    -0.6552934050559998,
    0.15894345939159393,
    -0.3679342269897461,
    -0.9148014783859253,
    -0.8400800824165344,
    0.8645436763763428,
    -0.40976282954216003,
    -0.10647302120923996,
    -0.7635151147842407,
    0.6722250580787659,
    0.8953762650489807,
    -0.19137239456176758,
    -0.282970666885376,
    0.42633137106895447,
    -0.4694114327430725,
    -0.2102968990802765,
    -0.6929379105567932,
    -0.32086843252182007,
    0.21729204058647156,
    -0.36802271008491516,
    -0.03989066928625107,
    0.263420432806015,
    0.11982481181621552,
    -0.46459248661994934,
    -0.8339181542396545,
    0.47120577096939087,
    -0.19529110193252563,
    -0.8925107717514038,
    0.45014500617980957,
    -0.9479872584342957,
    -0.22974945604801178,
    0.4341196119785309,
    0.6270211935043335,
    -0.6357982754707336,
    0.5738699436187744,
    0.2564438581466675,
    0.46404632925987244,
    0.2632526457309723,
    -0.25628527998924255,
    0.6068209409713745,
    0.7596272230148315,
    0.7245917320251465,
    0.9616718292236328,
    0.41728246212005615,
    -0.7250129580497742,
    0.005655140615999699,
    -0.6301432251930237,
    0.2982361912727356,
    -1.0,
    -0.8890194296836853,
    0.873003363609314,
    0.14912259578704834,
    -0.4310862720012665,
    0.4319193363189697,
    0.8255226612091064,
    -0.9586292505264282,
    0.23160791397094727,
    -0.07548147439956665,
    0.6000243425369263,
    -0.9383465051651001,
    0.4168519973754883,
    -0.1368175595998764,
    -0.11421561241149902,
    -0.6363627314567566,
    -0.8791070580482483,
    -0.9078127145767212,
    0.2968839704990387,
    0.2792138457298279,
    0.8692952394485474,
    -0.27897581458091736,
    0.11521965265274048,
    -0.6641041040420532,
    -0.8161015510559082,
    -0.4634632468223572,
    0.5471785068511963,
    0.7219182848930359,
    0.041965801268815994,
    -0.926764726638794,
    -0.6835047602653503,
    0.7503097653388977,
    -0.26890453696250916,
    -0.14402304589748383,
    -0.9055970907211304,
    0.4714619815349579,
    0.7195836305618286,
    -0.7035279870033264,
    -0.21813707053661346,
    -0.6310251355171204,
    -0.6003813743591309,
    0.11448712646961212,
    -0.0173832755535841,
    0.6672139167785645,
    0.8916806578636169,
    -0.019187046214938164,
    0.3870665431022644,
    0.8091066479682922,
    -0.6634631156921387,
    0.6202490925788879,
    -0.600534200668335,
    0.8088656067848206,
    0.07389447838068008,
    -1.0,
    0.15589773654937744,
    -0.7102540731430054,
    0.739469587802887,
    0.8170202374458313,
    0.14584489166736603,
    -1.0,
    0.9695181250572205,
    0.9189334511756897,
    -0.929816484451294,
    -0.0998474508523941,
    -0.3146125376224518,
    0.9269234538078308,
    -0.9527543187141418,
    -0.8833795785903931,
    -0.5948057770729065,
    -0.14924168586730957,
    -0.3091646432876587,
    0.9490309953689575,
    -0.015033327974379063,
    0.8372142910957336,
    0.7884334325790405,
    -0.41443535685539246,
    -0.8308452367782593,
    0.5527268052101135,
    0.24168214201927185,
    -0.9073274731636047,
    -0.35063013434410095,
    0.35633090138435364,
    -0.4570116102695465,
    -0.1323191374540329,
    -0.942286491394043,
    0.2143832892179489,
    -0.0155003871768713,
    0.5196540355682373,
    0.8347361087799072,
    1.0,
    -0.36053338646888733,
    0.8628437519073486,
    0.09116823971271515,
    0.8225927352905273,
    0.699084460735321,
    1.0,
    0.15919366478919983,
    0.7753655314445496,
    0.5958767533302307,
    -0.663026750087738,
    -1.0,
    -0.6572374105453491,
    -0.5548020601272583,
    -0.7759880423545837,
    0.8731376528739929,
    0.08014466613531113,
    -0.35722532868385315,
    0.8523944020271301,
    -0.8816615343093872,
    0.7028656005859375,
    0.0972713902592659,
    -0.05874527618288994,
    1.0,
    0.9277322292327881,
    -0.6992828249931335,
    0.3870205581188202,
    0.6263130903244019,
    -0.16654860973358154,
    -0.7752129435539246,
    0.6895107626914978,
    0.8720937371253967,
    0.8912625312805176,
    -0.4409100413322449,
    -0.8793173432350159,
    -0.25602900981903076,
    -0.8163975477218628,
    0.4098787307739258,
    0.40718701481819153,
    -0.07868284732103348,
    0.4683738052845001,
    -0.8092043995857239,
    -0.5160009264945984,
    0.8546404838562012,
    0.23118072748184204,
    1.0,
    -0.49490347504615784,
    0.6508468985557556,
    -0.9169469475746155,
    -0.869377613067627,
    0.09904461354017258,
    -0.2103091925382614,
    -0.8888819217681885,
    -0.4557420611381531,
    0.09825127571821213,
    0.08626069128513336,
    -0.35308074951171875,
    -0.8137180209159851,
    -1.0,
    -0.4759821593761444,
    -0.6590257883071899,
    0.7302441000938416,
    0.34902477264404297,
    0.27470630407333374,
    0.5695303678512573,
    0.9119083285331726,
    -0.6039766073226929,
    0.5739830732345581,
    -0.39438456296920776,
    0.17741015553474426,
    0.2059176117181778,
    -0.7299051880836487,
    0.5315868854522705,
    0.8107454776763916,
    -0.474495530128479,
    -0.39471104741096497,
    -0.1466139554977417,
    0.1670949012041092,
    0.21384026110172272,
    -0.585931122303009,
    0.42927953600883484,
    -0.11672107875347137,
    -0.9647480845451355,
    0.11317796260118484,
    -0.4299752712249756,
    0.3641895353794098,
    -0.06251108646392822,
    -0.7410627603530884,
    -0.7975429892539978,
    -0.7719289660453796,
    -0.3831080198287964,
    0.00796213187277317,
    -0.667867124080658,
    -0.9367900490760803,
    0.763130784034729,
    -0.23292644321918488,
    -0.18296752870082855,
    -0.7074528336524963,
    -0.3625323176383972,
    1.0,
    -0.9323984384536743,
    0.05628857761621475,
    -0.33791935443878174,
    0.5459333062171936,
    0.045237671583890915,
    0.8280953168869019,
    -0.08112118393182755,
    0.5729513764381409,
    -0.4131839871406555,
    1.0,
    0.7251808643341064,
    -0.43899640440940857,
    0.8802972435951233,
    -0.5934415459632874,
    0.46127521991729736,
    -0.6070803999900818,
    -0.18049561977386475,
    0.742701530456543,
    0.5515610575675964,
    0.025778871029615402,
    -0.7170475721359253,
    0.6039825677871704,
    -0.6053071618080139,
    -0.9624255895614624,
    -0.1441023200750351,
    0.17801453173160553,
    -0.13051851093769073,
    -0.4905119240283966,
    0.05800061300396919,
    -0.9642261862754822,
    -0.8056064248085022,
    1.0,
    0.3822594881057739,
    1.0,
    0.4398662745952606,
    0.028916416689753532,
    0.7540515065193176,
    -0.3321177363395691,
    -0.9673116207122803,
    -0.48720067739486694,
    0.7517471313476563,
    -0.7639971971511841,
    -0.8091066479682922,
    0.05355392396450043,
    0.3425244390964508,
    -0.9189581274986267,
    0.64368736743927,
    -0.598086416721344,
    0.03963746502995491,
    0.7398083209991455,
    -1.0,
    -0.7984647750854492,
    -0.47803282737731934,
    1.0,
    -0.24142588675022125,
    0.6422590017318726,
    -0.7125488519668579,
    0.8044190406799316,
    -0.7743217945098877,
    -0.08430427312850952,
    0.7750449180603027,
    -0.19191867113113403,
    -0.889623761177063,
    0.6360605955123901,
    0.1601305603981018,
    0.08651679754257202,
    -0.5503768920898438,
    -0.6059603095054626,
    0.7077852487564087,
    -0.10708928853273392,
    0.9152379035949707,
    -0.24999235570430756,
    -0.1251930296421051,
    0.22955715656280518,
    -0.6763512492179871,
    -0.20110180974006653,
    0.7130987048149109,
    -0.35218971967697144,
    -0.4102207124233246,
    -0.26879173517227173,
    -0.2767937183380127,
    -0.5961362719535828,
    -0.11420652270317078,
    0.32913902401924133,
    0.8177525401115417,
    0.7519455552101135,
    -0.08070315420627594,
    -1.0,
    -0.13565479218959808,
    1.0,
    0.6709248423576355,
    -0.18285776674747467,
    0.5633501410484314,
    0.7358561754226685,
    -0.563383936882019,
    0.6727988123893738,
    -0.4311745762825012,
    -0.1260048896074295,
    0.4694449007511139,
    -0.2260781079530716,
    0.7149936556816101,
    0.16532796621322632,
    0.5406171083450317,
    0.4992462694644928,
    -0.1268562376499176,
    -0.5948513746261597,
    0.7806300520896912,
    -0.732483983039856,
    -0.5514138340950012,
    0.20678415894508362,
    0.8967680335044861,
    -0.6246681213378906,
    -0.14853665232658386,
    -0.29722893238067627,
    -0.25146639347076416,
    -0.5852900147438049,
    0.3920806050300598,
    0.03760180249810219,
    0.5118564367294312,
    -0.43621012568473816,
    -0.03654000535607338,
    0.2454908937215805,
    -0.9070833325386047,
    -0.11390414088964462,
    0.49917012453079224,
    -0.07871946692466736,
    -0.06277652829885483,
    0.3463606834411621,
    -0.6915249228477478,
    -0.7485089898109436,
    -0.49467766284942627,
    -0.7540760040283203,
    -0.727253258228302,
    0.8555588126182556,
    0.05377080664038658,
    0.43993350863456726,
    0.9241004586219788,
    -0.08550980687141418,
    -0.20887181162834167,
    -0.0022096135653555393,
    0.0672658234834671,
    0.5304727554321289,
    0.3827938139438629,
    0.2975982129573822,
    -0.16462592780590057,
    -1.0,
    -0.9739340543746948,
    -1.0,
    0.4135349988937378,
    1.0,
    0.301626592874527,
    0.359672874212265,
    -0.49390843510627747,
    -0.2849728763103485,
    1.0,
    1.0,
    -0.8564318418502808,
    -0.3702598214149475,
    0.5768640637397766,
    -0.46382033824920654,
    0.9339243769645691,
    -0.24767614901065826,
    -0.31939753890037537,
    -0.5585345029830933,
    -0.3195779025554657,
    -0.9183233380317688,
    0.2662403881549835,
    -0.4850245416164398,
    -0.04391614720225334,
    -0.3519516587257385,
    -0.6346813440322876,
    0.2122746855020523,
    0.27005526423454285,
    0.582988977432251,
    -0.5521928071975708,
    0.41436806321144104,
    -0.3158787786960602,
    -0.5629382729530334,
    0.06936855614185333,
    0.8363353610038757,
    -0.01225925050675869,
    -0.10957366973161697,
    -0.42484819889068604,
    0.01239044964313507,
    -0.16100339591503143,
    -0.2564408481121063,
    0.7063146829605103,
    0.859309732913971,
    0.7190955877304077,
    0.2942899465560913,
    0.6184301972389221,
    -0.5440962314605713,
    -0.14474321901798248,
    0.38999298214912415,
    -0.39397263526916504,
    1.0,
    -0.5189673900604248,
    -0.16578875482082367,
    -0.2140202522277832,
    -0.11763347685337067,
    0.6950438022613525,
    0.8864620327949524,
    0.82977694272995,
    0.23047886788845062,
    -0.6184455156326294,
    0.05092627927660942,
    0.3262947201728821,
    0.5757592916488647,
    0.7548357844352722,
    -0.750831663608551,
    0.8234504461288452,
    -0.13256633281707764,
    -0.4041230380535126,
    0.8229345083236694,
    -0.3115970492362976,
    0.8135687708854675,
    -0.35998401045799255,
    -0.005609360057860613,
    -0.49808943271636963,
    -0.5493361353874207,
    0.359666645526886,
    -0.004654117859899998,
    0.10892360657453537,
    -0.4825434982776642,
    0.17877742648124695,
    0.9860072731971741,
    -0.1950955092906952,
    0.7214086055755615,
    0.5468427538871765,
    -0.21147488057613373,
    -0.1737785041332245,
    0.8550889492034912,
    -0.6375957727432251,
    0.8880886435508728,
    -1.0,
    0.42602601647377014,
    -0.7676076889038086,
    0.537614107131958,
    -0.22216558456420898,
    -1.0,
    -0.8991087079048157,
    0.20627152919769287,
    -0.6099981665611267,
    0.2630939781665802,
    1.0,
    0.9300851225852966,
    -0.6964719891548157,
    -0.9147618412971497,
    -0.705877959728241,
    -0.5037476420402527,
    -0.3866880536079407,
    -0.6800715923309326,
    0.07467256486415863,
    0.7499008774757385,
    0.08986177295446396,
    -0.4941647946834564,
    0.9534136056900024,
    0.728598952293396,
    -0.5025969743728638,
    -0.435075044631958,
    -0.4932248890399933,
    0.9474623799324036,
    -0.8611835837364197,
    -0.14978806674480438,
    0.6618611216545105,
    0.7744745016098022,
    -0.06273680180311203,
    -0.073888398706913,
    -0.18581190705299377,
    0.07558216899633408,
    0.7220739126205444,
    -0.6726768016815186,
    -0.22618788480758667,
    -0.29782384634017944,
    -0.22226044535636902,
    0.4747459292411804,
    0.971108078956604,
    -0.9805749654769897,
    -0.7161015272140503,
    -0.699017345905304,
    -0.014139274135231972,
    0.1405956745147705,
    0.6001770496368408,
    -0.20295113325119019,
    -0.4402357041835785,
    1.0,
    0.7928740978240967,
    0.4487014710903168,
    -0.794030487537384,
    -0.7906277775764465,
    0.47174882888793945,
    -0.7761040329933167,
    0.1581316739320755,
    0.7800104022026062,
    -0.8016083240509033,
    -0.33963441848754883,
    -0.05329752340912819,
    0.5928372144699097,
    0.11340359598398209,
    0.12774743139743805,
    0.5110324621200562,
    1.0,
    -0.8646993041038513,
    0.8144413828849792,
    0.3523576259613037,
    -0.6082215309143066,
    0.3598192632198334,
    -0.5903257131576538,
    -0.6000610589981079,
    -0.5898618102073669,
    0.165395125746727,
    -0.9618701934814453,
    0.935474693775177,
    0.921903133392334,
    0.7988982796669006,
    0.4512650966644287,
    0.5714131593704224,
    -0.060621947050094604,
    -0.7467969655990601,
    -0.6104678511619568,
    -0.175032839179039,
    0.4081970453262329,
    -0.790368378162384,
    -0.8126744031906128,
    -0.2408795952796936,
    0.09103374183177948,
    -0.5404857993125916,
    -0.15412458777427673,
    0.2366710603237152,
    -0.21468549966812134,
    -0.5912776589393616,
    -0.7893368005752563,
    0.6824915409088135,
    0.7556321620941162,
    0.6349101066589355,
    -0.5177709460258484,
    0.7675192952156067,
    0.36453136801719666,
    -0.6502425074577332,
    -0.6159183979034424,
    -0.17617113888263702,
    0.8962308764457703,
    0.2177313268184662,
    0.1442122459411621,
    0.8876248002052307,
    -0.7620682716369629,
    0.27248451113700867,
    0.3033204972743988,
    -0.27953431010246277,
    -0.6532028913497925,
    0.32068851590156555,
    -0.024778127670288086,
    0.7362011671066284,
    -0.42781466245651245,
    -0.527686357498169,
    0.5141331553459167,
    -0.5487135648727417,
    -0.7294471859931946,
    -0.1150822564959526,
    -0.2844051122665405,
    -0.36082032322883606,
    0.7035523653030396,
    0.6059786677360535,
    -0.7087190747261047,
    1.0,
    -0.7485457062721252,
    1.0,
    0.3710746467113495,
    0.934546947479248,
    -0.6255805492401123,
    0.43013089895248413,
    0.4342570900917053,
    0.5003633499145508,
    0.5645222663879395,
    1.0,
    0.9779412150382996,
    1.0,
    -0.6171148419380188,
    -0.2928006052970886,
    -0.7226051092147827,
    0.8738700151443481,
    0.031733207404613495,
    0.5526993870735168,
    -0.7262002229690552,
    -0.5697378516197205,
    -0.7002872824668884,
    0.38358399271965027,
    0.5690634846687317,
    0.9794732928276062,
    0.01472823042422533,
    -0.9487441778182983,
    -0.06646008044481277,
    -0.06156804412603378,
    0.9080936312675476,
    0.6285195350646973,
    0.5826957821846008,
    -0.8267951011657715,
    0.29542839527130127,
    0.09084144234657288,
    0.537598729133606,
    0.7840022444725037,
    0.713339626789093,
    -0.4660482108592987,
    -0.7969269156455994,
    -0.5189885497093201,
    0.36629560589790344,
    0.3951232135295868,
    0.04870143532752991,
    -0.8590105772018433,
    0.7226447463035583,
    -0.3956175744533539,
    0.5005765557289124,
    0.33434897661209106,
    0.32568439841270447,
    0.2952452301979065,
    0.8707418441772461,
    0.6701162457466125,
    0.7434336543083191,
    -0.06853841990232468,
    0.5480392575263977,
    -0.2042725682258606,
    -0.20462653040885925,
    0.45221102237701416,
    0.8125094771385193,
    0.32063040137290955,
    -0.0477338470518589,
    0.2561051845550537,
    0.40178847312927246,
    -0.9065675735473633,
    -0.5379804372787476,
    0.4148840606212616,
    0.5334451198577881,
    0.7761558890342712,
    0.693981945514679,
    0.5257882475852966,
    0.053788922727108,
    0.39593496918678284,
    0.24500583112239838,
    -0.2979492247104645,
    1.0,
    -0.9209968447685242,
    -0.21395300328731537,
    0.9113528728485107,
    -0.10925322771072388,
    -0.2821314334869385,
    0.23521241545677185,
    0.37394940853118896,
    -0.5734366178512573,
    -0.523661196231842,
    0.5605028867721558,
    -0.664656400680542,
    0.7855983376502991,
    0.45784783363342285,
    -0.8982758522033691,
    -0.7649679183959961,
    0.7573837637901306,
    -0.2801263630390167,
    0.6545854806900024,
    0.7618212699890137,
    -0.10719909518957138,
    -0.8789300322532654,
    0.6280283331871033,
    0.34278690814971924,
    0.42547082901000977,
    -0.6059266328811646,
    -0.0943327397108078,
    -0.9881771802902222,
    0.5694386959075928,
    -0.9157597422599792,
    0.07307969033718109,
    -0.02202816866338253,
    -0.420142263174057,
    0.5260717868804932,
    -0.04882354289293289,
    -0.4299447536468506,
    0.3998778164386749,
    -0.00985754281282425,
    -0.8948301076889038,
    0.8856532573699951,
    -0.22285835444927216,
    0.9511765837669373,
    -0.6615771651268005,
    -0.9202522039413452,
    -0.744123637676239,
    0.8160282969474792,
    1.0,
    -0.13824570178985596,
    -0.2641530930995941,
    -0.24338802695274353,
    0.964500904083252,
    0.07109279185533524,
    0.05614495277404785,
    0.7228369116783142,
    0.39995428919792175,
    -0.13802006840705872,
    -0.08413340896368027,
    0.9391735792160034,
    -0.4274851083755493,
    0.6086368560791016,
    0.11418197304010391,
    0.08268076926469803,
    -0.8448772430419922,
    -0.16700027883052826,
    0.7556902170181274,
    0.9280067682266235,
    0.5621753931045532,
    -0.10581362992525101,
    0.4558884799480438,
    -0.014621537178754807,
    0.3353739380836487,
    0.12715855240821838,
    -0.1525101512670517,
    0.7078069448471069,
    0.8324137330055237,
    -0.33565157651901245,
    -0.916064977645874,
    -0.49318525195121765,
    -0.19855941832065582,
    -0.2010987550020218,
    1.0,
    0.8721091747283936,
    -0.7092286944389343,
    -0.6665456891059875,
    -0.35090187191963196,
    0.5429090857505798,
    0.4033111333847046,
    -0.12050535529851913,
    0.6059145927429199,
    1.0,
    -0.8156288862228394,
    -0.6503494381904602,
    0.6711266040802002,
    -0.2507736384868622,
    -0.8416577577590942,
    -0.839445173740387,
    0.2517228126525879,
    -0.7767815589904785,
    0.8719596862792969,
    0.6984618306159973,
    -0.9106601476669312,
    -0.32038024067878723,
    0.541441023349762,
    0.8824701309204102,
    0.16450701653957367,
    -0.47340911626815796,
    0.3532426059246063,
    -0.12150932103395462,
    -0.936310887336731,
    0.7211980223655701,
    0.7817773818969727,
    -0.9234443306922913,
    0.6472731828689575,
    0.9462751746177673,
    0.9502914547920227,
    -0.09667042642831802,
    -0.8827387690544128,
    -0.745872437953949,
    -0.9589189887046814,
    -0.7222937941551208,
    0.42008718848228455,
    -0.41245460510253906,
    -0.817096471786499,
    -0.7965942025184631,
    -0.11048611998558044,
    -0.8261968493461609,
    -0.5033631920814514,
    0.14241136610507965,
    0.2116701453924179,
    0.6099613904953003,
    0.550923228263855,
    0.4008576571941376,
    -0.4318338632583618,
    1.0,
    0.039664916694164276,
    -0.2648335099220276,
    0.3419843316078186,
    0.8984466791152954,
    -0.20951883494853973,
    0.055830515921115875,
    0.7124302983283997,
    0.23014628887176514,
    -0.012323372066020966,
    0.17759624123573303,
    0.5130009055137634,
    -0.5050475001335144,
    -0.6759056448936462,
    -0.2615773379802704,
    -0.9439558386802673,
    0.5683398842811584,
    0.37825244665145874,
    -0.695294201374054,
    -0.6239081621170044,
    -0.04765767231583595,
    -0.4445265531539917,
    0.532706618309021,
    0.5222511291503906,
    0.5515215992927551,
    -0.7608386278152466,
    0.1435132920742035,
    0.007016252260655165,
    -0.18455161154270172,
    0.7654193639755249,
    -0.405972421169281,
    -0.027854399755597115,
    -0.39696651697158813,
    0.7506396174430847,
    0.9025421738624573,
    0.861830472946167,
    0.5577652454376221,
    0.47217631340026855,
    -0.41903743147850037,
    -0.9851832389831543,
    0.3157961964607239,
    -0.211126908659935,
    0.8413401246070862,
    0.3286202847957611,
    -0.6002196669578552,
    0.9039276838302612,
    -0.3151005506515503,
    -1.0,
    0.31564077734947205,
    1.0,
    0.9045988321304321,
    0.09917902946472168,
    -0.7800377607345581,
    0.6117130517959595,
    0.2275092601776123,
    0.7397745847702026,
    -0.297701895236969,
    0.17136460542678833,
    -0.5376628637313843,
    -0.9924344420433044,
    0.4796045422554016,
    0.8697043657302856,
    -0.3388623297214508,
    -0.06630148738622665,
    -0.0866665244102478,
    0.5436229705810547,
    1.0,
    -0.3387463688850403,
    -0.8826442360877991,
    -0.24007394909858704,
    -0.9516403675079346,
    -0.22035588324069977,
    0.9186162948608398,
    0.6329935193061829,
    -0.9797936677932739,
    -0.06766855716705322,
    0.5595356822013855,
    -0.34828945994377136,
    0.23066194355487823,
    0.31203344464302063,
    0.8455398082733154,
    -0.46970418095588684,
    -0.45265674591064453,
    -0.5536577105522156,
    -0.3418073356151581,
    0.4788627326488495,
    0.37383028864860535,
    -0.5710407495498657,
    0.5152348279953003,
    0.6033967733383179,
    -0.5568773746490479,
    -0.21194198727607727,
    -0.12679825723171234,
    0.44037312269210815,
    0.7061711549758911,
    -0.25803399085998535,
    -0.014554332941770554,
    0.47491058707237244,
    -0.6240026354789734,
    0.5315772294998169,
    0.13514213263988495,
    0.011948020197451115,
    0.09324627369642258,
    -0.43586859107017517,
    0.47414475679397583,
    -0.0980406254529953,
    -0.05640735849738121,
    -0.7139408588409424,
    -1.0,
    0.4182775914669037,
    -0.6683309674263,
    0.3615253269672394,
    -0.26524248719215393,
    0.38457584381103516,
    0.264638215303421,
    0.7319010496139526,
    0.37834101915359497,
    0.9319528341293335,
    -0.030436117202043533,
    0.49682608246803284,
    -0.8183906078338623,
    0.4153996706008911,
    -0.7432750463485718,
    -0.3897031247615814,
    0.020349780097603798,
    0.6406934857368469,
    0.6961851716041565,
    -0.6842218637466431,
    0.6041749715805054,
    0.8804467916488647,
    -0.7930509448051453,
    -0.25650811195373535,
    0.05244595184922218,
    0.8426374197006226,
    0.029249049723148346,
    -0.9435896277427673,
    0.9743797183036804,
    -0.6549394726753235,
    0.2164769172668457,
    0.567958652973175,
    -0.6298655271530151,
    -0.8136692047119141,
    -0.9107668995857239,
    0.520261287689209,
    0.724851131439209,
    0.5069462060928345,
    0.3469163477420807,
    0.5257363319396973,
    0.29513227939605713,
    0.2278084009885788,
    -0.6402114629745483,
    0.7795647978782654,
    -0.010187169536948204,
    -0.20063486695289612,
    -0.8251379132270813,
    -0.907751739025116,
    -0.9171178340911865,
    0.005377383902668953,
    -0.9403820633888245,
    -0.7344889044761658,
    0.30341804027557373,
    0.8597948551177979,
    0.32556524872779846,
    -0.9213997721672058,
    -0.356685072183609,
    -0.7908139824867249,
    0.9123966097831726,
    -1.0,
    0.8805627822875977,
    0.3301248848438263,
    -0.7257087826728821,
    0.1882900595664978,
    0.9325266480445862,
    0.7396862506866455,
    0.7791222333908081,
    0.3637044429779053,
    -1.0,
    0.3734152913093567,
    -0.48657795786857605,
    0.30470603704452515,
    0.2456008344888687,
    0.48123717308044434,
    0.9451340436935425,
    -0.6786949634552002,
    -0.7357921004295349,
    -0.8461591601371765,
    -0.08663897961378098,
    -0.9042664766311646,
    -0.9117129445075989,
    -0.5406231880187988,
    -0.7798271775245667,
    -0.24157549440860748,
    -1.0,
    -0.9908536076545715,
    -0.9404889345169067,
    -0.7172766327857971,
    -1.0,
    0.216595858335495,
    -0.9712638258934021,
    0.04631493240594864,
    -0.7374796867370605,
    0.9864070415496826,
    -0.7834404706954956,
    0.022104574367403984,
    0.12959696352481842,
    -0.6243414878845215,
    -1.0,
    0.37613144516944885,
    -0.794955313205719,
    -0.14296090602874756,
    0.7461836338043213,
    -0.3579424023628235,
    0.8089480400085449,
    -0.8687766194343567,
    -0.8905270099639893,
    0.26655176281929016,
    0.2762810289859772,
    0.8763756155967712,
    0.9071871042251587,
    0.8834713101387024,
    -0.460979163646698,
    -0.38575097918510437,
    0.22601701319217682,
    0.0009827078320086002,
    0.7495773434638977,
    0.312521755695343,
    0.9540330171585083,
    -0.47953733801841736,
    -0.4107426106929779,
    0.6665334105491638,
    -0.7734825015068054,
    0.13859066367149353,
    0.016455601900815964,
    0.8255410194396973,
    -0.9969480633735657,
    -0.5317605137825012,
    -0.2008911669254303,
    -0.8631519079208374,
    0.3812097907066345,
    0.1643819808959961,
    -0.12235794216394424,
    1.0,
    -0.5112949013710022,
    -0.5822383165359497,
    -0.6587449908256531,
    -0.5309824347496033,
    0.3596973121166229,
    -0.8699759840965271,
    -0.17027194797992706,
    -0.196279838681221,
    0.4851466119289398,
    0.42172303795814514,
    -0.42438122630119324,
    0.009491254575550556,
    -0.6741997003555298,
    0.09683524817228317,
    -0.44697707891464233,
    0.5009798407554626,
    0.7443830966949463,
    -0.03186124563217163,
    0.6627035140991211,
    -0.5186377167701721,
    -0.428693562746048,
    0.9552140831947327,
    0.6109959483146667,
    0.5254555940628052,
    -0.09349043667316437,
    0.2027008831501007,
    0.044447142630815506,
    -0.7819728255271912,
    0.7954161167144775,
    -0.13315528631210327,
    -0.34710538387298584,
    -0.5745536684989929,
    -0.04233834519982338,
    0.8775506615638733,
    -0.4337047338485718,
    -1.0,
    -0.503097653388977,
    0.42890122532844543,
    0.31200289726257324,
    0.7405622601509094,
    0.5604632496833801,
    -0.1733514815568924,
    0.7432168126106262,
    -0.45465266704559326,
    0.8067141771316528,
    -0.9155918955802917,
    0.7223883867263794,
    0.27036044001579285,
    -0.5797021985054016,
    0.4033815264701843,
    0.8589800596237183,
    0.4717337191104889,
    -0.7183507680892944,
    -0.37629643082618713,
    0.4105319380760193,
    -0.9605548977851868,
    -0.4388560354709625,
    0.9131841063499451,
    0.8970061540603638,
    -0.0064425659365952015,
    -1.0,
    0.6659810543060303,
    0.9059144854545593,
    0.8846124410629272,
    0.6590288281440735,
    -0.8945493698120117,
    -0.7242621779441833,
    -0.5188635587692261,
    -0.6366648077964783,
    0.5041016340255737,
    -0.0673055425286293,
    -0.7553087472915649,
    -0.1678335964679718,
    -0.05888225883245468,
    -0.2941403388977051,
    -1.0,
    0.3847711682319641,
    0.3391979932785034,
    0.39915162324905396,
    -0.8433364033699036,
    0.2451338917016983,
    -0.02802501618862152,
    -0.4618825912475586,
    -0.5825708508491516,
    0.04965968802571297,
    -0.5844752788543701,
    -0.4683646261692047,
    -0.5923094153404236,
    0.0562395378947258,
    -0.43595999479293823,
    0.2995603382587433,
    -0.48058417439460754,
    0.14141061902046204,
    -0.22179318964481354,
    -0.5264350771903992,
    0.2954404652118683,
    0.07514268159866333,
    0.5282419919967651,
    0.9791679978370667,
    -0.21308326721191406,
    0.25026077032089233,
    0.9082460999488831,
    -0.9824396371841431,
    0.9181463718414307,
    0.22415214776992798,
    0.5036133527755737,
    0.21375766396522522,
    -0.005502432584762573,
    -0.7630665302276611,
    0.6269935965538025,
    0.2779015898704529,
    0.09665834903717041,
    0.40927445888519287,
    -0.7196874022483826,
    0.01781969889998436,
    0.5696248412132263,
    0.723477840423584,
    -0.20496538281440735,
    0.9247077703475952,
    -0.2720939517021179,
    -1.0,
    -0.9555742144584656,
    0.2843013107776642,
    -0.6125918030738831,
    0.6767967343330383,
    -0.5641132593154907,
    0.8741142153739929,
    0.9925321340560913,
    0.998211681842804,
    -0.23900847136974335,
    0.7840420007705688,
    0.14184695482254028,
    0.3944701552391052,
    -0.6189792156219482,
    -0.8114810585975647,
    -0.7522323727607727,
    0.3882869482040405,
    -0.5677115321159363,
    0.6198920011520386,
    -0.01744137518107891,
    -0.24324166774749756,
    0.6917752027511597,
    0.5541521906852722,
    0.11885745078325272,
    -0.9054750204086304,
    -0.2982023060321808,
    0.792809784412384,
    -0.014780120924115181,
    0.826337456703186,
    -0.30589011311531067,
    -0.4900510013103485,
    -0.8385509848594666,
    -0.932697594165802,
    -0.9817255735397339,
    -0.39078348875045776,
    0.06488535553216934,
    -0.3479934334754944,
    -0.23923158645629883,
    -0.06263013929128647,
    -0.2795617878437042,
