{
  "input": 76,
  "network_layers": [
    50,
    10,
    3
  ],
  "observer": {
    "cellInterpreter": {
      "type": "WallFoodBody"
    },
    "height": 5,
    "type": "GridObserver",
    "width": 5
  },
  "type": "GeneticBot",
  "weights": [
    0.8036988377571106,
    0.5964535474777222,
    -0.881807804107666,
    -0.19717398285865784,
    0.4936307668685913,
    0.48705407977104187,
    -0.5161505341529846,
    0.2886013686656952,
    0.005685683339834213,
    -0.7994994521141052,
    0.7026978731155396,
    -0.4964413344860077,
    0.8040285706520081,
    -0.15353906154632568,
    0.04566194489598274,
    0.20079341530799866,
    -0.8477188944816589,
    0.7214486598968506,
    0.562559962272644,
    -0.4114108979701996,
    -0.9397078156471252,
    -0.6588672399520874,
    -0.43541058897972107,
    -0.03825811669230461,
    -0.9283180832862854,
    -1.0,
    -0.16274921596050262,
    -0.13352139294147491,
    -0.7571215033531189,
    -0.028458336368203163,
    -1.0,
    0.7609149217605591,
    1.0,
    -0.44562816619873047,
    -0.1525191366672516,
    0.5056125521659851,
    -1.0,
    -0.7382550239562988,
    0.7759086489677429,
    -0.17152321338653564,
    0.8993377089500427,
    0.848002552986145,
    0.929786205291748,
    0.8788873553276062,
    0.9242562055587769,
    0.3739551901817322,
    0.212515726685524,
    0.4832117557525635,
    -0.36377155780792236,
    -0.641615092754364,
    -1.0,
    -0.4360240399837494,
    0.18878141045570374,
    -0.28199413418769836,
    -0.12954743206501007,
    -0.2513352334499359,
    0.7048738598823547,
    -0.43374738097190857,
    -0.5447857975959778,
    -0.2221137136220932,
    0.8045991063117981,
    0.5993592739105225,
    -0.7659108638763428,
    0.39561745524406433,
    -0.5428999662399292,
    -0.013879824429750443,
    -0.0488235242664814,
    -0.2944181263446808,
    -0.7801110744476318,
    0.47828906774520874,
    -0.3350628912448883,
    -0.5504776835441589,
    -0.13373516499996185,
    -0.23185844719409943,
    0.7407299280166626,
    -0.12417354434728622,
    0.6400404572486877,
    0.006747651379555464,
    0.22402425110340118,
    -0.0853208377957344,
    -0.11824709177017212,
    0.6283481121063232,
    -0.1508372724056244,
    0.8732746243476868,
    -0.4092348515987396,
    0.4554767906665802,
    -0.6836817860603333,
    -0.7831476926803589,
    -0.9091952443122864,
    -0.05417365953326225,
    -0.6857538819313049,
    -0.7463759183883667,
    -0.7945249676704407,
    -0.8358011841773987,
    0.9210395216941833,
    0.799359142780304,
    0.028281379491090775,
    0.2016938030719757,
    -0.21336399018764496,
    -0.7661550045013428,
    0.00270066293887794,
    0.774517297744751,
    0.45956915616989136,
    0.629282534122467,
    -0.8992124795913696,
    0.28325462341308594,
    -0.7501693964004517,
    0.8346078991889954,
    -0.1841914802789688,
    0.15914177894592285,
    -0.9119144082069397,
    0.07578344643115997,
    0.07937564700841904,
    -0.7645710706710815,
    0.606351375579834,
    -0.5289406180381775,
    0.06379895657300949,
    0.4422040581703186,
    0.26268166303634644,
    -0.7292214632034302,
    -0.2779841721057892,
    1.0,
    -0.012775002978742123,
    0.5733082294464111,
    0.5106693506240845,
    -0.12919111549854279,
    -0.9667776226997375,
    -0.356315940618515,
    0.8115877509117126,
    -0.1932707279920578,
    0.7358712553977966,
    -0.3663502335548401,
    -0.5397505164146423,
    -0.658781886100769,
    -0.5527482032775879,
    0.054087620228528976,
    0.09256232529878616,
    -0.308117538690567,
    -0.10599090903997421,
    -0.9205145239830017,
    -0.06731466203927994,
    -0.16369211673736572,
    -0.6483871936798096,
    -0.6395611763000488,
    -0.4474104642868042,
    -0.5078552961349487,
    -0.10749536007642746,
    0.6976377367973328,
    0.5149663090705872,
    0.7517411112785339,
    -0.5891135334968567,
    -0.0998322144150734,
    -0.028736019507050514,
    -0.33257240056991577,
    0.24528318643569946,
    0.3593067526817322,
    0.6542497277259827,
    0.5455152988433838,
    -0.1750325858592987,
    0.568932294845581,
    0.9625751376152039,
    0.2479448765516281,
    -0.13809633255004883,
    0.808081328868866,
    -0.3568557798862457,
    -0.1308785080909729,
    0.5510420203208923,
    -0.4711814224720001,
    -0.4775380790233612,
    -0.055039990693330765,
    0.8364786505699158,
    0.587801992893219,
    -0.12616634368896484,
    0.5628986358642578,
    -0.5339579582214355,
    0.2949979603290558,
    -0.5950987339019775,
    0.038673002272844315,
    -0.9279976487159729,
    -0.04548155888915062,
    0.35482048988342285,
    0.4150609076023102,
    -0.06347543746232986,
    -0.7311378717422485,
    0.26930752396583557,
    0.12367933988571167,
    0.802017331123352,
    -0.9189520478248596,
    0.294500470161438,
    -0.7278297543525696,
    -0.6392956376075745,
    0.5788840651512146,
    -0.3491714894771576,
    0.15928831696510315,
    -0.5167392492294312,
    0.2377423644065857,
    0.5175023674964905,
    0.23547768592834473,
    0.42726829648017883,
    -0.0779382586479187,
    -0.8808649182319641,
    0.8676168322563171,
    0.40109264850616455,
    -0.8200110197067261,
    -0.5093657374382019,
    -0.2818903923034668,
    -0.09980820119380951,
    -0.9229742884635925,
    1.0,
    -0.12017568200826645,
    0.5287209749221802,
    -0.18110591173171997,
    -0.4965208172798157,
    -0.13391228020191193,
    -0.8874538540840149,
    -0.8440107107162476,
    0.4719533324241638,
    -0.08838172256946564,
    -0.30985113978385925,
    -0.2635153830051422,
    -0.018247034400701523,
    0.6378247141838074,
    0.8735983371734619,
    -0.6218206286430359,
    0.7506301999092102,
    -0.06510494649410248,
    0.8076967597007751,
    0.37946707010269165,
    -1.0,
    0.763823390007019,
    -0.7631916403770447,
    0.8109713196754456,
    -0.9839869141578674,
    -0.5538986921310425,
    -0.4023072421550751,
    0.16290165483951569,
    -0.6378400325775146,
    -0.38281485438346863,
    0.14734013378620148,
    1.0,
    -0.858555793762207,
    0.33752280473709106,
    0.9316293597221375,
    0.29508334398269653,
    1.0,
    -0.11200909316539764,
    0.9462965726852417,
    -0.8688771724700928,
    -1.0,
    -0.3261570930480957,
    0.13689690828323364,
    0.7435528039932251,
    0.6420637965202332,
    -1.0,
    0.5421825647354126,
    -0.6391493678092957,
    -0.05572059750556946,
    0.7172180414199829,
    -0.8320077061653137,
    -0.6679006814956665,
    0.2391977459192276,
    -0.4561539590358734,
    -0.43724489212036133,
    0.9684285521507263,
    0.8762534260749817,
    -0.39147627353668213,
    -0.009887843392789364,
    -1.0,
    -0.9122684597969055,
    -0.19934400916099548,
    0.28692877292633057,
    -1.0,
    -0.053227346390485764,
    0.5309244394302368,
    0.7293070554733276,
    0.5383127927780151,
    -0.3888274133205414,
    0.9757104516029358,
    0.6023737788200378,
    0.1426129937171936,
    -0.6210607290267944,
    0.23426325619220734,
    0.7415814995765686,
    -0.6182562708854675,
    0.2708793878555298,
    0.44098320603370667,
    0.2818751335144043,
    -0.1977931708097458,
    0.023477992042899132,
    0.12159152328968048,
    -0.614246129989624,
    0.5778529644012451,
    0.023349497467279434,
    -0.15854673087596893,
    0.15867474675178528,
    -0.0077392845414578915,
    -1.0,
    0.7033016085624695,
    0.038810450583696365,
    0.5043855309486389,
    -0.4556139409542084,
    -0.10494691133499146,
    0.8732169270515442,
    0.4581225514411926,
    -0.015683431178331375,
    -0.057991039007902145,
    -0.4617391526699066,
    -0.5535416007041931,
    -0.21970276534557343,
    -0.4158147871494293,
    -0.8574633002281189,
    0.8721854090690613,
    -0.5674670338630676,
    -0.07734303176403046,
    -0.5886623859405518,
    -0.06351813673973083,
    -0.031934767961502075,
    0.8764641284942627,
    -0.27775809168815613,
    0.24373014271259308,
    -0.4454907774925232,
    0.6639026403427124,
    -0.019519615918397903,
    -0.7699575424194336,
    0.3867277503013611,
    0.39317935705184937,
    0.03317653387784958,
    -0.19746693968772888,
    0.10926532000303268,
    0.7362925410270691,
    0.5869836807250977,
    0.13209308683872223,
    0.5611960291862488,
    0.2635424733161926,
    -0.5362133979797363,
    0.06527278572320938,
    -0.12394151836633682,
    -0.8159273266792297,
    -0.46432626247406006,
    -0.3787771761417389,
    -0.94666588306427,
    -0.8954648971557617,
    0.8545548915863037,
    0.4607837200164795,
    -0.5492200255393982,
    -0.07252126932144165,
    -0.20219460129737854,
    0.7274332642555237,
    0.35073068737983704,
    -0.20110173523426056,
    -0.05858641490340233,
    0.3537552058696747,
    0.2626664638519287,
    1.0,
    -0.24356813728809357,
    -0.1110902950167656,
    -0.9625995755195618,
    0.02079850062727928,
    -0.270626038312912,
    0.05133139714598656,
    -0.7664418816566467,
    0.22903847694396973,
    -0.18418221175670624,
    0.4315987527370453,
    0.9137061834335327,
    0.9139407873153687,
    -0.3894588351249695,
    0.5131290555000305,
    -0.678527295589447,
    0.021170681342482567,
    0.291848361492157,
    -0.748753547668457,
    -0.8627001643180847,
    -0.7065280079841614,
    0.4538072347640991,
    0.27970537543296814,
    -0.595953106880188,
    -0.3768671154975891,
    0.7858607769012451,
    -0.08820752799510956,
    1.0,
    0.6753227114677429,
    0.47000381350517273,
    -0.2804925739765167,
    -0.95146644115448,
    0.687603235244751,
    -0.17785605788230896,
    -0.9746880531311035,
    0.4594564437866211,
    -0.9163884520530701,
    0.9530319571495056,
    0.7413433790206909,
    -0.24951933324337006,
    0.8787960410118103,
    -0.32130196690559387,
    0.24273809790611267,
    0.9655964970588684,
    -0.6422133445739746,
    0.5282390117645264,
    0.8632436990737915,
    -0.25269028544425964,
    -0.6552320718765259,
    0.29606613516807556,
    0.08126773685216904,
    0.6300761699676514,
    0.016718054190278053,
    0.31382516026496887,
    -0.7336041331291199,
    0.60123610496521,
    -0.5022491812705994,
    0.7295295596122742,
    -0.23136374354362488,
    -0.8567399978637695,
    -0.8940732479095459,
    -0.2596515715122223,
    -0.1021822839975357,
    -0.04813993722200394,
    0.34716036915779114,
    1.0,
    0.25251924991607666,
    0.22164049744606018,
    -0.8595110177993774,
    -0.16717728972434998,
    0.706976592540741,
    0.969808042049408,
    0.10841081291437149,
    0.6815910935401917,
    0.46722328662872314,
    -0.6429486870765686,
    0.269954651594162,
    0.33220311999320984,
    -0.056706372648477554,
    -0.38189926743507385,
    -0.4129429757595062,
    0.9764364361763,
    0.9765309691429138,
    1.0,
    -0.1783166229724884,
    0.012231599539518356,
    0.3339978754520416,
    0.7185124754905701,
    0.298953115940094,
    0.4053438603878021,
    -0.5477737188339233,
    -0.011557327583432198,
    -0.9111453890800476,
    -1.0,
    0.47741636633872986,
    -0.931162416934967,
    0.18384942412376404,
    0.5339677333831787,
    0.5690574049949646,
    -0.5358591675758362,
    0.31417888402938843,
    0.8688375949859619,
    -0.9440658092498779,
    -0.7769647836685181,
    -0.26340556144714355,
    -0.4904657006263733,
    0.3972778618335724,
    0.8984740376472473,
    -0.5274149775505066,
    0.08290044963359833,
    0.10305171459913254,
    0.022376172244548798,
    -0.19149120151996613,
    -0.024179648607969284,
    -0.6701985597610474,
    -1.0,
    -0.5761986374855042,
    -0.9476333260536194,
    0.16998200118541718,
    0.9701986908912659,
    -0.8842158913612366,
    -0.987008273601532,
    0.7674672603607178,
    -0.5379769802093506,
    0.3353065848350525,
    0.04311083257198334,
    -0.421784371137619,
    -0.8263404965400696,
    -0.2413647621870041,
    0.06693010032176971,
    0.29330387711524963,
    0.54682457447052,
    0.27125123143196106,
    0.20815710723400116,
    -0.20709553360939026,
    0.40078410506248474,
    0.07840519398450851,
    -0.04774006828665733,
    0.25450921058654785,
    0.006753692869096994,
    -0.6687003374099731,
    -0.5208654403686523,
    0.7936094403266907,
    0.17231956124305725,
    -0.593966543674469,
    -0.06979592889547348,
    -0.07610394060611725,
    0.6432022452354431,
    0.6878840327262878,
    0.4890012741088867,
    0.03049406036734581,
    0.2843407392501831,
    -0.5692159533500671,
    0.31439247727394104,
    -0.458268940448761,
    -0.6004359722137451,
    -0.2898435890674591,
    0.05312354117631912,
    0.7742271423339844,
    -0.7999725341796875,
    0.3598040044307709,
    0.7507429718971252,
    -0.3959963023662567,
    0.5705466270446777,
    0.2759971618652344,
    0.8280006647109985,
    -0.6328353881835938,
    0.45212581753730774,
    1.0,
    -0.8990263938903809,
    0.5261237025260925,
    0.4774101972579956,
    0.6185400485992432,
    -0.06381423026323318,
    -0.8637165427207947,
    -0.08989528566598892,
    -0.49971023201942444,
    0.8250893354415894,
    -0.8759483098983765,
    -0.5826442241668701,
    -0.17054057121276855,
    -0.19182389974594116,
    0.2874508798122406,
    -1.0,
    0.9898645281791687,
    -0.32521405816078186,
    0.7398417592048645,
    0.5034641623497009,
    -0.7631060481071472,
    -0.5275706648826599,
    0.7885067462921143,
    -0.46685999631881714,
    -0.36127498745918274,
    -0.9939268231391907,
    -0.4413861036300659,
    0.8303629159927368,
    -0.3433327078819275,
    0.5058448314666748,
    -0.8928434252738953,
    -0.6232216954231262,
    -0.01904662325978279,
    0.13371413946151733,
    -0.013983882032334805,
    0.7519974708557129,
    -0.04378194734454155,
    0.1855735033750534,
    0.20470884442329407,
    0.6266574263572693,
    -0.8788965940475464,
    0.6641011238098145,
    0.8047491312026978,
    -0.964336097240448,
    0.7961177825927734,
    0.9295816421508789,
    -0.5067933797836304,
    0.6390666961669922,
    0.6546676158905029,
    0.5525621771812439,
    0.29960957169532776,
    -0.3396376967430115,
    -0.8116793036460876,
    -0.46693316102027893,
    -0.6278297901153564,
    -0.8039857149124146,
    0.3540361523628235,
    -0.6730889081954956,
    0.47177326679229736,
    0.7408027648925781,
    -0.6301614046096802,
    0.3103915750980377,
    -0.1775360256433487,
    -0.74775230884552,
    -0.3738001883029938,
    0.08390439301729202,
    -0.582668662071228,
    0.11859194189310074,
    -0.8045105934143066,
    -0.4830988049507141,
    -0.8421032428741455,
    -0.5513136982917786,
    -0.4613543152809143,
    0.42536991834640503,
    -0.9072969555854797,
    0.5220556855201721,
    0.9663197994232178,
    0.2788507044315338,
    0.602853536605835,
    0.44435808062553406,
    0.3703879714012146,
    0.45214399695396423,
    0.7574785351753235,
    0.6938291788101196,
    -0.7121768593788147,
    -0.15537577867507935,
    -0.1727990061044693,
    0.15587034821510315,
    -0.0888514593243599,
    -0.5822167992591858,
    -0.13545337319374084,
    0.7940915822982788,
    -0.4008637070655823,
    -0.4158177077770233,
    -0.569197952747345,
    -0.9628192782402039,
    -0.13987544178962708,
    0.05374596640467644,
    0.6974210739135742,
    0.6189641952514648,
    -0.7078308463096619,
    0.8972899913787842,
    0.6056121587753296,
    0.5684406161308289,
    -0.10703766345977783,
    -0.05098741501569748,
    -0.3630267381668091,
    0.4134463667869568,
    -0.20835262537002563,
    -0.3762260675430298,
    0.8449965119361877,
    0.5498279929161072,
    0.11532953381538391,
    -0.3352823555469513,
    -0.027830053120851517,
    0.9181615114212036,
    -0.8250129222869873,
    -0.8532912731170654,
    0.7903162837028503,
    1.0,
    0.650670051574707,
    -0.4135349690914154,
    -0.23539534211158752,
    0.483898788690567,
    0.006707964930683374,
    0.4214479625225067,
    0.5082187056541443,
    0.008911586366593838,
    -0.7962431311607361,
    0.2525409162044525,
    -0.33226442337036133,
    0.7400307059288025,
    -0.6313608288764954,
    0.05122232437133789,
    -0.043476544320583344,
    0.589580774307251,
    0.2621506154537201,
    -0.5821191072463989,
    0.9310678243637085,
    -0.8573290109634399,
    -0.5757744312286377,
    -0.5698814988136292,
    0.02094767801463604,
    -0.9696983098983765,
    -0.39224252104759216,
    -0.09426910430192947,
    -0.19160446524620056,
    0.7380139231681824,
    -0.14494462311267853,
    0.34815841913223267,
    0.42144519090652466,
    -0.9485090970993042,
    0.9315072894096375,
    -0.21014751493930817,
    -0.9382457733154297,
    -0.5178960561752319,
    -0.9319162964820862,
    -0.6540421843528748,
    -0.8518539071083069,
    0.5392162799835205,
    -0.5214760303497314,
    -0.11282367259263992,
    -1.0,
    0.21108733117580414,
    0.5277594327926636,
    0.8648335337638855,
    0.2210821956396103,
    -0.2608599364757538,
    -0.9895749688148499,
    -0.8576647043228149,
    -0.631858229637146,
    0.21393172442913055,
    0.977074384689331,
    -0.1751365065574646,
    -0.8422132134437561,
    1.0,
    -0.2530442774295807,
    0.6594774127006531,
    -1.0,
    0.1428755223751068,
    0.9192663431167603,
    -0.18121594190597534,
    0.7488906383514404,
    -0.49301448464393616,
    0.2881802022457123,
    0.5571581721305847,
    0.901168942451477,
    1.0,
    -0.6633351445198059,
    0.2854335606098175,
    -0.7500473260879517,
    -0.9227088689804077,
    -0.5336249470710754,
    0.2546711564064026,
    -0.6753535270690918,
    -0.27018362283706665,
    -0.5767478942871094,
    0.6132357716560364,
    -0.5784326791763306,
    0.6848965287208557,
    1.0,
    -0.4909912943840027,
    0.3847832977771759,
    -0.17678430676460266,
    -0.21913230419158936,
    -0.37485864758491516,
    -0.32876357436180115,
    0.41046184301376343,
    0.9093875885009766,
    0.49869686365127563,
    0.22341057658195496,
    0.2448623925447464,
    0.5714437961578369,
    0.32503730058670044,
    0.30434295535087585,
    0.2964871823787689,
    -0.43570971488952637,
    0.183968648314476,
    -0.2995634973049164,
    0.8737144470214844,
    -0.23153774440288544,
    0.6226601600646973,
    -0.02887960523366928,
    -0.9076235294342041,
    0.5171299576759338,
    0.537006676197052,
    -0.9108736515045166,
    0.8320443630218506,
    0.11550015211105347,
    -0.21689803898334503,
    -0.628791093826294,
    -0.5860286355018616,
    -1.0,
    -0.43336591124534607,
    -0.6130984425544739,
    1.0,
    -0.300411581993103,
    0.021564552560448647,
    0.11232922226190567,
    0.7664449214935303,
    -0.21344049274921417,
    -0.03404334932565689,
    0.5087895393371582,
    0.9016205072402954,
    -0.9217841029167175,
    0.7025238275527954,
    -0.9201177954673767,
    -0.9784845113754272,
    0.12873026728630066,
    0.6463850736618042,
    0.5396465063095093,
    -0.03204428777098656,
    0.22963950037956238,
    0.2497543841600418,
    -0.46529409289360046,
    0.07579583674669266,
    0.46136054396629333,
    0.11821646243333817,
    -0.26660335063934326,
    0.9822869896888733,
    -0.3609027564525604,
    -0.3881130516529083,
    -0.6805723905563354,
    1.0,
    0.5827083587646484,
    0.386797696352005,
    -0.48081907629966736,
    0.7291817665100098,
    0.19856557250022888,
    -0.8507705330848694,
    -0.28421875834465027,
    -0.8736900091171265,
    0.9161534309387207,
    0.10942423343658447,
    -0.34841763973236084,
    -0.9193853735923767,
    -0.44350436329841614,
    -0.6699486374855042,
    -0.32718250155448914,
    -0.11639129370450974,
    -0.3704063296318054,
    0.3723715841770172,
    -0.49961549043655396,
    -0.5481581091880798,
    -1.0,
    0.6321361064910889,
    -0.7914762496948242,
    0.1647178828716278,
    0.5519853234291077,
    -0.8545181155204773,
    -0.3102635443210602,
    -0.5666279196739197,
    0.28938865661621094,
    -0.29546478390693665,
    -0.014139572158455849,
    -0.6141361594200134,
    0.3662710189819336,
    -0.35427409410476685,
    -0.8301247954368591,
    1.0,
    0.6850643754005432,
    0.12592850625514984,
    -0.8373850584030151,
    -0.06819941103458405,
    -0.045143142342567444,
    0.3755057454109192,
    -0.4793756902217865,
    -0.11687695980072021,
    0.035883840173482895,
    -0.7761986255645752,
    -0.8587144613265991,
    0.3082098066806793,
    0.15091705322265625,
    -0.4603230655193329,
    -0.5217260122299194,
    -0.04600672423839569,
    -0.7494827508926392,
    -0.5245888829231262,
    -0.03351207077503204,
    0.4707326292991638,
    0.48486584424972534,
    0.0015807193703949451,
    0.8368818163871765,
    0.7716420292854309,
    -0.8218603134155273,
    0.3891445994377136,
    0.8665181398391724,
    -0.7977446913719177,
    -0.5786523818969727,
    -1.0,
    0.841566264629364,
    -0.1502247452735901,
    0.5785119533538818,
    0.8016937971115112,
    0.33970776200294495,
    0.04399566352367401,
    0.7103334665298462,
    0.5581775307655334,
    -0.2087525874376297,
    0.8586717247962952,
    1.0,
    0.5937344431877136,
    1.0,
    0.26069214940071106,
    0.14952851831912994,
    1.0,
    -0.18492089211940765,
    0.8657978773117065,
    0.2527667284011841,
    -0.02833329513669014,
    0.02220824360847473,
    0.15310516953468323,
    0.8019378781318665,
    0.3441999852657318,
    -0.047477658838033676,
    -0.6200202703475952,
    0.8299357295036316,
    -0.6080753207206726,
    -0.36604201793670654,
    0.14659608900547028,
    -0.02366996929049492,
    -0.41278108954429626,
    0.047151144593954086,
    0.7994384169578552,
    -0.9772579073905945,
    0.4817284643650055,
    -0.8977080583572388,
    0.5404829978942871,
    -0.6861874461174011,
    0.2105596512556076,
    -0.9935941100120544,
    0.5882534384727478,
    -0.7022766470909119,
    0.8412793278694153,
    0.8462172746658325,
    0.8604450225830078,
    -0.9243537783622742,
    -0.024274464696645737,
    -0.537110447883606,
    -0.016950124874711037,
    -0.7995880842208862,
    -0.9866176843643188,
    0.4207741618156433,
    0.8890104293823242,
    -0.5245034098625183,
    0.13744290173053741,
    -0.003326481208205223,
    -0.1350170224905014,
    0.5807947516441345,
    -0.5048134326934814,
    0.6760185956954956,
    -0.06832805275917053,
    0.36518752574920654,
    -1.0,
    -0.8753045201301575,
    -0.34150514006614685,
    0.6961727142333984,
    0.24817968904972076,
    -0.7962492108345032,
    -0.3890073895454407,
    0.59429931640625,
    0.7451704740524292,
    -0.7136234641075134,
    -0.4135623276233673,
    0.045933306217193604,
    0.08672438561916351,
    -0.87180095911026,
    0.3827754855155945,
    -0.1772575080394745,
    -0.6419844627380371,
    -0.31491750478744507,
    -0.7000795602798462,
    -0.9394451379776001,
    -0.5510451793670654,
    -0.34994328022003174,
    0.5238445401191711,
    -0.6964689493179321,
    -0.30688175559043884,
    0.8585771918296814,
    -0.8566545248031616,
    0.3040131628513336,
    -0.8651906251907349,
    0.40364694595336914,
    0.34939178824424744,
    -0.04589080810546875,
    -0.578164279460907,
    -0.07532258331775665,
    -0.736225426197052,
    0.9328439831733704,
    0.035001788288354874,
    -0.731840193271637,
    -0.7577655911445618,
    0.9973296523094177,
    0.5547232627868652,
    -0.7673177719116211,
    0.4964263141155243,
    0.7801600694656372,
    -0.43919187784194946,
    -0.8208197355270386,
    -0.9793664216995239,
    -0.19710370898246765,
    0.27670812606811523,
    0.253163605928421,
    -0.48606207966804504,
    0.7537614703178406,
    0.3337200880050659,
    0.38032788038253784,
    -0.21849387884140015,
    0.2657495141029358,
    0.5342261791229248,
    0.7156559228897095,
    0.9312447309494019,
    0.9753440618515015,
    0.5245856046676636,
    0.48118555545806885,
    -0.12035577744245529,
    0.35410937666893005,
    -0.5293681621551514,
    -0.9277169108390808,
    -0.43638113141059875,
    -1.0,
    0.564436674118042,
    0.057280320674180984,
    0.1655813306570053,
    0.859633207321167,
    0.12012086063623428,
    -0.6435807347297668,
    0.8350383043289185,
    0.8752281665802002,
    0.699069082736969,
    -0.47428518533706665,
    -0.20801691710948944,
    -0.40858185291290283,
    0.3146430552005768,
    0.6320560574531555,
    -0.01921444572508335,
    0.9269537925720215,
    -0.9130436778068542,
    -0.6036009788513184,
    -0.8593674898147583,
    -0.8110266327857971,
    0.5396589636802673,
    -0.934345543384552,
    -0.44633325934410095,
    -0.6185583472251892,
    -0.7639973163604736,
    0.394124835729599,
    0.8378215432167053,
    -0.7991822361946106,
    -0.0153662646189332,
    0.9050935506820679,
    -0.24990996718406677,
    0.0224770437926054,
    0.031364016234874725,
    0.04617445543408394,
    0.0008941608248278499,
    0.7343853712081909,
    -0.909387469291687,
    -0.4388473629951477,
    0.01259511336684227,
    -0.34057992696762085,
    0.2478470802307129,
    0.8267067074775696,
    -0.8641133308410645,
    0.8351300358772278,
    0.5017516613006592,
    -0.1502092033624649,
    -0.4047149419784546,
    0.6574786901473999,
    0.24251534044742584,
    0.8106082081794739,
    -0.13355205953121185,
    -0.7857417464256287,
    0.53691166639328,
    -0.29216012358665466,
    0.5514271855354309,
    -0.016593007370829582,
    -0.9995605945587158,
    -0.5832424759864807,
    0.07181619107723236,
    -1.0,
    -0.8472701907157898,
    0.5885829329490662,
    -1.0,
    -0.7166448831558228,
    -0.6737083792686462,
    -0.13083912432193756,
    -0.9138798117637634,
    -0.8219792246818542,
    -0.6567981243133545,
    -0.0210148636251688,
    0.7234625220298767,
    -0.2797940671443939,
    -0.45331278443336487,
    1.0,
    -1.0,
    -0.3749138414859772,
    1.0,
    -0.36081457138061523,
    0.9742454886436462,
    0.9054628014564514,
    0.8102176189422607,
    -0.046259764581918716,
    -0.07919271290302277,
    -0.2096015214920044,
    -0.11402944475412369,
    -0.344753235578537,
    -0.18676744401454926,
    0.5940579175949097,
    0.1557634323835373,
    0.5399731993675232,
    -0.5171086192131042,
    -0.992760956287384,
    0.830253005027771,
    -0.6155157685279846,
    -0.9029999375343323,
    0.39495521783828735,
    0.7449597120285034,
    0.37809693813323975,
    -0.8372966051101685,
    -0.3872915506362915,
    -0.9568193554878235,
    0.6912778615951538,
    -0.1154363751411438,
    0.8997467160224915,
    0.878646194934845,
    0.039313871413469315,
    0.45320919156074524,
    -0.5417434573173523,
    0.6486064791679382,
    0.5458447337150574,
    0.5915800333023071,
    0.5488723516464233,
    0.783825159072876,
    -0.8423537015914917,
    -0.6599017977714539,
    0.38575392961502075,
    -0.09879475086927414,
    -0.7767571806907654,
    0.9218968749046326,
    -0.5693535208702087,
    0.3964022696018219,
    -0.6413524746894836,
    0.629245936870575,
    0.14178910851478577,
    -0.09367349743843079,
    -0.7155583500862122,
    0.5005826950073242,
    -0.9481032490730286,
    0.7264689803123474,
    -0.7408185005187988,
    -0.1445447951555252,
    -0.11157891154289246,
    0.326654851436615,
    -0.18976104259490967,
    -0.8717703819274902,
    0.2106754183769226,
    0.49675866961479187,
    0.9537217020988464,
    -0.7426007986068726,
    -0.4362134039402008,
    -0.2835173010826111,
    0.6612229347229004,
    0.8552353978157043,
    -0.7241032123565674,
    0.002301194239407778,
    -0.5482711791992188,
    -0.1467694640159607,
    -1.0,
    0.1081819161772728,
    0.2685111463069916,
    -0.9353007674217224,
    -0.3237067461013794,
    -0.883046567440033,
    -0.345344603061676,
    -0.7284460663795471,
    0.25334349274635315,
    0.0677967518568039,
    1.0,
    -0.07409889250993729,
    -0.28003761172294617,
    0.06389390677213669,
    -0.9462200999259949,
    -0.8026459217071533,
    -0.8606372475624084,
    0.7810909152030945,
    0.5969787240028381,
    -0.1768456995487213,
    -0.8052766919136047,
    -0.5809750556945801,
    -0.6185494065284729,
    0.4590473473072052,
    0.7120028138160706,
    -0.4489971995353699,
    -0.4479111433029175,
    -0.44315293431282043,
    -0.5105898976325989,
    0.35342592000961304,
    -0.11771252751350403,
    -0.2058379203081131,
    0.03918587416410446,
    0.345957487821579,
    -0.6074953079223633,
    0.30942413210868835,
    0.75188148021698,
    0.06890761852264404,
    0.5305368900299072,
    0.5867795348167419,
    0.28773775696754456,
    -0.1816094070672989,
    0.8583300709724426,
    -0.5289315581321716,
    -0.6347911357879639,
    -0.21448716521263123,
    -1.0,
    0.16079290211200714,
    -0.9949186444282532,
    -1.0,
    0.5079289674758911,
    0.7615433931350708,
    -0.09255962073802948,
    -0.3726460039615631,
    -0.0919310450553894,
    0.5350139141082764,
    -0.25653257966041565,
    0.04408391937613487,
    -0.8151249885559082,
    -0.4155884087085724,
    -0.6788842678070068,
    0.8898769617080688,
    -0.761631965637207,
    0.8496291637420654,
    0.9254951477050781,
    -0.1580185741186142,
    -1.0,
    0.1982908993959427,
    0.9376599788665771,
    -0.8771629929542542,
    0.3177432715892792,
    0.2629750072956085,
    -0.709723174571991,
    0.2776024341583252,
    0.018045660108327866,
    -0.31464335322380066,
    -0.26696035265922546,
    -0.19042932987213135,
    0.08266545087099075,
    -0.7414930462837219,
    -0.6860835552215576,
    -0.8442609906196594,
    0.5537431240081787,
    -0.21525625884532928,
    0.7195165157318115,
    -0.006152320187538862,
    -0.5708028674125671,
    -0.47068655490875244,
    -0.4635028839111328,
    0.5387828350067139,
    -0.5093052387237549,
    -0.8528306484222412,
    0.07753533124923706,
    0.6082735657691956,
    -0.35245537757873535,
    0.6250466108322144,
    -0.7757988572120667,
    -0.5540486574172974,
    1.0,
    0.091403067111969,
    0.29033133387565613,
    -0.9375316500663757,
    -0.9801324605941772,
    -0.5557144284248352,
    -0.6715723276138306,
    0.9228278398513794,
    0.05522014945745468,
    -0.1297406107187271,
    -0.1734277307987213,
    -0.7736840844154358,
    0.3322736918926239,
    0.6406780481338501,
    -0.054142940789461136,
    -0.2177252173423767,
    0.3324442505836487,
    0.3058013617992401,
    -0.17308300733566284,
    0.2944369316101074,
    0.47487396001815796,
    0.943128764629364,
    -0.4394909739494324,
    0.49479353427886963,
    -0.7929163575172424,
    -0.5385662913322449,
    0.5056642293930054,
    0.1047823578119278,
    -0.8535506725311279,
    0.3752465546131134,
    -0.241236612200737,
    -1.0,
    -0.6352488994598389,
    -0.06704606115818024,
    0.21465493738651276,
    0.7487443089485168,
    -0.431031197309494,
    -0.9720571041107178,
    -0.4357643127441406,
    -0.34390389919281006,
    0.26887428760528564,
    0.6076663732528687,
    -0.6887356042861938,
    -0.8032776713371277,
    0.6133216023445129,
    -0.284212589263916,
    0.8620011210441589,
    -0.29145485162734985,
    -0.3883085250854492,
    -0.24509423971176147,
    -0.420233815908432,
    0.38409683108329773,
    0.5489088296890259,
    -0.39347508549690247,
    0.8670980334281921,
    0.8104466795921326,
    0.7258339524269104,
    -0.714102566242218,
    -0.6139411330223083,
    -0.20712944865226746,
    -0.779491662979126,
    0.016678456217050552,
    0.011517752893269062,
    0.21131013333797455,
    0.1978818029165268,
    -0.9242928624153137,
    -0.4812096357345581,
    0.39013952016830444,
    0.6279886364936829,
    -0.02240973524749279,
    0.9036927819252014,
    -0.38428282737731934,
    0.1848231852054596,
    0.2614152133464813,
    -0.25581520795822144,
    0.6725761294364929,
    -0.8042115569114685,
    -0.08885450661182404,
    -0.9370952248573303,
    -0.08005621284246445,
    0.32456421852111816,
    0.30633267760276794,
    -0.23666784167289734,
    -0.8464583158493042,
    -0.7995849251747131,
    0.811834990978241,
    0.7491318583488464,
    0.7569597363471985,
    -0.4018034338951111,
    0.968898594379425,
    -0.43839868903160095,
    -0.5451124310493469,
    0.1588793247938156,
    -0.6440443396568298,
    1.0,
    0.06728434562683105,
    -0.7340403199195862,
    0.555665910243988,
    -0.8907162547111511,
    0.8343790769577026,
    0.8521348237991333,
    0.16313642263412476,
    0.632364809513092,
    -1.0,
    -0.2656635642051697,
    -0.5681846141815186,
    0.6506085395812988,
    -0.20744052529335022,
    -0.5205541849136353,
    -0.7264201045036316,
    0.029590941965579987,
    -0.8881558179855347,
    0.07094945013523102,
    -0.3768545985221863,
    -0.9550583362579346,
    0.7070406079292297,
    -0.9742271304130554,
    0.1833549588918686,
    -0.6165470480918884,
    0.15351681411266327,
    0.832065761089325,
    -0.4202430248260498,
    -0.37618935108184814,
    -0.001858518342487514,
    0.3556201457977295,
    1.0,
    0.3089238405227661,
    0.10223082453012466,
    -0.737653374671936,
    0.614578902721405,
    -0.2601030766963959,
    -0.7005921602249146,
    0.06250487267971039,
    0.695303201675415,
    -0.9587969779968262,
    0.2065766453742981,
    0.8566057085990906,
    0.8296244144439697,
    -0.004696818068623543,
    -0.6957336664199829,
    -1.0,
    0.7655353546142578,
    -0.5064305067062378,
    0.6318123936653137,
    0.07208174467086792,
    -1.0,
    0.5228521823883057,
    0.3378765285015106,
    0.6792871356010437,
    0.5611256957054138,
    0.1930660754442215,
    -0.3632466495037079,
    -0.6403881311416626,
    0.9255439639091492,
    0.30035117268562317,
    -0.2900722622871399,
    -0.5415874123573303,
    0.9304025173187256,
    0.572710394859314,
    0.7793757915496826,
    -0.5445478558540344,
    -1.0,
    -1.0,
    0.8105869889259338,
    -0.8715870380401611,
    0.2505815029144287,
    -0.24770058691501617,
    0.4505295157432556,
    -0.5131838917732239,
    0.9494491815567017,
    -0.3110293745994568,
    -0.5692128539085388,
    0.15850688517093658,
    -0.6653615832328796,
    -0.6686697602272034,
    0.2630237340927124,
    -0.03887162357568741,
    0.2294810563325882,
    0.6677602529525757,
    0.5783805251121521,
    -0.1894681453704834,
    -1.0,
    0.041331589221954346,
    0.8513292074203491,
    -0.7575424313545227,
    0.6704519987106323,
    0.9213873744010925,
    0.9497543573379517,
    -1.0,
    0.12269048392772675,
    -0.6689016222953796,
    0.33046966791152954,
    -0.16018567979335785,
    0.3357921838760376,
    0.891051709651947,
    -0.3890894651412964,
    -0.06006348505616188,
    -0.035764798521995544,
    0.20461760461330414,
    -0.4896204173564911,
    0.17445333302021027,
    0.5441601276397705,
    1.0,
    -0.5485062599182129,
    0.457164466381073,
    0.6946472525596619,
    0.6531964540481567,
    -0.3652454614639282,
    0.6694779992103577,
    0.7936124801635742,
    0.02939232438802719,
    0.745600700378418,
    0.9572069644927979,
    -0.5120059847831726,
    -0.8600513339042664,
    -0.5676015019416809,
    -0.7804345488548279,
    -1.0,
    0.7972197532653809,
    -0.52818363904953,
    -0.9335368275642395,
    0.09480869024991989,
    -0.3724512755870819,
    -0.7996031641960144,
    -0.5897306203842163,
    0.07344280928373337,
    -0.1366312950849533,
    0.9103457927703857,
    -0.33407390117645264,
    -0.6695150136947632,
    -0.11319604516029358,
    -0.7962977886199951,
    0.3852626383304596,
    0.8923917412757874,
    -0.007956154644489288,
    0.8043122291564941,
    -0.9138523936271667,
    -0.7373606562614441,
    0.9381969571113586,
    0.825882613658905,
    0.7121708393096924,
    0.6069857478141785,
    0.8486009240150452,
    -0.023365065455436707,
    -1.0,
    0.8895687460899353,
    -0.5823633074760437,
    -0.8267311453819275,
    0.20830726623535156,
    0.7092683911323547,
    -0.7871090769767761,
    0.9567949771881104,
    -0.2988066077232361,
    0.7450758218765259,
    -0.7716026902198792,
    -0.5877833962440491,
    -0.554597795009613,
    0.32209524512290955,
    0.7150548100471497,
    -0.4473036229610443,
    0.6026062965393066,
    -0.13880425691604614,
    -0.5401286482810974,
    -0.38796672224998474,
    0.7921475172042847,
    0.9474226832389832,
    -0.46368607878685,
    0.9293007850646973,
    0.5953519940376282,
    -0.8999876976013184,
    -0.21757227182388306,
    0.4947904944419861,
    0.4896544814109802,
    0.40881073474884033,
    -0.7240942120552063,
    0.7196354269981384,
    -0.5033296346664429,
    -0.5227307081222534,
    0.7268134355545044,
    -0.9561845064163208,
    0.9687643051147461,
    0.13719584047794342,
    0.12001406401395798,
    0.49753713607788086,
    0.087905652821064,
    -0.8456373810768127,
    0.20099781453609467,
    -0.09921883791685104,
    -0.3731009066104889,
    0.6255134344100952,
    1.0,
    0.24335457384586334,
    -0.7988954782485962,
    -0.29836127161979675,
    -0.5870816111564636,
    -0.2898770272731781,
    -0.400494247674942,
    -0.36559033393859863,
    -0.029636694118380547,
    -0.4109775722026825,
    0.08112137764692307,
    -0.9872738718986511,
    -0.49899613857269287,
    -0.8026281595230103,
    0.8160984516143799,
    0.29538866877555847,
    0.6994567513465881,
    -0.73757404088974,
    0.8926084041595459,
    -0.9655507206916809,
    -0.3612902760505676,
    1.0,
    -0.03912770003080368,
    0.9163150787353516,
    0.6976810097694397,
    -0.9854609966278076,
    0.771507978439331,
    -0.8279550075531006,
    0.5494920611381531,
    0.9252815246582031,
    -0.5745627880096436,
    -0.38015982508659363,
    0.22452478110790253,
    -0.6427019238471985,
    0.10548475384712219,
    0.2562119662761688,
    -0.8627064228057861,
    0.2614336609840393,
    0.33293265104293823,
    -0.28557997941970825,
    -0.19194941222667694,
    -0.05612970516085625,
    -0.6622820496559143,
    0.7740992903709412,
    0.5014099478721619,
    0.15678295493125916,
    0.7741021513938904,
    0.2861996293067932,
    0.5101351737976074,
    0.9638753533363342,
    0.4314766228199005,
    0.5023802518844604,
    -0.5236546397209167,
    -0.9306925535202026,
    0.7322952747344971,
    -0.26018238067626953,
    -0.794061005115509,
    -0.598248302936554,
    -0.1330057829618454,
    0.45583048462867737,
    -0.20939648151397705,
    -0.865303635597229,
    -0.1650104522705078,
    -0.9027954936027527,
    -0.6897794604301453,
    -0.8798271417617798,
    -0.7062899470329285,
    0.19424714148044586,
    -0.5801478028297424,
    1.0,
    0.7108097672462463,
    -0.06389351189136505,
    -0.9714834690093994,
    0.5067689418792725,
    -0.4369731545448303,
    -0.8027558326721191,
    -0.8269386887550354,
    -0.11918716132640839,
    0.07648824155330658,
    0.8106633424758911,
    -0.7438032627105713,
    0.48313862085342407,
    0.709835946559906,
    0.46558117866516113,
    -0.6730735898017883,
    0.2554000914096832,
    0.6321789026260376,
    0.2805597186088562,
    -0.7833824753761292,
    -0.9051088690757751,
    -0.09907864779233932,
    -0.7062017321586609,
    -0.13750433921813965,
    0.7812586426734924,
    -0.9790551662445068,
    0.6004030108451843,
    -0.7134495377540588,
    -0.22165891528129578,
    0.5114691257476807,
    0.8966490030288696,
    -0.5774742364883423,
    0.999951183795929,
    -0.11682180315256119,
    -0.16054873168468475,
    -0.011328439228236675,
    0.5392469167709351,
    -0.30776694416999817,
    -0.6876705884933472,
    0.5903439521789551,
    0.8977171182632446,
    0.07159976661205292,
    0.839774489402771,
    0.663417637348175,
    -0.8549333214759827,
    -0.0846918597817421,
    0.8655564785003662,
    -0.845317006111145,
    -0.14481651782989502,
    -0.987761914730072,
    -0.7915402054786682,
    -0.027158569544553757,
    -0.12350214272737503,
    -0.21708424389362335,
    -0.9434217214584351,
    0.35589471459388733,
    -0.9060670733451843,
    -0.5478620529174805,
    -1.0,
    -0.12342595309019089,
    -0.8420972228050232,
    0.19634094834327698,
    1.0,
    -0.6608020067214966,
    0.15205243229866028,
    0.9453200101852417,
    0.7113438248634338,
    0.8722496628761292,
    0.9472184181213379,
    -0.3670797646045685,
    0.12012380361557007,
    -0.43749213218688965,
    -0.32063964009284973,
    -0.183553546667099,
    0.3088500201702118,
    0.7839319705963135,
    0.009082327596843243,
    0.6442121863365173,
    0.49462559819221497,
    0.603408932685852,
    -0.34761500358581543,
    1.0,
    -0.9292916059494019,
    -0.2994476556777954,
    -0.03629874065518379,
    0.7783622741699219,
    0.7248879671096802,
    0.5942103862762451,
    -0.4132051169872284,
    -1.0,
    -0.8508011102676392,
    0.7289285659790039,
    -1.0,
    0.6201116442680359,
    0.17862170934677124,
    -0.8051699995994568,
    0.7060854434967041,
    -0.8631733059883118,
    0.589034914970398,
    -0.6167701482772827,
    -0.025281624868512154,
    0.6594529151916504,
    0.31709957122802734,
    0.0043127266690135,
    0.07528623938560486,
    -0.51921147108078,
    -0.07725120335817337,
    -0.08268054574728012,
    -0.5902951955795288,
    0.9716177582740784,
    -0.13918280601501465,
    0.8854274749755859,
    1.0,
    -0.7221778035163879,
    0.901339590549469,
    -0.2791252136230469,
    -0.7165714502334595,
    -0.39085981249809265,
    -0.4701864719390869,
    0.8937985897064209,
    -0.29138505458831787,
    0.16795259714126587,
    0.5522201657295227,
    -0.8851344585418701,
    1.0,
    -0.038233403116464615,
    0.5548385977745056,
    0.3654496967792511,
    0.46172982454299927,
    0.48662981390953064,
    -0.3780326545238495,
    0.5350783467292786,
    0.9065309762954712,
    -0.8262463212013245,
    0.3632405996322632,
    0.9131442904472351,
    0.0825403481721878,
    0.8918728828430176,
    0.8455336093902588,
    -0.9826441407203674,
    -0.46898096799850464,
    1.0,
    0.5971617698669434,
    -0.7415632605552673,
    0.7735862135887146,
    0.6166903972625732,
    0.36388158798217773,
    -0.9159459471702576,
    -0.5167609453201294,
    -0.11862236261367798,
    -0.7759757041931152,
    0.444389283657074,
    -0.6359080672264099,
    0.7672812342643738,
    0.29445144534111023,
    0.18503370881080627,
    0.14104735851287842,
    -0.7945066690444946,
    0.22649917006492615,
    -0.05801285430788994,
    -1.0,
    -0.9388378262519836,
    -0.3352612555027008,
    0.31275680661201477,
    0.7618367671966553,
    -0.35113391280174255,
    -0.787304162979126,
    0.7596728801727295,
    -0.33688798546791077,
    0.7134647369384766,
    0.7838525772094727,
    -0.7936093211174011,
    -0.42294076085090637,
    0.5886317491531372,
    0.9205511808395386,
    -0.3654530346393585,
    0.9007964134216309,
    -0.6483933925628662,
    -0.13779114186763763,
    0.4532579481601715,
    -1.0,
    -0.33348196744918823,
    -0.005996836349368095,
    -0.5871486663818359,
    0.2045162469148636,
    0.4893612861633301,
    -0.10640561580657959,
    -0.2622331976890564,
    -0.4375070631504059,
    -0.1878659576177597,
    -1.0,
    -0.5142309069633484,
    -0.14817948639392853,
    -0.8307721018791199,
    0.303018182516098,
    0.4812066853046417,
    0.5721945762634277,
    -0.4613324701786041,
    -0.5260046720504761,
    -0.04916558414697647,
    0.08407537639141083,
    -0.8345622420310974,
    -0.9496474862098694,
    -0.8264076709747314,
    0.5351910591125488,
    -0.8262277245521545,
    -0.7497696280479431,
    0.6573597192764282,
    -0.2289925515651703,
    -0.904781699180603,
    0.6418895721435547,
    -0.2881739139556885,
    0.7106021046638489,
    -0.6469894647598267,
    -0.4373149871826172,
    -0.5456007719039917,
    -0.2752070128917694,
    0.6559250354766846,
    0.16151003539562225,
    0.6706075668334961,
    -0.8105868697166443,
    0.9486797451972961,
    -0.047065574675798416,
    -0.341282457113266,
    0.6291054487228394,
    -0.5053132772445679,
    -0.35890963673591614,
    -0.5253759622573853,
    0.7895351648330688,
    -0.839667797088623,
    -0.9098756909370422,
    0.27167877554893494,
    0.24856401979923248,
    -0.12719829380512238,
    -0.6682057976722717,
    0.8024260997772217,
    0.44399821758270264,
    -0.605383574962616,
    -0.9478468894958496,
    -0.14345839619636536,
    -0.6309334635734558,
    0.8823878169059753,
    0.4473828375339508,
    -0.762276291847229,
    0.11417269706726074,
    -0.5177831053733826,
    0.16911517083644867,
    -0.39094501733779907,
    0.25335249304771423,
    -0.8495041131973267,
    -0.16013965010643005,
    -0.35759133100509644,
    -0.4321572482585907,
    0.3517470061779022,
    -0.903891384601593,
    0.7713521718978882,
    0.2913632392883301,
    -0.16129326820373535,
    -0.6679984927177429,
    0.5528914928436279,
    -0.07661378383636475,
    0.2687397301197052,
    0.23433950543403625,
    0.7904812693595886,
    -0.7653310298919678,
    -0.9575700759887695,
    1.0,
    -0.5393201112747192,
    -0.33275267481803894,
    -0.23944178223609924,
    0.8425458669662476,
    -0.6456953883171082,
    -0.917468786239624,
    0.6160313487052917,
    -0.21640966832637787,
    -0.01228647492825985,
    -0.11369364708662033,
    -0.5948545932769775,
    -0.46586188673973083,
    -0.2742151618003845,
    0.6876765489578247,
    -0.20824049413204193,
    0.23956722021102905,
    -0.09356975555419922,
    0.9765952825546265,
    0.07123006880283356,
    0.061009712517261505,
    0.6506239771842957,
    0.5860439538955688,
    0.19349656999111176,
    -0.027445156127214432,
    0.15703606605529785,
    0.001254432718269527,
    0.14936664700508118,
    -0.6138370037078857,
    0.46353375911712646,
    0.6378888487815857,
    -0.3999515473842621,
    0.7410687208175659,
    0.4607839286327362,
    -0.30123016238212585,
    0.9736533761024475,
    -0.9012696146965027,
    -0.24778279662132263,
    0.30752241611480713,
    0.3620959222316742,
    0.3844021260738373,
    0.7850732207298279,
    0.19490031898021698,
    -0.4635211229324341,
    0.7880122661590576,
    -0.2940188944339752,
    0.33639949560165405,
    0.7399885654449463,
    -0.6521106362342834,
    -0.16530050337314606,
    -0.511062741279602,
    0.471629798412323,
    0.39225712418556213,
    0.835865318775177,
    -0.6642780900001526,
    -0.7239356637001038,
    0.7153965830802917,
    -0.9526993632316589,
    0.33911240100860596,
    -0.9163365364074707,
    0.037086036056280136,
    -0.6268258690834045,
    0.747734010219574,
    0.3025668263435364,
    0.2714987099170685,
    0.5273414254188538,
    0.6345441341400146,
    -0.9581286311149597,
    -0.7099671363830566,
    0.46911218762397766,
    0.49534904956817627,
    -0.25190895795822144,
    -0.723749577999115,
    0.7192538976669312,
    -0.5753656625747681,
    -0.8270301818847656,
    0.9763817191123962,
    -0.10219735652208328,
    0.16046953201293945,
    0.2042391300201416,
    0.873140811920166,
    0.38365721702575684,
    0.12787534296512604,
    -0.2635914981365204,
    0.5634906888008118,
    -0.7584124207496643,
    0.8616412878036499,
    -0.00846869871020317,
    0.9752770066261292,
    0.6133884787559509,
    -0.2832848131656647,
    -0.3987366557121277,
    0.9499190449714661,
    0.4512711465358734,
    0.666329026222229,
    0.8014373779296875,
    0.5213536620140076,
    0.44990092515945435,
    0.22209522128105164,
    -1.0,
    0.48303186893463135,
    -0.4269905090332031,
    -0.09235167503356934,
    0.8360636830329895,
    0.6145511269569397,
    -1.0,
    0.5465589165687561,
    0.7623767256736755,
    -0.6987915635108948,
    -0.33071666955947876,
    0.2626422643661499,
    0.5330607891082764,
    0.39049047231674194,
    -0.10046102106571198,
    0.07434917986392975,
    -0.7434155941009521,
    -0.2336590737104416,
    -0.30328065156936646,
    0.582024335861206,
    -0.011569599620997906,
    0.16064941883087158,
    0.1268991231918335,
    0.8040496110916138,
    -0.1148349791765213,
    0.20881076157093048,
    -0.7924161553382874,
    0.8194189071655273,
    -0.9323953986167908,
    0.5148473381996155,
    0.5610005259513855,
    0.15705746412277222,
    -0.8179936408996582,
    0.23822781443595886,
    0.3008881211280823,
    0.18193934857845306,
    -0.2099275141954422,
    0.576949417591095,
    -0.7153996229171753,
    0.8936918377876282,
    0.8933073282241821,
    -0.10110470652580261,
    0.0812675729393959,
    0.5043641924858093,
    0.28876301646232605,
    -0.4620654582977295,
    0.9943906664848328,
    0.3327888548374176,
    0.6062960028648376,
    -0.6146000027656555,
    0.28558892011642456,
    0.7630791664123535,
    0.24173125624656677,
    0.008078143931925297,
    0.6893886923789978,
    -0.033377908170223236,
    0.21935486793518066,
    -0.27957385778427124,
    -0.940000593662262,
    -0.776296079158783,
    0.1352853626012802,
    1.0,
    -0.32352960109710693,
    0.47397398948669434,
    0.319037526845932,
    -0.6397197842597961,
    0.12938620150089264,
    0.6108767986297607,
    0.4298931062221527,
    -0.8742790222167969,
    -0.7790399193763733,
    0.08203068375587463,
    -0.878572940826416,
    1.0,
    0.011822979897260666,
    0.3582476079463959,
    0.5713248252868652,
    -0.3774957060813904,
    -0.7121400833129883,
    -0.3164129853248596,
    0.264629065990448,
    -0.22940167784690857,
    0.27533501386642456,
    0.5987029671669006,
    -0.5358593463897705,
    0.5381420850753784,
    0.19900809228420258,
    0.5197028517723083,
    0.49332261085510254,
    -0.27425146102905273,
    0.4578872621059418,
    -0.359025776386261,
    0.5083374381065369,
    0.13710740208625793,
    0.19801631569862366,
    0.6154086589813232,
    0.047874532639980316,
    0.7431989312171936,
    -0.5068880319595337,
    -0.1243203803896904,
    -0.01914173737168312,
    -1.0,
    0.09156769514083862,
    -0.4797140657901764,
    0.5225503444671631,
    0.9848169684410095,
    0.40218204259872437,
    -0.7910398244857788,
    -0.9711325764656067,
    -0.11014114320278168,
    -0.6808863282203674,
    0.5034212470054626,
    -0.7769554853439331,
    -0.4648030400276184,
    -0.5769646763801575,
    -0.7267036437988281,
    -0.08962979912757874,
    -0.449360728263855,
    -0.025083141401410103,
    -0.152586430311203,
    -0.7788384556770325,
    0.10350959748029709,
    0.28643447160720825,
    -0.6784176826477051,
    -0.1062990128993988,
    0.15395057201385498,
    -0.7380658984184265,
    -0.19254732131958008,
    -0.6283119916915894,
    1.0,
    -0.569756031036377,
    -1.0,
    -0.057942308485507965,
    -0.72044438123703,
    0.34568920731544495,
    0.01565909944474697,
    -0.3233039081096649,
    -0.4129582345485687,
    -0.9065523147583008,
    0.19098788499832153,
    -0.18820394575595856,
    0.20409856736660004,
    -0.4532853364944458,
    0.8715536594390869,
    0.18330338597297668,
    -0.797106921672821,
    -0.8928161859512329,
    -0.5666374564170837,
    0.834797203540802,
    0.44706854224205017,
    -1.0,
    -0.36533406376838684,
    -1.0,
    0.7697837352752686,
    0.8163059949874878,
    0.9165225625038147,
    -1.0,
    -0.23712551593780518,
    -1.0,
    -0.46295371651649475,
    -0.3603319823741913,
    -0.02845551259815693,
    -0.09757716953754425,
    -0.7056944370269775,
    -0.3847406804561615,
    -0.4167581796646118,
    0.505426287651062,
    0.586788535118103,
    -0.8254615068435669,
    -0.7013552188873291,
    -0.7210181951522827,
    -0.0029084221459925175,
    0.8357489705085754,
    -0.7881160378456116,
    0.8053103685379028,
    0.7425097823143005,
    -0.23325924575328827,
    -0.08540923148393631,
    0.5559279918670654,
    -0.2599995732307434,
    -0.6549120545387268,
    -0.773210883140564,
    0.10789501667022705,
    0.2979889512062073,
    0.0059510646387934685,
    0.9019623398780823,
    -0.44476449489593506,
    -0.9987697005271912,
    0.0958404466509819,
    -0.8738975524902344,
    -0.5516738295555115,
    -0.5193029642105103,
    -0.8946012258529663,
    -0.8424146175384521,
    1.0,
    -0.8790398836135864,
    0.801495373249054,
    0.4262365996837616,
    -0.9597094655036926,
    0.9838710427284241,
    -0.5694661736488342,
    -0.1350560188293457,
    0.12486691027879715,
    -0.8749687075614929,
    -0.5511762499809265,
    0.01324514765292406,
    -0.4489944875240326,
    -0.8593584299087524,
    0.7535569071769714,
    -0.22537323832511902,
    0.4403180480003357,
    -0.31857946515083313,
    -0.9154118895530701,
    -0.07113265246152878,
    -0.6257702708244324,
    -0.10016193240880966,
    -1.0,
    -0.5414197444915771,
    0.3167456388473511,
    -0.45930376648902893,
    -0.5194190144538879,
    -0.7900448441505432,
    -0.02012680470943451,
    -0.7226541042327881,
    -0.3239724934101105,
    -0.36804720759391785,
    0.39962443709373474,
    0.6521527171134949,
    0.996218740940094,
    0.1860283613204956,
    0.3648335039615631,
    0.598339855670929,
    -0.48043444752693176,
    -0.525153398513794,
    -0.2571764290332794,
    0.5107941627502441,
    -0.7755760550498962,
    -0.3594256341457367,
    -0.08111196756362915,
    -0.9634754061698914,
    0.8296059966087341,
    0.46271225810050964,
    0.09811057895421982,
    -0.379476398229599,
    0.558565080165863,
    -0.7134467959403992,
    0.25928813219070435,
    -0.0750173032283783,
    0.21427644789218903,
    0.59893798828125,
    -0.6602007746696472,
    0.5163365602493286,
    -0.1896725594997406,
    -0.8603717088699341,
    -0.1484663486480713,
    0.3103884756565094,
    -0.01999896764755249,
    -0.7552264332771301,
    -0.6195775866508484,
    -0.6492933630943298,
    -0.26002684235572815,
    -0.2028840333223343,
    0.36222779750823975,
    -1.0,
    0.13304872810840607,
    0.43039947748184204,
    -0.7721181511878967,
    0.8753228783607483,
    0.25977975130081177,
    -0.8461530804634094,
    -0.39622795581817627,
    0.5019320249557495,
    -0.8599871397018433,
    0.6336956024169922,
    0.7234842777252197,
    0.8448500633239746,
    0.6182620525360107,
    -0.07346722483634949,
    0.054335132241249084,
    -0.006347956135869026,
    0.07262179255485535,
    -0.5554829239845276,
    0.7008545398712158,
    0.11039134860038757,
    -0.49334079027175903,
    -0.4270605146884918,
    0.4487622380256653,
    0.8913601636886597,
    0.011743543669581413,
    -0.7166324853897095,
    0.2439098358154297,
    -0.49929213523864746,
    -0.8340372443199158,
    0.37157800793647766,
    0.8097810745239258,
    0.8852474093437195,
    0.47579559683799744,
    -0.34827113151550293,
    -0.6887538433074951,
    -0.9251472353935242,
    0.20721760392189026,
    0.34749048948287964,
    0.8873682618141174,
    0.2868279814720154,
    0.48097172379493713,
    0.6487565040588379,
    -0.6352396607398987,
    0.8469099998474121,
    0.14362002909183502,
    -0.22371619939804077,
    0.5217563509941101,
    -0.48765838146209717,
    -0.7724265456199646,
    0.5350353717803955,
    -0.7199892401695251,
    -0.024713857099413872,
    -0.7362865209579468,
    0.7892457842826843,
    0.27665039896965027,
    -0.5732201337814331,
    0.23836179077625275,
    0.4181462526321411,
    -0.10662250220775604,
    -0.89681077003479,
    -0.6119111776351929,
    -0.22022753953933716,
    0.015714043751358986,
    -0.492559552192688,
    -0.47042447328567505,
    0.9661030769348145,
    0.3112950921058655,
    -0.8182744383811951,
    0.10267907381057739,
    0.28925472497940063,
    -0.49261143803596497,
    -0.7366833686828613,
    -0.30177348852157593,
    0.496731162071228,
    -0.05812257155776024,
    0.6031219959259033,
    -0.6416760683059692,
    0.5115910768508911,
    0.8323068618774414,
    0.42006874084472656,
    -0.7307626008987427,
    0.4316812753677368,
    -0.09426574409008026,
    -0.8452528715133667,
    -0.786943793296814,
    0.492761492729187,
    -0.6193121075630188,
    -0.7727652788162231,
    -0.8043031096458435,
    -0.38084930181503296,
    -0.47591495513916016,
    -1.0,
    0.39744263887405396,
    -0.3764154613018036,
    -0.7905392646789551,
    -0.4428540766239166,
    0.17705611884593964,
    -0.0952972024679184,
    0.03853876516222954,
    0.6191474795341492,
    0.9084294438362122,
    -0.41625136137008667,
    0.40484288334846497,
    0.5098361968994141,
    -0.45729222893714905,
    0.8099883198738098,
    -0.8333198428153992,
    0.5030763149261475,
    -0.016419006511569023,
    -0.8258612751960754,
    -0.3278360068798065,
    -0.6996577382087708,
    -0.5316263437271118,
    0.833057701587677,
    0.23527942597866058,
    1.0,
    -0.22539493441581726,
    0.7209570407867432,
    0.21440468728542328,
    -0.1509537398815155,
    -0.650566041469574,
    -0.8069917559623718,
    -0.4622240364551544,
    -0.04842083901166916,
    0.2947781980037689,
    -0.29690486192703247,
    0.7735923528671265,
    0.3815881311893463,
    -0.898052990436554,
    -0.9823296070098877,
    -0.9444409608840942,
    -0.7151762843132019,
    0.5350596308708191,
    0.7145752310752869,
    -0.9292032122612,
    0.0185401551425457,
    -0.8284217715263367,
    -0.9417157769203186,
    -0.5548633337020874,
    -1.0,
    0.22731415927410126,
    0.7057404518127441,
    0.1482892483472824,
    -0.9576860666275024,
    0.9307535290718079,
    -0.63228839635849,
    -0.7685231566429138,
    -0.027722831815481186,
    -0.8387709259986877,
    -0.521411657333374,
    0.03722348064184189,
    0.873131513595581,
    0.7974821925163269,
    0.554002583026886,
    -0.3529129922389984,
    -0.8127199411392212,
    -0.07383034378290176,
    -0.8815943002700806,
    -0.2506454885005951,
    0.6334758400917053,
    -0.7474780678749084,
    0.7423202395439148,
    -0.9516465067863464,
    1.0,
    0.06186993047595024,
    -0.38999903202056885,
    -0.7688985466957092,
    0.9699667096138,
    -0.5882168412208557,
    0.49633461236953735,
    -1.0,
    -1.0,
    0.767052173614502,
    0.8717796802520752,
    0.6581437587738037,
    0.8307597041130066,
    0.24728240072727203,
    -0.18995319306850433,
    0.6232519745826721,
    -0.5742209553718567,
    0.5526720285415649,
    0.5588456988334656,
    0.25182023644447327,
    -0.9682821035385132,
    0.3014099895954132,
    0.06084774062037468,
    -0.24427294731140137,
    0.6776604056358337,
    -0.7269237041473389,
    -0.7347851395606995,
    -0.6520495414733887,
    0.691036581993103,
    0.2561633288860321,
    0.8552445769309998,
    -0.8544023036956787,
    -0.6730915307998657,
    -0.7076327204704285,
    -0.8261147141456604,
    0.7735709547996521,
    -0.8591720461845398,
    -0.38237252831459045,
    0.3672533333301544,
    0.8643726110458374,
    0.14923878014087677,
    0.1322581171989441,
    0.024942800402641296,
    0.13670770823955536,
    -0.2540512681007385,
    -0.16483044624328613,
    -0.29147908091545105,
    -0.04742269963026047,
    0.09069494903087616,
    -0.5941985249519348,
    0.7591601610183716,
    0.22677995264530182,
    0.6067811846733093,
    -0.022562380880117416,
    0.7964293956756592,
    -0.05063948780298233,
    0.7948546409606934,
    0.9073366522789001,
    0.9514449834823608,
    -1.0,
    -0.15837249159812927,
    -0.6982297897338867,
    -0.3576282560825348,
    0.7393140196800232,
    0.3374859094619751,
    -0.7968716621398926,
    -0.7507950663566589,
    -0.9791253209114075,
    0.15850695967674255,
    -0.6673054695129395,
    0.4450453221797943,
    0.20570123195648193,
    0.5239629149436951,
    -0.3475448191165924,
    0.8274422287940979,
    0.5482036471366882,
    0.27853938937187195,
    0.14653462171554565,
    0.5537828207015991,
    -0.5243657231330872,
    -0.8053835034370422,
    -0.562959611415863,
    -0.6484021544456482,
    -0.06453433632850647,
    0.48669078946113586,
    0.6544142961502075,
    -0.6948183178901672,
    -0.6519732475280762,
    0.5126833915710449,
    -0.16851405799388885,
    -0.5653797388076782,
    -1.0,
    0.8333170413970947,
    0.6408951878547668,
    0.848774790763855,
    0.380611389875412,
    -0.32702136039733887,
    0.5205633640289307,
    0.937204897403717,
    0.6415998935699463,
    0.7883632183074951,
    0.6908050179481506,
    1.0,
    6.731093890266493e-05,
    -0.051689133048057556,
    0.09204374253749847,
    0.5872582197189331,
    0.41621139645576477,
    0.6701740026473999,
    0.18289417028427124,
    0.9920771718025208,
    0.45475322008132935,
    -0.6827568411827087,
    -0.1851109117269516,
    -0.7478804588317871,
    -0.18269626796245575,
    0.5685170888900757,
    -0.10277407616376877,
    0.6440075635910034,
    -0.21941284835338593,
    -0.895999014377594,
    -1.0,
    0.8066563010215759,
    0.3773888647556305,
    -0.9064305424690247,
    -0.6002839207649231,
    0.6930202841758728,
    0.39627984166145325,
    0.41884827613830566,
    -0.4886835515499115,
    -0.4132019877433777,
    0.6087007522583008,
    -0.7792932987213135,
    0.8862269520759583,
    0.13858754932880402,
    -0.7235602736473083,
    -0.3026246428489685,
    -0.5370615124702454,
    -0.8288949728012085,
    0.8124117851257324,
    -0.9461042881011963,
    0.6003662347793579,
    -0.12635891139507294,
    -1.0,
    0.4976043403148651,
    -0.011218422092497349,
    -0.6381052732467651,
    -0.7750540375709534,
    0.4084321856498718,
    -0.162971630692482,
    0.32866284251213074,
    -0.0987793579697609,
    0.03061908483505249,
    0.21435900032520294,
    0.05450891703367233,
    -0.35234540700912476,
    0.7146062254905701,
    0.684539258480072,
    0.10594501346349716,
    0.48681607842445374,
    0.37478864192962646,
    -0.4381906986236572,
    0.9499891400337219,
    -0.11604955047369003,
    0.9882227778434753,
    0.8303778171539307,
    -0.3109285831451416,
    0.22773216664791107,
    -0.8954468369483948,
    0.46701887249946594,
    0.44977277517318726,
    -0.22088100016117096,
    -0.4060211479663849,
    -0.5450025796890259,
    0.8227759003639221,
    0.26402175426483154,
    -0.5647939443588257,
    -0.11622685194015503,
    0.8957456946372986,
    0.6288095712661743,
    -0.05504028499126434,
    0.6266793012619019,
    -0.7928526401519775,
    0.26438793540000916,
    -0.11476472020149231,
    0.07845374941825867,
    0.4784814417362213,
    0.14416009187698364,
    -0.3952789604663849,
    0.5815577507019043,
    0.22714029252529144,
    1.0,
    -0.6424721479415894,
    -0.8989012837409973,
    -0.9572588801383972,
    -0.7441602945327759,
    -0.023975485935807228,
    0.48144182562828064,
    0.2755577862262726,
    1.0,
    0.08119746297597885,
    -0.32588237524032593,
    0.07682747393846512,
    0.559538722038269,
    0.9015320539474487,
    -0.9259986877441406,
    -0.28133508563041687,
    -0.4813990294933319,
    -0.05634322762489319,
    1.0,
    0.8953949213027954,
    -0.8062746524810791,
    -0.5790520906448364,
    -0.4888361096382141,
    -0.8406596779823303,
    -0.6547898650169373,
    -0.6714218258857727,
    0.3706749379634857,
    -0.0621173232793808,
    -0.036908987909555435,
    0.9694051742553711,
    -0.9680288434028625,
    0.6638597249984741,
    -0.20663774013519287,
    -0.1356150507926941,
    0.2215951532125473,
    -0.8266823291778564,
    0.4133181869983673,
    -0.8541517853736877,
    -0.8637440204620361,
    -0.7265665531158447,
    0.7970976233482361,
    0.5208531618118286,
    1.0,
    0.09015169739723206,
    -1.0,
    0.9346873164176941,
    -0.3353709280490875,
    -0.3147282302379608,
    -0.14661696553230286,
    0.3756827116012573,
    0.9698507785797119,
    0.9049012660980225,
    -0.9339854121208191,
    -0.11105693131685257,
    -0.8210272789001465,
    -0.15658119320869446,
    0.6969695687294006,
    -1.0,
    -0.9404919743537903,
    -0.4154699146747589,
    0.32265740633010864,
    0.8581835031509399,
    -0.37879273295402527,
    0.6425061821937561,
    -0.984527051448822,
    -0.12025801092386246,
    0.2410167157649994,
    0.3063203990459442,
    1.0,
    0.14375430345535278,
    0.08479268103837967,
    0.3609272539615631,
    0.22682827711105347,
    0.30714425444602966,
    0.626953661441803,
    0.5167819857597351,
    0.006106652319431305,
    0.43064960837364197,
    0.17808152735233307,
    0.3682940900325775,
    0.3658161163330078,
    0.28211313486099243,
    -0.053538668900728226,
    -0.0492631234228611,
    1.0,
    0.6890376210212708,
    0.693139374256134,
    -0.027610233053565025,
    -0.3596576452255249,
    0.29789721965789795,
    -0.7101169228553772,
    0.10599679499864578,
    -0.7771691083908081,
    0.37417495250701904,
    0.8173925280570984,
    -0.9119724035263062,
    -0.30563992261886597,
    0.2192816287279129,
    -0.519809365272522,
    -0.10490459203720093,
    -0.44079136848449707,
    -0.6567460894584656,
    -0.578676700592041,
    0.18134085834026337,
    -0.8568194508552551,
    -0.30247801542282104,
    -0.22730477154254913,
    -0.8600575923919678,
    -0.27692803740501404,
    0.1181279793381691,
    -0.07930830121040344,
    0.6782677173614502,
    -0.4985382556915283,
    0.863231360912323,
    -0.5747641921043396,
    0.6791800260543823,
    -0.7771328091621399,
    0.5216742753982544,
    -0.922482967376709,
    0.5277718305587769,
    0.5628195405006409,
    -1.0,
    -0.7310006618499756,
    -0.33558130264282227,
    0.8313760757446289,
    -0.5538438558578491,
    0.22642606496810913,
    -0.1357005089521408,
    0.49738144874572754,
    -0.618073046207428,
    0.7480911612510681,
    -0.5300269722938538,
    -0.9561938047409058,
    0.32381340861320496,
    0.6372843384742737,
    0.7628926634788513,
    -0.7945281267166138,
    0.5939940810203552,
    0.3512863218784332,
    -0.8928251266479492,
    0.8899804353713989,
    -0.501684844493866,
    -0.7547077536582947,
    0.41056856513023376,
    0.3138400912284851,
    -1.0,
    -0.15789058804512024,
    0.27261883020401,
    0.5159367918968201,
    -0.7354596257209778,
    0.473638117313385,
    -1.0,
    0.7345679998397827,
    -0.8936246633529663,
    -0.33217546343803406,
    0.5218296051025391,
    0.940125584602356,
    1.0,
    -0.16785511374473572,
    1.0,
    0.4402843415737152,
    0.8141393065452576,
    -0.5510637760162354,
    -0.6293649673461914,
    -0.8294349908828735,
    0.7595111131668091,
    0.4073611795902252,
    -0.9043884873390198,
    0.21400488913059235,
    -0.6981932520866394,
    -0.6447218656539917,
    -0.3816705048084259,
    0.2978971004486084,
    0.6631093621253967,
    -0.10472427308559418,
    0.8367167711257935,
    -0.854356586933136,
    0.12201615422964096,
    -0.05229955539107323,
    -0.7473403215408325,
    -0.19929519295692444,
    -0.41707512736320496,
    -0.5995177626609802,
    0.48655349016189575,
    -1.0,
    0.11435271054506302,
    0.8050172328948975,
    0.9819269180297852,
    -0.7929746508598328,
    0.2614092528820038,
    -0.42522960901260376,
    -0.5022034049034119,
    0.5390087962150574,
    1.0,
    0.6935635805130005,
    0.7960415482521057,
    -0.17368994653224945,
    0.40218791365623474,
    0.2533772587776184,
    -0.8021025657653809,
    0.0813164934515953,
    0.10385484993457794,
    -0.2549576163291931,
    0.6916136741638184,
    -0.30275610089302063,
    -0.06674428284168243,
    -0.10634505748748779,
    0.8001893162727356,
    0.13598410785198212,
    0.4066927433013916,
    -0.8907286524772644,
    -0.9912412166595459,
    -0.07679988443851471,
    -0.19005721807479858,
    0.2944607734680176,
    0.627509355545044,
    0.5786278247833252,
    -0.404092401266098,
    0.4029634892940521,
    -0.32216230034828186,
    -0.8739036321640015,
    0.06465979665517807,
    0.26189154386520386,
    -0.1659935861825943,
    -0.9421703815460205,
    -0.09170514345169067,
    -0.7413947582244873,
    0.9445265531539917,
    0.5456159710884094,
    0.3902066946029663,
    -0.9823999404907227,
    0.756291389465332,
    1.0,
    0.934528648853302,
    -0.8893367648124695,
    -0.3320840895175934,
    -0.14332421123981476,
    0.8376018404960632,
    0.8248207569122314,
    0.9094027876853943,
    -0.7773551940917969,
    0.5210026502609253,
    0.5361097455024719,
    0.799386739730835,
    -0.8836878538131714,
    -0.08668176084756851,
    0.011908361688256264,
    0.2748250961303711,
    0.5045776963233948,
    0.2972288131713867,
    0.9936399459838867,
    0.12318192422389984,
    0.050260819494724274,
    -0.656684935092926,
    -0.26711025834083557,
    -0.40567365288734436,
    -0.06133926659822464,
    -0.06081731617450714,
    0.8049529790878296,
    -0.38851913809776306,
    0.387469083070755,
    0.7976928353309631,
    0.9636005759239197,
    -0.13601796329021454,
    0.038993775844573975,
    0.42757052183151245,
    -0.24251237511634827,
    0.7460004687309265,
    0.7981047630310059,
    0.9376323223114014,
    -0.6170111298561096,
    0.9462416172027588,
    0.808191180229187,
    -0.18789339065551758,
    -0.3060365617275238,
    -0.8145328164100647,
    0.9777428507804871,
    0.10624438524246216,
    -0.06765952706336975,
    -0.1146092340350151,
    0.7469771504402161,
    -0.2882779836654663,
    0.8603014349937439,
    0.24592728912830353,
    0.004092186223715544,
    0.5457684397697449,
    0.4256782829761505,
    -0.6014833450317383,
    -0.739484965801239,
    0.7070923447608948,
    0.2778373062610626,
    0.798419177532196,
    -0.9958375096321106,
    -0.3209080696105957,
    -0.6339428424835205,
    1.0,
    0.5057007074356079,
    -0.24148979783058167,
    0.44857630133628845,
    0.9370158910751343,
    -0.22680748999118805,
    -0.7185156345367432,
    -0.9410931468009949,
    -0.9967436790466309,
    0.5592487454414368,
    -1.0,
    0.9108004570007324,
    0.8159429430961609,
    0.1007293164730072,
    0.45809194445610046,
    -0.5523484349250793,
    0.7928192019462585,
    0.8548173308372498,
    -0.8739402890205383,
    -0.18317203223705292,
    -0.7965818047523499,
    -0.3465040326118469,
    0.8794518113136292,
    0.711786150932312,
    -0.9070009589195251,
    0.19358208775520325,
    -0.6497940421104431,
    0.6466475129127502,
    -0.31258612871170044,
    -0.8581010103225708,
    -0.7959015369415283,
    0.5661369562149048,
    -0.3198765218257904,
    0.9571764469146729,
    -0.3432965576648712,
    -0.15642856061458588,
    0.5526263117790222,
    -0.4030427634716034,
    0.7395488023757935,
    0.8201361298561096,
    -0.860231339931488,
    -0.28252193331718445,
    0.3313760459423065,
    0.1382732093334198,
    0.4658438265323639,
    -0.31293997168540955,
    0.7053532600402832,
    0.49158304929733276,
    0.7190585136413574,
    0.06754355877637863,
    0.978884220123291,
    0.04596714675426483,
    0.7598986625671387,
    0.48901644349098206,
    0.713226854801178,
    0.15952013432979584,
    -0.24525608122348785,
    -0.41419717669487,
    -0.6124241352081299,
    -0.23872488737106323,
    0.17511826753616333,
    -0.4164889454841614,
    0.7761040925979614,
    -0.3241097331047058,
    0.6693959832191467,
    0.1970549076795578,
    0.26037168502807617,
    -0.5303658843040466,
    -0.20391827821731567,
    -0.6176398992538452,
    0.43258777260780334,
    0.4393719732761383,
    0.7091554999351501,
    -0.05737770348787308,
    -0.09727777540683746,
    0.7453687787055969,
    -0.5766840577125549,
    0.311707079410553,
    -0.4876064956188202,
    0.8290780782699585,
    0.06928621232509613,
    0.7865414023399353,
    -0.15563833713531494,
    -0.19985051453113556,
    -0.7336586713790894,
    -0.47181034088134766,
    0.4036286771297455,
    -0.9595721364021301,
    0.8230353593826294,
    -0.6603771448135376,
    0.43867602944374084,
    0.1794060468673706,
    0.09949949383735657,
    0.04983340576291084,
    0.6744651794433594,
    -0.09811694175004959,
    0.891717255115509,
    -0.20592676103115082,
    -0.0465681366622448,
    0.849204957485199,
    -0.19575774669647217,
    0.1423688530921936,
    -0.7261418700218201,
    0.9919705390930176,
    -0.5279800891876221,
    -0.9200109839439392,
    0.04040328413248062,
    -0.5645619630813599,
    -0.34961998462677,
    0.4360239803791046,
    -1.0,
    -0.526212215423584,
    0.4453412592411041,
    -0.3711780607700348,
    -0.7583329677581787,
    0.46149173378944397,
    -0.273458331823349,
    -0.8206702470779419,
    -0.9531418681144714,
    0.7900264263153076,
    -0.6841334104537964,
    -0.18457305431365967,
    0.3696398138999939,
    -0.28957805037498474,
    -0.21913819015026093,
    -0.48614761233329773,
    0.9852839708328247,
    0.3460433781147003,
    0.10469695180654526,
    0.898343026638031,
    -0.3179723620414734,
    0.8474014401435852,
    -0.32773518562316895,
    -0.12139970064163208,
    -0.5359659194946289,
    -0.6620502471923828,
    0.5524793267250061,
    -0.22966083884239197,
    0.7093997597694397,
    -0.04868915304541588,
    0.9215124249458313,
    0.7392467856407166,
    -0.6993622183799744,
    0.5672687292098999,
    0.8146824240684509,
    0.558806300163269,
    0.8859277963638306,
    -0.2911803722381592,
    0.08525321632623672,
    -0.06508059054613113,
    0.1353251188993454,
    -0.6174474954605103,
    0.5042878985404968,
    -0.4912991225719452,
    -0.4534471929073334,
    0.013608178123831749,
    -0.5824944376945496,
    0.9531876444816589,
    -0.27522537112236023,
    0.17965926229953766,
    0.8949064612388611,
    0.482018381357193,
    -0.5508959293365479,
    0.7981964349746704,
    -0.7850521206855774,
    -0.8449781537055969,
    -0.013095543719828129,
    -0.032627250999212265,
    0.7845728993415833,
    0.8697255253791809,
    -0.40476396679878235,
    -0.14868010580539703,
    0.4702020287513733,
    -0.6112856268882751,
    0.8203008770942688,
    -0.24409912526607513,
    0.16549880802631378,
    0.9455275535583496,
    -0.6547624468803406,
    -0.7487533688545227,
    -0.05091710388660431,
    -0.18623340129852295,
    -0.9535048604011536,
    -0.11104165762662888,
    -0.8659873604774475,
    0.9729331731796265,
    0.3008577525615692,
    -0.16580091416835785,
    -0.7547106146812439,
    -0.9271615743637085,
    0.32141488790512085,
    0.8621048331260681,
    0.34102895855903625,
    0.7590107321739197,
    -0.5819969773292542,
    -0.5805323719978333,
    -0.035792067646980286,
    0.2746085822582245,
    0.20278328657150269,
    -0.45817431807518005,
    0.6409282684326172,
    0.018857212737202644,
    -0.19425955414772034,
    0.4303474724292755,
    -0.4433976411819458,
    -0.3815852403640747,
    0.2931762635707855,
    0.7224037051200867,
    0.7551500201225281,
    0.3566637337207794,
    0.9595019221305847,
    -0.0070436266250908375,
    -0.6109380125999451,
    1.0,
    -0.13276158273220062,
    -0.407534658908844,
    0.18935208022594452,
    0.07400121539831161,
    -0.2716972529888153,
    -0.2455153614282608,
    -0.03363759070634842,
    -0.10992750525474548,
    -1.0,
    -0.8125247955322266,
    -0.2907589375972748,
    0.6842250823974609,
    0.35735973715782166,
    -0.363340824842453,
    -0.0059603010304272175,
    -0.3667653501033783,
    1.0,
    0.9719992876052856,
    -0.032227449119091034,
    0.026306599378585815,
    0.19846513867378235,
    -0.2566087543964386,
    -0.9102997779846191,
    0.1306832879781723,
    -0.5311627388000488,
    0.6523878574371338,
    -0.7758964896202087,
    -0.07694007456302643,
    0.27827996015548706,
    0.7366435527801514,
    -0.5667623281478882,
    -0.3443554937839508,
    0.7137576937675476,
    -0.7965942025184631,
    -0.7660541534423828,
    -0.4294168949127197,
    0.09886734932661057,
    -0.6608264446258545,
    0.09916672110557556,
    -0.7281230092048645,
    -0.8589466214179993,
    -0.41233548521995544,
    0.8211369514465332,
    -0.0881287008523941,
    -0.3414716124534607,
    0.43920719623565674,
    -0.3884730637073517,
    0.6958311796188354,
    0.4287760555744171,
    -0.8251685500144958,
    1.0,
    0.5904418230056763,
    -0.8312996029853821,
    -0.1641620695590973,
    -0.3274025022983551,
    0.8426918983459473,
    -0.40823397040367126,
    -0.08734094351530075,
    -0.8571092486381531,
    -0.7205572724342346,
    -0.21479856967926025,
    -0.7655386328697205,
    0.05477457493543625,
    0.8491683602333069,
    0.874864935874939,
    -0.8170108795166016,
    0.22578826546669006,
    0.5300912857055664,
    -0.8332836031913757,
    0.9072297215461731,
    -0.20117199420928955,
    -0.8120791912078857,
    0.779909610748291,
    0.3195440471172333,
    -0.35821714997291565,
    -0.4026792049407959,
    0.5765859484672546,
    0.10037876665592194,
    -0.14383064210414886,
    0.4569169878959656,
    -0.41464564204216003,
    -0.4267158508300781,
    0.2500046491622925,
    -0.20044507086277008,
    0.44373923540115356,
    0.6820400357246399,
    0.6430675387382507,
    0.7739093899726868,
    -0.9565996527671814,
    -0.4141305088996887,
    0.06492813676595688,
    0.19226659834384918,
    -0.04363236203789711,
    -0.47109588980674744,
    0.31499379873275757,
    0.8657947182655334,
    0.14913812279701233,
    -0.1858578473329544,
    0.5918760299682617,
    0.3583391010761261,
    -0.3877927362918854,
    -0.3453535735607147,
    -0.10039974749088287,
    0.5705923438072205,
    -0.20251545310020447,
    -0.3355805575847626,
    -0.44030559062957764,
    0.3258644640445709,
    0.6000703573226929,
    0.7646017670631409,
    -0.6471753120422363,
    -0.4780541658401489,
    0.5566361546516418,
    0.14974506199359894,
    -0.5238441824913025,
    0.6709221005439758,
    -0.5929439663887024,
    0.1947994977235794,
    -0.2683584988117218,
    -0.551045298576355,
    -0.19159561395645142,
    -0.9033326506614685,
    0.3771907687187195,
    0.859767496585846,
    -1.0,
    -0.7885218858718872,
    0.9065492749214172,
    0.5709921717643738,
    -0.11943434923887253,
    -0.3955778479576111,
    -0.7214727401733398,
    0.7031770348548889,
    -0.10083622485399246,
    -0.03907249867916107,
    -0.6303507685661316,
    -0.22399966418743134,
    0.3496810793876648,
    -0.556020200252533,
    0.5016452670097351,
    0.2187139093875885,
    -0.05230874940752983,
    -0.5333689451217651,
    -0.11176485568284988,
    -0.5177192091941833,
    0.10706503689289093,
    1.0,
    0.05128052085638046,
    -0.4692622721195221,
    0.6666676998138428,
    -0.49268466234207153,
    1.0,
    -0.49861449003219604,
    0.14771795272827148,
    -0.09183353930711746,
    -0.4560530185699463,
    -0.6525315046310425,
    0.15461280941963196,
    -0.7154608368873596,
    0.18771609663963318,
    -0.22363048791885376,
    -1.0,
    -0.6892450451850891,
    0.5974424481391907,
    -0.45924246311187744,
    0.32898032665252686,
    -0.20952799916267395,
    0.03636299446225166,
    -0.6904903054237366,
    -0.9859828352928162,
    0.08400505781173706,
    0.02130170911550522,
    0.8118748068809509,
    1.0,
    -0.30863988399505615,
    0.6602712273597717,
    -0.5588153600692749,
    -0.7078281044960022,
    -0.4714927077293396,
    -0.0105167580768466,
    0.435529887676239,
    0.678939163684845,
    -0.1730305552482605,
    0.20480048656463623,
    0.2284863442182541,
    1.0,
    0.17960725724697113,
    0.9309823513031006,
    -0.8469557762145996,
    0.5025878548622131,
    -0.3596789836883545,
    -0.40505099296569824,
    0.8460035920143127,
    -0.07765734940767288,
    0.17524337768554688,
    -0.37946099042892456,
    0.4064457416534424,
    -0.14050422608852386,
    0.35187846422195435,
    -0.5675464868545532,
    0.5230444669723511,
    -0.9401195645332336,
    0.999407947063446,
    0.9900937080383301,
    0.6309976577758789,
    0.5158507823944092,
    0.95201575756073,
    0.7398456931114197,
    0.9818812012672424,
    0.5323864221572876,
    -0.5060430765151978,
    -0.4809626042842865,
    0.6035369634628296,
    -0.3272317945957184,
    0.6923978924751282,
    0.021436505019664764,
    -0.5462568998336792,
    0.7135684490203857,
    -0.5055603384971619,
    0.243937686085701,
    -0.8879393339157104,
    -0.3215215504169464,
    0.09122586995363235,
    -0.8743797540664673,
    -0.9898953437805176,
    -0.0358806736767292,
    0.6603226065635681,
    -0.2572585642337799,
    0.18701381981372833,
    0.6375865936279297,
    0.7179692983627319,
    0.7125344276428223,
    -0.3422957956790924,
    -0.5126774311065674,
    -0.04805431142449379,
    0.15687738358974457,
    0.7664663195610046,
    -0.5799036026000977,
    -0.6938263177871704,
    -0.9120364785194397,
    -0.758745014667511,
    -0.1785118728876114,
    0.8578112125396729,
    -0.3339729309082031,
    0.7567645907402039,
    0.40005192160606384,
    0.7059144973754883,
    -0.6946350336074829,
    -0.5231057405471802,
    0.202938973903656,
    -0.9306680560112,
    -0.49512606859207153,
    0.9013306498527527,
    -0.8608324527740479,
    -0.1432601511478424,
    -0.36995431780815125,
    -0.7689536809921265,
    -0.8783714175224304,
    -0.7773856520652771,
    0.21174658834934235,
    -0.6953737735748291,
    0.7213903665542603,
    0.7466779351234436,
    -0.43350642919540405,
    -0.4704398810863495,
    -0.7452223300933838,
    0.5504867434501648,
    -0.574056088924408,
    -0.3213537037372589,
    0.632148265838623,
    -0.320987343788147,
    -0.2280067801475525,
    0.5227455496788025,
    -0.43151676654815674,
    0.9274483919143677,
    -0.13379931449890137,
    0.8797721266746521,
    -0.8177892565727234,
    -0.3962858021259308,
    -0.431677907705307,
    -0.11784420162439346,
    0.9855098128318787,
    -0.7669453620910645,
    0.6262030005455017,
    -0.3436874449253082,
    -0.6302195191383362,
    -0.4979552924633026,
    -0.3131992816925049,
    0.5883753895759583,
    0.33388805389404297,
    0.35381343960762024,
    -0.37936341762542725,
    -0.8225046396255493,
    0.24133431911468506,
    -0.760390043258667,
    -0.009601091966032982,
    0.9234747886657715,
    -0.8601794242858887,
    0.4164280891418457,
    -0.23010976612567902,
    -0.5764427185058594,
    -0.7928646206855774,
    -0.6427380442619324,
    0.6047762632369995,
    0.1328016221523285,
    1.0,
    0.43501386046409607,
    -0.12414643168449402,
    -0.22679512202739716,
    -0.8110382556915283,
    -0.08793289214372635,
    -0.022299861535429955,
    -0.8220741152763367,
    0.12516550719738007,
    0.12943509221076965,
    0.6310251355171204,
    -0.253190815448761,
    -0.19873660802841187,
    0.4805684983730316,
    0.9163976907730103,
    -0.9031006693840027,
    0.7298102974891663,
    -0.7469162344932556,
    0.8191595673561096,
    -0.33696725964546204,
    0.000854517740663141,
    0.44414207339286804,
    -0.7008177638053894,
    -0.2985895574092865,
    0.2662767469882965,
    -0.4849146902561188,
    0.868056058883667,
    -0.14145934581756592,
    -0.288396954536438,
    0.42818671464920044,
    0.007305961102247238,
    0.1622881144285202,
    -0.12775635719299316,
    -0.897747814655304,
    -0.5175725817680359,
    -0.40583518147468567,
    0.9410443902015686,
    -0.7024842500686646,
    -1.0,
    -1.0,
    0.7431470155715942,
    -0.3021698296070099,
    0.9790732860565186,
    -0.777229905128479,
    0.048021286725997925,
    -0.7790098190307617,
    -0.08193019032478333,
    0.5052305459976196,
    0.24262183904647827,
    -0.5166417956352234,
    -0.5251349806785583,
    0.644544780254364,
    -0.34318670630455017,
    -0.17717203497886658,
    0.9134982824325562,
    0.8376902937889099,
    1.0,
    0.8699359893798828,
    0.8016297221183777,
    -0.6524581909179688,
    0.47390058636665344,
    -0.8767692446708679,
    -0.41682493686676025,
    -0.7727774381637573,
    -0.6039429306983948,
    -0.015064065344631672,
    -0.4755118787288666,
    -0.08032450824975967,
    -0.24860696494579315,
    0.9805261492729187,
    -0.05229950696229935,
    0.5800286531448364,
    0.09533059597015381,
    -1.0,
    0.01792977750301361,
    -0.9107089638710022,
    0.08893682807683945,
    -0.3110324442386627,
    0.03839835524559021,
    -0.7953307032585144,
    0.2539689242839813,
    -0.14474596083164215,
    -0.2962645888328552,
    0.805078387260437,
    -0.8081851005554199,
    -0.02748194709420204,
    -0.2064606100320816,
    0.700454831123352,
    1.0,
    0.1284646838903427,
    -0.8183629512786865,
    0.2033231109380722,
    -0.41740480065345764,
    0.6414931416511536,
    -0.20268265902996063,
    -0.8367967009544373,
    -0.24811530113220215,
    0.39524221420288086,
    -0.7672535181045532,
    0.006631705444306135,
    -0.459987074136734,
    0.9510025382041931,
    0.7429215908050537,
    0.39355164766311646,
    -1.0,
    0.38890960812568665,
    -0.7358195781707764,
    -0.8497881889343262,
    -0.7970733046531677,
    0.6301795840263367,
    -0.14623287320137024,
    0.40553954243659973,
    -0.5591848492622375,
    0.3336193263530731,
    -0.30698874592781067,
    0.4632374048233032,
    -0.09407977759838104,
    -0.32211369276046753,
    -0.00838363915681839,
    -0.8925842046737671,
    0.7139860987663269,
    0.5133091807365417,
    0.8108003735542297,
    -0.17288736999034882,
    0.08858009427785873,
    -0.7182621955871582,
    -0.9130524396896362,
    0.037479519844055176,
    0.7568621635437012,
    0.30934152007102966,
    0.4881192743778229,
    0.9915006160736084,
    -0.3313061594963074,
    -0.038129691034555435,
    0.5038482546806335,
    0.7541153430938721,
    0.4208410382270813,
    -0.7275277376174927,
    -0.5290170907974243,
    0.18362979590892792,
    0.5509318709373474,
    -0.8050325512886047,
    -0.5617210268974304,
    0.326044499874115,
    -0.9102601408958435,
    -1.0,
    0.9077669382095337,
    -0.46724143624305725,
    0.013546986505389214,
    0.5374155044555664,
    0.5870814919471741,
    0.22870850563049316,
    -0.8807520270347595,
    0.9312112927436829,
    0.0584915466606617,
    -0.07984867691993713,
    0.7272777557373047,
    0.05162230134010315,
    -0.12799473106861115,
    0.23267003893852234,
    -0.8731803297996521,
    -0.760847806930542,
    -0.7692280411720276,
    0.9456617832183838,
    -0.7195379734039307,
    0.8915646076202393,
    0.9894741773605347,
    0.7578936219215393,
    0.7221564054489136,
    0.11574747413396835,
    -0.4242803454399109,
    -0.4182775914669037,
    0.8276255130767822,
    -1.0,
    -0.8648396730422974,
    0.9973601698875427,
    -0.10921959578990936,
    0.8136813640594482,
    0.5485702753067017,
    0.4852684736251831,
    0.8127750754356384,
    -0.9500656127929688,
    -0.17180398106575012,
    -0.23214511573314667,
    0.5472942590713501,
    0.8220831155776978,
    0.8491561412811279,
    0.3254890441894531,
    -0.16160477697849274,
    0.6533433198928833,
    0.3895656168460846,
    0.03483984246850014,
    0.7633927464485168,
    0.35243070125579834,
    0.21054716408252716,
    -0.2351207733154297,
    -0.852134644985199,
    0.47175827622413635,
    0.9099673628807068,
    -0.8567613363265991,
    -0.42304471135139465,
    0.5632343292236328,
    0.8923307061195374,
    0.16052429378032684,
    0.16412551701068878,
    1.0,
    -0.257322758436203,
    -0.48067259788513184,
    0.8545427918434143,
    1.0,
    -0.44880831241607666,
    1.0,
    0.5808342099189758,
    -0.6960538029670715,
    -0.601232647895813,
    0.4868772029876709,
    0.2820277512073517,
    -0.6477063298225403,
    0.21065714955329895,
    -0.3678971529006958,
    0.9682424068450928,
    0.15128332376480103,
    0.739994466304779,
    0.6402021050453186,
    -0.7597583532333374,
    -0.06551122665405273,
    0.16201692819595337,
    0.807257354259491,
    0.6437694430351257,
    -0.14006155729293823,
    0.4512805640697479,
    -0.005639650858938694,
    0.38973355293273926,
    0.9597611427307129,
    -0.8990325331687927,
    -0.06341774016618729,
    -0.5368816256523132,
    0.2088962346315384,
    0.5072696805000305,
    -0.8292245268821716,
    0.6141639351844788,
    0.6118321418762207,
    0.13148005306720734,
    -0.44583871960639954,
    -0.1205693930387497,
    0.6199467182159424,
    -0.4244421720504761,
    0.19625841081142426,
    -0.16537681221961975,
    0.8761009573936462,
    0.21249429881572723,
    0.3042878806591034,
    -0.9173619747161865,
    -0.5918392539024353,
    -0.14581428468227386,
    -0.15560796856880188,
    0.15795452892780304,
    0.5265512466430664,
    -0.3016052544116974,
    0.9724020957946777,
    -0.3655995726585388,
    -0.37012872099876404,
    -0.08890056610107422,
    -0.016297003254294395,
    0.7724052667617798,
    0.30905473232269287,
    -0.5365734100341797,
    0.19359728693962097,
    0.3235049843788147,
    0.0003353505162522197,
    -1.0,
    -0.7009034156799316,
    -0.484170138835907,
    0.2733207046985626,
    0.7317729592323303,
    -0.3669239580631256,
    -0.4661029577255249,
    -0.44673314690589905,
    -0.5570787191390991,
    1.0,
    0.5042023658752441,
    0.42802223563194275,
    -0.06464409828186035,
    -0.8752433657646179,
    0.018829932436347008,
    -0.02562038227915764,
    0.6453870534896851,
    -0.9542649984359741,
    -0.6352366209030151,
    -0.37447693943977356,
    -0.6570574045181274,
    0.4496352970600128,
    -0.9398480653762817,
    0.06149789318442345,
    -0.22381681203842163,
    -0.9680594205856323,
    -0.745008647441864,
    -0.20202064514160156,
    0.09867538511753082,
    0.581005334854126,
    -1.0,
    0.6737359762191772,
    -0.5916168093681335,
    0.6992707252502441,
    -0.3471265435218811,
    0.44045838713645935,
    -0.30460208654403687,
    -0.7656850218772888,
    0.016806552186608315,
    0.7683769464492798,
    1.0,
    -0.724732518196106,
    0.26920098066329956,
    -0.5672872066497803,
    -0.42789706587791443,
    0.896990954875946,
    -0.7230079174041748,
    -0.4379132390022278,
    0.8523145914077759,
    -0.6715782880783081,
    -0.43127551674842834,
    0.9761346578598022,
    -0.05129846930503845,
    0.49397239089012146,
    0.7307167649269104,
    -0.711294949054718,
    0.3718985915184021,
    0.697186291217804,
    0.3953338861465454,
    0.734257161617279,
    -0.8599383234977722,
    0.7144169807434082,
    -0.5777612328529358,
    -0.5733540654182434,
    0.1862909346818924,
    -0.46531882882118225,
    0.6722738742828369,
    -0.03494977951049805,
    -0.06477237492799759,
    0.45238569378852844,
    0.7956174612045288,
    1.0,
    -0.868752121925354,
    -0.3924069404602051,
    -0.7004486918449402,
    0.6503223776817322,
    0.21045257151126862,
    0.7151982188224792,
    -0.4863916039466858,
    -0.8687398433685303,
    0.4397289752960205,
    -0.01167346816509962,
    0.36176934838294983,
    -0.1352548897266388,
    -0.6832329034805298,
    -0.6710224151611328,
    0.2259194701910019,
    -0.3998594582080841,
    -0.053575120866298676,
    0.5210821628570557,
    0.9047303795814514,
    0.33859995007514954,
    0.1890619844198227,
    0.7328194379806519,
    -0.25220832228660583,
    -0.048603784292936325,
    0.12752149999141693,
    -0.9443373084068298,
    -0.3995909094810486,
    -0.34527722001075745,
    -0.49627694487571716,
    1.0,
    0.14656813442707062,
    -0.3323161005973816,
    -0.930076003074646,
    0.12890097498893738,
    -0.9316812753677368,
    0.9640737175941467,
    -0.9306955337524414,
    0.4092012941837311,
    -0.4741813838481903,
    0.0919099897146225,
    0.30455031991004944,
    -0.7392406463623047,
    -0.9099368453025818,
    -0.0797053799033165,
    0.7479812502861023,
    1.0,
    0.054512038826942444,
    -0.6045501828193665,
    0.09042078256607056,
    0.5974944233894348,
    -0.5993225574493408,
    -0.5335092544555664,
    -0.16344738006591797,
    0.887942373752594,
    0.6972869038581848,
    -0.8786858916282654,
    -0.6084598302841187,
    0.631342351436615,
    -0.44658657908439636,
    -0.17066895961761475,
    -0.5892666578292847,
    -0.5155463218688965,
    -0.13666793704032898,
    -0.572441816329956,
    -0.3943142294883728,
    0.92519611120224,
    0.655543863773346,
    0.19531862437725067,
    -0.3752067983150482,
    -0.4140112102031708,
    0.012088916264474392,
    -0.17651312053203583,
    -0.3310832381248474,
    0.575441837310791,
    0.8877925276756287,
    0.3004426062107086,
    0.8328989744186401,
    -0.790350079536438,
    0.6058076620101929,
    -0.029602644965052605,
    1.0,
    0.15483880043029785,
    -0.09177178889513016,
    -0.1506514698266983,
    -0.42558011412620544,
    0.5419296026229858,
    0.11239644140005112,
    -0.9293466210365295,
    0.18166440725326538,
    -0.6027223467826843,
    0.11740123480558395,
    -0.3311014771461487,
    -0.9749107360839844,
    -0.7307629585266113,
    -0.2719324231147766,
    -0.14929649233818054,
    -0.6226447224617004,
    0.2378154844045639,
    0.12427405267953873,
    0.12994177639484406,
    -0.46699726581573486,
    -0.9832117557525635,
    0.8430250287055969,
    -0.6108032464981079,
    -0.9434919357299805,
    -0.9624225497245789,
    0.5444839000701904,
    -0.6140477061271667,
    0.8374828696250916,
    0.9892422556877136,
    -0.7639639377593994,
    0.44236576557159424,
    0.3674885332584381,
    0.99648118019104,
    -0.42624279856681824,
    0.6399487853050232,
    0.89253830909729,
    0.9487990736961365,
    -0.3594866096973419,
    0.9520584940910339,
    -0.343427836894989,
    -0.18501533567905426,
    -0.7306923866271973,
    -0.2457372397184372,
    -0.65308678150177,
    -0.03212372958660126,
    -0.5939146280288696,
    -0.9264534115791321,
    -0.624979555606842,
    -0.9512375593185425,
    0.9278755784034729,
    0.5470382571220398,
    -0.5480759739875793,
    0.7996310591697693,
    0.7578051090240479,
    0.44107478857040405,
    -0.9196174144744873,
    -0.9323740005493164,
    -0.5377086400985718,
    -0.21803349256515503,
    -0.5247626900672913,
    -0.39074066281318665,
    0.969642698764801,
    -0.6689081192016602,
    0.47875910997390747,
    -0.020667316392064095,
    -0.05764951556921005,
    0.18224412202835083,
    -0.31451475620269775,
    0.03760787099599838,
    -0.43952983617782593,
    -0.593402087688446,
    -0.5706531405448914,
    -0.9672261476516724,
    -0.9941099286079407,
    0.46330150961875916,
    -1.0,
    0.6695730686187744,
    -0.17769110202789307,
    -0.3570144474506378,
    0.7013242840766907,
    -0.3779414892196655,
    -0.045057523995637894,
    0.0837184339761734,
    0.5407177209854126,
    0.7017059326171875,
    -0.28529617190361023,
    0.2646290361881256,
    -0.4408000707626343,
    -0.9272378087043762,
    0.9078981876373291,
    0.8993499279022217,
    1.0,
    -0.009546243585646152,
    -0.48842740058898926,
    -0.5551441311836243,
    -0.0674179419875145,
    0.8299722671508789,
    1.0,
    0.23183374106884003,
    0.124689482152462,
    0.040323980152606964,
    -0.2577320635318756,
    -0.8866909146308899,
    -0.16524849832057953,
    0.16054858267307281,
    0.014862285926938057,
    0.016965225338935852,
    0.38945895433425903,
    0.07885660231113434,
    -0.6229589581489563,
    0.0007018703036010265,
    -0.5398420095443726,
    1.0,
    -0.45306262373924255,
    -0.6034027338027954,
    0.36894768476486206,
    -0.5212469100952148,
    0.16637171804904938,
    0.6465132832527161,
    0.6743034720420837,
    -0.6789056658744812,
    0.8405346274375916,
    0.0746513158082962,
    0.005517486482858658,
    -0.9234321117401123,
    -0.6371778845787048,
    0.9268227815628052,
    -0.9475661516189575,
    -0.8593676686286926,
    0.7304359674453735,
    0.9628894329071045,
    0.5417524576187134,
    -0.07620734721422195,
    0.962422788143158,
    -0.49411293864250183,
    -0.8725150227546692,
    0.01938222534954548,
    -0.594760000705719,
    0.866679847240448,
    0.8961425423622131,
    -0.12208011746406555,
    -0.09843759983778,
    -0.5787650942802429,
    0.886013388633728,
    0.0021607212256640196,
    -0.20168472826480865,
    -0.8857661485671997,
    0.8767939209938049,
    0.48455774784088135,
    -0.18054130673408508,
    -0.5909939408302307,
    0.36846235394477844,
    0.659273087978363,
    0.24194450676441193,
    0.5571396946907043,
    -0.08642832934856415,
    -0.94611656665802,
    -0.11687986552715302,
    0.10948234051465988,
    -0.3087650239467621,
    -0.4607562720775604,
    -0.2746571898460388,
    0.5684532523155212,
    -0.22299575805664063,
    0.3716849982738495,
    0.3229621648788452,
    0.5167331695556641,
    -1.0,
    0.4864344000816345,
    -0.9380565881729126,
    -0.4143711030483246,
    -0.21898867189884186,
    -0.7931183576583862,
    0.6302714347839355,
    -0.05341961234807968,
    -0.3099367916584015,
    0.3454086482524872,
    0.15117910504341125,
    0.709060788154602,
    -0.9814935326576233,
    -1.0,
    0.7845235466957092,
    0.08209158480167389,
    -0.1580219268798828,
    -0.6275522112846375,
    -0.5975738763809204,
    1.0,
    -0.67872554063797,
    -0.927253007888794,
    0.08502775430679321,
    0.30727267265319824,
    0.31667202711105347,
    0.9839015007019043,
    0.2215460240840912,
    -0.30791959166526794,
    0.17185279726982117,
    0.7084323763847351,
    -1.0,
    1.0,
    0.004174826201051474,
    0.4165289103984833,
    0.29981666803359985,
    0.8160316944122314,
    0.5948027968406677,
    0.023252027109265327,
    -1.0,
    0.13678087294101715,
    -0.1358560472726822,
    -0.38652971386909485,
    0.12536989152431488,
    -0.06434226781129837,
    0.42910563945770264,
    -0.8336893916130066,
    0.6090085506439209,
    -0.4263860881328583,
    -0.535969078540802,
    -0.14943692088127136,
    -0.4554307162761688,
    -0.35230904817581177,
    -0.6315255761146545,
    0.22580620646476746,
    0.38997164368629456,
    0.22168949246406555,
    0.13416920602321625,
    -0.576464056968689,
    -0.9981017708778381,
    1.0,
    -0.5064270496368408,
    0.2745685875415802,
    0.8776177167892456,
    -0.5414807200431824,
    -0.9994049072265625,
    0.6556565165519714,
    -1.0,
    -0.26516595482826233,
    -0.5517016649246216,
    -0.9232733845710754,
    0.9693410992622375,
    0.4536605179309845,
    -0.6511489152908325,
    0.04514598473906517,
    -0.1530018448829651,
    -0.938157320022583,
    -0.2933042049407959,
    -0.3205145299434662,
    -0.5156620144844055,
    -0.9262306690216064,
    0.570686936378479,
    0.6133520007133484,
    0.21505504846572876,
    -1.0,
    0.35518962144851685,
    0.12344139069318771,
    -0.8085941076278687,
    -0.8286601901054382,
    0.7245612740516663,
    0.962822437286377,
    -0.016357915475964546,
    -0.7548690438270569,
    0.6038758158683777,
    -0.8011109828948975,
    0.64564049243927,
    0.8812492489814758,
    -0.12822967767715454,
    -0.38198184967041016,
    -0.8519638180732727,
    -0.8217018246650696,
    0.40258800983428955,
    0.6508105397224426,
    0.4233558475971222,
    0.5403943061828613,
    -0.18883638083934784,
    1.0,
    -0.3533523976802826,
    0.36115914583206177,
    -0.05960867553949356,
    0.9680471420288086,
    -0.5082582235336304,
    0.5038241744041443,
    1.0,
    -0.8740683197975159,
    0.44088566303253174,
    -0.24555829167366028,
    -0.23928001523017883,
    0.22377705574035645,
    0.9523730278015137,
    -0.3990239202976227,
    0.1272438019514084,
    0.3961089849472046,
    0.6591630578041077,
    1.0,
    0.9085787534713745,
    -0.6391096115112305,
    0.5462871789932251,
    0.21233566105365753,
    -0.6511368155479431,
    0.8137913346290588,
    -0.7162083387374878,
    0.9081606268882751,
    -0.6111761331558228,
    -0.5776054859161377,
    0.2945951819419861,
    0.5763360261917114,
    -0.3913572430610657,
    -0.02409447729587555,
    0.9780938029289246,
    -0.5650200843811035,
    0.5228249430656433,
    -0.45435041189193726,
    -0.8999725580215454,
    0.9715842008590698,
    -0.8991240859031677,
    -0.09975886344909668,
    -0.8611679077148438,
    0.11185010522603989,
    0.30271586775779724,
    -0.3723716735839844,
    0.38731059432029724,
    -0.23707956075668335,
    0.7318184971809387,
    0.7304697632789612,
    -0.31905555725097656,
    -0.5909971594810486,
