{
  "input": 51,
  "network_layers": [
    50,
    10,
    3
  ],
  "observer": {
    "cellInterpreter": {
      "type": "Basic3CellInterpreter"
    },
    "height": 5,
    "type": "GridObserver",
    "width": 5
  },
  "type": "GeneticBot",
  "weights": [
    1.0,
    0.045124880969524384,
    0.43589267134666443,
    0.3065219223499298,
    0.9437025189399719,
    -0.11350131034851074,
    -0.023984501138329506,
    -0.2128150910139084,
    0.23422008752822876,
    0.8523820042610168,
    -0.6095553636550903,
    -0.289620578289032,
    0.44138002395629883,
    -0.15708789229393005,
    0.9838190674781799,
    0.306781142950058,
    0.34261003136634827,
    0.42270562052726746,
    -0.33419886231422424,
    -0.8736198544502258,
    0.03130591660737991,
    0.19778738915920258,
    -0.8034611940383911,
    -0.8520249724388123,
    -0.08216190338134766,
    -0.5439526438713074,
    0.4461163282394409,
    0.5850917100906372,
    -0.09708256274461746,
    0.371614933013916,
    -1.0,
    0.7963987588882446,
    0.09302987158298492,
    0.3139377236366272,
    0.12655724585056305,
    -0.5993836522102356,
    0.4851045310497284,
    0.031278230249881744,
    -0.26699724793434143,
    -0.9291421175003052,
    0.7825337648391724,
    0.5514143705368042,
    0.7655510306358337,
    -0.6338266730308533,
    0.39426565170288086,
    0.05676122009754181,
    -0.13844731450080872,
    -0.32056954503059387,
    -0.6300155520439148,
    0.6336402297019958,
    0.7217779755592346,
    0.4262705445289612,
    0.9223792552947998,
    0.8586016893386841,
    1.0,
    -0.4457900822162628,
    -0.3179541528224945,
    -0.46353375911712646,
    -0.12473530322313309,
    -0.6933318376541138,
    0.9077304005622864,
    0.6528580188751221,
    0.03581962361931801,
    -0.3823326528072357,
    0.7910428047180176,
    -0.012533752247691154,
    0.5243504643440247,
    0.727265477180481,
    0.42406371235847473,
    -0.013232951052486897,
    0.15679465234279633,
    -0.4464398920536041,
    -0.7567462921142578,
    -0.90226149559021,
    0.08876322954893112,
    0.5712366700172424,
    -0.8531573414802551,
    0.3090822994709015,
    0.6947720050811768,
    -0.5397840738296509,
    0.5951020121574402,
    -0.47284188866615295,
    -0.9669698476791382,
    -0.4521379768848419,
    -0.6452924013137817,
    -0.09484250098466873,
    -1.0,
    0.17238987982273102,
    0.729926347732544,
    -0.3356756865978241,
    -0.12680739164352417,
    0.5896544456481934,
    -0.26702451705932617,
    0.7675155997276306,
    0.6172672510147095,
    -0.8595603108406067,
    0.02461906708776951,
    -0.8549546599388123,
    0.3113895058631897,
    -0.29331332445144653,
    -0.715045690536499,
    0.935029149055481,
    -0.31322360038757324,
    -0.6850520968437195,
    0.6670585870742798,
    -0.8433666825294495,
    1.0,
    -0.9765313267707825,
    0.6316230893135071,
    -0.30008846521377563,
    -0.8715446591377258,
    -0.9305034279823303,
    -0.07864002883434296,
    0.14975732564926147,
    -0.5788261890411377,
    -0.8249183297157288,
    -0.6908597350120544,
    0.6605121493339539,
    -0.6973448991775513,
    0.853950560092926,
    -0.516559362411499,
    0.8206518292427063,
    -0.9801537990570068,
    0.12149105966091156,
    -1.0,
    0.8214118480682373,
    -0.2021697461605072,
    -0.7418164014816284,
    -0.5942687392234802,
    -0.06020408868789673,
    -0.38089561462402344,
    -0.5742851495742798,
    0.6615923643112183,
    -0.31318721175193787,
    0.8172764778137207,
    -0.9878200888633728,
    -0.17185576260089874,
    -1.0,
    0.7716667652130127,
    0.670479416847229,
    -0.19774478673934937,
    0.04933908209204674,
    0.5467331409454346,
    0.10862775892019272,
    -0.22869360446929932,
    0.9726523756980896,
    -0.08277827501296997,
    -0.045463260263204575,
    0.21988630294799805,
    0.02313048765063286,
    0.18367254734039307,
    1.0,
    -0.6176491975784302,
    0.6850826144218445,
    0.23258769512176514,
    0.9930051565170288,
    0.9884426593780518,
    -0.2270364910364151,
    -0.22899572551250458,
    -0.826367974281311,
    -0.15269610285758972,
    0.132639542222023,
    0.2869380712509155,
    0.9945737719535828,
    -0.049180418252944946,
    -0.44682759046554565,
    0.5696492195129395,
    0.7036099433898926,
    0.7519363760948181,
    0.3880246579647064,
    -0.5579973459243774,
    -0.808233916759491,
    0.42400601506233215,
    0.16393627226352692,
    -0.14432793855667114,
    0.8684255480766296,
    0.4972870647907257,
    0.8543353080749512,
    -0.7535601854324341,
    -0.45290377736091614,
    -0.48569270968437195,
    0.04642164707183838,
    -0.44502103328704834,
    -0.3771997094154358,
    -0.14442303776741028,
    0.740967869758606,
    0.567351222038269,
    -0.3637133240699768,
    -1.0,
    0.3889400362968445,
    -0.39687198400497437,
    0.22092069685459137,
    -0.09486998617649078,
    -0.9002044200897217,
    0.33453798294067383,
    0.7201758623123169,
    0.27757540345191956,
    0.41649216413497925,
    -0.1273629069328308,
    -0.2837851941585541,
    0.11289090663194656,
    -0.5007568001747131,
    0.6783530712127686,
    0.4070620834827423,
    0.5549700856208801,
    0.10381785780191422,
    -0.11466124653816223,
    0.5752065777778625,
    -0.48923927545547485,
    -0.9268929362297058,
    0.04437713697552681,
    -0.9160588383674622,
    0.43444913625717163,
    -1.0,
    0.3143070936203003,
    0.4918243885040283,
    -0.46391797065734863,
    0.3816249370574951,
    -0.010617363266646862,
    0.17719990015029907,
    -0.37019574642181396,
    -0.9719504117965698,
    -0.06737891584634781,
    0.7969695329666138,
    -0.06903253495693207,
    0.24794772267341614,
    -0.8384594321250916,
    -0.7380017638206482,
    -0.025925634428858757,
    0.16192223131656647,
    -0.4468459486961365,
    -0.688909649848938,
    0.8112431168556213,
    0.4747180938720703,
    -0.8963011503219604,
    0.6195867657661438,
    -0.39901667833328247,
    -1.0,
    -0.1832883358001709,
    -0.3339092433452606,
    -0.9621356725692749,
    -0.9672993421554565,
    -0.5647236704826355,
    -0.39755839109420776,
    -0.9776390194892883,
    -8.555084059480578e-05,
    -0.5544238090515137,
    -0.3699329197406769,
    -0.5723624229431152,
    0.36064019799232483,
    -0.45090800523757935,
    0.10932070761919022,
    -0.39793696999549866,
    0.4826712906360626,
    0.7075473666191101,
    -0.1586717665195465,
    -0.7638632655143738,
    -0.9455887079238892,
    1.0,
    0.8509505391120911,
    0.756791889667511,
    0.668504536151886,
    -0.7832605242729187,
    0.7553423047065735,
    0.20678138732910156,
    0.996627688407898,
    -0.28396254777908325,
    0.1579514890909195,
    0.44284477829933167,
    -0.15133827924728394,
    -0.3640826344490051,
    0.6680776476860046,
    0.7042056322097778,
    0.20014962553977966,
    0.3976140320301056,
    0.45228126645088196,
    0.6590135097503662,
    0.6464975476264954,
    -0.9285744428634644,
    -0.37350693345069885,
    -0.02106703631579876,
    0.5972041487693787,
    -0.18834489583969116,
    -0.36973440647125244,
    -0.5962339043617249,
    0.5071349740028381,
    -0.8199621438980103,
    -0.73967444896698,
    0.8678395748138428,
    -0.6410260796546936,
    -0.18217408657073975,
    0.4427903890609741,
    -0.9237616658210754,
    0.9805199503898621,
    0.5318825840950012,
    -0.5263131856918335,
    -0.47739487886428833,
    -0.3441265821456909,
    -0.13799262046813965,
    -0.15005026757717133,
    -0.21811257302761078,
    0.27019888162612915,
    0.9965788722038269,
    -0.9507371783256531,
    -0.02884548343718052,
    0.19244052469730377,
    0.15401187539100647,
    0.2801172435283661,
    0.38889753818511963,
    -0.4866268038749695,
    0.5441935658454895,
    0.09077999740839005,
    -0.501983642578125,
    -0.7168280482292175,
    0.8536149859428406,
    -0.2693653106689453,
    0.8859489560127258,
    0.588491678237915,
    0.015131061896681786,
    -0.23580726981163025,
    0.11191753298044205,
    0.2721944749355316,
    0.44711413979530334,
    0.28302866220474243,
    0.532627284526825,
    0.8245033621788025,
    0.6678059697151184,
    -0.39088135957717896,
    -0.41321149468421936,
    -0.8417676687240601,
    0.25148797035217285,
    -1.0,
    -0.05159774422645569,
    0.41588181257247925,
    -0.6443341970443726,
    -0.7318124175071716,
    -0.1400432288646698,
    0.6079530715942383,
    0.6468001008033752,
    -0.5457442402839661,
    0.4378339350223541,
    -0.8870144486427307,
    -0.6625720262527466,
    -0.3278111219406128,
    0.30633988976478577,
    -0.3691275417804718,
    -0.7495894432067871,
    0.10878293961286545,
    -0.8826104998588562,
    0.6272377967834473,
    0.21077899634838104,
    0.7335489988327026,
    0.32750946283340454,
    -0.35062408447265625,
    0.2057284116744995,
    -0.4946315884590149,
    -0.09914538264274597,
    0.5190830826759338,
    -0.43290796875953674,
    -0.658128559589386,
    -0.6886407732963562,
    0.02052084356546402,
    -0.11884848028421402,
    0.6091798543930054,
    -0.31106606125831604,
    -0.027659041807055473,
    -0.4878779947757721,
    0.17395523190498352,
    0.4539017677307129,
    -0.6302774548530579,
    0.0707632303237915,
    0.28052589297294617,
    -0.6210057735443115,
    -0.12413418292999268,
    -0.5954893231391907,
    0.7067537903785706,
    -0.4343456029891968,
    0.04022056981921196,
    0.7556686401367188,
    0.9621723294258118,
    0.11414548009634018,
    -0.9461867213249207,
    -0.35266295075416565,
    -1.0,
    0.3256232738494873,
    -0.11209193617105484,
    0.36110422015190125,
    -0.15265975892543793,
    -0.8435256481170654,
    0.7106538414955139,
    -0.5907405614852905,
    -0.33790719509124756,
    -0.8912594318389893,
    -0.7483536601066589,
    -0.02762817218899727,
    -0.9082766175270081,
    0.7494918704032898,
    0.35504627227783203,
    -0.11579305678606033,
    -0.5365461707115173,
    -0.6720510125160217,
    -0.5405987501144409,
    0.24965360760688782,
    0.1621050387620926,
    0.07762662321329117,
    0.8336832523345947,
    -0.48745691776275635,
    0.04645233601331711,
    -0.09626754373311996,
    0.5936977863311768,
    -0.10759907215833664,
    0.3352276682853699,
    0.9820886850357056,
    0.732545018196106,
    -0.11854596436023712,
    0.2084474414587021,
    0.07136474549770355,
    -0.11687679588794708,
    0.4247719347476959,
    0.3720693588256836,
    0.6323282718658447,
    -0.6951841711997986,
    -0.26557236909866333,
    0.09525717794895172,
    0.35335567593574524,
    0.9813226461410522,
    -0.316223680973053,
    -0.0900873914361,
    -0.10616160929203033,
    -0.35866570472717285,
    0.7896268367767334,
    -0.4470650851726532,
    0.36642026901245117,
    -0.8008819818496704,
    0.9986662864685059,
    -0.5918331742286682,
    0.4572741985321045,
    -0.020264243707060814,
    -0.4686514139175415,
    -1.0,
    0.9303202033042908,
    0.7395458221435547,
    -0.5129304528236389,
    -0.3969298005104065,
    0.19830919802188873,
    -0.4724050760269165,
    -0.33139151334762573,
    0.6067356467247009,
    0.8781027793884277,
    -0.5851100087165833,
    0.28328487277030945,
    0.6552263498306274,
    -0.13725723326206207,
    -0.1661212146282196,
    0.7482497692108154,
    -0.8660243153572083,
    0.3770466446876526,
    -0.8156865239143372,
    0.2945372462272644,
    -0.040748413652181625,
    0.6995483636856079,
    -0.5503342151641846,
    0.982454776763916,
    0.7371166348457336,
    -0.060771580785512924,
    0.4503036439418793,
    0.5090454816818237,
    0.11086148768663406,
    -0.9808405041694641,
    -0.793298065662384,
    0.9988738894462585,
    0.03585612401366234,
    0.18442972004413605,
    0.7704091668128967,
    -0.6511643528938293,
    -0.5883905291557312,
    -0.9481216073036194,
    -0.8442950248718262,
    0.5794854760169983,
    -0.6793177127838135,
    0.7308239936828613,
    0.865184485912323,
    -0.709186315536499,
    -1.0,
    -0.04800565540790558,
    0.2430192232131958,
    0.3844202756881714,
    -0.6495253443717957,
    -0.8360483050346375,
    -0.9417920112609863,
    -0.33704614639282227,
    0.36483311653137207,
    -0.7958647608757019,
    0.14961694180965424,
    -0.8225988745689392,
    0.3128544092178345,
    -1.0,
    -0.7926084995269775,
    -1.0,
    -0.5496934056282043,
    0.961244523525238,
    0.13950322568416595,
    -0.27802085876464844,
    0.41852739453315735,
    0.15649902820587158,
    -0.050044331699609756,
    0.2530597448348999,
    -0.1743495911359787,
    0.010998779907822609,
    0.327454537153244,
    -0.10195305198431015,
    0.5667531490325928,
    -0.832917332649231,
    -0.20237436890602112,
    -0.9257027506828308,
    -0.09062174707651138,
    0.8499588966369629,
    -0.10937850922346115,
    0.5920772552490234,
    -0.2651386559009552,
    -0.5512009263038635,
    -0.4967864453792572,
    0.04283571243286133,
    -0.6155493259429932,
    0.10359809547662735,
    0.42230597138404846,
    0.8331826329231262,
    0.36956119537353516,
    -0.36597785353660583,
    0.4039766192436218,
    -1.0,
    0.32373714447021484,
    -0.9189184308052063,
    0.9683645367622375,
    -0.8502761125564575,
    -0.22147612273693085,
    -0.5624382495880127,
    0.25572043657302856,
    0.3297247290611267,
    -0.33314618468284607,
    0.00038150890031829476,
    -0.7135441303253174,
    -0.9531574845314026,
    -0.34177663922309875,
    0.6670553684234619,
    -0.9152257442474365,
    0.6022096276283264,
    -0.47231966257095337,
    0.5342995524406433,
    -0.9893611669540405,
    0.8069095015525818,
    -0.5231328010559082,
    -0.01766403391957283,
    0.5913416147232056,
    -0.40947940945625305,
    -0.43298113346099854,
    0.1674642264842987,
    -0.6436874270439148,
    0.345463365316391,
    0.8217354416847229,
    -0.3357890546321869,
    -0.35656309127807617,
    -0.5780572891235352,
    -0.5181676149368286,
    -0.05540626123547554,
    0.2705954909324646,
    -0.6170201897621155,
    0.27031171321868896,
    -0.0010285844327881932,
    0.07467242330312729,
    0.08492382615804672,
    -0.7289499044418335,
    0.24098637700080872,
    0.5271397829055786,
    -0.37246328592300415,
    -0.3220283091068268,
    -0.012118958868086338,
    0.2778312563896179,
    -0.30046382546424866,
    0.5502670407295227,
    0.06840698421001434,
    0.5830502510070801,
    -0.6373336315155029,
    -0.8395031094551086,
    -0.22444210946559906,
    0.045750461518764496,
    -0.7605029940605164,
    0.6560534238815308,
    -0.9121586084365845,
    1.0,
    -0.8472548127174377,
    0.2910337448120117,
    -0.6053680181503296,
    -0.10236787796020508,
    0.07388538122177124,
    -0.27370527386665344,
    -0.3627493977546692,
    -0.6135928630828857,
    0.2869994044303894,
    -0.6720939874649048,
    0.6762048006057739,
    -0.8915737867355347,
    -0.026569539681077003,
    0.6234596371650696,
    -0.4718404710292816,
    -0.534015953540802,
    -1.0,
    -0.28613510727882385,
    -0.502697765827179,
    0.8842676877975464,
    -0.7032442688941956,
    -0.6862057447433472,
    0.10344231873750687,
    0.23909758031368256,
    -0.25392022728919983,
    -0.9290415048599243,
    0.1741751730442047,
    -0.3345560133457184,
    -0.35901349782943726,
    0.20003704726696014,
    -0.539646565914154,
    -0.24019606411457062,
    0.35071566700935364,
    0.17626549303531647,
    1.0,
    -0.26581937074661255,
    0.865047037601471,
    -0.0238900575786829,
    -0.18390163779258728,
    1.0,
    -0.7742912173271179,
    -0.2832850217819214,
    -0.05736837908625603,
    0.6706382036209106,
    0.8250737190246582,
    0.2136634737253189,
    0.12479609251022339,
    -0.5696431398391724,
    0.06526080518960953,
    -0.23039957880973816,
    -0.1874692440032959,
    -0.5900785326957703,
    -0.97189861536026,
    0.48303139209747314,
    0.08338566869497299,
    0.9923550486564636,
    -0.6817103028297424,
    -0.4669301211833954,
    -0.1786097139120102,
    0.44221633672714233,
    -0.2342630922794342,
    -0.5072388052940369,
    0.0460527278482914,
    0.7940977215766907,
    0.7005921602249146,
    0.5022918581962585,
    0.0015074805123731494,
    -0.23732715845108032,
    -0.9971404075622559,
    0.906643807888031,
    0.1519852727651596,
    -0.41277506947517395,
    0.4401346445083618,
    0.10812397301197052,
    -0.9336283206939697,
    -1.0,
    -0.6878076791763306,
    0.35720717906951904,
    0.6471052169799805,
    -0.25264742970466614,
    -0.4615068733692169,
    -0.9932096600532532,
    -0.08122825622558594,
    0.9028809070587158,
    -0.09181811660528183,
    0.8280981183052063,
    0.019153285771608353,
    -0.9000548720359802,
    0.3921293616294861,
    0.38440802693367004,
    0.9640095233917236,
    -0.18790297210216522,
    0.6525466442108154,
    0.3926996886730194,
    0.8759544491767883,
    -0.2582356035709381,
    -0.18289439380168915,
    -0.5563675761222839,
    -0.45178118348121643,
    0.08048965036869049,
    -0.3454020321369171,
    -0.525934636592865,
    -0.27820366621017456,
    0.351973295211792,
    0.9163457155227661,
    0.5930356979370117,
    -0.733573317527771,
    0.08743861317634583,
    -0.618045449256897,
    -0.23330806195735931,
    -0.6429941654205322,
    1.0,
    -0.806585967540741,
    0.7533096075057983,
    0.9077760577201843,
    0.42033132910728455,
    0.36571869254112244,
    -0.7955689430236816,
    0.20042413473129272,
    -1.0,
    -0.9097962975502014,
    -0.9029420018196106,
    0.09195612370967865,
    0.8973814845085144,
    0.21381540596485138,
    -0.7201421856880188,
    -0.916067898273468,
    0.06089622527360916,
    0.5095553398132324,
    -0.6498122215270996,
    -0.22411611676216125,
    -0.8933042883872986,
    -0.4049225449562073,
    -0.7184026837348938,
    0.6950926780700684,
    0.2960142195224762,
    -0.5334696769714355,
    -0.7705038785934448,
    -0.7584397196769714,
    0.842939555644989,
    0.1533433347940445,
    -0.13245034217834473,
    0.09945078194141388,
    -0.7368419766426086,
    -0.9553422927856445,
    0.01823168806731701,
    0.6719046831130981,
    -0.7465864419937134,
    0.7582568526268005,
    0.6540207266807556,
    0.7208808064460754,
    0.15778088569641113,
    0.04736782982945442,
    -0.4348672926425934,
    0.07926252484321594,
    0.7443678379058838,
    0.9093997478485107,
    0.5882748365402222,
    -0.30803245306015015,
    -0.3846738636493683,
    0.9072999954223633,
    0.20798362791538239,
    -0.9053894877433777,
    -0.49242523312568665,
    0.23134548962116241,
    -0.5552111864089966,
    -0.8523881435394287,
    0.82066410779953,
    0.49930715560913086,
    0.4524218440055847,
    0.8015869855880737,
    -0.3544481694698334,
    0.30723288655281067,
    -0.6266546845436096,
    -0.7994415163993835,
    0.7034788727760315,
    0.4799676835536957,
    0.043271999806165695,
    0.7072235345840454,
    0.5455427765846252,
    0.06914563477039337,
    0.23011554777622223,
    0.6202185750007629,
    0.5739768743515015,
    0.9061707854270935,
    0.5558368563652039,
    0.14518262445926666,
    0.42106372117996216,
    0.08391401916742325,
    -0.41760313510894775,
    0.22108200192451477,
    0.01655365340411663,
    0.9150148034095764,
    -0.5986235737800598,
    -0.28249773383140564,
    0.943861186504364,
    0.3786126971244812,
    -1.0,
    0.20004570484161377,
    -0.20491959154605865,
    -0.22132955491542816,
    0.5588796734809875,
    -0.7636494636535645,
    0.5070711374282837,
    0.11482591181993484,
    0.47238993644714355,
    0.6158638000488281,
    -0.39102450013160706,
    -0.9001435041427612,
    -0.6047242283821106,
    -0.6848049163818359,
    -0.5521712899208069,
    -0.3850672245025635,
    0.8746605515480042,
    -0.1426282823085785,
    0.7106783390045166,
    -0.20425111055374146,
    -0.13442155718803406,
    0.892004132270813,
    -0.935187816619873,
    0.07332378625869751,
    -0.3495039641857147,
    0.5618517994880676,
    -0.5611683130264282,
    0.5626148581504822,
    0.07778534293174744,
    -0.7659111022949219,
    -0.9004331827163696,
    -0.26422345638275146,
    -0.10081789642572403,
    -0.5397474765777588,
    -0.6554033160209656,
    -0.6952085494995117,
    0.004278502892702818,
    -0.47037258744239807,
    0.48322102427482605,
    -0.8204442858695984,
    -0.9471114277839661,
    -0.21682801842689514,
    -0.15843665599822998,
    0.933448314666748,
    0.44942787289619446,
    -0.8765496015548706,
    -0.8573381304740906,
    0.670357346534729,
    -0.7120580673217773,
    -0.24322938919067383,
    -0.8078768253326416,
    -0.2991212010383606,
    -0.2561633288860321,
    -0.09503447264432907,
    -0.653218150138855,
    -0.34049201011657715,
    0.35879671573638916,
    -0.15332800149917603,
    -0.9010437726974487,
    -0.002966294065117836,
    -0.09433844685554504,
    0.17969942092895508,
    1.0,
    -0.24248474836349487,
    -0.4214576184749603,
    0.5435377359390259,
    -0.5441573262214661,
    -0.31775549054145813,
    -0.20508672297000885,
    -0.14161191880702972,
    -0.2571340501308441,
    0.4857845604419708,
    -0.822037398815155,
    0.918658971786499,
    -0.4594132900238037,
    -0.20126305520534515,
    -0.4460616409778595,
    0.7067659497261047,
    0.41525933146476746,
    0.29870349168777466,
    -0.24835973978042603,
    1.0,
    -0.9138370752334595,
    0.962544858455658,
    0.5476853251457214,
    -0.1851585954427719,
    0.623163640499115,
    -0.5569047331809998,
    0.4526658356189728,
    0.5867331624031067,
    -0.44789594411849976,
    -0.12168671190738678,
    -0.16357620060443878,
    -0.4302223324775696,
    1.0,
    0.6943479180335999,
    -0.4588336944580078,
    0.8524186015129089,
    -1.0,
    -0.635291576385498,
    -0.10339055955410004,
    0.05311139300465584,
    0.7929047346115112,
    0.4479994773864746,
    0.4253273904323578,
    -0.9147403836250305,
    0.36583757400512695,
    0.9167119264602661,
    0.7503892183303833,
    -0.4648759961128235,
    -0.9404919743537903,
    0.23166008293628693,
    0.1042514368891716,
    -0.4323281943798065,
    -0.9586780071258545,
    0.9372936487197876,
    0.5566391348838806,
    -0.699325442314148,
    0.01619611121714115,
    0.7863948941230774,
    -0.7605640292167664,
    0.26646310091018677,
    -0.7146948575973511,
    0.8270240426063538,
    -0.1958189755678177,
    -0.4168678820133209,
    0.17726370692253113,
    -0.32160428166389465,
    -0.022806406021118164,
    0.8357370495796204,
    0.4094181954860687,
    0.8531816005706787,
    -0.2571180462837219,
    -0.09006012976169586,
    -0.4071905016899109,
    0.6524642109870911,
    -0.09248050302267075,
    0.4697195887565613,
    0.9037232398986816,
    0.735657811164856,
    -0.407129168510437,
    -0.5513046383857727,
    -0.5309948325157166,
    -0.45286738872528076,
    0.6706351041793823,
    -0.9082522392272949,
    -0.7385752201080322,
    0.1084597185254097,
    -0.5786702036857605,
    -0.5046537518501282,
    0.3269782066345215,
    -0.577355146408081,
    0.4049287438392639,
    0.19759519398212433,
    -0.2502424418926239,
    -0.35629764199256897,
    -0.7571703195571899,
    0.31834790110588074,
    0.4976806342601776,
    -0.1252327859401703,
    -0.12140574306249619,
    0.14125162363052368,
    0.8329508900642395,
    -0.8258158564567566,
    -0.24918322265148163,
    0.06454980373382568,
    0.7217200994491577,
    0.6590043306350708,
    -0.08389508724212646,
    0.42539453506469727,
    -0.5884060263633728,
    0.6339367032051086,
    -0.6561540365219116,
    0.6148930191993713,
    0.8973174691200256,
    0.46935638785362244,
    0.57268887758255,
    -1.0,
    0.6369577646255493,
    -0.6129734516143799,
    0.5132115483283997,
    0.42840999364852905,
    0.4661366939544678,
    -0.8018036484718323,
    0.8979457020759583,
    0.8183783292770386,
    0.01261014211922884,
    -0.3847621977329254,
    0.07029320299625397,
    0.9433454871177673,
    0.5742335319519043,
    -1.0,
    -0.8653919696807861,
    -0.7660239338874817,
    0.8174535632133484,
    0.14578363299369812,
    -0.6777978539466858,
    0.4798974394798279,
    -0.771034836769104,
    -0.7617056369781494,
    -0.5202153325080872,
    0.5488477945327759,
    -0.7949430346488953,
    0.9049988985061646,
    0.9804773330688477,
    -0.19577935338020325,
    0.1849909871816635,
    -0.6908811330795288,
    -0.9911832213401794,
    -0.36007288098335266,
    -0.6354776620864868,
    -0.3031006455421448,
    0.8846492171287537,
    -0.24227115511894226,
    0.8929503560066223,
    -0.13391202688217163,
    -0.5766533613204956,
    0.6729878187179565,
    0.8900632262229919,
    0.6647784113883972,
    -1.0,
    -0.15373675525188446,
    -0.47802960872650146,
    0.5628466606140137,
    -0.7978668808937073,
    -0.7973387837409973,
    0.9409314393997192,
    0.18416406214237213,
    0.739469587802887,
    -0.6225348711013794,
    0.28632161021232605,
    -0.3597368896007538,
    0.17090077698230743,
    -0.037272218614816666,
    -0.7207280993461609,
    0.08965123444795609,
    -0.06916715949773788,
    -0.36074405908584595,
    -0.5510879755020142,
    -0.5581163763999939,
    -0.694290041923523,
    1.0,
    -0.6272866725921631,
    -0.49944746494293213,
    0.31203338503837585,
    0.0980987474322319,
    0.6998167037963867,
    -0.48923301696777344,
    -0.9230049252510071,
    0.8706320524215698,
    0.4608203172683716,
    0.4555011987686157,
    -0.9792473912239075,
    0.17955265939235687,
    -0.6777024269104004,
    -0.5891475081443787,
    -0.6897331476211548,
    0.3333844244480133,
    0.27426373958587646,
    -0.6748315095901489,
    0.7174503803253174,
    -0.30358582735061646,
    0.1945553869009018,
    1.0,
    0.0047486587427556515,
    0.39409422874450684,
    -0.7022581696510315,
    0.5471817255020142,
    -0.3327770233154297,
    0.3175753653049469,
    0.9384471774101257,
    0.5961854457855225,
    0.10408970713615417,
    -0.5201941728591919,
    -0.6583881378173828,
    -0.526419997215271,
    0.8346446752548218,
    0.3382091820240021,
    -0.299905389547348,
    0.25082290172576904,
    -0.8438915610313416,
    0.3588762581348419,
    0.22539140284061432,
    0.2669549286365509,
    0.9264442920684814,
    0.19953612983226776,
    0.16793425381183624,
    -0.908777117729187,
    -0.8797385692596436,
    0.7702016234397888,
    -0.31397736072540283,
    -0.36367034912109375,
    -0.3073002099990845,
    -0.26836735010147095,
    -0.3178808093070984,
    -0.7327588796615601,
    -0.6932038068771362,
    -0.09896858036518097,
    -0.9471848011016846,
    0.4050264358520508,
    0.24579322338104248,
    0.6610950827598572,
    0.8485763072967529,
    -0.49139365553855896,
    0.0327402725815773,
    0.13855697214603424,
    -0.9116886854171753,
    0.2232673466205597,
    -0.3432415723800659,
    -0.6538925766944885,
    0.6253576874732971,
    0.5734279155731201,
    -0.8963408470153809,
    -0.10327162593603134,
    -0.38075199723243713,
    -0.3797905743122101,
    0.9554766416549683,
    -0.2062990665435791,
    -0.8625904321670532,
    0.15001681447029114,
    -0.6766747236251831,
    -0.23083890974521637,
    -0.05879412963986397,
    -0.6567525267601013,
    -1.0,
    -0.6815241575241089,
    -0.018701598048210144,
    -0.3665120005607605,
    -0.4239540100097656,
    0.4495771527290344,
    -0.6926265358924866,
    0.45118287205696106,
    -0.08373673260211945,
    0.1568804830312729,
    0.9844386577606201,
    1.0,
    0.11305897682905197,
    -0.2916959226131439,
    0.29034700989723206,
    0.38720977306365967,
    -1.0,
    0.8264655470848083,
    0.5541918873786926,
    -0.20277735590934753,
    0.8241829872131348,
    -0.311621755361557,
    -0.47791680693626404,
    -0.30091559886932373,
    -0.49752482771873474,
    -0.42756757140159607,
    0.009411828592419624,
    -0.05418265610933304,
    0.5975829362869263,
    -0.3703085780143738,
    0.2546892762184143,
    -0.43790701031684875,
    0.046000439673662186,
    0.8550920486450195,
    0.17388519644737244,
    0.6131961941719055,
    -0.6103339791297913,
    -0.817337691783905,
    0.20565220713615417,
    0.900131106376648,
    -0.7633259296417236,
    0.944300651550293,
    1.0,
    0.1188545674085617,
    0.8066591024398804,
    -0.05182039737701416,
    0.6826349496841431,
    0.9004455208778381,
    -0.8243995308876038,
    -0.8541398048400879,
    0.551283597946167,
    0.7974425554275513,
    0.8291910886764526,
    0.3163580298423767,
    -0.5037111043930054,
    0.9528336524963379,
    -0.9262428283691406,
    0.1326732635498047,
    -0.27472159266471863,
    0.061635199934244156,
    0.5756011605262756,
    -0.5661093592643738,
    0.9941527247428894,
    0.6310953497886658,
    0.4745689034461975,
    0.689123272895813,
    0.1981566846370697,
    -0.3900723159313202,
    -0.2594623863697052,
    0.60793137550354,
    -0.8150975108146667,
    0.7009493112564087,
    0.9887266755104065,
    0.06915190815925598,
    1.0,
    0.19983884692192078,
    0.10860585421323776,
    0.45879706740379333,
    -0.3466659188270569,
    1.0,
    -0.4999755322933197,
    0.48411232233047485,
    -0.3516465127468109,
    -0.18545785546302795,
    0.28183528780937195,
    0.9732627272605896,
    -0.7195441722869873,
    0.38962385058403015,
    -0.35101163387298584,
    -0.2700949013233185,
    0.12630406022071838,
    0.28528401255607605,
    1.0,
    0.2798578441143036,
    -0.8156559467315674,
    0.7998625040054321,
    -0.9017336964607239,
    0.3043031394481659,
    -0.829987645149231,
    0.7231388092041016,
    0.1283305138349533,
    -0.1394389271736145,
    0.8313091993331909,
    0.1828334778547287,
    -0.5523911118507385,
    -0.6113072037696838,
    0.19242525100708008,
    -0.8483474254608154,
    0.5524824261665344,
    -0.177993044257164,
    0.8548387885093689,
    0.5102819204330444,
    -0.028928179293870926,
    0.015073071233928204,
    -0.505721926689148,
    0.5271002650260925,
    -0.7675283551216125,
    0.07199317961931229,
    -0.9519395232200623,
    -0.9596545100212097,
    -0.017227426171302795,
    -0.14478909969329834,
    -0.14788658916950226,
    0.6321694254875183,
    0.0050569199956953526,
    -0.050456199795007706,
    0.992901623249054,
    -0.45637381076812744,
    -0.22694814205169678,
    0.012460782192647457,
    -0.8433671593666077,
    -0.44475534558296204,
    0.014114873483777046,
    -0.015674497932195663,
    -0.299945205450058,
    0.15502458810806274,
    -0.036423951387405396,
    -0.7256934642791748,
    -0.7446516156196594,
    -0.11559497565031052,
    0.4544999599456787,
    -0.7617724537849426,
    -0.6393840909004211,
    -0.4743398427963257,
    0.16132719814777374,
    0.7540514469146729,
    0.6374247670173645,
    -0.7797663807868958,
    0.9291238188743591,
    -0.934009850025177,
    0.02248297818005085,
    0.6652515530586243,
    -0.46979591250419617,
    -0.2636280655860901,
    0.6806055307388306,
    -0.9099276661872864,
    0.5259588360786438,
    0.6230965852737427,
    0.47589656710624695,
    0.4534440040588379,
    0.22191518545150757,
    0.6505265831947327,
    -0.12320645898580551,
    -0.5965880155563354,
    -0.37866494059562683,
    -0.20610973238945007,
    -0.8393506407737732,
    -0.7886412143707275,
    0.717383086681366,
    0.9275490641593933,
    -0.14559757709503174,
    -0.24399545788764954,
    -0.33915504813194275,
    -0.02312724106013775,
    -0.8296425938606262,
    -0.18088941276073456,
    0.653572142124176,
    -0.8786645531654358,
    0.5804437398910522,
    -0.7174596190452576,
    -0.9750145077705383,
    -0.7115939259529114,
    -0.15616004168987274,
    0.27229824662208557,
    -0.0005886355647817254,
    -0.20102559030056,
    0.8413345217704773,
    0.8570512533187866,
    -0.912985622882843,
    -0.5534346699714661,
    -0.7320078611373901,
    -1.0,
    -0.9854214191436768,
    -0.03426334261894226,
    0.0862329974770546,
    0.49447301030158997,
    0.9457714557647705,
    -0.13815443217754364,
    -0.8353310227394104,
    0.44818875193595886,
    -0.17047953605651855,
    0.9238105416297913,
    0.24318371713161469,
    -0.20624090731143951,
    -0.23078082501888275,
    -0.5222538113594055,
    -0.9872188568115234,
    1.0,
    0.6784141659736633,
    0.7747828364372253,
    -0.7683460116386414,
    -0.45442384481430054,
    -0.5533034801483154,
    -0.4959169328212738,
    0.5731193423271179,
    -0.7473862171173096,
    -0.6668204069137573,
    0.8986755609512329,
    -0.8122866153717041,
    -0.2608906328678131,
    -0.05900396406650543,
    -0.7886255383491516,
    0.25668516755104065,
    0.8323984146118164,
    -0.19365811347961426,
    -0.12907789647579193,
    -0.16597488522529602,
    0.4325845241546631,
    -0.5305185914039612,
    -0.5394452214241028,
    -0.8556291460990906,
    -0.6884608864784241,
    -0.7740837335586548,
    0.016754619777202606,
    -0.29148226976394653,
    -1.0,
    -0.7223396897315979,
    -0.7216832041740417,
    0.4247417151927948,
    -0.3958313763141632,
    -0.6479260921478271,
    -0.7023497223854065,
    -0.1313638836145401,
    -0.9164799451828003,
    -0.21169158816337585,
    0.6952053308486938,
    -1.0,
    0.0014895035419613123,
    0.2052191197872162,
    0.42953282594680786,
    0.1444745659828186,
    -0.21645872294902802,
    -0.14952285587787628,
    -0.19541913270950317,
    -0.43798011541366577,
    -0.6858697533607483,
    0.26350584626197815,
    -1.0,
    -0.574562668800354,
    0.7978240847587585,
    0.19257482886314392,
    0.012628426775336266,
    0.3683217763900757,
    -1.0,
    -0.9630663990974426,
    0.30439773201942444,
    0.42540961503982544,
    0.16960352659225464,
    0.5031039714813232,
    0.16286198794841766,
    0.24693720042705536,
    -0.552909791469574,
    -0.14226511120796204,
    -1.0,
    -0.36077481508255005,
    0.9092812538146973,
    -0.7344157099723816,
    0.7405863404273987,
    -0.4781855344772339,
    0.16813300549983978,
    0.6814171671867371,
    0.5146304368972778,
    -0.8059511780738831,
    0.2715415060520172,
    0.044282302260398865,
    0.8504104614257813,
    0.20382405817508698,
    -0.9443342089653015,
    0.8867979049682617,
    -0.34926608204841614,
    0.658327043056488,
    -0.5544756054878235,
    0.07538692653179169,
    -0.1952299326658249,
    -0.1658467799425125,
    -0.6678032279014587,
    0.5284034609794617,
    -0.1809472292661667,
    0.5507674217224121,
    0.9199591279029846,
    -0.4689353108406067,
    -0.9892299175262451,
    -0.5909449458122253,
    0.1664811074733734,
    -0.04441972076892853,
    -0.925855278968811,
    -0.5866263508796692,
    -0.9221411943435669,
    0.44654983282089233,
    -0.7360058426856995,
    0.26989316940307617,
    -0.9240180850028992,
    0.5191594362258911,
    -0.12480857223272324,
    -0.1960846185684204,
    0.15790270268917084,
    0.37180691957473755,
    -0.3691551387310028,
    0.7539933919906616,
    -0.299346923828125,
    0.7131503224372864,
    0.9956175088882446,
    -0.18390749394893646,
    -0.4733819365501404,
    -0.8615831732749939,
    -0.9362221360206604,
    0.49953916668891907,
    -0.05122843012213707,
    0.4237433671951294,
    -0.2751944661140442,
    0.4224678575992584,
    0.2672199308872223,
    -0.7380412817001343,
    0.7145938873291016,
    0.397769033908844,
    -0.0393904410302639,
    -0.5864006280899048,
    0.5163825154304504,
    -0.24694986641407013,
    0.6806697249412537,
    -0.212079256772995,
    0.537549614906311,
    -0.4589097797870636,
    0.874376654624939,
    -0.7118166089057922,
    -0.026468655094504356,
    0.6263617277145386,
    0.9869593977928162,
    -0.7407574653625488,
    -0.3812922239303589,
    -0.8931058645248413,
    0.490597128868103,
    -0.6239845752716064,
    -0.4668051600456238,
    0.6990660429000854,
    -0.860276997089386,
    0.06122007966041565,
    0.9369609951972961,
    0.06165965646505356,
    -0.45018473267555237,
    0.471098929643631,
    -0.6739798784255981,
    0.05477462336421013,
    -0.11147496104240417,
    0.9835169315338135,
    0.6907100677490234,
    -0.15510424971580505,
    -0.18053825199604034,
    -0.4672965109348297,
    0.7781334519386292,
    -0.4606463611125946,
    -0.6919949650764465,
    0.8587938547134399,
    0.36780300736427307,
    0.8417676091194153,
    0.8486374616622925,
    -0.9142460227012634,
    0.9267463684082031,
    0.5371041893959045,
    -0.6203221082687378,
    0.9629566669464111,
    -0.9838343858718872,
    -0.04212462902069092,
    -0.7056852579116821,
    -0.33705249428749084,
    -0.18337954580783844,
    0.8121463656425476,
    -0.3389722406864166,
    -0.822638750076294,
    0.16480617225170135,
    -0.6714527606964111,
    0.0659661516547203,
    0.879088819026947,
    -0.17744949460029602,
    -0.009289951995015144,
    0.8472242951393127,
    -0.7973454594612122,
    0.03463868796825409,
    -0.5648696422576904,
    -0.4630175530910492,
    0.037980321794748306,
    0.08795424550771713,
    -0.3682824969291687,
    0.5479599237442017,
    -0.8455614447593689,
    0.2895410656929016,
    -0.8306191563606262,
    -0.707364022731781,
    -0.7371960282325745,
    -0.258055180311203,
    -0.5855649709701538,
    0.6310922503471375,
    0.1961117535829544,
    0.05349289998412132,
    0.2681690454483032,
    0.6429331302642822,
    0.7499527335166931,
    0.8139100074768066,
    0.2769159972667694,
    -0.7101504802703857,
    -0.7446516156196594,
    -0.07194120436906815,
    0.13053081929683685,
    -0.2442367821931839,
    -0.6046876907348633,
    -0.2369304895401001,
    0.4431106448173523,
    -0.32490918040275574,
    -0.44848182797431946,
    -0.8330821990966797,
    -0.8878140449523926,
    -0.7319926023483276,
    -0.9340826272964478,
    -0.8213813304901123,
    -0.3030366003513336,
    -0.33505338430404663,
    0.9107730388641357,
    0.5520129799842834,
    -0.016699766740202904,
    0.6493695378303528,
    -0.8132787942886353,
    0.8278541564941406,
    -0.008084453642368317,
    0.9023747444152832,
    -0.2562522888183594,
    -0.14459997415542603,
    0.9744042158126831,
    0.6472700238227844,
    0.8218231797218323,
    0.34582963585853577,
    0.535370945930481,
    -0.9787560701370239,
    0.9434370994567871,
    -0.38138073682785034,
    0.44674810767173767,
    0.20700408518314362,
    0.10004276037216187,
    -0.1377117931842804,
    -0.004535157233476639,
    -0.9309396743774414,
    0.638261616230011,
    0.7659229636192322,
    -0.003036694834008813,
    1.0,
    -0.039686139672994614,
    0.6182743906974792,
    0.2866998612880707,
    -0.6479353308677673,
    0.8546128273010254,
    0.7806296944618225,
    -0.6345803141593933,
    0.656468391418457,
    -0.1261604279279709,
    0.6152746677398682,
    0.7011446952819824,
    0.9946867227554321,
    0.028436804190278053,
    -0.951606810092926,
    -0.03465335816144943,
    -0.13928969204425812,
    -0.2725027799606323,
    -0.6627247333526611,
    -0.32667583227157593,
    -0.5325019955635071,
    -0.054173506796360016,
    0.2048708200454712,
    0.960969865322113,
    -0.2383185625076294,
    0.38481405377388,
    -0.18158529698848724,
    1.0,
    -0.7865812182426453,
    -0.852150022983551,
    0.45392635464668274,
    0.04665398970246315,
    0.6153935790061951,
    -0.1279393583536148,
    0.9622577428817749,
    0.12491541355848312,
    -0.36096975207328796,
    -0.6945219039916992,
    0.6417798399925232,
    0.13144928216934204,
    0.6424692869186401,
    0.6588183641433716,
    0.8594592213630676,
    0.10480358451604843,
    -0.1024690791964531,
    1.0,
    -0.20807218551635742,
    -0.3595508337020874,
    0.2913818955421448,
    0.8665516972541809,
    -0.6970306634902954,
    -0.8864589333534241,
    0.5223945379257202,
    -0.8016754388809204,
    -0.6823511123657227,
    0.3213200569152832,
    0.423642635345459,
    -0.5475478768348694,
    0.22727727890014648,
    0.5304754972457886,
    0.326392263174057,
    -0.16304786503314972,
    0.5031984448432922,
    -0.9024841785430908,
    0.9134097695350647,
    -0.9548630714416504,
    -1.0,
    0.45248860120773315,
    -0.8019958734512329,
    -0.11899472773075104,
    -0.259211927652359,
    -0.8173832297325134,
    0.9490249156951904,
    0.6376873850822449,
    -0.3702169358730316,
    0.5714988708496094,
    -0.3477950990200043,
    -0.36488524079322815,
    0.501953125,
    0.8666890263557434,
    -0.7604754567146301,
    -0.5137457251548767,
    0.08428613096475601,
    -0.41621118783950806,
    0.45987409353256226,
    0.3532518148422241,
    -0.9206397533416748,
    -0.4332134425640106,
    -0.06443660706281662,
    0.989010214805603,
    -0.19576102495193481,
    -0.9090976119041443,
    0.21090108156204224,
    -1.0,
    0.33472731709480286,
    -0.23453794419765472,
    -0.3605855405330658,
    0.24674835801124573,
    -0.2134222537279129,
    0.6094793677330017,
    0.7653189897537231,
    0.25473782420158386,
    0.9931273460388184,
    -0.24817641079425812,
    -0.5625872015953064,
    0.2175542116165161,
    0.9841884970664978,
    -0.7051851749420166,
    0.07874692976474762,
    -0.5295940041542053,
    -0.7798272371292114,
    -0.7736687064170837,
    -0.9122318029403687,
    0.7059663534164429,
    0.17919859290122986,
    -0.4411112368106842,
    0.2794855833053589,
    -0.49744585156440735,
    -0.9539140462875366,
    -0.5810999870300293,
    -0.9785758852958679,
    0.8471327424049377,
    -0.5789575576782227,
    -1.0,
    -0.04719078168272972,
    -0.15365420281887054,
    -0.11344651132822037,
    0.46957316994667053,
    0.7878475189208984,
    -0.6098238229751587,
    -0.35139623284339905,
    0.5542162656784058,
    0.21828952431678772,
    -0.590612530708313,
    -0.17552727460861206,
    0.6489582657814026,
    0.600415050983429,
    -0.7642049789428711,
    0.5202981233596802,
    0.169270858168602,
    0.8214757442474365,
    -0.966399073600769,
    -0.018451372161507607,
    0.17701643705368042,
    -0.07395901530981064,
    -0.3253486752510071,
    -0.8241521716117859,
    -0.5601458549499512,
    0.23274347186088562,
    -0.45040416717529297,
    0.8279733061790466,
    -0.21503348648548126,
    0.3164465129375458,
    -0.2016509473323822,
    0.5882816314697266,
    0.3863673210144043,
    -0.07067488133907318,
    0.9497939944267273,
    -0.4953276515007019,
    0.854619026184082,
    0.8382884860038757,
    0.28569310903549194,
    0.8062928915023804,
    0.1394941508769989,
    -0.007107698358595371,
    -0.6735588908195496,
    -0.2762659788131714,
    0.8972960710525513,
    0.19190941751003265,
    1.0,
    0.9939451217651367,
    -0.631296694278717,
    0.6174657344818115,
    -0.3233920633792877,
    -0.6074434518814087,
    0.19231244921684265,
    0.7790796160697937,
    0.7337839603424072,
    -0.4359508156776428,
    -1.0,
    0.4098941683769226,
    0.44530782103538513,
    0.9446852207183838,
    -0.629111647605896,
    -0.01984596438705921,
    -0.027405772358179092,
    0.7770959138870239,
    0.8981536626815796,
    0.24401958286762238,
    0.24062025547027588,
    0.5704184174537659,
    0.6814689040184021,
    -0.1821863353252411,
    0.5374369025230408,
    -0.5105228424072266,
    -1.0,
    0.343708336353302,
    -0.00690314220264554,
    -0.9218238592147827,
    0.21963565051555634,
    0.18851588666439056,
    0.1101628914475441,
    -0.011993736028671265,
    0.4368937909603119,
    -0.2113957405090332,
    0.7620317935943604,
    0.3547041118144989,
    -0.6264227628707886,
    -0.2849937677383423,
    -0.8657090663909912,
    -0.8460981249809265,
    -0.5651174187660217,
    -0.17311619222164154,
    0.2905544340610504,
    -0.13044807314872742,
    0.6637866497039795,
    0.21676379442214966,
    -0.9486129283905029,
    0.34181636571884155,
    0.17132769525051117,
    -0.42355725169181824,
    -0.49095115065574646,
    -0.6393963694572449,
    0.6757255792617798,
    -0.9050630331039429,
    0.8404552936553955,
    0.14954052865505219,
    0.4003656208515167,
    -0.4488539397716522,
    0.7349039316177368,
    0.12472602725028992,
    0.9422650337219238,
    0.8406780958175659,
    -0.6729483008384705,
    -0.7889065742492676,
    0.3228304982185364,
    -0.7355939745903015,
    0.7958065271377563,
    -0.18481113016605377,
    -0.19089004397392273,
    -0.1419263333082199,
    0.4439314901828766,
    -0.46290481090545654,
    -0.2624378800392151,
    -0.744593620300293,
    0.06747990846633911,
    0.7032685875892639,
    -0.32556551694869995,
    0.4428236782550812,
    0.08484144508838654,
    0.6671711802482605,
    -0.35318756103515625,
    -0.13866686820983887,
    -0.9179661870002747,
    0.4760397672653198,
    0.2947324216365814,
    0.9283670783042908,
    0.3164951205253601,
    0.5685994625091553,
    -0.2423134744167328,
    0.16289882361888885,
    -0.40062859654426575,
    -0.420847088098526,
    -0.01697123795747757,
    0.7774315476417542,
    -0.40842288732528687,
    0.6883724331855774,
    -0.8979157209396362,
    -0.3440169095993042,
    -0.7562426328659058,
    0.5601885914802551,
    -0.42040786147117615,
    -0.7240330576896667,
    0.00900901947170496,
    0.7245396971702576,
    -0.7965789437294006,
    0.8738853335380554,
    -0.09729306399822235,
    0.5146886110305786,
    0.4413374364376068,
    -0.1960236132144928,
    -1.0,
    0.29418015480041504,
    0.4222266674041748,
    -0.34123915433883667,
    -0.7855127453804016,
    -0.7794764637947083,
    0.6084321141242981,
    -1.0,
    -0.9551377892494202,
    -0.1737968474626541,
    0.909491240978241,
    -0.9753015637397766,
    -0.5842770934104919,
    -0.6826625466346741,
    0.4691457748413086,
    0.7537398934364319,
    -0.45319080352783203,
    0.7933349013328552,
    -0.8419448137283325,
    -0.4796779453754425,
    0.900054931640625,
    0.5050415396690369,
    -0.8877590298652649,
    0.23027746379375458,
    -0.19646871089935303,
    -0.7128909230232239,
    -0.49829724431037903,
    -0.15184177458286285,
    -0.7876095175743103,
    0.07344578951597214,
    -0.8033085465431213,
    -0.8970485329627991,
    1.0,
    0.5027803778648376,
    0.009256443940103054,
    -0.9543534517288208,
    0.018039479851722717,
    -0.3467208743095398,
    0.5151737928390503,
    0.41867440938949585,
    0.6257118582725525,
    0.8135836124420166,
    -0.131928488612175,
    0.21729473769664764,
    0.7860439419746399,
    0.9217230677604675,
    -0.2903040945529938,
    0.35462838411331177,
    -0.9225562810897827,
    -0.9483901262283325,
    0.18345904350280762,
    0.8877804279327393,
    0.7419351935386658,
    -0.9405927062034607,
    -0.04185302555561066,
    0.05241850018501282,
    0.2568318247795105,
    -0.7970916032791138,
    0.10948830842971802,
    -0.7544939517974854,
    0.18822284042835236,
    -0.1910519301891327,
    0.7467696070671082,
    0.9122958779335022,
    0.6027587056159973,
    -0.6427353620529175,
    0.837378978729248,
    0.7105227708816528,
    0.7202368974685669,
    0.6043091416358948,
    -0.8295845985412598,
    -0.07191698998212814,
    0.021314440295100212,
    0.6822565197944641,
    -1.0,
    0.6635549068450928,
    -0.27722427248954773,
    0.29220864176750183,
    -0.02440561167895794,
    0.2127656638622284,
    0.5374885201454163,
    -0.43780961632728577,
    -0.7952786684036255,
    -0.4151097238063812,
    0.8273964524269104,
    0.4099155366420746,
    0.21637633442878723,
    -0.7079837322235107,
    -1.0,
    -0.983031690120697,
    -0.07069611549377441,
    0.27437666058540344,
    -0.593957245349884,
    -0.9701101779937744,
    -0.23329225182533264,
    0.23014600574970245,
    0.9076693654060364,
    -0.9076237082481384,
    0.732147753238678,
    1.0,
    0.5379190444946289,
    -0.7008331418037415,
    -0.8961424231529236,
    -0.2524124085903168,
    0.8342599868774414,
    0.7992035150527954,
    0.3023897111415863,
    0.9074739813804626,
    0.47844141721725464,
    -0.12580333650112152,
    0.032621320337057114,
    -0.8261910080909729,
    0.5244789123535156,
    0.4530593752861023,
    0.14848780632019043,
    -0.4016662836074829,
    0.3707326650619507,
    0.9452589750289917,
    -0.22814394533634186,
    -0.2070741504430771,
    1.0,
    -0.2703726291656494,
    -0.0003325577126815915,
    0.9145389795303345,
    0.11877790838479996,
    0.2437726855278015,
    -0.33111992478370667,
    -0.3471023440361023,
    1.0,
    0.04020519182085991,
    0.6320993304252625,
    -0.16332289576530457,
    -1.0,
    -0.7540574669837952,
    -0.8947110772132874,
    0.6315897107124329,
    0.7915127873420715,
    0.34454163908958435,
    0.7197058200836182,
    0.13832536339759827,
    0.14918085932731628,
    -0.4769279360771179,
    0.8171578645706177,
    0.817493200302124,
    0.9198614954948425,
    -0.8458815217018127,
    0.45851925015449524,
    0.48703598976135254,
    0.23737306892871857,
    -1.0,
    0.7208288311958313,
    -0.5864650011062622,
    0.3250032365322113,
    0.6256294250488281,
    0.7277779579162598,
    -0.32987454533576965,
    0.5069277286529541,
    -0.13234937191009521,
    -0.7227941751480103,
    -0.30636945366859436,
    -0.01877490244805813,
    0.0843043327331543,
    0.821915328502655,
    -1.0,
    -0.1486676186323166,
    0.02598956972360611,
    -0.21969057619571686,
    -0.6110783219337463,
    0.9239631295204163,
    -0.47622281312942505,
    0.028229210525751114,
    -0.6285383105278015,
    -0.4960722327232361,
    0.1842951476573944,
    -0.4588213860988617,
    -0.9384685754776001,
    0.9761863946914673,
    -0.5261359810829163,
    -0.1884000301361084,
    0.19114375114440918,
    -0.9535569548606873,
    -0.41289979219436646,
    0.3710958659648895,
    0.331748366355896,
    -0.5126162171363831,
    0.5124425292015076,
    0.6499463319778442,
    0.9605547189712524,
    0.7043859362602234,
    0.26997923851013184,
    0.34810325503349304,
    0.7588579654693604,
    0.18454833328723907,
    0.13004231452941895,
    0.2397623509168625,
    0.5398846864700317,
    -0.5096529126167297,
    0.7646079063415527,
    0.808435320854187,
    0.852516233921051,
    0.051405396312475204,
    0.233759805560112,
    -0.8121097683906555,
    0.34591174125671387,
    -0.2708304822444916,
    0.6063692569732666,
    -0.8578572869300842,
    -0.9042054414749146,
    -0.21755699813365936,
    0.34837767481803894,
    0.6014372706413269,
    -0.15252840518951416,
    -0.9488082528114319,
    -0.7275674343109131,
    0.42649930715560913,
    -0.008584980852901936,
    0.859535813331604,
    -0.19833995401859283,
    -0.9470384120941162,
    0.825333297252655,
    -0.50272536277771,
    0.2694724202156067,
    0.826136589050293,
    0.8406934142112732,
    -0.45077356696128845,
    0.3183416724205017,
    -0.916571319103241,
    0.9007446765899658,
    -0.22459173202514648,
    0.538908064365387,
    -0.20024999976158142,
    1.0,
    0.6517533659934998,
    -0.9084503054618835,
    0.18329724669456482,
    0.3016815483570099,
    0.02976175956428051,
    0.3447798490524292,
    -0.14592738449573517,
    0.5840415954589844,
    -0.7720691561698914,
    0.3902463912963867,
    -0.712558388710022,
    0.27583879232406616,
    0.23980189859867096,
    0.627689778804779,
    0.05777168646454811,
    -0.12990513443946838,
    0.6131350994110107,
    -0.5371533036231995,
    0.9445295929908752,
    0.6221168041229248,
    -0.06750990450382233,
    0.9930540919303894,
    -1.0,
    0.5192146301269531,
    -0.2260412722826004,
    -0.8805751204490662,
    -0.15173186361789703,
    0.7122929096221924,
    0.004669163841754198,
    -0.666008472442627,
    0.7976928353309631,
    0.5213420391082764,
    0.2930571734905243,
    -0.10977495461702347,
    -0.7485731840133667,
    0.08686799556016922,
    0.7745901346206665,
    -0.925000786781311,
    0.8075501322746277,
    0.19939576089382172,
    -0.6589616537094116,
    -0.1896323710680008,
    -0.24905864894390106,
    -0.9793723225593567,
    0.9986785650253296,
    0.9743247628211975,
    0.4139164686203003,
    0.11875040829181671,
    0.4898068606853485,
    -0.688396692276001,
    -0.8386853933334351,
    0.759981095790863,
    0.8894801139831543,
    0.47895753383636475,
    0.7411695122718811,
    0.5808741450309753,
    -0.277010440826416,
    0.6399912238121033,
    -0.5225561857223511,
    -0.345564067363739,
    0.47853928804397583,
    0.02912977524101734,
    0.08414540439844131,
    0.5068787932395935,
    -0.7219703197479248,
    0.3343544602394104,
    -0.2525649964809418,
    -0.4963071048259735,
    -0.793533205986023,
    -1.0,
    -0.35499119758605957,
    0.2645224332809448,
    -0.6084627509117126,
    0.7003234624862671,
    -0.16205917298793793,
    -0.995651125907898,
    -0.20634476840496063,
    0.17144706845283508,
    0.07638203352689743,
    0.9106875658035278,
    0.74872887134552,
    0.45923343300819397,
    0.4571947455406189,
    -0.7321300506591797,
    0.6136996150016785,
    -0.8902096152305603,
    -0.44323548674583435,
    -0.26876407861709595,
    -0.7217442989349365,
    0.05906552076339722,
    -1.0,
    0.4800165593624115,
    -0.09652407467365265,
    -0.3029206693172455,
    -0.5754173994064331,
    -0.926282525062561,
    0.07153239101171494,
    -0.8459243178367615,
    0.8041749596595764,
    -0.40303662419319153,
    0.3329876661300659,
    0.10125138610601425,
    0.2800256907939911,
    0.8136295676231384,
    0.017868749797344208,
    -1.0,
    -0.381499707698822,
    -0.3218178153038025,
    -0.5021210312843323,
    0.9061098098754883,
    0.14982467889785767,
    -0.7586164474487305,
    -0.4994167983531952,
    0.6399669647216797,
    0.1932554990053177,
    0.06883133202791214,
    0.609808623790741,
    0.09118347615003586,
    1.0,
    0.34249430894851685,
    0.35136568546295166,
    0.5071902275085449,
    -0.4287482500076294,
    0.1614062339067459,
    0.446645051240921,
    -0.7668996453285217,
    1.0,
    -0.5137848258018494,
    -0.2669425308704376,
    0.7073519229888916,
    -0.8888179659843445,
    0.8660447597503662,
    -0.04484369605779648,
    0.9071779251098633,
    -0.29449403285980225,
    0.7459914088249207,
    0.6059054136276245,
    0.3219427466392517,
    0.17258192598819733,
    -0.10796525329351425,
    -0.13025298714637756,
    0.15750017762184143,
    0.39268776774406433,
    0.4543047249317169,
    0.8642535209655762,
    0.8302560448646545,
    1.0,
    -0.38205504417419434,
    0.7663077712059021,
    0.3987092971801758,
    0.011496245861053467,
    0.12161630392074585,
    -0.9445905685424805,
    -0.4308054745197296,
    -0.03339299187064171,
    -0.13983894884586334,
    0.4399394392967224,
    -0.31671202182769775,
    -0.8417432904243469,
    -0.6300729513168335,
    -0.41280221939086914,
    0.36390864849090576,
    -0.8554918169975281,
    -0.840378999710083,
    0.8410260677337646,
    -0.09585541486740112,
    0.7407177090644836,
    0.8159308433532715,
    -0.9577654600143433,
    0.919660210609436,
    0.5892210006713867,
    -0.4973359704017639,
    0.858941376209259,
    -1.0,
    -0.163683220744133,
    0.4197395145893097,
    -0.8270089030265808,
    0.5777032971382141,
    -0.29309985041618347,
    -0.2795097827911377,
    -0.17670521140098572,
    -0.08233258873224258,
    -0.722165584564209,
    0.5325480103492737,
    0.5555465817451477,
    1.0,
    0.3392896056175232,
    0.16739702224731445,
    -0.5139164924621582,
    0.1998017281293869,
    -0.4760489761829376,
    -0.5870968699455261,
    -0.8473495244979858,
    0.14985503256320953,
    -0.2559921443462372,
    -0.27034807205200195,
    0.3072940707206726,
    0.20888090133666992,
    -0.9622669816017151,
    -1.0,
    -0.21384619176387787,
    0.47629016637802124,
    0.6440688371658325,
    0.5467941164970398,
    -0.7413618564605713,
    0.3571641445159912,
    0.3436506688594818,
    0.7255257964134216,
    0.9886470437049866,
    -0.44079989194869995,
    0.8700122833251953,
    0.24157844483852386,
    0.5244330763816833,
    -0.39471715688705444,
    0.3097415268421173,
    -0.11723390966653824,
    -0.12060613930225372,
    0.45884010195732117,
    0.44861289858818054,
    0.5583055019378662,
    -0.567625880241394,
    -0.30892661213874817,
    0.8383068442344666,
    -0.4702017903327942,
    0.32119226455688477,
    -0.3121066093444824,
    -0.7192113399505615,
    -0.9934110641479492,
    1.0,
    -0.3502303659915924,
    0.21812820434570313,
    -0.7667165994644165,
    -0.324265718460083,
    0.7601062059402466,
    0.4413737654685974,
    -0.7074615359306335,
    -0.35880914330482483,
    -0.27517011761665344,
    0.676125705242157,
    -0.17894843220710754,
    -0.3882838189601898,
    -0.6056246757507324,
    0.8327341079711914,
    0.8992003202438354,
    -0.15389816462993622,
    0.38875991106033325,
    0.30049437284469604,
    -0.5449355244636536,
    -0.17991264164447784,
    0.7016939520835876,
    0.46784257888793945,
    -0.600238025188446,
    0.5484482645988464,
    0.32269349694252014,
    -0.35884881019592285,
    -0.4451829195022583,
    -0.9880825281143188,
    -0.19583451747894287,
    -0.9190741181373596,
    -0.21463987231254578,
    -0.8341684937477112,
    0.9261609315872192,
    -1.0,
    0.3438948094844818,
    0.3308267891407013,
    -0.6302286982536316,
    -0.9380781650543213,
    -0.03402511402964592,
    -0.08118835091590881,
    0.43423858284950256,
    0.9599871635437012,
    -0.4889371395111084,
    0.7461470365524292,
    -0.30950668454170227,
    1.0,
    -0.3797692060470581,
    0.8217993378639221,
    -0.7902829647064209,
    0.6333295702934265,
    -0.6276527047157288,
    -0.5967164039611816,
    -0.431568443775177,
    0.3045535087585449,
    -0.09577617049217224,
    -0.2947355806827545,
    -0.29026752710342407,
    0.9674977660179138,
    0.09725957363843918,
    -0.5491957068443298,
    0.39409151673316956,
    -0.6257938742637634,
    0.12036801129579544,
    0.4009888172149658,
    -0.05395407974720001,
    0.7117893695831299,
    0.49543166160583496,
    0.5448806285858154,
    -0.25767993927001953,
    0.038557007908821106,
    -0.819305956363678,
    0.5269691944122314,
    -0.8395458459854126,
    -0.04427627474069595,
    0.524802029132843,
    -0.7204809188842773,
    0.34184369444847107,
    0.35789719223976135,
    -0.8993651866912842,
    0.8357065916061401,
    0.8335916996002197,
    -0.7349162697792053,
    -0.44505152106285095,
    -0.44844526052474976,
    -0.42425283789634705,
    -0.8201849460601807,
    -0.0634021982550621,
    0.4619769752025604,
    -0.2561754584312439,
    0.9035370945930481,
    0.2040010541677475,
    -1.0,
    0.7547593116760254,
    -0.5575731992721558,
    -0.9007962346076965,
    0.19126272201538086,
    0.2224707305431366,
    -0.011029251851141453,
    0.960493803024292,
    -0.33293241262435913,
    -0.02912021242082119,
    0.8778252005577087,
    -0.4175450801849365,
    -0.20632316172122955,
    0.716553270816803,
    -0.405838280916214,
    0.6560685634613037,
    0.9094087481498718,
    0.4081759452819824,
    -0.29427167773246765,
    -0.21828632056713104,
    -0.9428694248199463,
    -0.966392993927002,
    0.5203041434288025,
    1.0,
    0.6496688723564148,
    0.4617999792098999,
    -0.29052382707595825,
    0.7976834774017334,
    -0.6422499418258667,
    0.7909451723098755,
    0.323248952627182,
    0.5093265771865845,
    -0.5260751247406006,
    -0.6099889278411865,
    -0.6496840119361877,
    -0.3447187840938568,
    -1.0,
    0.7543870806694031,
    -0.9498245120048523,
    -0.16371063888072968,
    0.7439132332801819,
    -0.7458544373512268,
    -0.3833093047142029,
    0.6645220518112183,
    -0.5429608821868896,
    0.014819405972957611,
    0.10259409248828888,
    0.07408987730741501,
    -0.2920592725276947,
    -1.0,
    0.5637047290802002,
    -0.29534584283828735,
    -0.3918211758136749,
    -0.09587369114160538,
    -0.0310285072773695,
    0.2652819752693176,
    -0.2629140615463257,
    0.03293843939900398,
    0.34150511026382446,
    -0.014398723840713501,
    -0.8218088150024414,
    -0.6723013520240784,
    -0.49436941742897034,
    0.5365886688232422,
    0.3666951358318329,
    -0.15771065652370453,
    -0.8576860427856445,
    0.7032716274261475,
    -0.10833757370710373,
    0.7905790209770203,
    0.980025589466095,
    0.9884486794471741,
    0.2749474346637726,
    -0.021717306226491928,
    0.07909157127141953,
    -0.23968321084976196,
    0.1747581660747528,
    0.22015437483787537,
    -0.30593886971473694,
    0.8017147183418274,
    0.1809626668691635,
    -0.6492382287979126,
    -0.09968550503253937,
    -0.48713332414627075,
    -0.7914882898330688,
    -0.885873019695282,
    -0.5660421848297119,
    -0.03303009271621704,
    0.5513291954994202,
    0.8525100946426392,
    -0.33806267380714417,
    -0.8726491928100586,
    0.8179539442062378,
    0.8523666858673096,
    -1.0,
    0.003244158811867237,
    -0.3346233069896698,
    -0.018549013882875443,
    0.23612158000469208,
    0.4793846905231476,
    -0.5711691975593567,
    -0.7304971814155579,
    -0.06132087856531143,
    0.8086061477661133,
    0.013397629372775555,
    -0.1747826784849167,
    0.7784021496772766,
    -0.12120701372623444,
    -0.8587907552719116,
    0.7384258508682251,
    -0.39322802424430847,
    0.35973671078681946,
    -0.638911247253418,
    0.6110691428184509,
    0.5291635990142822,
    -0.08390750735998154,
    -0.11535684019327164,
    0.3014160096645355,
    0.22983478009700775,
    -0.6357645392417908,
    -1.0,
    0.5770375728607178,
    0.794631838798523,
    -0.7561358213424683,
    0.39692071080207825,
    -0.8498977422714233,
    0.8984740972518921,
    -0.37158745527267456,
    0.5230265259742737,
    1.0,
    0.6629290580749512,
    -0.15275762975215912,
    -0.9792076945304871,
    0.5284798741340637,
    -0.6052249073982239,
    0.9924802184104919,
    -0.6934078931808472,
    -0.9418103694915771,
    0.8215187788009644,
    -0.2270851880311966,
    0.7289376258850098,
    0.2177952527999878,
    0.4228648245334625,
    -0.2516618072986603,
    -0.05085601285099983,
    -0.3987487554550171,
    0.4251410961151123,
    -0.22853797674179077,
    -0.2804040014743805,
    -0.34972697496414185,
    1.0,
    -0.7491744756698608,
    0.4741417467594147,
    0.8956725001335144,
    0.3346325159072876,
    0.3046604096889496,
    0.9493331909179688,
    -0.02531810663640499,
    0.7043733596801758,
    -0.4631640613079071,
    -0.3689994215965271,
    0.5036593079566956,
    -0.341279000043869,
    -0.8495712280273438,
    0.8915160298347473,
    1.0,
    -0.7917295098304749,
    -0.27625370025634766,
    -0.033222321420907974,
    0.8566514849662781,
    0.4908106327056885,
    -0.8017609715461731,
    0.412332683801651,
    -0.48401138186454773,
    0.9127628803253174,
    -0.44384297728538513,
    -0.04690682888031006,
    -1.0,
    -0.9627338647842407,
    0.2852565348148346,
    -0.8871487379074097,
    0.7892546653747559,
    -0.5115053057670593,
    0.5780665278434753,
    0.03377797082066536,
    0.7075625061988831,
    -0.6649676561355591,
    -0.09838509559631348,
    -0.5131043791770935,
    -0.7201513648033142,
    -0.4133458137512207,
    -0.9171028733253479,
    0.2627611458301544,
    -0.19913911819458008,
    0.7809014916419983,
    -1.0,
    0.3569294512271881,
    0.959883451461792,
    1.0,
    0.8788750767707825,
    0.8951992988586426,
    -0.6759392619132996,
    0.8381447792053223,
    -0.6970975995063782,
    -0.8564132452011108,
    0.6680471301078796,
    0.6710505485534668,
    -0.4388655424118042,
    -0.7070044279098511,
    -0.6723654866218567,
    0.4583301246166229,
    0.1909267157316208,
    -0.5945097804069519,
    0.7469099164009094,
    0.7920834422111511,
    -1.0,
    0.9017395377159119,
    -0.30474862456321716,
    -0.6110324859619141,
    -0.29452842473983765,
    -0.7637959718704224,
    -0.34763944149017334,
    -0.14656203985214233,
    0.7298104763031006,
    -0.28117287158966064,
    -0.961757242679596,
    -0.4976043701171875,
    -0.025928523391485214,
    -0.741254985332489,
    0.7543076872825623,
    0.7517532706260681,
    -0.7668905258178711,
    0.32559892535209656,
    -0.4871792197227478,
    0.5572707056999207,
    0.06010632961988449,
    0.535572350025177,
    0.4852809011936188,
    0.9004760980606079,
    0.4479718804359436,
    -0.450508177280426,
    -0.46825453639030457,
    0.13508747518062592,
    0.7769462466239929,
    -0.046607717871665955,
    -0.9905514717102051,
    -0.59714674949646,
    -0.9354380965232849,
    -0.4626883268356323,
    0.9211584329605103,
    0.7034972310066223,
    -0.8355390429496765,
    -0.10990995913743973,
    0.06872778385877609,
    -0.9365552067756653,
    0.6518693566322327,
    -0.3373822271823883,
    -0.30154404044151306,
    0.9645681381225586,
    0.6415814161300659,
    -0.15507376194000244,
    0.08989225327968597,
    0.30031129717826843,
    -0.3646627366542816,
    -1.0,
    0.227298766374588,
    0.9222297072410583,
    -0.7391613721847534,
    0.08130408823490143,
    1.0,
    0.6352000832557678,
    0.5455090403556824,
    -0.5007444024085999,
    -0.7520128488540649,
    0.7176303863525391,
    0.8324655890464783,
    0.19193707406520844,
    -0.04346756637096405,
    0.5242500305175781,
    0.9645556807518005,
    0.054271161556243896,
    0.39298686385154724,
    -0.2859766185283661,
    0.8911770582199097,
    0.2872678339481354,
    -0.14133720099925995,
    -0.7876800894737244,
    -0.2372051328420639,
    0.5925289988517761,
    0.21865896880626678,
    0.16791267693042755,
    -0.6145145297050476,
    -0.38362374901771545,
    0.37168484926223755,
    -0.30289337038993835,
    0.9489790797233582,
    0.744807243347168,
    0.451985239982605,
    -0.648295521736145,
    -0.1039704903960228,
    0.10486120730638504,
    1.0,
    0.2725394070148468,
    0.2077699601650238,
    -0.0691089928150177,
    -0.16914579272270203,
    -0.4390544891357422,
    -0.9294992089271545,
    -0.8931699395179749,
    0.5026336908340454,
    -0.003942572511732578,
    -0.5656788945198059,
    0.9194403290748596,
    0.4316078722476959,
    0.17687298357486725,
    -0.36292314529418945,
    0.7166173458099365,
    -0.07036957144737244,
    0.4059697389602661,
    0.42934057116508484,
    -0.9763084650039673,
    0.9258400797843933,
    0.2587938904762268,
    0.3106963038444519,
    -0.44682443141937256,
    0.8598376512527466,
    -0.2758079469203949,
    0.39671647548675537,
    -0.8921383619308472,
    0.6310010552406311,
    0.9924222826957703,
    -0.7897273898124695,
    -0.08502452820539474,
    0.6737569570541382,
    -0.07721169292926788,
    -0.08494541049003601,
    0.7826688885688782,
    -0.7847622036933899,
    -0.9949644804000854,
    0.8343639969825745,
    0.030063766986131668,
    -0.23261192440986633,
    0.11965073645114899,
    0.9069337248802185,
    0.6126224994659424,
    -0.3888058066368103,
    0.006018204148858786,
    -0.6253098845481873,
    0.603695809841156,
    -0.6810567378997803,
    -0.5194646120071411,
    -0.8087680339813232,
    -0.006579862907528877,
    -0.277981162071228,
    0.830600917339325,
    -0.9310280680656433,
    -0.4068329334259033,
    0.23843805491924286,
    -0.7504594326019287,
    -0.4918149411678314,
    -0.8785941004753113,
    0.6996031999588013,
    -0.7310647964477539,
    0.9426771998405457,
    -0.27058908343315125,
    0.15616942942142487,
    -1.0,
    -0.2742360234260559,
    -0.14620758593082428,
    0.8397717475891113,
    -0.12363680452108383,
    1.0,
    -0.1285133957862854,
    0.5774590373039246,
    0.7472884058952332,
    -0.8570942878723145,
    0.10510565340518951,
    -0.5190649628639221,
    0.19909369945526123,
    0.14216454327106476,
    -0.6223120093345642,
    -0.4211004376411438,
    -0.2931087911128998,
    0.24252133071422577,
    0.4284552335739136,
    0.06729332357645035,
    0.31669026613235474,
    -0.7750235795974731,
    0.245762437582016,
    -0.6563099026679993,
    0.31609514355659485,
    0.5347151160240173,
    0.056328196078538895,
    -0.5124821066856384,
    0.9468947649002075,
    -0.6891688704490662,
    0.4129275977611542,
    -0.34788036346435547,
    0.1311539113521576,
    -0.3818568289279938,
    0.2323802262544632,
    0.6235944032669067,
    -0.6519912481307983,
    -0.22343511879444122,
    0.6338419318199158,
    -0.7003967761993408,
    -0.20059223473072052,
    -0.46019473671913147,
    -0.4304238557815552,
    -0.23623467981815338,
    -0.5936000943183899,
    0.5713064670562744,
    -0.6826930642127991,
    0.29588302969932556,
    1.0,
    0.17495954036712646,
    -0.32355737686157227,
    -0.6176428198814392,
    0.6071807742118835,
    -0.6963686347007751,
    -0.3101474642753601,
    0.2888485789299011,
    -0.7484202980995178,
    -0.3432632386684418,
    0.27095550298690796,
    -0.49997249245643616,
    0.13226427137851715,
    -0.5961090326309204,
    0.6657243967056274,
    -0.2925318777561188,
    0.5874848961830139,
    0.6195438504219055,
    0.30613112449645996,
    0.21970583498477936,
    0.37791672348976135,
    0.6147768497467041,
    -0.9647297859191895,
    0.16486400365829468,
    -0.003939878195524216,
    0.7765436768531799,
    0.6798397302627563,
    0.8270760774612427,
    -0.35059985518455505,
    -0.3492690622806549,
    0.7324432134628296,
    0.5290749669075012,
    0.9418714046478271,
    0.5872586369514465,
    0.7318885326385498,
    -0.06371662020683289,
    0.3232977092266083,
    0.06934093683958054,
    -0.008615379221737385,
    0.6617421507835388,
    -0.8787713050842285,
    -0.34221652150154114,
    -0.8795800805091858,
    -0.5491988062858582,
    0.2655872702598572,
    -0.6506881713867188,
    -0.07282931357622147,
    -0.5474685430526733,
    -0.9251686334609985,
    -0.7256080508232117,
    0.8021332621574402,
    -0.7405314445495605,
    0.04327540472149849,
    0.8794946074485779,
    0.5557421445846558,
    -0.14398936927318573,
    0.6636036038398743,
    -0.4601335823535919,
    0.495895117521286,
    -0.9236640334129333,
    0.2570328712463379,
    0.22976179420948029,
    -0.22714604437351227,
    0.22012995183467865,
    -0.22180227935314178,
    0.09481236338615417,
    -0.7684894800186157,
    0.6687645316123962,
    -0.7503281235694885,
    0.23819077014923096,
    -0.895559549331665,
    -0.029489988461136818,
    0.8162633180618286,
    0.7069242596626282,
    -0.6741142272949219,
    -0.4585646986961365,
    0.7279459238052368,
    -0.1348460614681244,
    0.026636648923158646,
    -0.06942043453454971,
    0.6139317750930786,
    0.22865073382854462,
    -0.07317720353603363,
    -0.818164587020874,
    0.0945250615477562,
    -0.4851345419883728,
    -0.7728995084762573,
    0.9842862486839294,
    0.2511065900325775,
    -0.5604604482650757,
    0.566631019115448,
    -0.7773247361183167,
    0.3818933963775635,
    -0.37778863310813904,
    0.5603135824203491,
    -0.46667978167533875,
    -0.5752620100975037,
    0.2535662055015564,
    0.7534559369087219,
    0.24873493611812592,
    -0.7021089196205139,
    0.13272225856781006,
    -0.06676836311817169,
    0.2773793637752533,
    0.029050497338175774,
    0.9548112154006958,
    1.0,
    -0.5722129940986633,
    -0.861973762512207,
    -0.19728684425354004,
    0.6546464562416077,
    -0.7489120960235596,
    0.5493148565292358,
    0.8066407442092896,
    -0.9170507192611694,
    -0.6524583101272583,
    -0.692693829536438,
    0.5530681014060974,
    0.4779900312423706,
    -0.8487257957458496,
    0.5858515501022339,
    -0.6298776268959045,
    -0.8175114989280701,
    0.06970440596342087,
    0.8424023985862732,
    -0.00928997341543436,
    0.3496231436729431,
    -0.6114052534103394,
    -0.11268030852079391,
    -0.8498273491859436,
    1.0,
    -0.39857780933380127,
    0.1523936241865158,
    -0.9039521813392639,
    -1.0,
    -0.08732260763645172,
    0.6504929065704346,
    -0.1260351836681366,
    0.9040803909301758,
    -0.1119265928864479,
    -0.9093510508537292,
    0.2993164360523224,
    0.150910884141922,
    0.46592003107070923,
    -1.0,
    0.8031678795814514,
    -0.05478375405073166,
    -1.0,
    0.1876949667930603,
    0.935596764087677,
    0.8417157530784607,
    0.45124372839927673,
    -0.17131564021110535,
    -0.1605549156665802,
    0.8185063600540161,
    0.060402221977710724,
    -0.4434400796890259,
    0.672597348690033,
    -0.6631091237068176,
    0.6103216409683228,
    -0.21767635643482208,
    0.7621601223945618,
    -0.8511582016944885,
    0.3327404856681824,
    0.4060576558113098,
    0.6060366034507751,
    0.8192206621170044,
    -0.14594577252864838,
    -0.6616045832633972,
    0.8522199392318726,
    -0.9391613006591797,
    -0.44992244243621826,
    -0.7245155572891235,
    0.7286814451217651,
    -0.09448245167732239,
    -0.4167422950267792,
    -0.5879542827606201,
    -1.0,
    -0.395632803440094,
    0.14553984999656677,
    -0.2169683873653412,
    -0.2424754947423935,
    -0.9939817190170288,
    -0.7083285450935364,
    0.12662442028522491,
    -0.036792851984500885,
    0.25112465023994446,
    -0.1014799252152443,
    -0.3901243507862091,
    0.1918332576751709,
    0.818418025970459,
    0.30557912588119507,
    -1.0,
    -0.6153935790061951,
    0.8935667276382446,
    0.9396406412124634,
    0.42633455991744995,
    -0.26251718401908875,
    0.10099788010120392,
    0.8556718230247498,
    0.5064060091972351,
    -0.21050140261650085,
    0.13155902922153473,
    0.4131443202495575,
    0.7427104711532593,
    -0.5238049626350403,
    -0.1544908583164215,
    0.5405471920967102,
    -0.4234504699707031,
    -0.5666036605834961,
    -0.5613909363746643,
    -0.9140934944152832,
    -0.034635353833436966,
    -0.1777946949005127,
    -0.04541461169719696,
    0.41415485739707947,
    -0.6555192470550537,
    -0.10573739558458328,
    0.5685385465621948,
    -0.9164464473724365,
    -0.5595114231109619,
    1.0,
    0.052458297461271286,
    0.9265235662460327,
    0.13088484108448029,
    0.6093259453773499,
    0.82894366979599,
    -0.003860721131786704,
    -0.20034503936767578,
    0.5061465501785278,
    -0.4596545398235321,
    -0.6393445134162903,
    -0.7970579862594604,
    0.8473589420318604,
    0.0775873214006424,
    0.9642841815948486,
    0.1669238954782486,
    -0.7168185710906982,
    0.6709191799163818,
    0.8599048852920532,
    0.8732016682624817,
    0.08537250757217407,
    -0.9384015202522278,
    -0.9931360483169556,
    -0.2143620103597641,
    -0.6342080235481262,
    0.31954729557037354,
    -0.7234748005867004,
    -0.2707144021987915,
    1.0,
    -1.0,
    -0.239158034324646,
    -0.591192364692688,
    1.0,
    -0.7673758268356323,
    -0.18221993744373322,
    0.910635769367218,
    0.39217817783355713,
    0.3301585614681244
  ]
}