{"m_clampedOutputs":[0.8415808959990885,0.07092862908782868,0.08722020964392545],"m_hiddenNeurons":[0.7303632410358715,0.5271848633696474,0.5037952628250897,0.6534744776598512,0.512334373747426,0.534495255550332,0.5101013645510659,0.4479611794614302,0.488361896968878,0.5501872765075368,0.5241264418878757,0.6103370140841049,0.544546355934931,0.4616713081343741,0.509442569390358,0.49233217511472366,0.49719538988040696,0.329754316789886,0.4412470585465924,0.42010599820544053,0.39868783366159666,0.5111108860598667,0.7473270585490029,0.44172111096049577,0.49656336725976885,0.4969752749697079,0.2561851543683775,0.6630900605179756,0.16504457351069357,0.4163494395103487,0.5334626910058872,0.5286185736593673,0.37094177303271325,0.7882802228866704,0.20100337817386396,0.44148473650809034,0.5986302377179024,0.33338558358775267,0.49911677400412585,0.6897457222899122,0.442340294261235,0.4976737429971732,0.4033537832147888,0.6201353809353047,0.5165739251626272,0.49141014161861274,0.4534726262219543,0.45784351494016573,0.45897155658809435,0.4770224909191697,0.6495405598558464,0.6602520350139178,0.5763891596196208,0.6271638061083329,0.42006689840367883,0.4761848207929479,0.4345948733310891,0.20763106256677852,0.38895193139240086,0.3486365243821591,0.43936541140031005,0.4559137223788239,0.39739641229734324,0.584949475556467,0.39773828824303303,0.41055258705373676,0.49330863849829304,0.44103177924045733,0.46181780989009086,0.44144272721140276,0.5727623586715234,0.477190228411221,0.4668683909868388,0.5119691995938717,0.50571648672972,0.22098061012604572,0.5315921487684784,0.5321006495095344,0.4698159973972011,0.7545825276504531,0.5155079277466669,0.46205220941219083,0.4993375235345789,0.45260807185607294,0.6591325159882468,0.3284062089161816,0.5017334197279064,0.5684248716033233,0.4622220528293316,0.43859953236306554,0.5359958612889647,0.5420670470149478,0.42236531594989146,0.4119144281247312,0.4872370654881338,0.5065508302566771,0.547136930362443,0.47341395047183804,0.34868808330654066,0.22972108769574298,-1.0],"m_inputNeurons":[0.0,-1.0,0.0,0.0,0.0,0.0,0.0,0.0,0.0,-1.0],"m_numHidden":100,"m_numInputs":9,"m_numOutputs":3,"m_outputNeurons":[0.8415808959990885,0.07092862908782868,0.08722020964392545],"m_weightsHiddenOutput":[1.8379944406640691,-0.02028882617562286,1.2488165647955656,0.184442937066795,-0.3243663650851506,0.23293655796216226,0.19364820774967076,0.08986938454331272,-0.09632845654286615,0.6968569445301785,0.7705897573084439,-0.9755395967169221,-0.37394397145645764,-0.35848873806994047,-0.6138517161856157,-0.05262574793000714,0.17161032816890343,0.03250373668811009,0.379037076376281,-0.12533995046911334,0.2842882085486086,-0.39269832625863993,0.14367204870930148,-0.5340595566675405,-0.27863018284079616,-0.3961440566876124,0.011260258096247975,0.23762604555583147,0.3008755672664886,-0.24919879214882354,0.5654855107757931,-0.1963364307406371,0.05654117814419892,1.0593533692382546,-0.9677201277111595,-0.7380776798746833,0.09149861723791151,-0.41457962904087264,-0.1414407688767574,0.20785234499431382,-0.20121597291126106,-0.8147125612905944,0.030361468440341443,-0.34124483716262033,-0.04482389312735361,0.22273081442297513,0.06582016288892246,-0.2727581568821936,-0.3783716332289011,0.23185521140411433,-0.005441224816854856,-1.0248554726277637,0.2717499466870155,-0.13759177293469438,0.20729737768203488,-0.0666049849046041,-0.08395134085035934,-0.3072950811589678,-0.5415111069347986,0.4953617777978867,-0.44434326822373893,-0.7635588592094851,0.19436923541199697,-0.10840875880195537,-0.27512647907751686,0.38865150891567124,1.0523336036618844,-0.9787587279234302,0.8745580954275348,0.15500510986729713,-0.1603718922017057,-0.42439601118888,0.30365057116472954,-0.0736930350316188,0.13190087169482226,0.3097162766184088,-0.3410927012890833,0.11482261234896042,-0.8414414490151912,-1.1448096623810744,0.3609243820101861,0.5412610130345452,-0.6595323165134608,0.2562977517422148,-2.4739719958299724,-1.0339770930779435,0.4712610464465032,-0.22464332968024858,-0.6633779532073312,-0.5638241364264291,0.1798129728866897,-0.8143669484638849,-0.12912564372521132,-0.6709303599401145,0.15135981521625463,0.2033735224909418,-0.9178278612532581,0.5520088358502501,1.219341691364614,1.3978842886000118,0.6627719992650466,-0.8174652632099907,-1.8796526401472478,-0.6625606084971338,0.7732328494571813,0.1699194361569777,0.3870439789024265,0.17202594019258377,0.38101667325505434,0.15366651114059074,-0.7829027963473689,-0.9037501568354384,0.6938320639088699,-0.07965873314169512,-0.04767936677090965,-0.25098421254991565,0.20005799434907068,0.8139213872213534,-0.7929216528648936,0.3352124178412425,-0.31165354179665,0.07145070966630246,0.6297046576573332,-0.1572574523901971,0.33821824728620625,0.22358510620733488,-0.6494580197381589,0.3040316373570131,-0.12356095637876069,0.3682866212424443,0.6546511760470672,-0.3224188304486185,0.09814509220756655,0.02927468236971359,-0.7318757889428699,0.18027630287735857,-0.4906306782716088,-0.15504286573012546,0.025878590742510612,0.01960842062568021,0.3427152401433532,-0.31629290062410315,-0.05406999481298291,-0.8079965994882201,-0.408160587442668,-0.25556227958471617,0.052025763959561676,-0.28186218107145283,0.4778071351978864,-0.09814618204925636,0.31599673437908155,-0.5904584449041398,0.4318952399613333,0.5469066781517139,0.641806340220445,-0.7059148872715912,0.20511208512966436,-0.6519874384663654,0.21769426757418228,0.5268119593182435,0.22850465656392702,-0.6215314941273232,-0.3035233181504037,-0.06193075895489673,0.6666126138269975,0.15977388973521597,-0.03440077903569099,-0.6054244868679387,-0.2838549653313134,-0.47972909333691094,-0.09264596992117229,-1.397479198065975,-1.1619088712041865,-0.019358782403450674,-0.41010310993750754,0.6633636876290001,-0.20497156077221362,-0.5767421918845353,0.9749722032825247,-0.24335311093306022,-0.16199635573863216,-0.10426236697998638,0.19539694424918364,-0.5042924972049937,0.15328317762807386,-0.20969004965222246,-0.5158147504297748,-0.625848727024551,0.15584539885586982,0.4007192242366814,0.28014625004065336,-0.30881400546075166,0.1419666781363715,-0.30752152597573157,-0.8918768816155624,-0.7791327330341645,-0.21030843486611428,0.3436544036089614,0.10786760982182107,-0.541748652131696,-0.16389651038904907,-0.41987752195801453,-0.26487747408855045,0.2784826880900811,0.5627082337103191,-0.5410522638528501,-0.7220993399727563,-0.06451395576179447,0.6693579164276048,-0.5328131594859868,0.5729285049348929,0.21597105350023071,-0.46249018835448935,-0.2727050855863113,0.12797493424991888,0.05204693580408393,0.28409417427993633,-0.14678031284933873,-0.3554404732645511,-0.6176191567092151,-0.06936885430740113,0.4790544904191324,0.04538285067638325,-0.03011767940830496,0.3593158889419028,-1.3942263125191923,0.8830010033233345,-1.3060217296521692,0.204245007584638,-0.4770403102055431,0.061142272792306954,-0.7315318239758879,0.535598213040555,0.27991484511027737,0.6138471476188428,0.09543491356692485,0.3794600492683176,0.991095837280907,-0.5489087225172412,0.4933420034274433,-0.08114684457451288,0.3520154709815117,-0.1980567736383797,0.3833195050344119,0.13297202717445286,0.43664857778761557,-0.4543505229784957,0.1099568558169643,-0.364205685769089,0.25519511672198325,-0.11248580155037696,-0.09936364968389644,0.6048286365192042,0.3194854087566587,-1.0357992940635672,-1.1251715688100836,0.9378892139329295,1.4193360301941782,-0.6869334997131801,-0.01837968245526179,0.4232342685073519,0.09692013172505537,-0.4458961346235161,0.04662735763384153,0.9567233725205717,-0.39745787284130724,-0.1963302972616842,-0.2933387115534218,0.4084017065876464,-0.44726777883551444,-0.4780365063401586,0.03321669708154312,-0.10409171660937443,-0.9640817108082924,0.31806546388219803,0.22976402219992748,0.16270098053599796,-0.6213556312650758,-0.34199257728171445,-0.7702760618874976,0.37330455757664993,-0.05172292249535812,-0.13301604852212742,-0.45591429100845404,0.5929598517448901,-0.08337199310279914,0.33714901591397667,0.0839396792375453,0.02112046643825085,0.9249766104762503,0.02763073030981778,0.2121268625861395,-0.20703075664054674,0.4263452378223208,-0.3917527103280968,0.6407128247921251,-0.5673865463565684,-1.2175158457649147,0.6854818586114512,-1.2137876915514902,0.30965591715549556,0.18417690338627352,0.10955842138185123],"m_weightsInputHidden":[-1.7154351215441597,-0.3139947513284501,0.031595778802292404,0.3832675613723895,-0.3837856905775052,0.17720372572973725,-0.05442934144176158,0.14199859911041918,-0.302675131548936,0.10272927833037071,-0.19320893229555153,-0.6939018714026673,-0.4248157644286555,-0.5587002635343361,-0.33257598520002524,-0.09274333119112917,0.3055464974514228,0.7725045390131129,-0.20797042190611342,-0.4119002074950318,-0.6302457956432543,-0.18973432011505303,-1.554788107587378,-0.3331404793738062,-0.08034529393591029,-0.2770613139782099,-0.7666444551116556,-0.9306402918091262,-1.0014823634184098,-0.6396387465247064,-0.7594629536467585,0.31926890037113353,1.1498156774649135,0.07123936322254872,-0.560089273696888,0.301948339672458,0.015644681978418895,0.9994374598062936,-0.2533100476597514,-1.1897409983268408,0.10689358503083204,0.305456610990337,0.372701655152084,0.3327667621274797,-0.08257244389203922,-0.5075972243639836,-0.008796227084823765,-0.18287721619590624,-0.0559061804773248,0.31487728261556613,-0.7635724224442009,0.4176797211873138,-0.6192765110429668,-0.17100467714215434,-0.04682289631469601,-0.2925274154053247,-0.3736470668813999,-0.84832259163749,0.719185181192164,1.1044876470540277,-0.026127121876864286,0.19694385813558013,-0.4712274272503571,0.1156394636805706,-0.6689660082243337,0.0881562274806197,-0.5281934045836846,-0.10816447557358023,-0.7701865415620599,0.6185450882279372,-0.13021913459006756,0.10899966726917838,-0.36645144066973173,0.2806292101137484,-0.009404664945519848,1.7935936131142287,-0.4049947888742409,0.5774288137238487,0.20313889312999223,-1.3291778835530061,0.27453528844788827,0.23549283870187404,0.050985222363639206,-0.25802375517134823,-0.007609747519729058,1.3811317858773977,0.18620639161924696,-0.4155625517664012,-0.11603765324812682,0.3996271266447919,0.1443057917246097,0.17748605816211513,-0.6246035751377161,0.3785854455520867,-0.3739878436229892,0.3194689661442962,0.645063569665706,-0.09254763084245646,0.8294377171426308,1.6465102292587934,-1.5838513186598142,0.053575656511763596,0.0016915115016143524,-0.3291726347621225,-0.02162641982819663,-0.1929994574545671,0.012065996501776428,0.10811539001266687,0.07394082975355308,-0.06387678563319008,-0.10308976227254261,-0.23313112964160562,-0.13561539876340223,0.13296357649563859,0.046569076167288316,0.07010302411980564,-0.022710274887824674,0.30426940292663734,0.1041857914439033,0.16052983182693276,0.19188904746045035,-0.09770698637018259,-0.58778843944374,0.16048909841038075,-0.029696786996096847,0.01788012738774372,0.5598609980459134,-0.3181168181945719,0.781658809577773,0.05670292179342677,0.06914092958087664,-0.07046063163206213,0.19256662280255887,-0.7321672445747557,0.7205406859851833,0.1270074663942988,-0.053824807754371734,0.26421970573940184,-0.07555222656413778,-0.19829261392871175,0.12953671863931096,-0.03190330426796483,0.1406278935477809,-0.22435074999000293,-0.05974246621376317,-0.010038013977858569,-0.06541183826661467,0.14732427291734781,0.01807102920765124,0.05581965403862136,-0.2512117590461081,-0.41262374898516074,-0.21445492118858933,-0.31875156331157917,0.17466141680792888,0.060130963129761995,0.12427954917559608,0.6500139227243745,0.23138729007289888,0.28480200402326533,0.06834427236493386,0.15584043236254674,0.18809841007908695,-0.20386468256764367,0.11538750638067842,0.17452985275431823,0.020788918950715347,0.1619623386294531,0.042951594462160694,0.19761815614701148,-0.21005127062778112,-0.06709424272953499,0.04250878118976906,0.014753540580355462,-0.05726926154435462,0.6037371983274008,-0.06896399636545594,-0.1269176134756644,0.0865697418292334,-0.5446011397555939,0.10716054878200511,0.1268267178246458,-0.04177612825775312,0.0461129092366464,-0.2951663033886493,0.3454817001271437,-0.13007494301316727,-0.21561759778039447,0.003972565255165151,0.07331055457381892,-0.05243498967994158,-0.11343856274745387,0.20400784542979084,0.2637572803034238,0.08170590808794641,-0.0056104754675774735,-0.049605924356543075,0.01994693819655629,0.36130124267317953,0.5748518676046761,0.9515687467092417,0.021852546499265244,-0.2659974998451348,-1.412617219021258,-0.4959706671869186,-0.054818076129263316,0.12218512376711645,-0.4616123933871554,0.09763067711173118,-0.38237921875111774,0.005702932729741806,-0.3716075800252573,-0.1435155032772574,-0.6661712140411749,-0.07528087698958731,-0.2662191670803228,0.03119022307077176,-0.017122192275845462,-0.11589969187745668,0.671192175815766,0.45968607853492593,0.36644492998784783,0.6332981973578468,-0.2867704831682081,0.02193639700348405,0.058341660967397395,1.107163745571545,0.1497072619485547,2.450352553554105,-0.35522900742003227,-0.11197610484867497,0.2350789288271098,0.6087104640277942,-1.8357280988064504,2.0583851851932913,0.08054844179270064,-0.8849277842641275,-0.16745455925857652,0.15462044631231472,0.21475248029067207,0.5645769069793797,0.19778064330266654,-0.06386479691049758,-0.6337191574820116,-0.6712074743773337,-0.07638868078684281,0.18359046477682642,-0.6149786354713112,0.11815658511744635,-0.10526371893543386,0.34775230074895597,-1.0898549167119924,0.1617300611870459,-0.8451470514229369,0.7202976641370764,-0.4841372128438416,-0.0489384244156772,1.446909134734772,-0.16068861335120121,-0.2693430830155285,0.17930070788796018,-0.07521637692500532,0.3917406269072556,-0.5475197416844154,-0.6024532178791356,0.5506090838063415,-0.10108750210438765,0.46950859215445956,-0.38191066333350865,-0.5674012315644984,-0.564307671108779,0.06969562005098782,-0.247114274948255,0.39392923026823107,0.2929304116149048,-1.1168986540614776,0.02286606995646574,0.13995363831582708,0.1958975034206596,0.3728242686398845,-0.20902357303821972,0.16261656281095924,-0.20028752578374667,-0.13536324615058312,-1.2213975474236334,0.5481818381801981,0.3718602475530803,0.09933953362420721,-0.17495028163672718,-0.41563503562070075,0.01879918499155499,0.16861385926396555,-0.21678117846493997,-0.11990365821410956,0.6623859483890602,0.017175167962411565,-0.15652022496436666,0.2795450020882033,-0.4942858429943549,-0.9776853613193363,-1.0424505114592715,-0.006158779822493795,0.27559851256993784,0.38145439846315266,-0.3952883901518864,0.02920807934413957,0.29998483286826955,-0.24039458137597577,-0.22797144496568642,0.22724746189769657,0.48264759194773577,1.2986480962927591,-0.1181616233553216,0.20903014810619616,-0.05341177934625219,0.25262785863668885,-0.16855344295845034,-0.11248456333905107,0.23728811836115207,-0.24754725932263383,-0.4283159389946994,-0.04030085970410598,-0.8129801879356047,0.17621833684100963,0.2677976243634287,0.17307305663133238,-0.4861248889091672,-0.2637410966229068,-1.0426743274500998,-0.35446117784841263,-0.4716455150931524,-0.34331711593465664,-0.4844648901929066,0.90214459242328,-0.8526011561630109,0.3412040972840581,0.1509313960130755,0.45348808218122233,-0.10826761850933153,-0.5785406703598652,-0.04460956942424379,0.15890439664744935,-0.1597584659948616,0.39493745805750446,-0.01330257334494263,0.12032390266452508,0.09348838502414157,-0.28099590778783545,-0.2951527801075456,0.18296418407803805,-0.2562099739172787,0.29655369345418736,-0.3060554459488105,0.45207109614203456,0.032187711652339836,0.1301863753510843,-0.36238250094621804,-0.7676724940898019,0.4357535461651342,0.5018433323268423,-0.0750580118883715,-0.07795296083443085,-0.27226740742713784,0.39192283698992075,0.11447538387297293,-0.4590075944846189,-0.047140986433635776,-0.20639521588136098,0.4523879847104308,0.454552939122317,0.44825702246637905,-0.06203969682609842,0.30409180883606296,-0.33859622690447694,0.17813437495301343,0.7047197161363943,0.004509386423898516,-0.3139891982030482,0.6284206228657877,-0.2801629293996307,0.10081449588963108,0.348522193254305,-0.2062081138659883,0.19689604663449187,0.34628529089885385,-0.8730232673140759,-0.4106036175589917,-0.08277488452665231,1.139378307417602,0.08101832725434331,-0.4016724496683066,-0.7973237783359761,0.039645914307862413,-0.32170008916318077,-0.07672838455242949,0.05385194582920798,0.5487566405329489,0.17118355666876348,0.4474108072388986,0.568783579089021,-1.8991416122581182,-0.21712744308008292,-0.12988199956329094,0.5955681313132788,-0.060592059868668745,-0.06697930256770289,0.06368018518846287,0.14763507900354772,-0.04527027044700682,0.13298539626891642,0.14093916465652645,0.6625447455654435,0.06428325176474053,0.433924089840321,-0.02817724938505947,0.24643605552608183,-0.005691872341453832,0.07666658073844161,0.10326803794842415,-0.2315860344918907,-0.16804808731158594,-0.08586969288774773,-0.10016947418995828,0.32261139430519065,0.03558730170637208,0.05576455278113141,-0.4335994482101103,-0.007994656061806483,-0.6073588197640409,0.34418036863594503,0.12139926142817764,-0.18077657981653011,-0.7075203969343673,0.5617125390015509,-0.5835244616895973,-0.03967251508605139,0.3029112817033084,-0.10531844301474354,-0.141457300590491,0.07408386237716295,-0.18997425787113234,0.058982855757457035,-0.05293443863028871,0.20377145475223715,0.28700831861983206,0.16213887871967522,-0.06538211384087463,0.3035561036223135,-0.13046606439209277,0.06918387118351278,-0.04526557715354577,0.4614961867416065,-0.09893399806996254,0.30766185882088676,-0.0718200378426304,0.38764425696093247,-0.15656047807192758,-0.49778220112915456,-0.0004916792234530105,0.022019831324777986,-0.16283892190059412,0.05375896922653046,-0.19974526956628735,0.2078487503218797,0.4703727020278932,-0.15402060606427906,0.09732454421492351,0.03919444888963717,0.6630526288897756,0.22429788917705523,0.27557243199867887,0.13443450576582452,0.2945777539506092,-0.30801754789579866,-0.05122935329916611,0.2348203599635934,0.11773883422431126,-0.4351458867514572,0.023896346735411148,0.009543242283077017,0.10764900437919049,-0.15738983984865945,0.10791138036080676,0.13276787474237758,0.32140096555301456,-0.8183344926633265,-0.2666818685671414,0.1425202921692089,0.2612220377049535,0.08835909911901427,0.13188415793378605,-0.3320069276557029,0.1386758716661029,-0.18585804702081282,-0.24082549416388124,0.1205341552503557,0.06643062537733847,-0.16848542893535823,-0.006043661809787539,0.192911459646046,1.5957113676674832,0.25479608197260295,0.07784481852441914,-0.527804771936541,-0.3192228727566556,0.1687152064811308,0.47517793489830124,-0.3010146277933063,0.017722625004838177,0.17020103556521307,0.5066720784162129,1.0697380265166074,0.038963469105794984,0.15289969419694174,-0.010237796431610716,0.07890849594723244,-0.03723044477871101,-0.5549116071670533,0.11253769114551225,0.21347030250920046,-0.13752840386571488,0.05586100416791202,0.4586341179696557,-0.13514804100557135,0.3665559124186503,0.21865249179043178,-0.2516604620287371,0.3160813117864802,0.13043423126905462,-0.3026844672665643,0.0007051248026303965,-0.4389720270923288,-0.827108009591768,0.05512835056356074,0.1621517683585096,0.16137829248377542,-0.03252348048680712,-0.3773116835898816,0.16508183694922268,0.4221147856112769,0.16685448655497137,0.22072637893745745,-0.22618955547124614,0.22347423791885218,-0.08951242409817231,-0.039559513471949456,0.25364294532991766,-0.31767925861084223,-0.12425813104920481,0.07402128872057136,0.15799153264398666,-0.369965954379606,0.13043317668364682,0.013819849573840866,0.13839918633635578,-0.08077813285464244,-0.20061762511977252,-0.20516703277301165,-0.1478345314992805,-0.1213654942719211,0.09345131201682401,-0.324037858753329,-0.16963749324087934,-0.0959224100710956,-0.07761613345739062,-0.24947887749816802,0.012704318133616829,-0.159634664325104,0.5062475946156167,-0.19321656931361036,0.33243740371472835,0.024523183550703705,0.12196636318602712,-0.23907859102522916,0.2201831689456539,-0.6515780880458093,0.0635463414292388,-0.2445730452483082,0.5385676312107447,0.5045018188708333,-0.014229362989200254,0.4646011695013144,-0.248507231598077,0.17420138853378764,-0.5855877967785257,-1.1299169424498168,-0.2590420815103712,-0.08253591836596731,0.7073405252360221,-0.20511457595599278,-0.13192392124422553,-0.6865736841136386,-0.13735054363790994,-0.37025512694360424,0.19834771134988866,0.04656391359264494,0.450653062422134,0.37068820705826006,-0.2327436876676777,-0.6036835617645642,-1.53843058426704,0.15013127173415963,0.05158729954917534,-0.1808543651976593,0.08601873789842868,0.001600959298225189,0.30002358392290535,-0.09336128406115045,0.09682134663430869,-0.05802518875391592,0.2765316642936566,0.5644793120978626,0.16553639437099202,0.11986302526359553,0.08514203698128361,-0.03150621353256228,-0.10232549005657683,0.10745845799708657,-0.00020668862781580475,0.06535626434963396,0.08001261158066822,0.23685369926120656,0.34312369839086654,0.10276581679753256,0.08031542367527866,0.14857949123377362,0.4471322848886302,0.05882710837236675,0.7145900069102282,0.059835050832145076,0.21994182882669538,-0.11795072931209763,-0.51704516403511,-0.26364101409862967,0.5908938933411347,0.11276586631307006,-0.32340309477684287,-0.4122710139583477,-0.022114133999435612,0.20069204768499346,0.18676547825984657,-0.09967778155742854,-0.18409781790410013,-0.3563669177108739,-0.326712566335491,0.14153073691399262,0.15257993128539954,-0.22236334621586534,0.20336556193522168,-0.1246664665027418,-0.02289174878339972,-0.16701690378776946,0.05629398201694059,0.06159152778246544,0.23123031368515584,0.027700647786712104,-0.009107840323701584,0.4367855989439699,-0.07387911660620118,-0.24553291737535055,0.05967848665945769,0.021618577739018572,0.19449719074990393,-0.029745937516408822,0.08431531223016674,-0.0030457592353078785,-0.005963458551538099,0.24261051744419454,0.24414117160008064,-0.2050007547245656,0.021233149609272247,0.07417163892490171,0.07718390465657947,7.9573754228393e-05,0.10144719235738538,-0.1284749209503085,0.3730675206288731,-0.1301616646863172,0.11682113619019303,-0.0069724087519376626,-0.1393524780328232,0.08960637408230171,-0.10238306557920536,0.06587373453550108,-0.05387191234188647,-0.5998672644811379,-0.14735149698481745,0.2125567258046323,0.40350649783945136,0.00723448916729555,-0.006306740784091392,-0.17373440723459288,0.07691250034333473,-0.1531649584212454,0.02911697227942125,0.06600293700223207,-0.23355598291648327,0.051812677361053106,-0.0010995367711565645,0.05660248177159771,1.0887915278713178,0.1773883542607709,0.1829117251730632,-0.0338426157421025,-0.15841999668071635,0.015409655008664336,0.14874096464880004,-0.13688818119269194,-0.18991649800163984,0.12395886823274108,0.24421562173711114,0.8633648345566035,0.17554635357258944,0.34580875001142997,0.10066671370552863,0.13062061555847404,-0.10752497787620809,-0.5601665901211376,0.09618388050395245,0.1610834410573879,0.006179382404900908,0.12171557465195147,0.8228410086398001,0.1900236512484017,0.2639395652184948,0.28411496311801704,0.15936087490229173,0.345531871921136,0.3659610439038778,0.012755285700983762,0.22814798836624908,-0.23914491517313585,-0.9189802855622036,-0.14619533331834164,0.22601514290596147,0.07088414176289386,-0.052781615185325516,-0.6357151465949259,0.054358391156287954,0.7094282837888805,9.556988672638856e-05,-0.14018848885474963,-0.3463424898905199,-0.08167032294658005,-0.17013586860449764,0.24426249299588054,-0.019197390697837696,-0.18978000703827042,-0.0669984758594242,-0.37884518141952195,0.2736955869970525,-0.006931164901353303,0.3450871890023785,0.1725200596886056,0.00943646905435577,0.20770791532234975,0.07421961515843661,0.04651680914858978,-0.3111197713573019,-0.340126731573766,0.12185832667660713,-0.2694566627135062,-0.06909733991830218,0.24554011935909992,0.46753246809013277,-0.32439991949410346,0.11859755661312651,0.08066333609054323,0.7091667376940733,-0.09036347972703306,0.3272612712170603,-0.23222332986759683,0.3104387490159271,-0.31418794371317776,0.0793425913124969,-0.9864429015007163,0.1658804250090618,-0.5319077214069979,0.2386451524895214,0.5391153273184186,0.029153969656709973,0.3016411726891767,-0.17545592350931397,0.16938588074040858,-0.0376387172962225,-1.1358724205483415,-0.4801648801812488,0.187105760882581,0.5367561861272017,-0.18564257279593843,-0.12053809693062616,-0.5020853620636831,0.40298812958350405,-0.5455791037643256,0.15623395357315156,0.059914252072410884,-0.24597865760047224,0.1260343865300124,-0.27762474788137953,-0.8644272667721757,0.93214157244128,-0.15297515508179402,-0.054599751395957324,-0.2027292610244564,-0.19832992707777647,0.03624452363494677,-0.1611230337988806,0.154892325994938,-0.102742633694512,0.1920547374132847,0.16775294300279975,0.14348899528667344,-0.08098768866752563,0.06784814484662988,-0.06390969441018639,-0.025970742292984482,0.10594804703713476,0.07580285475851653,0.02586197932926116,-0.07420506268219769,0.045296647458398155,-0.08231105410299422,0.0675130157836962,0.09343258790443573,0.0817219595537927,-0.08720324540362044,-0.1188654192250023,-0.047113713522289234,0.817583919735093,-0.04416391127919247,0.015508932531600449,-0.005799047313045391,-0.29387528058067225,-0.23445870074212824,0.4507491493382131,0.09624060083437898,-0.010743571799568726,0.13720710552146,-0.10372092109853828,0.0032803210808658137,0.19498831305805567,0.08791166067656396,0.09636010783363637,0.149744522277381,-0.1218971566406409,-0.2008161687746273,0.10072923128359991,-0.0018071054647465206,-0.08879309609413123,0.26604891788922497,0.007314446532669387,0.027134047379100155,-0.18513902272336044,0.14748279501994713,0.03260301612592921,0.14580073680679984,-0.10228217635366782,0.44854486168289226,0.1053655185029323,0.12207976823435804,-0.0319697136969405,0.03661645579980361,-0.11589542866478168,-0.09077132128740248,0.18007175792465738,-0.07489194033478953,-0.2535741855907184,0.11255296711797204,-0.03592457729352979,-0.023903780513110064,0.06758604155374195,0.07058884597062515,0.12106796466077119,-0.14124425365627852,-0.08296832094722469,-0.01976209892948079,-0.14057510056889835,0.13817601102422977,0.1716842901746647,0.06492286054555582,0.17771764115523342,0.01620024619035956,0.036094498012974444,0.08745129893930065,-0.2399011007394321,-0.05581406122040127,0.01446109573889824,-0.01479144039094741,0.010536543711614587,0.2790688016379517,0.10558686285607541,-0.0987699591260932,-0.1673782460568528,0.18952325645561044,0.04966340720718734,0.2065833219626296,0.1523635021254744,0.04835976601857528,0.08985329756511726,-0.011447407469374104,0.587385033864315,-0.16242244747626594,-0.016872854369606293,-0.305174369231413,-0.02772108688053776,0.05479889227824664,-0.0524769532187679,0.10079640518170388,-0.02738000781239949,-0.137550611251559,0.006508990473415234,-0.21559793020535326,-0.043043732672638675,0.020652564910944658,-0.08434384492702104,-0.03942931979192411,0.03392883302499724,0.40502705099120023,0.13191667677423427,0.1618084433696872,0.21904642487014372,0.05325612444908273,-0.4966185483479567,0.07369082800368955,0.043443534433347045,-0.005781079673506162,0.5060307001120777,-0.35897834790771205,0.8395039524905894,0.28107462014022266,-0.2031920718702543,-0.044138918710597795,0.33561209602203484,-0.5824228006216222,0.6594943170168341,0.10813103363013506,-0.34593619756386645,0.42869235788826304,0.0790851342222768,-0.6006381853874238,0.10213272898574663,0.04120839941867093,0.2508823916644284,-0.26577213693658686,-0.006577531920216135,0.044400828413766295,0.2520613272930709,0.021702949378677446,0.14641258395675033,0.0361551648813574,-0.36580854313934713,-0.251793821100215,-0.0935129312383578,-0.2013170322437025,0.14783735749790103,0.035201889689621686,0.1388486919139072,0.689250423611015,0.22033257173200665,0.340235914584152,0.17539362465687208,0.02096381418310437,0.2282268681657062,-0.1392605358968978,0.2995103598314263,0.1871516314770076,0.005978125100653954,0.07501334812752881,0.11007508928215239,0.03769071618348518,-0.08307923276124723,0.15839670208989448,0.09021213378608663,-0.0626394873193656,0.03440231825605537,0.6562237772751051,-0.057573167913545664,-0.0016618390453401165,0.03431325603760015,-0.5786027838438026,-0.1692121624140577,0.025256902028448703,0.04442603567007579,0.1440255739967373,-0.3642645055566363,0.3699206961066865,0.12314123632276835,-0.05980994949452467,0.1474277626620046,0.17353717255757356,-0.09179797806291017,-0.05522835148555302,0.10906317174955436,0.09229955835602048,-0.030643077776920276,-0.020594345010892554,-0.13950337121032183,0.08649765160071145,0.26350964102508134,0.6350348945666138,0.12640631432016733,0.0,0.0,0.0,0.0,0.0,0.0,0.0,0.0,0.0]}