{
  "input": 99,
  "network_layers": [
    50,
    10,
    3
  ],
  "observer": {
    "cellInterpreter": {
      "type": "Basic3CellInterpreter"
    },
    "height": 7,
    "type": "GridObserver",
    "width": 7
  },
  "type": "GeneticBot",
  "weights": [
    0.09616389870643616,
    0.7740198373794556,
    0.9712818264961243,
    0.010476925410330296,
    -0.6366038918495178,
    -0.4568529427051544,
    0.4590836763381958,
    -0.370400071144104,
    -0.6264777779579163,
    0.0647084042429924,
    -0.18537241220474243,
    0.9271492958068848,
    0.28632470965385437,
    0.9742698669433594,
    -0.46942657232284546,
    -0.08109696209430695,
    -0.10023196786642075,
    0.9613150358200073,
    0.006598244421184063,
    -0.7168585062026978,
    -0.886391818523407,
    0.33002710342407227,
    0.9619616866111755,
    -0.9325541257858276,
    -0.45596185326576233,
    -0.8556168079376221,
    0.5437391996383667,
    -0.713736355304718,
    0.797946035861969,
    -0.660951554775238,
    -0.7768977284431458,
    0.9757103323936462,
    -0.31916868686676025,
    -0.03730577602982521,
    0.14934848248958588,
    -0.6503738164901733,
    -0.9578447937965393,
    0.7286692261695862,
    0.6075105667114258,
    0.002261415822431445,
    0.34274113178253174,
    -0.8652119636535645,
    -0.13265174627304077,
    0.02098754420876503,
    -0.3624163568019867,
    -0.07202979177236557,
    -0.111200250685215,
    -0.29165321588516235,
    -0.8842738270759583,
    -0.8939298391342163,
    0.8405712842941284,
    0.17790459096431732,
    -0.15729855000972748,
    0.5799798965454102,
    0.7240057587623596,
    0.9270089268684387,
    -0.3414747714996338,
    0.4754689633846283,
    -0.3342265486717224,
    -0.42571792006492615,
    -0.5321024060249329,
    0.7797815203666687,
    -0.825330376625061,
    0.10899995267391205,
    -0.11100190132856369,
    0.34983065724372864,
    0.8860164284706116,
    -0.4054048955440521,
    -0.6626789569854736,
    0.49569395184516907,
    -0.14842063188552856,
    0.8668659925460815,
    -0.2724907100200653,
    -0.8805384039878845,
    0.23994873464107513,
    0.21277496218681335,
    0.6455093026161194,
    0.7063599228858948,
    0.5552355051040649,
    0.672780454158783,
    -0.3184850811958313,
    0.8834741711616516,
    -0.41404157876968384,
    -0.18999914824962616,
    -0.570543646812439,
    -0.5464523434638977,
    0.02353895828127861,
    0.5654712915420532,
    0.44030892848968506,
    0.6551867127418518,
    -0.6094914674758911,
    0.13316738605499268,
    0.731440007686615,
    0.6532822251319885,
    -0.953315794467926,
    0.2871120870113373,
    -0.11861325055360794,
    0.2756401002407074,
    0.7322642803192139,
    0.4436627924442291,
    1.0,
    0.40352165699005127,
    0.2534317970275879,
    0.38173767924308777,
    0.6533982753753662,
    -0.8106844425201416,
    -0.5497236847877502,
    -0.12457043677568436,
    0.9357921481132507,
    0.33209338784217834,
    -0.9749534726142883,
    0.6646748185157776,
    0.8234229683876038,
    0.6247169375419617,
    -0.6469101905822754,
    -0.04680318385362625,
    -0.1410108357667923,
    -1.0,
    -0.47749564051628113,
    -0.8247504830360413,
    0.42192164063453674,
    0.5758752226829529,
    -0.4909574091434479,
    0.34129759669303894,
    -0.47615885734558105,
    0.585049033164978,
    0.33311551809310913,
    -0.5259771347045898,
    0.7848657965660095,
    0.35900136828422546,
    0.47494128346443176,
    -0.17566758394241333,
    0.14115113019943237,
    -0.8478866219520569,
    0.763945460319519,
    0.29362770915031433,
    0.6871517300605774,
    -0.29605695605278015,
    -0.956447184085846,
    -0.8146548867225647,
    0.22518086433410645,
    -0.6037415862083435,
    0.6178929805755615,
    -0.138264000415802,
    -0.9264869689941406,
    0.4439038336277008,
    -0.808008074760437,
    -0.029618244618177414,
    -0.9506759643554688,
    -0.7112246751785278,
    0.16569077968597412,
    0.763695240020752,
    0.3749566376209259,
    0.9306710958480835,
    -0.9523239731788635,
    0.5265297293663025,
    0.9940244555473328,
    0.19064605236053467,
    -0.7749443650245667,
    -0.48566535115242004,
    -0.6274911165237427,
    -0.4841945767402649,
    0.9835474491119385,
    -0.8205055594444275,
    -0.34489884972572327,
    0.15836964547634125,
    0.20016157627105713,
    0.8846461772918701,
    -0.2455824613571167,
    -0.7917233109474182,
    -0.6967558264732361,
    -0.232993483543396,
    0.2870480418205261,
    0.2505938708782196,
    0.7441298961639404,
    -0.06408581137657166,
    -0.8084840774536133,
    -0.7988005876541138,
    0.036469634622335434,
    0.1518174260854721,
    -0.10230715572834015,
    0.22104252874851227,
    0.692489504814148,
    0.44985195994377136,
    -0.23376265168190002,
    -0.2775198519229889,
    -0.307116836309433,
    -0.9668355584144592,
    0.525083065032959,
    -0.04638812690973282,
    0.09154938161373138,
    0.674397885799408,
    -0.5682056546211243,
    -0.6806297898292542,
    0.7453626394271851,
    -0.9985686540603638,
    0.6014710664749146,
    1.0,
    0.9856227040290833,
    0.10745266824960709,
    -0.9139348864555359,
    0.0111422473564744,
    -0.3947324752807617,
    0.5276376008987427,
    0.7822169661521912,
    -0.24751107394695282,
    -0.20683619379997253,
    0.15431685745716095,
    -0.3311960995197296,
    -0.2809930741786957,
    -0.272860050201416,
    -0.24472808837890625,
    -0.3081912696361542,
    -0.02792147733271122,
    -0.8848598003387451,
    0.05346224084496498,
    -0.3121464252471924,
    -0.13867279887199402,
    -0.8467634916305542,
    0.5368542075157166,
    0.5615711212158203,
    0.5653280019760132,
    0.12448494881391525,
    0.0858241617679596,
    -0.7275673151016235,
    -0.9027832746505737,
    -0.7112094759941101,
    0.8134372234344482,
    -0.8878384232521057,
    -0.8285348415374756,
    0.07594530284404755,
    0.18376712501049042,
    -0.6633473038673401,
    0.7760001420974731,
    0.5748708844184875,
    1.0,
    0.8079624176025391,
    -0.6321694850921631,
    -0.159926176071167,
    0.310855507850647,
    -0.33292320370674133,
    0.4945952296257019,
    0.7906551361083984,
    0.41353484988212585,
    0.133350670337677,
    -0.03480019047856331,
    -0.9459090828895569,
    -0.2302800565958023,
    -0.3323466181755066,
    0.13261817395687103,
    0.05523834750056267,
    -0.5448834896087646,
    -0.4408705532550812,
    -0.16016419231891632,
    0.7221198081970215,
    0.9273874759674072,
    -0.4824641942977905,
    0.2594897449016571,
    0.8876643776893616,
    0.3839993178844452,
    0.919083297252655,
    -0.9983885884284973,
    -0.2432354986667633,
    0.4522570073604584,
    0.21709340810775757,
    0.2566697597503662,
    -0.9362071752548218,
    -0.427118718624115,
    -0.693700909614563,
    -0.8175267577171326,
    -0.6899533271789551,
    0.5642628073692322,
    -0.37317413091659546,
    -0.8029389381408691,
    0.11735566705465317,
    0.5352365970611572,
    -0.36004841327667236,
    -0.4794427752494812,
    0.681286096572876,
    -0.15056006610393524,
    0.1849849373102188,
    -1.0,
    0.7165014147758484,
    0.2626882493495941,
    -0.18773764371871948,
    -0.04564643278717995,
    -0.34524956345558167,
    -0.12859584391117096,
    -0.565092921257019,
    0.6519545912742615,
    0.6706230044364929,
    -0.04516129940748215,
    0.18911397457122803,
    0.7183325290679932,
    -0.2244238555431366,
    0.44878071546554565,
    0.41195711493492126,
    -0.19067637622356415,
    -0.8184331655502319,
    0.40322577953338623,
    0.008233868516981602,
    -0.054399266839027405,
    -0.9564745426177979,
    0.8593952059745789,
    0.4048491418361664,
    0.13482795655727386,
    0.5459181070327759,
    0.7572007179260254,
    -0.19822987914085388,
    -0.7374704480171204,
    -0.7595568895339966,
    0.589745819568634,
    -0.7333382368087769,
    -0.22832417488098145,
    -0.6249642372131348,
    0.03555714711546898,
    0.7508286237716675,
    0.8729941248893738,
    0.27401337027549744,
    0.7483962178230286,
    -0.9841303825378418,
    0.5710378885269165,
    0.5747643709182739,
    -0.019904188811779022,
    -0.7271156907081604,
    -0.8975310921669006,
    -0.09291668236255646,
    0.7634482383728027,
    -0.49664270877838135,
    0.851753294467926,
    0.7977385520935059,
    -0.7902676463127136,
    -0.7082123756408691,
    -0.022159546613693237,
    -0.6391858458518982,
    0.9526627659797668,
    -0.30839860439300537,
    0.8013246655464172,
    -0.7897213697433472,
    -0.5133885145187378,
    0.1827937215566635,
    -0.011950965039432049,
    0.18857090175151825,
    0.6684101819992065,
    0.5380475521087646,
    -0.15938593447208405,
    -0.8016663193702698,
    -0.2037203162908554,
    -0.2405773252248764,
    0.7645068764686584,
    -0.7121737599372864,
    0.9319437742233276,
    0.9331430792808533,
    -0.9757377505302429,
    -0.008069015108048916,
    0.7381908893585205,
    -0.2809777855873108,
    -0.5823327302932739,
    0.22944116592407227,
    0.3429914116859436,
    -0.7910794019699097,
    0.22332540154457092,
    0.6049961447715759,
    -0.4234076142311096,
    -0.1520615965127945,
    -0.275661438703537,
    -0.9346415400505066,
    0.2148808240890503,
    -0.3103701174259186,
    -0.25088977813720703,
    -0.19208955764770508,
    -0.6394789218902588,
    -0.2749687135219574,
    0.06430862843990326,
    0.8355051875114441,
    -0.9305794835090637,
    0.40014955401420593,
    -0.18043462932109833,
    -0.762678861618042,
    0.13863959908485413,
    -0.32302308082580566,
    -0.21984928846359253,
    -0.31282684206962585,
    -0.041608937084674835,
    -0.7124941349029541,
    0.6058381795883179,
    -0.16944177448749542,
    1.0,
    0.8499801158905029,
    0.8569598197937012,
    0.8970213532447815,
    0.9048494100570679,
    0.8366680145263672,
    -0.0630541741847992,
    -0.759520411491394,
    -0.7582904100418091,
    0.7067812085151672,
    -1.0,
    -0.6834161877632141,
    0.2480575144290924,
    -0.469521164894104,
    0.18052615225315094,
    0.6913877725601196,
    0.40084224939346313,
    0.499838262796402,
    0.4286384582519531,
    -0.9623066186904907,
    -0.8728263974189758,
    0.6826595067977905,
    -0.2888607084751129,
    0.4328654110431671,
    -0.20351874828338623,
    -0.17601247131824493,
    0.7432447075843811,
    -0.003115885891020298,
    -0.944382905960083,
    0.9834863543510437,
    0.22256535291671753,
    -0.12740570306777954,
    -0.38395342230796814,
    -0.4521867036819458,
    -0.2916716933250427,
    -0.8234534859657288,
    -0.64808189868927,
    0.9015958309173584,
    -0.20083314180374146,
    -0.687008261680603,
    0.46369796991348267,
    0.08599509298801422,
    0.057222165167331696,
    0.9257454872131348,
    0.3285714387893677,
    0.6437910199165344,
    0.14677570760250092,
    0.8373486399650574,
    -0.0986752137541771,
    0.006274297833442688,
    -0.29716482758522034,
    0.26374098658561707,
    -0.3032655119895935,
    -0.2786920666694641,
    0.8972288370132446,
    -0.7777459025382996,
    0.1298592984676361,
    0.5460525155067444,
    0.27158427238464355,
    -0.21432532370090485,
    -0.8817712664604187,
    0.9037965536117554,
    -0.18856173753738403,
    1.0,
    -0.7535660862922668,
    -0.8979735374450684,
    -0.24053466320037842,
    0.654667854309082,
    0.5893064141273499,
    0.6545947790145874,
    -0.5471084713935852,
    1.0,
    -0.7626118063926697,
    0.11677590012550354,
    -0.46948152780532837,
    0.3084903955459595,
    0.7458876371383667,
    -0.92653888463974,
    0.5558335185050964,
    -0.08463694900274277,
    -0.1402570903301239,
    -0.6489638686180115,
    0.528769850730896,
    0.7873991131782532,
    0.12621553242206573,
    0.6745935678482056,
    0.13462020456790924,
    -0.6619160175323486,
    -0.17226500809192657,
    -0.09618216007947922,
    0.469866007566452,
    -0.8896633982658386,
    0.271452933549881,
    -0.8936094641685486,
    -0.4441450536251068,
    -0.7240546941757202,
    -0.41654708981513977,
    0.868373692035675,
    0.22359690070152283,
    -0.6319956183433533,
    0.6790673732757568,
    0.7450850605964661,
    -0.5387279391288757,
    -0.9714804291725159,
    -0.9079592227935791,
    -1.0,
    -0.2895902395248413,
    -0.6449234485626221,
    0.4011443257331848,
    0.3716451823711395,
    -0.36580997705459595,
    0.3640798032283783,
    0.07234419137239456,
    0.6409224271774292,
    0.37661367654800415,
    -0.9376964569091797,
    -0.659898579120636,
    0.49650558829307556,
    -0.5875149369239807,
    -0.20606109499931335,
    0.7521836757659912,
    0.9012421369552612,
    -0.6450299620628357,
    -1.0,
    -0.8465070128440857,
    -1.0,
    -0.4523698389530182,
    0.9425031542778015,
    0.04801170527935028,
    0.6779655814170837,
    -0.9296701550483704,
    0.3060517907142639,
    -0.38402971625328064,
    0.5198188424110413,
    0.6245949268341064,
    -0.29803749918937683,
    -0.3046051859855652,
    -0.6373639106750488,
    -0.6220099329948425,
    -0.8332254886627197,
    -0.9653767347335815,
    -0.4331490397453308,
    0.35204634070396423,
    -0.1480727642774582,
    0.50830078125,
    -0.900256335735321,
    -0.5685172080993652,
    0.6151770353317261,
    -0.4458235204219818,
    0.35811948776245117,
    -0.41763660311698914,
    0.7084993720054626,
    -0.5523636937141418,
    -0.001797508797608316,
    -0.966084897518158,
    -0.9880917072296143,
    0.6592516899108887,
    -0.7930538654327393,
    -0.3555315136909485,
    -0.10175778716802597,
    -0.6914031505584717,
    0.27410826086997986,
    -0.5270820260047913,
    0.35491809248924255,
    0.8187108635902405,
    -0.45341044664382935,
    -0.9109256267547607,
    0.1932615488767624,
    0.7670124769210815,
    -0.7464979290962219,
    -0.6736565232276917,
    -0.2217382937669754,
    -0.6567552089691162,
    0.11705335229635239,
    0.3908505439758301,
    4.2774012399604544e-05,
    0.5178685188293457,
    0.20238035917282104,
    0.42979511618614197,
    0.6427960991859436,
    0.2559466063976288,
    0.27852410078048706,
    -0.49285563826560974,
    -0.08576012402772903,
    0.5876003503799438,
    0.5574052929878235,
    0.01628156006336212,
    0.21126748621463776,
    0.189651221036911,
    0.7210272550582886,
    0.8048890829086304,
    0.4390240013599396,
    -0.29344135522842407,
    -0.7301857471466064,
    0.19236741960048676,
    -0.8935909867286682,
    -0.6786248087882996,
    0.6483016610145569,
    0.6849421858787537,
    -0.6462323665618896,
    -0.15380708873271942,
    0.6722649335861206,
    0.1723777800798416,
    -0.29862675070762634,
    0.7131474018096924,
    0.09516587108373642,
    1.0,
    -0.9561907052993774,
    -0.8702048063278198,
    0.06933493912220001,
    0.5198400616645813,
    -0.46271246671676636,
    -0.9254370331764221,
    -0.44849419593811035,
    -0.08709067851305008,
    0.9110721349716187,
    -0.4734732508659363,
    -0.3596392869949341,
    0.7857539057731628,
    0.3277994692325592,
    -0.49288615584373474,
    0.9663441181182861,
    0.826697587966919,
    1.0,
    -0.7317668199539185,
    0.3100588023662567,
    -0.7225226163864136,
    -0.2634297311306,
    0.2506667375564575,
    0.849617063999176,
    0.761134684085846,
    0.9312265515327454,
    0.32818686962127686,
    0.8740531802177429,
    -0.5450299978256226,
    0.016287770122289658,
    0.7395458817481995,
    0.48736539483070374,
    -0.8744896054267883,
    -0.03132425993680954,
    0.10453192889690399,
    0.5829736590385437,
    0.007904419675469398,
    -0.7541764974594116,
    0.3780968487262726,
    0.8852870464324951,
    0.04271669685840607,
    -0.8051149249076843,
    0.3698447048664093,
    0.7300759553909302,
    -0.027671130374073982,
    -0.4247809648513794,
    0.15262305736541748,
    0.6115450859069824,
    -0.03955202177166939,
    1.0,
    -0.7434552311897278,
    -0.535554051399231,
    0.5949339866638184,
    -0.9578477740287781,
    -0.9089968800544739,
    0.18362656235694885,
    0.23013406991958618,
    -0.8960143327713013,
    0.15414287149906158,
    0.022214459255337715,
    0.5629288554191589,
    -0.6507888436317444,
    -0.5503676533699036,
    0.11334578692913055,
    -0.6402570009231567,
    0.06234925240278244,
    -0.049922335892915726,
    0.1982024759054184,
    -0.47249382734298706,
    0.8707938194274902,
    -0.25270235538482666,
    -0.23444004356861115,
    0.025492114946246147,
    -0.6269202828407288,
    -0.7237343788146973,
    -1.0,
    1.0,
    0.2908474802970886,
    0.813052773475647,
    0.4853450357913971,
    0.839585542678833,
    0.3034515976905823,
    0.6441118121147156,
    -0.13151346147060394,
    -1.0,
    -0.6116122007369995,
    0.9270760416984558,
    0.044129740446805954,
    0.6214514374732971,
    -0.14286941289901733,
    0.8637288212776184,
    -0.29223594069480896,
    -0.5997620224952698,
    -1.0,
    -0.06981412321329117,
    0.9760339260101318,
    0.6566697955131531,
    -0.1352061629295349,
    -0.39519330859184265,
    -0.8534347414970398,
    -0.08830828219652176,
    0.08076722174882889,
    -0.8072052597999573,
    0.3789115846157074,
    0.9777153730392456,
    -0.6475691795349121,
    -0.7417981028556824,
    0.2708395719528198,
    0.3558945953845978,
    -0.5852991342544556,
    1.0,
    0.134702667593956,
    -0.1574602574110031,
    0.859117329120636,
    0.28387096524238586,
    0.855485737323761,
    0.995406985282898,
    -0.05924258753657341,
    0.5826349854469299,
    0.46396687626838684,
    -0.40180060267448425,
    -0.8294503688812256,
    0.5190038084983826,
    0.20106808841228485,
    0.36195874214172363,
    -0.34661388397216797,
    0.4012936055660248,
    -0.12259305268526077,
    0.9005005359649658,
    -0.272240549325943,
    0.8672353029251099,
    -0.7130528092384338,
    -0.1450635939836502,
    -0.19080479443073273,
    0.8537064790725708,
    -0.5242499113082886,
    0.18843041360378265,
    -0.9514877796173096,
    0.7939665913581848,
    0.21428875625133514,
    0.21040675044059753,
    -0.9234992265701294,
    0.3186376392841339,
    0.4696677327156067,
    0.7142581343650818,
    0.6270363330841064,
    0.15800943970680237,
    0.6525194048881531,
    0.30395805835723877,
    0.6176093816757202,
    -0.5666493773460388,
    0.8045930862426758,
    0.3074983060359955,
    -0.42627644538879395,
    -0.4128817617893219,
    -0.7518633604049683,
    -0.17983941733837128,
    -0.31220129132270813,
    -0.27045193314552307,
    -0.14414183795452118,
    1.0,
    -0.5009979605674744,
    -0.9366283416748047,
    -0.6779048442840576,
    -0.43391522765159607,
    -0.6082003712654114,
    0.1254158318042755,
    -0.8585467338562012,
    0.23144935071468353,
    0.5586779117584229,
    -1.0,
    0.14037296175956726,
    -0.6482802629470825,
    0.5493116974830627,
    -0.2849210202693939,
    -0.4058595895767212,
    0.3968718647956848,
    0.5231633186340332,
    -0.7645891904830933,
    0.8385567665100098,
    0.725303053855896,
    0.5366436839103699,
    -0.5555225014686584,
    -1.0,
    0.2271217703819275,
    0.48096558451652527,
    0.6849880218505859,
    0.9090762138366699,
    -0.9940519332885742,
    -0.6413861513137817,
    -0.5728811621665955,
    -0.13511772453784943,
    0.2334880232810974,
    0.8745231628417969,
    -0.9182285666465759,
    -0.699810802936554,
    0.6807582378387451,
    0.08720051497220993,
    -0.8475264310836792,
    -0.05143892392516136,
    0.830420970916748,
    -0.5635854601860046,
    0.8326852917671204,
    -0.9633625149726868,
    0.5765799283981323,
    0.0721609964966774,
    -0.3051575720310211,
    0.11202724277973175,
    -0.13877065479755402,
    -0.17744700610637665,
    0.6350811123847961,
    -0.9382763504981995,
    0.22596211731433868,
    -0.4084566533565521,
    -0.3023926913738251,
    0.6559680700302124,
    0.3963835537433624,
    0.8460859656333923,
    -0.8206610083580017,
    -0.08157000690698624,
    0.893328845500946,
    0.2442121058702469,
    0.7436752319335938,
    -0.3776665925979614,
    -0.07078155875205994,
    0.46794643998146057,
    -0.18966646492481232,
    -0.9543777704238892,
    -0.510956346988678,
    0.9750025272369385,
    1.0,
    0.4606494903564453,
    0.5264411568641663,
    0.01724308356642723,
    -0.7614246010780334,
    0.0930081382393837,
    -0.9453321695327759,
    0.5833795666694641,
    -0.5181064605712891,
    -0.5997496843338013,
    -0.7656117081642151,
    -0.7423627376556396,
    0.9468031525611877,
    1.0,
    0.8159611821174622,
    -0.24468223750591278,
    0.49338048696517944,
    -0.49096348881721497,
    -0.42053288221359253,
    -0.8726552724838257,
    0.3289131820201874,
    0.29894399642944336,
    -0.5672992467880249,
    0.9980132579803467,
    0.003583022393286228,
    -0.2792382836341858,
    0.5826901197433472,
    -0.12767422199249268,
    0.3083896040916443,
    0.17799612879753113,
    0.11973028630018234,
    -0.4279212951660156,
    0.013629655353724957,
    -0.39869678020477295,
    -0.3016723394393921,
    -0.5846247673034668,
    -1.0,
    0.41543635725975037,
    0.9584551453590393,
    -0.9567738175392151,
    0.2884242832660675,
    -0.6842250227928162,
    0.45632797479629517,
    0.59433913230896,
    -0.67536860704422,
    -0.4284341633319855,
    -0.9922850131988525,
    0.26769617199897766,
    0.9204199910163879,
    -0.7963316440582275,
    0.6459058523178101,
    0.6671194434165955,
    -0.37224945425987244,
    0.18670301139354706,
    -0.8439775705337524,
    0.07700107246637344,
    0.5646503567695618,
    -0.5729942917823792,
    0.8549485802650452,
    -0.4228764772415161,
    0.8872585296630859,
    0.1573779135942459,
    -0.16386614739894867,
    -0.6772057414054871,
    -0.44436174631118774,
    -0.5118778944015503,
    0.5463635325431824,
    0.9227027893066406,
    -0.9298654198646545,
    0.4981839954853058,
    0.21482603251934052,
    0.5268654823303223,
    0.15933403372764587,
    0.44931191205978394,
    0.7136295437812805,
    -0.9450452923774719,
    0.8246680498123169,
    -1.0,
    -0.46121707558631897,
    0.42590707540512085,
    0.8239234089851379,
    0.5359935164451599,
    -0.4599199593067169,
    0.182271808385849,
    -0.05462508648633957,
    0.3217200040817261,
    -0.04038512706756592,
    -0.18011711537837982,
    0.7218573689460754,
    -0.7117221355438232,
    -0.8470168113708496,
    -0.4745079278945923,
    -0.3821375370025635,
    -0.4483444094657898,
    0.634553074836731,
    -0.7527817487716675,
    0.46958842873573303,
    0.8546860814094543,
    -0.6534042954444885,
    0.736298680305481,
    -0.30978718400001526,
    -0.7972044944763184,
    -0.3697896897792816,
    0.8550552725791931,
    0.0888790711760521,
    0.18109963834285736,
    -0.24961698055267334,
    0.7693197727203369,
    0.0440656952559948,
    -0.9062135815620422,
    0.8356302976608276,
    0.3385692834854126,
    -0.7028869986534119,
    -0.8392131328582764,
    -0.9134983420372009,
    0.37632983922958374,
    -0.3222755193710327,
    0.8090028762817383,
    -0.7664785385131836,
    -0.9404767155647278,
    -0.713867723941803,
    0.14452944695949554,
    0.7891873717308044,
    -0.013165787793695927,
    0.40735793113708496,
    -0.011761851608753204,
    -0.7540818452835083,
    0.4795127511024475,
    0.11514027416706085,
    -0.34557637572288513,
    0.4982452988624573,
    0.6351542472839355,
    0.5676963925361633,
    -0.5695699453353882,
    -0.93013995885849,
    0.6130314469337463,
    -0.39775678515434265,
    0.23118998110294342,
    0.4463026225566864,
    0.4681050181388855,
    0.39693889021873474,
    -0.9376415610313416,
    1.0,
    -0.8494429588317871,
    -0.31370264291763306,
    0.585235059261322,
    0.37297895550727844,
    -0.7432570457458496,
    0.21510352194309235,
    0.46053043007850647,
    -0.6661366820335388,
    0.6213477253913879,
    0.973226010799408,
    -0.11160024255514145,
    0.5559372305870056,
    -0.6652454733848572,
    0.43510547280311584,
    0.36212342977523804,
    -1.0,
    0.31406909227371216,
    0.8730918169021606,
    0.18167375028133392,
    0.3509965240955353,
    -0.5705311298370361,
    -0.06478776782751083,
    -0.46579182147979736,
    0.9291999340057373,
    0.03405562415719032,
    0.6918883323669434,
    0.11045559495687485,
    -0.8770226836204529,
    -0.9592059254646301,
    -0.17804497480392456,
    -0.9576891660690308,
    0.8799829483032227,
    -0.3940916061401367,
    -0.3061617314815521,
    -0.4341624975204468,
    -0.6782739162445068,
    0.6332741379737854,
    -0.16322505474090576,
    0.4380044639110565,
    0.3240669369697571,
    0.21595512330532074,
    -0.6420179009437561,
    -0.6435315608978271,
    -0.2998168468475342,
    0.10796540230512619,
    -0.38140204548835754,
    -1.0,
    -0.5412487387657166,
    0.8768302202224731,
    -0.6932310461997986,
    -0.924982488155365,
    -0.3538406491279602,
    0.8111514449119568,
    0.44058957695961,
    0.7268105745315552,
    0.6104344725608826,
    0.32549798488616943,
    0.37336644530296326,
    -0.7283271551132202,
    -0.9095584750175476,
    0.7975585460662842,
    -0.4636554718017578,
    -0.94727623462677,
    -0.213788241147995,
    -0.6465650796890259,
    0.003009142354130745,
    0.8786553740501404,
    -0.3981446325778961,
    0.29688408970832825,
    -0.6669789552688599,
    0.6184485554695129,
    0.28974616527557373,
    -0.2492264211177826,
    0.521708071231842,
    -0.31137731671333313,
    1.0,
    0.6833704113960266,
    -0.37831056118011475,
    0.2629414200782776,
    -0.8875149488449097,
    -0.11069054901599884,
    0.8598803281784058,
    -0.3027374744415283,
    0.9911374449729919,
    -0.5074923634529114,
    -0.437473863363266,
    0.9128665924072266,
    0.6873317956924438,
    0.9087405204772949,
    -0.8893917798995972,
    -0.4479721188545227,
    0.4940643608570099,
    -0.6656116843223572,
    0.8361461162567139,
    0.7601520419120789,
    0.6525773406028748,
    -1.0,
    0.5682854056358337,
    -0.9168797731399536,
    -0.6905483603477478,
    0.023264262825250626,
    -0.6296274662017822,
    -0.8376262187957764,
    -0.14986419677734375,
    -0.8764549493789673,
    -0.6559159755706787,
    -0.7432171106338501,
    -0.002884083427488804,
    -0.6638966202735901,
    0.34872889518737793,
    -0.7658040523529053,
    1.0,
    0.10953100025653839,
    -0.9445387125015259,
    0.257960706949234,
    0.40329283475875854,
    -0.12012387067079544,
    -0.056135792285203934,
    0.10273759067058563,
    -0.27736127376556396,
    -0.7838160395622253,
    0.9197576642036438,
    -0.4302132725715637,
    -0.35129857063293457,
    -0.6971161961555481,
    -0.2702444791793823,
    -0.7943266034126282,
    0.002984723076224327,
    -0.12107007950544357,
    -0.9401501417160034,
    -0.6157872080802917,
    -0.7449812293052673,
    -0.8883267045021057,
    0.43234044313430786,
    -0.5912777781486511,
    0.7644123435020447,
    0.7909634709358215,
    -0.4670340120792389,
    -0.07448958605527878,
    -0.5246435403823853,
    0.864348292350769,
    -0.32498547434806824,
    1.0,
    0.6971861720085144,
    0.5111453533172607,
    -0.09455257654190063,
    1.0,
    0.0823969766497612,
    0.9849757552146912,
    1.0,
    0.4191015064716339,
    -0.9637258052825928,
    1.0,
    0.3753806948661804,
    0.06369536370038986,
    0.2101748287677765,
    -0.8725180625915527,
    -0.9009339213371277,
    0.8056764602661133,
    0.1944027990102768,
    0.41761523485183716,
    -0.5082705020904541,
    0.27160248160362244,
    -0.3254005014896393,
    0.24022620916366577,
    -0.9101382493972778,
    -0.3150518834590912,
    0.8293800950050354,
    -0.9934446811676025,
    -0.9991607666015625,
    0.7298195362091064,
    -0.38601934909820557,
    -0.28759726881980896,
    -0.9031189680099487,
    0.6945738196372986,
    0.22942602634429932,
    -1.0,
    -0.23786425590515137,
    -0.9869563579559326,
    -0.3875330984592438,
    -0.18421880900859833,
    -1.0,
    -0.6274394392967224,
    -0.317755788564682,
    -0.6503249406814575,
    0.4664938449859619,
    -0.29539477825164795,
    0.36319470405578613,
    0.7981231212615967,
    -0.3917783498764038,
    0.02659403532743454,
    0.09895626455545425,
    -0.7682546377182007,
    -0.5541122555732727,
    0.18260133266448975,
    0.22699669003486633,
    0.3209937512874603,
    -0.38709065318107605,
    0.8042969703674316,
    -0.3181983232498169,
    1.0,
    0.2756311595439911,
    -0.11520734429359436,
    0.866405189037323,
    -0.4550341069698334,
    -0.25791195034980774,
    0.06932877004146576,
    -0.541898787021637,
    0.41268953680992126,
    -0.4542466998100281,
    -0.46256884932518005,
    -0.4770531952381134,
    -0.23602119088172913,
    -0.5978116989135742,
    0.7973387837409973,
    0.7794274687767029,
    0.33243507146835327,
    0.1062653660774231,
    -0.7750723958015442,
    0.6028624773025513,
    0.45388975739479065,
    0.06013677641749382,
    0.7878044247627258,
    0.10868863016366959,
    0.26386910676956177,
    -0.5182042121887207,
    0.41412702202796936,
    0.1400158554315567,
    0.6434094905853271,
    -0.885738730430603,
    -0.6041078567504883,
    -0.16499215364456177,
    -1.0,
    -0.8460554480552673,
    -0.1680745631456375,
    -0.42459481954574585,
    0.07154149562120438,
    0.8624224066734314,
    -0.33804431557655334,
    0.24705049395561218,
    0.31877216696739197,
    0.8919797539710999,
    -0.698822021484375,
    0.2748527526855469,
    -0.2740347385406494,
    -0.3269875645637512,
    -0.91618412733078,
    -0.20285660028457642,
    -0.08250681310892105,
    0.1573839634656906,
    -0.6477678418159485,
    -0.2887570559978485,
    -0.3818109929561615,
    -0.47661688923835754,
    0.7376416325569153,
    0.9773766398429871,
    0.38601645827293396,
    0.08185382932424545,
    -0.1566089391708374,
    -0.561671793460846,
    0.1411052793264389,
    0.12061230093240738,
    0.864381730556488,
    0.455674946308136,
    -0.832923412322998,
    0.25690487027168274,
    -0.7781302332878113,
    -0.4331001043319702,
    0.9277108311653137,
    -0.28183242678642273,
    0.31639763712882996,
    0.8257699012756348,
    -0.36176636815071106,
    -0.3507644534111023,
    0.5625904202461243,
    0.4154759645462036,
    -0.006640816107392311,
    0.7573504447937012,
    -0.25667595863342285,
    -0.8822810053825378,
    0.2449903041124344,
    0.035038407891988754,
    0.052455268800258636,
    -0.02976481057703495,
    -0.20231635868549347,
    -0.6434247493743896,
    0.41511571407318115,
    0.07094037532806396,
    0.2377026230096817,
    0.9814599752426147,
    0.27966251969337463,
    -0.13775134086608887,
    -0.34435248374938965,
    -0.37918636202812195,
    0.05745725706219673,
    0.8886562585830688,
    -0.013550203293561935,
    -1.0,
    0.630100429058075,
    0.8878902196884155,
    0.5028597116470337,
    -0.675926923751831,
    -0.5074310302734375,
    0.41229885816574097,
    0.8820734620094299,
    -0.3789605498313904,
    0.6442824006080627,
    -1.0,
    0.5274240374565125,
    0.01835075579583645,
    -0.30797746777534485,
    -0.8283029198646545,
    -0.5461043119430542,
    -0.13267311453819275,
    0.48462483286857605,
    -0.20261543989181519,
    0.6262490153312683,
    -0.4904293715953827,
    -0.75694739818573,
    0.9128055572509766,
    0.5666279792785645,
    -0.2903409004211426,
    0.7863340377807617,
    0.6072145104408264,
    0.4487534165382385,
    0.9293954372406006,
    -0.1975584179162979,
    -0.4768609404563904,
    -0.9828272461891174,
    -0.907312273979187,
    0.9961699843406677,
    0.700183093547821,
    -0.1989564299583435,
    -0.2971678078174591,
    -0.08901340514421463,
    0.4060060977935791,
    0.3623736500740051,
    -0.8537980914115906,
    1.0,
    -0.19960333406925201,
    0.9236426949501038,
    0.9234322905540466,
    -0.443962037563324,
    0.6068574786186218,
    -0.49758002161979675,
    0.07083955407142639,
    -0.2847377061843872,
    -0.08711215853691101,
    0.24044004082679749,
    -0.5609422922134399,
    -0.26878872513771057,
    -0.7960448265075684,
    -0.2924192249774933,
    -0.9428115487098694,
    0.1033906489610672,
    0.32238221168518066,
    0.6262917518615723,
    0.5830226540565491,
    -0.5752373337745667,
    0.6753776669502258,
    -0.7811364531517029,
    -0.8613329529762268,
    0.793938934803009,
    -0.6147007346153259,
    -0.5671223998069763,
    0.7363355755805969,
    -0.24866174161434174,
    -0.40696731209754944,
    -0.07120252400636673,
    -0.4181615710258484,
    -0.1476178765296936,
    0.3598863184452057,
    -0.5169926881790161,
    -0.9148807525634766,
    1.0,
    0.19226975739002228,
    -0.06864824146032333,
    0.8562089800834656,
    -0.7728353142738342,
    0.5590563416481018,
    1.0,
    -0.8297341465950012,
    -0.3977869749069214,
    0.3702077865600586,
    -0.30045798420906067,
    -0.24696803092956543,
    -0.2654317617416382,
    0.4672444462776184,
    -0.5978057980537415,
    -0.7547869086265564,
    -0.7417857646942139,
    0.7779138088226318,
    0.5390487313270569,
    0.2536424398422241,
    -0.4181067645549774,
    0.5848811268806458,
    -0.007287885528057814,
    0.6728445887565613,
    -0.673509955406189,
    0.9233405590057373,
    -0.7721394300460815,
    0.925061821937561,
    0.03615211695432663,
    -0.45203107595443726,
    -0.7949310541152954,
    -0.9742332100868225,
    -0.936005711555481,
    0.15686513483524323,
    0.07084260135889053,
    0.11831413954496384,
    -0.13684499263763428,
    -0.01693773828446865,
    -0.25237584114074707,
    0.4112093448638916,
    0.7505171895027161,
    0.09848953783512115,
    0.2134738564491272,
    0.22600780427455902,
    0.36261793971061707,
    -1.0,
    0.1851833313703537,
    0.004519657697528601,
    -0.8894864916801453,
    1.0,
    0.5312204360961914,
    -0.8236274719238281,
    -0.18218035995960236,
    0.935419499874115,
    0.8874873518943787,
    -0.9216803312301636,
    -0.3506912589073181,
    -0.7123813033103943,
    0.21663255989551544,
    0.2141849398612976,
    -0.46858423948287964,
    0.8257026672363281,
    0.6373486518859863,
    -0.43291106820106506,
    -0.5873501300811768,
    -0.8667837381362915,
    0.6214667558670044,
    0.46052122116088867,
    0.9661275148391724,
    -0.2839653789997101,
    -0.07737047225236893,
    0.9219275116920471,
    -0.8358806371688843,
    0.6788598895072937,
    -0.1651112586259842,
    0.7377177476882935,
    0.4429275393486023,
    0.12657253444194794,
    -0.998187243938446,
    -0.997726321220398,
    -1.0,
    0.26073479652404785,
    -0.5078705549240112,
    -0.4718588590621948,
    -0.05040133371949196,
    0.7912930250167847,
    0.6672688126564026,
    -0.14158158004283905,
    0.3067598044872284,
    -0.08789638429880142,
    0.03322552144527435,
    0.6389690041542053,
    0.6441694498062134,
    -0.22059999406337738,
    -0.45074304938316345,
    0.7526841163635254,
    -0.860438883304596,
    0.9330301880836487,
    -0.983489453792572,
    -0.8720816969871521,
    0.8601581454277039,
    -0.7157688736915588,
    -0.7289376854896545,
    -0.25980105996131897,
    -0.5027282238006592,
    0.3492538332939148,
    0.6632313132286072,
    -0.037214260548353195,
    0.22161322832107544,
    -0.8779777884483337,
    -0.3566727340221405,
    -0.7639609575271606,
    -0.7735129594802856,
    -0.12962733209133148,
    -0.46865442395210266,
    -0.4267982840538025,
    0.23066513240337372,
    0.7621448040008545,
    -0.17329928278923035,
    0.9257789254188538,
    0.5595049262046814,
    -0.8243598937988281,
    0.5729667544364929,
    1.0,
    0.9038209319114685,
    0.5132451057434082,
    -0.7817347049713135,
    0.5921414494514465,
    0.0699487179517746,
    0.2386149764060974,
    1.0,
    0.8671559691429138,
    0.03489498794078827,
    -0.5810143947601318,
    -0.7355021238327026,
    0.1612202227115631,
    1.0,
    0.2918272912502289,
    0.17447444796562195,
    -0.6419201493263245,
    0.1598101258277893,
    0.13551440834999084,
    -0.1224280372262001,
    0.9199835062026978,
    -0.640684187412262,
    -0.9662953615188599,
    0.6048433184623718,
    -0.7598772048950195,
    0.7015472650527954,
    -0.9196600317955017,
    1.0,
    -0.27931761741638184,
    0.2582659125328064,
    -0.11460030823945999,
    -0.4215308725833893,
    0.1309976428747177,
    -0.7807549238204956,
    0.9850062727928162,
    -0.6811426281929016,
    -0.534708559513092,
    -0.23785518109798431,
    -0.9580186605453491,
    0.9271889328956604,
    0.8002990484237671,
    0.18807949125766754,
    -0.5949735641479492,
    0.7363079786300659,
    -0.39232149720191956,
    -0.8235296607017517,
    -0.4324900805950165,
    0.6337229609489441,
    -0.4908197224140167,
    0.21613825857639313,
    -1.0,
    0.548566997051239,
    -0.5638175010681152,
    0.33498644828796387,
    0.850041389465332,
    0.3056124448776245,
    0.6336895227432251,
    -0.030008899047970772,
    -0.9518753886222839,
    -0.7128421068191528,
    0.37754446268081665,
    0.654853880405426,
    0.49956342577934265,
    -0.6460524201393127,
    0.9476485848426819,
    0.20466631650924683,
    0.03365879878401756,
    0.4604998528957367,
    -0.313568651676178,
    -0.24706868827342987,
    0.27746516466140747,
    -0.05603501573204994,
    -0.8869412541389465,
    -0.13179129362106323,
    0.12459482252597809,
    -0.7065126299858093,
    -0.6869992613792419,
    0.04922949895262718,
    -0.4289315640926361,
    0.20468772947788239,
    -0.01268346793949604,
    -0.7638538479804993,
    -0.45689263939857483,
    -0.5351053476333618,
    0.5264046788215637,
    -0.24954362213611603,
    0.5872066020965576,
    0.48396557569503784,
    -0.38023632764816284,
    0.9830103516578674,
    0.10899994522333145,
    -0.07495640963315964,
    -0.30219730734825134,
    0.9504655003547668,
    0.9434857964515686,
    -0.5194585919380188,
    -0.7152471542358398,
    0.6574967503547668,
    0.675969660282135,
    0.77447110414505,
    -0.5220985412597656,
    -0.7973357439041138,
    0.12986540794372559,
    0.3234901428222656,
    0.8392102122306824,
    -0.15545214712619781,
    0.024961061775684357,
    0.504205584526062,
    -0.9329782724380493,
    0.06188542768359184,
    0.5202580690383911,
    0.2204381674528122,
    0.15705741941928864,
    0.6998075246810913,
    0.5144688487052917,
    0.25100260972976685,
    0.7891018390655518,
    -0.25420713424682617,
    0.8860406875610352,
    -0.5466565489768982,
    0.7990385890007019,
    0.40040597319602966,
    -0.3744071125984192,
    0.18174093961715698,
    0.38830217719078064,
    0.3665548264980316,
    0.8228675127029419,
    -0.7856044173240662,
    0.016336407512426376,
    -1.0,
    -0.330292671918869,
    0.6976409554481506,
    0.24178892374038696,
    -0.5095310211181641,
    0.5796868205070496,
    0.2041444033384323,
    -0.382744699716568,
    -0.328437477350235,
    -0.2858515977859497,
    0.3962402641773224,
    -0.5951688885688782,
    0.22077400982379913,
    0.2497541457414627,
    0.811438262462616,
    -0.7412671446800232,
    0.767592191696167,
    0.40379035472869873,
    -0.9381299018859863,
    0.8083251118659973,
    -0.06492491811513901,
    0.07117834687232971,
    0.26048457622528076,
    -0.5164036750793457,
    0.5050691366195679,
    0.618121862411499,
    -0.19797660410404205,
    0.3857232630252838,
    -0.6129429936408997,
    -0.5991334319114685,
    0.1653645634651184,
    0.48268991708755493,
    -0.9634907245635986,
    -0.9941282868385315,
    -0.8528306484222412,
    -0.3216620683670044,
    0.9823847413063049,
    -0.7958464026451111,
    -0.8941954374313354,
    -0.556291401386261,
    0.8537431955337524,
    -0.9547532796859741,
    0.6371991038322449,
    0.09346301108598709,
    0.7800501585006714,
    0.11525613069534302,
    -0.09870598465204239,
    -0.9543778896331787,
    0.16903889179229736,
    0.9013000726699829,
    -0.528016209602356,
    -0.918048620223999,
    -0.6705954074859619,
    0.14217045903205872,
    0.20275896787643433,
    -0.7414715886116028,
    0.8148503303527832,
    0.8134190440177917,
    0.0931607261300087,
    -0.28540313243865967,
    -0.38065123558044434,
    0.8636036515235901,
    0.19500719010829926,
    0.9927091002464294,
    0.8632892966270447,
    0.810751736164093,
    -0.9747551083564758,
    0.0650746151804924,
    0.3830988109111786,
    -0.7042268514633179,
    0.1639728993177414,
    0.5811303853988647,
    0.1378643959760666,
    -0.6633564233779907,
    0.8834282755851746,
    0.8630756139755249,
    -0.6310922503471375,
    0.2818719744682312,
    0.02316976711153984,
    1.0,
    -0.8883663415908813,
    0.7600970268249512,
    1.0,
    0.9710561633110046,
    0.19644463062286377,
    -0.4961911737918854,
    -0.039231639355421066,
    0.9280191659927368,
    -0.28311413526535034,
    0.7316387295722961,
    -0.6220892071723938,
    -0.511069118976593,
    0.8854273557662964,
    0.25474101305007935,
    -0.12124389410018921,
    0.04907988756895065,
    0.9252419471740723,
    -0.905502438545227,
    -0.1722402572631836,
    0.5529128313064575,
    -0.4673299193382263,
    0.39396658539772034,
    -0.21213704347610474,
    0.6632099151611328,
    -0.4783470332622528,
    0.012326344847679138,
    0.5450728535652161,
    0.8525650501251221,
    0.020886993035674095,
    0.04015934467315674,
    -0.8614152669906616,
    -0.591973602771759,
    -0.04909826070070267,
    -0.8231973052024841,
    0.7233069539070129,
    0.849021852016449,
    -0.39725029468536377,
    0.09841284900903702,
    -0.08127382397651672,
    0.7480849623680115,
    0.20062260329723358,
    0.1186010017991066,
    -0.12352975457906723,
    -0.6427197456359863,
    -0.6432569622993469,
    0.15883052349090576,
    0.05144505575299263,
    0.7145450115203857,
    0.8268501162528992,
    0.2788447141647339,
    0.3168857991695404,
    -0.20765388011932373,
    -0.0848078653216362,
    -0.69818115234375,
    -0.6136507987976074,
    -0.27657389640808105,
    -0.6038696765899658,
    -0.22475352883338928,
    -0.49842214584350586,
    -0.7038210034370422,
    0.7749351263046265,
    0.49954521656036377,
    0.901318371295929,
    0.8992675542831421,
    1.0,
    0.03926823288202286,
    -0.50553297996521,
    0.4798547625541687,
    -0.6600727438926697,
    -0.16066168248653412,
    -0.48278453946113586,
    -0.3514479994773865,
    -0.7160190939903259,
    -0.6362773180007935,
    -0.47130653262138367,
    -0.0387522429227829,
    -0.6688739061355591,
    -0.1667378693819046,
    0.10090936720371246,
    0.21723365783691406,
    0.06077452376484871,
    0.05418567359447479,
    0.2534103989601135,
    -0.45094144344329834,
    -0.26302075386047363,
    -0.22021228075027466,
    0.062114417552948,
    0.4222021698951721,
    -0.020429130643606186,
    0.8794639706611633,
    -0.3951902985572815,
    -0.43412870168685913,
    0.9912261366844177,
    0.6764548420906067,
    -0.3022431433200836,
    0.32375863194465637,
    -0.2066560983657837,
    0.5503677725791931,
    -0.5651784539222717,
    0.338120698928833,
    -0.8505418300628662,
    -0.4091920852661133,
    -0.6222816109657288,
    0.9975463151931763,
    0.31261327862739563,
    0.335773766040802,
    0.8876001834869385,
    0.6939817070960999,
    -0.049873221665620804,
    -0.7180333733558655,
    0.5197669267654419,
    -0.6170538663864136,
    0.7217290997505188,
    0.8577896952629089,
    0.7908811569213867,
    0.4650898575782776,
    0.322773277759552,
    0.9748679995536804,
    -0.7309885025024414,
    0.8260414600372314,
    0.7282112240791321,
    -0.18200942873954773,
    0.585824191570282,
    -0.37728506326675415,
    -0.9470534920692444,
    -0.06433610618114471,
    0.7342507839202881,
    0.30943939089775085,
    -0.9198370575904846,
    -0.4995574653148651,
    -0.787868857383728,
    0.8537644743919373,
    -0.7933344841003418,
    0.7012909650802612,
    -0.6618427038192749,
    -0.5933072566986084,
    -0.23341162502765656,
    -0.581176221370697,
    0.3045167624950409,
    -0.29934999346733093,
    -0.9746606945991516,
    -0.61271071434021,
    0.4567124545574188,
    0.7019227147102356,
    -0.8261969089508057,
    0.2763757109642029,
    0.700961172580719,
    -0.27890530228614807,
    0.17912538349628448,
    -0.9142856597900391,
    -0.15045014023780823,
    0.6907681822776794,
    0.16429023444652557,
    0.6477032899856567,
    -0.1773979812860489,
    -0.6525893807411194,
    0.9240425229072571,
    0.01685839518904686,
    0.9674062728881836,
    0.1467665284872055,
    -0.19705189764499664,
    -0.9811487197875977,
    0.1339063048362732,
    -0.12944737076759338,
    0.9854456782341003,
    -0.5907713770866394,
    -0.15017858147621155,
    -0.23462332785129547,
    0.2290809601545334,
    -0.6598010063171387,
    0.8144627809524536,
    0.6202001571655273,
    0.2108432650566101,
    -0.4529893696308136,
    -0.9241706728935242,
    0.7662467360496521,
    -0.39508047699928284,
    0.500607430934906,
    -0.8987792730331421,
    -0.3335917592048645,
    -0.9485549330711365,
    -0.5968534350395203,
    -0.08680087327957153,
    0.8715599775314331,
    -0.46859630942344666,
    -0.21872621774673462,
    0.40173032879829407,
    -0.09305403381586075,
    -0.379690021276474,
    0.4767203629016876,
    -0.7665667533874512,
    -0.4070681631565094,
    -0.1269325464963913,
    0.7691670656204224,
    0.9758751392364502,
    -0.06347545236349106,
    -0.5107975602149963,
    0.8714256882667542,
    -0.21324796974658966,
    -0.45532098412513733,
    -0.5963287949562073,
    -0.31928467750549316,
    0.37360161542892456,
    -0.32663360238075256,
    0.6611011028289795,
    0.5908780694007874,
    0.1446090191602707,
    0.6929471492767334,
    0.5133549571037292,
    0.638212263584137,
    0.4214607775211334,
    -0.2628774344921112,
    0.07784038037061691,
    -0.6264564394950867,
    -1.0,
    0.8698691725730896,
    -0.035166576504707336,
    -0.3584337830543518,
    -0.44715720415115356,
    1.0,
    -0.2849969267845154,
    -0.8712027072906494,
    -0.04061108082532883,
    -0.43366503715515137,
    1.0,
    0.4573533833026886,
    0.6663532257080078,
    -0.6703298687934875,
    -1.0,
    0.30650967359542847,
    -0.6711815595626831,
    0.9318765997886658,
    0.15579694509506226,
    -0.3881893455982208,
    0.8829981684684753,
    -0.8177037239074707,
    -0.6615832448005676,
    -0.8106265664100647,
    0.48489049077033997,
    -0.6118411421775818,
    0.9738605618476868,
    -0.6782980561256409,
    0.9014925360679626,
    0.22414012253284454,
    1.0,
    -0.8357585668563843,
    -0.4110630452632904,
    -0.10174556821584702,
    -0.8899655342102051,
    0.8445783853530884,
    0.5034943222999573,
    0.09313329309225082,
    -0.13678088784217834,
    -0.022080345079302788,
    -0.7081880569458008,
    0.9200719594955444,
    -0.1199255958199501,
    -1.0,
    -0.091384656727314,
    0.527277410030365,
    -0.4234657287597656,
    0.2860529124736786,
    0.8347727656364441,
    -0.057155121117830276,
    -0.023007920011878014,
    0.5677390098571777,
    0.5229073762893677,
    -0.7649067044258118,
    0.728891909122467,
    -0.8783959746360779,
    -0.18348653614521027,
    0.8267983198165894,
    0.30377820134162903,
    0.2582385838031769,
    -0.6449995636940002,
    1.0,
    0.2739372253417969,
    -0.7297463417053223,
    -0.6563310623168945,
    1.0,
    0.3110538423061371,
    0.06605147570371628,
    -0.671147882938385,
    -0.0027376622892916203,
    -0.8645375370979309,
    0.2505509555339813,
    0.2108738124370575,
    0.4186100959777832,
    -0.9598864912986755,
    0.43181854486465454,
    1.0,
    0.15297405421733856,
    -0.8904140591621399,
    0.462749183177948,
    0.21488086879253387,
    0.8035798668861389,
    0.12129884958267212,
    0.3366740643978119,
    0.8699635863304138,
    -0.7830683588981628,
    -0.5194951891899109,
    -0.5133702754974365,
    0.6728294491767883,
    1.0,
    -0.08495732396841049,
    0.8218939304351807,
    -0.20781898498535156,
    -0.35761886835098267,
    -0.31498149037361145,
    -0.08696552366018295,
    0.22940759360790253,
    0.014380242675542831,
    -0.8459638953208923,
    0.575228214263916,
    -0.8516345024108887,
    -0.7417768836021423,
    0.9401929378509521,
    0.805282711982727,
    -0.5812616348266602,
    -0.37130361795425415,
    0.4750845432281494,
    -0.6915921568870544,
    -0.5762411952018738,
    -0.18836942315101624,
    -0.19518429040908813,
    -0.4602162539958954,
    0.8537153005599976,
    -0.3911893367767334,
    -0.47619253396987915,
    -0.9618549346923828,
    -0.4127262532711029,
    -0.7898774147033691,
    -0.9828669428825378,
    0.07866755872964859,
    -0.11881162971258163,
    0.8917813301086426,
    -0.3841763734817505,
    0.13955490291118622,
    -0.313223659992218,
    -0.22933116555213928,
    -0.3343607187271118,
    -0.8243141174316406,
    -0.5252968072891235,
    0.6647510528564453,
    0.7182226777076721,
    -0.12868130207061768,
    0.018143445253372192,
    -0.3643208146095276,
    -0.01369060855358839,
    -0.6303871870040894,
    0.7299906015396118,
    -0.8023009896278381,
    -0.7884364724159241,
    -0.9669026732444763,
    0.40635111927986145,
    0.2954432964324951,
    1.0,
    0.7671773433685303,
    0.017572589218616486,
    -0.6655110120773315,
    -0.9745751023292542,
    -0.11170684546232224,
    -0.7139530777931213,
    -0.07455061376094818,
    0.1669972836971283,
    -0.9089785814285278,
    0.7487075924873352,
    -0.5045655965805054,
    -0.45788446068763733,
    0.03704943135380745,
    -0.6192236542701721,
    -0.8361095190048218,
    0.4797571897506714,
    -0.43775755167007446,
    0.12382882088422775,
    0.4453902542591095,
    0.8504899740219116,
    0.142948716878891,
    0.025873595848679543,
    -0.590792715549469,
    0.4045991599559784,
    -0.15939201414585114,
    -0.18296459317207336,
    0.21426741778850555,
    0.6940582394599915,
    0.4993409216403961,
    -0.7881039977073669,
    -0.3013518750667572,
    -0.3854851722717285,
    0.4970792829990387,
    0.5465990304946899,
    0.18188731372356415,
    0.7276712656021118,
    0.5299233794212341,
    -0.3382457494735718,
    -0.7165622115135193,
    -0.04510008916258812,
    0.125299870967865,
    0.15753047168254852,
    -0.6651144027709961,
    -0.05397801473736763,
    -0.49697864055633545,
    0.5214272737503052,
    0.553077757358551,
    0.18729516863822937,
    0.628736138343811,
    -0.20720554888248444,
    0.7851774096488953,
    0.6938109397888184,
    0.19287091493606567,
    -0.005078339483588934,
    0.6219825148582458,
    0.04662005975842476,
    0.2448408603668213,
    0.36337777972221375,
    -0.463878333568573,
    0.9575914740562439,
    -0.7467483282089233,
    0.23003943264484406,
    -0.7232673764228821,
    0.23099768161773682,
    -0.5810695290565491,
    -0.5504927039146423,
    -0.8908444046974182,
    0.8745659589767456,
    0.952961802482605,
    1.0,
    0.4994994103908539,
    0.7549700140953064,
    0.1975768655538559,
    -0.146244615316391,
    -0.5104984045028687,
    0.9538926482200623,
    0.6935697793960571,
    -0.8827479481697083,
    0.3538497984409332,
    -0.8298990726470947,
    0.4254920482635498,
    -0.8077669143676758,
    -0.8085543513298035,
    -0.2672170400619507,
    -0.5713856220245361,
    0.9094088077545166,
    0.18166451156139374,
    0.5178014039993286,
    0.7941069006919861,
    0.9929989576339722,
    -0.09092997014522552,
    -0.6082918047904968,
    0.6397379636764526,
    0.62443608045578,
    0.8501937985420227,
    0.18431051075458527,
    0.8582413792610168,
    -0.5460126996040344,
    -0.17872555553913116,
    0.9004060626029968,
    0.84369957447052,
    0.9940611124038696,
    0.43030792474746704,
    0.5470444560050964,
    0.9806509613990784,
    0.9102663993835449,
    0.029984457418322563,
    -0.854344367980957,
    -0.8580125570297241,
    0.7841213345527649,
    -0.9406018257141113,
    -0.6673299074172974,
    0.46754366159439087,
    0.6450667381286621,
    -0.4556046724319458,
    -0.8853877186775208,
    0.5720389485359192,
    0.36250489950180054,
    -0.4534379839897156,
    -0.805749773979187,
    0.8339579701423645,
    0.06556907296180725,
    0.1192023977637291,
    0.4203099310398102,
    0.021344676613807678,
    -0.1518234759569168,
    -0.5077120661735535,
    -0.006894093006849289,
    -0.597036600112915,
    -0.4532974660396576,
    -0.9702292680740356,
    -0.6389966607093811,
    -0.5866177082061768,
    -0.41448426246643066,
    0.6844234466552734,
    0.618835985660553,
    -0.9392316937446594,
    -0.8800624012947083,
    -0.04256097972393036,
    0.41654106974601746,
    0.30823999643325806,
    0.25305336713790894,
    0.2976105213165283,
    0.3678274154663086,
    1.0,
    0.7956390976905823,
    -1.0,
    -0.7084658741950989,
    0.08811306953430176,
    -0.901153564453125,
    -0.443757563829422,
    0.7996826171875,
    -1.0,
    0.7085176110267639,
    -0.8415631651878357,
    -0.2709128260612488,
    -0.24594567716121674,
    -0.03880736231803894,
    0.4261023998260498,
    -0.15930967032909393,
    0.9039673209190369,
    0.4210394322872162,
    0.14357729256153107,
    0.8600389957427979,
    0.466746985912323,
    0.018420986831188202,
    0.37726983428001404,
    0.11300094425678253,
    0.2643910050392151,
    -0.6201086640357971,
    1.0,
    -0.46418648958206177,
    -0.213052898645401,
    -0.6666645407676697,
    -0.5151432752609253,
    0.9934049248695374,
    0.2685445249080658,
    -0.9997406005859375,
    0.628043532371521,
    0.59596848487854,
    -0.06613054871559143,
    0.48351413011550903,
    0.11060512810945511,
    -0.8911831974983215,
    0.44429177045822144,
    -0.6879969835281372,
    0.035038284957408905,
    -0.8372569680213928,
    0.7551651000976563,
    0.07928389310836792,
    1.0,
    0.17524653673171997,
    -0.12063051015138626,
    -0.2708549201488495,
    0.8703055381774902,
    -0.7289834022521973,
    -0.610953152179718,
    -0.9803642630577087,
    -0.7041170001029968,
    0.7149083018302917,
    0.29697874188423157,
    -0.2002655565738678,
    0.1970093548297882,
    0.08962057530879974,
    -0.137049600481987,
    0.3992981016635895,
    0.08838753402233124,
    -0.1121036559343338,
    0.7822992205619812,
    -0.37106847763061523,
    0.08691058307886124,
    -0.1446821093559265,
    -0.31600382924079895,
    -0.954673707485199,
    0.5453718304634094,
    -0.006686479784548283,
    0.19526652991771698,
    0.4144566059112549,
    0.20277711749076843,
    0.2738792300224304,
    -0.46582239866256714,
    0.29188528656959534,
    0.32808011770248413,
    -0.8599231243133545,
    0.8871577382087708,
    0.6753074526786804,
    -0.363701194524765,
    -0.8558673858642578,
    0.727576494216919,
    -0.9486343264579773,
    -0.6824057698249817,
    0.7566028833389282,
    -0.548744261264801,
    -0.4550033211708069,
    -0.5826622843742371,
    0.4017302989959717,
    -0.7799705266952515,
    -0.20105603337287903,
    -0.481109082698822,
    1.0,
    -0.4970853626728058,
    -0.16046322882175446,
    0.5086122155189514,
    0.7040496468544006,
    0.6140294075012207,
    -0.22547999024391174,
    -0.4368695318698883,
    -0.9223366379737854,
    0.401214599609375,
    -0.046583354473114014,
    -0.9114139080047607,
    -0.5656635165214539,
    -0.7354959845542908,
    -0.10005805641412735,
    -0.04523451253771782,
    0.8862086534500122,
    -0.22374951839447021,
    0.528299868106842,
    -0.026428919285535812,
    0.06215090677142143,
    -0.8005614876747131,
    -0.8079073429107666,
    -0.9728965163230896,
    0.7301889061927795,
    -0.034061677753925323,
    -0.48797252774238586,
    0.9206365942955017,
    0.9159825444221497,
    1.0,
    0.3156834840774536,
    0.8807886242866516,
    0.3843379318714142,
    -0.4925108253955841,
    0.9909146428108215,
    -0.9753379225730896,
    -0.11615350842475891,
    -0.5906368494033813,
    1.0,
    -0.0773155614733696,
    -0.9336283206939697,
    -0.2686910033226013,
    -0.7968624830245972,
    -0.1854396015405655,
    1.0,
    -0.4682973325252533,
    -0.2948482036590576,
    0.19713136553764343,
    -0.7175361514091492,
    0.26064029335975647,
    0.739979088306427,
    0.8667012453079224,
    -0.6826285719871521,
    0.08445393294095993,
    -0.5825739502906799,
    0.9803705215454102,
    1.0,
    -0.8594070076942444,
    1.0,
    0.0013488720869645476,
    -0.9687643051147461,
    -0.8854212760925293,
    0.48347729444503784,
    0.5999234914779663,
    -0.7411907911300659,
    -0.8156071305274963,
    -0.9180790781974792,
    -0.45150303840637207,
    0.6156771779060364,
    0.40695518255233765,
    -0.7806054353713989,
    -0.7730523347854614,
    -0.713370144367218,
    -0.452140748500824,
    -0.8104343414306641,
    -0.21850639581680298,
    -0.5240486264228821,
    -0.6484329700469971,
    -0.5788659453392029,
    -0.5633655786514282,
    -0.8540391325950623,
    0.35189059376716614,
    -0.2775048613548279,
    0.3310158848762512,
    -0.3168126940727234,
    -0.9467634558677673,
    -0.05970022454857826,
    -0.636786937713623,
    0.06858106702566147,
    0.5254830121994019,
    -0.04428259655833244,
    -0.43157148361206055,
    -0.5883725881576538,
    -0.5665609240531921,
    0.04683984816074371,
    -0.7567034363746643,
    -0.3589279353618622,
    -0.23724474012851715,
    -0.4825250208377838,
    0.008017121814191341,
    0.37845999002456665,
    -0.5011659264564514,
    -0.935474693775177,
    0.9036805033683777,
    -0.7929654717445374,
    -0.17809699475765228,
    0.651203989982605,
    -0.69858717918396,
    -0.4543992280960083,
    -0.6039186716079712,
    0.16039611399173737,
    0.4694051444530487,
    -0.08308970183134079,
    -0.11789602786302567,
    -0.5088533759117126,
    -0.24474307894706726,
    -0.5236029624938965,
    1.0,
    -0.014419992454349995,
    0.34484392404556274,
    0.9500656723976135,
    0.037476807832717896,
    0.9026154279708862,
    0.94599449634552,
    -0.5962676405906677,
    -1.0,
    -0.7746878862380981,
    -0.3883175551891327,
    -0.8770409226417542,
    0.5274086594581604,
    0.32854706048965454,
    0.14230479300022125,
    -0.6994994878768921,
    0.6498523950576782,
    0.440842866897583,
    0.8078981637954712,
    0.8456434607505798,
    0.1748771220445633,
    0.8206976652145386,
    0.7272377014160156,
    0.7846674919128418,
    1.0,
    0.1804833859205246,
    0.01522559393197298,
    -0.4277839958667755,
    -0.7569381594657898,
    -0.10925624519586563,
    -0.6460127830505371,
    -0.6028168201446533,
    -0.918091356754303,
    -0.9739128351211548,
    -0.20650027692317963,
    -0.005688617471605539,
    0.07935728132724762,
    0.5787559747695923,
    -0.9300607442855835,
    0.06118958815932274,
    -0.6432691812515259,
    1.0,
    0.8975035548210144,
    -0.5739127397537231,
    -0.47684863209724426,
    0.580400824546814,
    -0.9143650531768799,
    0.1585773080587387,
    -1.0,
    -0.3821680247783661,
    -0.00537129445001483,
    0.8367931842803955,
    -0.7034484148025513,
    -0.2612813413143158,
    0.7764368057250977,
    -0.2849605083465576,
    -0.548970103263855,
    0.17558836936950684,
    0.16484607756137848,
    -0.6672995090484619,
    0.6202458739280701,
    0.7203375697135925,
    -0.49644163250923157,
    -0.42789697647094727,
    0.48753947019577026,
    1.0,
    -0.18513759970664978,
    -0.15080121159553528,
    -1.0,
    0.8784753084182739,
    -0.26206573843955994,
    -0.5583879351615906,
    0.27174603939056396,
    0.01938546821475029,
    -1.0,
    0.536454439163208,
    0.9350932240486145,
    0.705322265625,
    0.2134922295808792,
    0.06791287660598755,
    -0.5048586130142212,
    0.26325270533561707,
    -0.3111208379268646,
    0.85387122631073,
    -0.577446699142456,
    0.07627178728580475,
    -0.8870448470115662,
    0.8345409035682678,
    -0.8300241231918335,
    1.0,
    -0.1680288314819336,
    -0.21180754899978638,
    0.40010976791381836,
    -0.6768456101417542,
    -0.6506333351135254,
    0.6827875375747681,
    -0.7838312983512878,
    0.9130710363388062,
    0.46368613839149475,
    -0.21197549998760223,
    -0.20992767810821533,
    0.7857204079627991,
    -0.23834334313869476,
    0.9849635362625122,
    -0.03064659610390663,
    0.8654012084007263,
    -0.5503769516944885,
    0.3297799229621887,
    -0.6312784552574158,
    -0.5720390677452087,
    0.5762657523155212,
    -0.19569696485996246,
    0.12858034670352936,
    0.2421765923500061,
    -0.025406649336218834,
    -0.2730278968811035,
    -0.7885738015174866,
    0.9101290106773376,
    0.5437421202659607,
    0.37873461842536926,
    0.5767632126808167,
    -0.6863247752189636,
    0.8503768444061279,
    0.4040132164955139,
    0.1875026822090149,
    -0.935883641242981,
    -0.29617592692375183,
    -0.09176300466060638,
    0.7407664060592651,
    0.9234320521354675,
    0.6245580911636353,
    0.36140623688697815,
    -0.04967194050550461,
    -0.6408307552337646,
    -0.25034329295158386,
    0.8852108120918274,
    0.5824730396270752,
    0.9188359975814819,
    1.0,
    0.7519518136978149,
    0.13609111309051514,
    -0.5044160485267639,
    -0.804840087890625,
    0.5573902130126953,
    0.9682973623275757,
    0.8606372475624084,
    -0.38189637660980225,
    0.38096868991851807,
    -0.5961059927940369,
    -0.49094194173812866,
    0.08815580606460571,
    0.9069886207580566,
    0.17785581946372986,
    0.5911374092102051,
    -0.3927304744720459,
    0.23004543781280518,
    0.09830310940742493,
    0.021890847012400627,
    0.42844629287719727,
    0.9301431179046631,
    -0.6112884879112244,
    0.8281412124633789,
    0.28814664483070374,
    -0.18176215887069702,
    0.25952935218811035,
    -0.14973293244838715,
    0.10583793371915817,
    -0.554509162902832,
    -0.8205755949020386,
    -0.7286326289176941,
    0.858790934085846,
    -0.1933317333459854,
    -0.29998159408569336,
    -0.9266273975372314,
    -0.2632770240306854,
    -0.6912379264831543,
    0.6878139972686768,
    -0.1859370470046997,
    0.7662557363510132,
    0.6902493834495544,
    0.10506909340620041,
    0.26625868678092957,
    -0.5495497584342957,
    -1.0,
    0.9149236083030701,
    0.1124393492937088,
    -0.6800654530525208,
    0.33138519525527954,
    0.8409557938575745,
    -0.22893764078617096,
    0.4458692967891693,
    0.315542995929718,
    -0.8361369371414185,
    -0.20489831268787384,
    0.5869596004486084,
    -0.01592153124511242,
    0.3213295340538025,
    -0.9045319557189941,
    -0.9086338877677917,
    0.7546647787094116,
    0.02317267656326294,
    -0.5823602080345154,
    -0.00822784099727869,
    -0.8902156352996826,
    -0.3374888598918915,
    -0.2203802913427353,
    -0.3731498718261719,
    1.0,
    0.6361948251724243,
    0.8402081727981567,
    -0.025034354999661446,
    0.5107394456863403,
    0.6296915411949158,
    -0.5979065895080566,
    0.5484846234321594,
    0.22802205383777618,
    -0.16968902945518494,
    0.8762596249580383,
    -0.755070686340332,
    0.06742466986179352,
    0.15847645699977875,
    -0.41132840514183044,
    0.02905966341495514,
    0.8863584399223328,
    0.33168110251426697,
    0.12979216873645782,
    -0.7796655297279358,
    0.38498181104660034,
    0.09112835675477982,
    -0.36251121759414673,
    -0.7276648879051208,
    -0.5421766638755798,
    -0.7493575215339661,
    -0.9341715574264526,
    0.2906736135482788,
    0.13076266646385193,
    -0.41962045431137085,
    -0.20242007076740265,
    -0.32346880435943604,
    0.8617727160453796,
    0.6523362398147583,
    -0.16183960437774658,
    0.7134648561477661,
    0.533133864402771,
    -0.42509225010871887,
    -0.216095432639122,
    0.35268399119377136,
    0.08966640383005142,
    -0.06919477134943008,
    -1.0,
    -0.8447004556655884,
    -0.8045470714569092,
    -0.03108622319996357,
    -0.2710288166999817,
    0.697689950466156,
    -0.6533583998680115,
    -0.6207496523857117,
    -0.7065860629081726,
    -0.12681956589221954,
    -0.9471511840820313,
    0.7565233707427979,
    0.15752430260181427,
    -0.5039369463920593,
    0.252687007188797,
    -0.4200933277606964,
    -0.05514686554670334,
    -0.8706533908843994,
    -0.09048726409673691,
    0.9524978995323181,
    -0.4547105133533478,
    -0.9464004039764404,
    -0.40221279859542847,
    0.8416668772697449,
    -0.5246252417564392,
    -0.2018614113330841,
    0.3333231210708618,
    0.3995879888534546,
    -0.1908506155014038,
    -0.8973418474197388,
    0.5897274613380432,
    -0.6683735847473145,
    -0.6918483972549438,
    0.6528397798538208,
    -0.5768578052520752,
    0.0704183578491211,
    -0.8289988040924072,
    0.6323679685592651,
    0.7408244013786316,
    0.6633473038673401,
    -0.24944302439689636,
    0.9990355968475342,
    -0.6388714909553528,
    -1.0,
    -0.6801261305809021,
    0.5115117430686951,
    -0.5806971788406372,
    0.5084657073020935,
    0.6688681840896606,
    -0.6806666851043701,
    -0.45374616980552673,
    0.9084780216217041,
    0.22553160786628723,
    0.10438859462738037,
    -0.7604876756668091,
    -0.8777672052383423,
    -1.0,
    0.5926878452301025,
    -0.4082704186439514,
    0.7708426713943481,
    -0.7095431089401245,
    -0.10438545793294907,
    -0.8732228875160217,
    0.18389548361301422,
    0.39919742941856384,
    0.1902523934841156,
    0.8331828713417053,
    -0.34934836626052856,
    -0.17087621986865997,
    -0.49229109287261963,
    -0.11202739179134369,
    0.5701284408569336,
    0.24969635903835297,
    -0.5276405811309814,
    -0.34641551971435547,
    0.6697925329208374,
    0.47235947847366333,
    0.8954436182975769,
    -0.4388500452041626,
    -0.5737663507461548,
    0.06213262677192688,
    0.36051803827285767,
    -0.6191229820251465,
    0.3774893879890442,
    -0.18998391926288605,
    -0.1836724430322647,
    0.48041313886642456,
    0.7618182897567749,
    -0.927256166934967,
    -0.3548996150493622,
    -0.606741726398468,
    0.328907310962677,
    0.011185222305357456,
    -0.487194299697876,
    0.666069507598877,
    0.6923980116844177,
    -0.9225898385047913,
    0.9086731672286987,
    -0.7688652276992798,
    -0.9202245473861694,
    0.1808924674987793,
    -0.3731344938278198,
    -0.7875210046768188,
    -0.9128513336181641,
    0.9242560863494873,
    -0.22224189341068268,
    0.542008638381958,
    -0.520841121673584,
    0.5097265243530273,
    -0.1160619854927063,
    0.8605822920799255,
    -0.49880990386009216,
    0.8579363226890564,
    -0.6221656799316406,
    0.2943936884403229,
    -0.7175055146217346,
    -0.30193179845809937,
    0.6277961730957031,
    -0.6044039130210876,
    0.14807581901550293,
    1.0,
    0.27184051275253296,
    -0.3118196427822113,
    0.43183377385139465,
    -0.8137607574462891,
    0.16023753583431244,
    0.9861171245574951,
    -0.8917660713195801,
    -0.3042238652706146,
    -0.7182592749595642,
    -0.6309276223182678,
    0.13782764971256256,
    -0.7342356443405151,
    -0.8807153701782227,
    0.6559954881668091,
    -0.9112552404403687,
    -0.4742392301559448,
    0.004422107245773077,
    -0.3493941128253937,
    0.9396801590919495,
    0.463838666677475,
    -0.3811699450016022,
    0.2669546604156494,
    1.0,
    0.030445346608757973,
    0.48652297258377075,
    -0.6040256023406982,
    -0.6044130921363831,
    -0.7537827491760254,
    0.9831385016441345,
    0.4034728705883026,
    -0.6163517236709595,
    -0.4127780795097351,
    -0.10120246559381485,
    -0.8387494087219238,
    0.7544329762458801,
    -0.705838143825531,
    -0.471669465303421,
    0.13791319727897644,
    -0.9288644194602966,
    0.9173804521560669,
    -0.9976348280906677,
    -0.3637775778770447,
    -0.0745721235871315,
    0.3237190246582031,
    -0.7745108604431152,
    -0.40316781401634216,
    1.0,
    0.578310489654541,
    -0.4862026274204254,
    0.3920833468437195,
    -0.10844752937555313,
    0.6428387761116028,
    -0.3652149736881256,
    0.332795113325119,
    -0.15659043192863464,
    0.13138841092586517,
    0.4741967022418976,
    0.864012598991394,
    0.18641620874404907,
    0.38274478912353516,
    -0.0618518628180027,
    -0.6536300182342529,
    -0.22055727243423462,
    -0.5670826435089111,
    0.06569720804691315,
    -0.3636402487754822,
    0.2576981484889984,
    0.6041445136070251,
    0.4639975130558014,
    -0.002868881681933999,
    0.36172983050346375,
    0.019482823088765144,
    -0.2782374620437622,
    -0.17645204067230225,
    -0.28225356340408325,
    0.9581865668296814,
    0.9343363642692566,
    -0.9911496639251709,
    0.978029727935791,
    0.37139812111854553,
    -1.0,
    -0.24891513586044312,
    0.2292761206626892,
    -0.37113842368125916,
    -0.9072481989860535,
    -1.0,
    0.9397169351577759,
    0.7450485229492188,
    -0.6370006203651428,
    -0.5021485686302185,
    -0.6248787045478821,
    -0.7796655893325806,
    -0.7937527894973755,
    -0.7138310670852661,
    1.0,
    -0.8043214082717896,
    0.9432386159896851,
    0.7436323165893555,
    -0.6004120111465454,
    0.266795814037323,
    -0.589516818523407,
    0.4379253685474396,
    0.525596022605896,
    -0.8542344570159912,
    -0.1624927669763565,
    -0.4731743633747101,
    -0.528907060623169,
    0.6155949234962463,
    0.06244989112019539,
    -0.3637073040008545,
    0.2802360951900482,
    -0.7252663373947144,
    0.31971192359924316,
    0.3867000341415405,
    0.6459303498268127,
    0.9939115643501282,
    0.31726425886154175,
    -0.604812741279602,
    -0.8027527928352356,
    0.3607562482357025,
    0.28047123551368713,
    0.8368420004844666,
    -0.798538088798523,
    -0.4619007706642151,
    0.6156560778617859,
    0.47783762216567993,
    -0.40783095359802246,
    -0.7519669532775879,
    0.11340980231761932,
    0.03025909513235092,
    0.13307589292526245,
    -0.3524642288684845,
    0.900115966796875,
    0.47285670042037964,
    -0.49202287197113037,
    -0.4363081157207489,
    0.07265838980674744,
    0.6379560828208923,
    0.6322920322418213,
    -0.8681966662406921,
    0.10516069829463959,
    -0.28888818621635437,
    -0.24504229426383972,
    0.20726963877677917,
    -0.6510424017906189,
    -0.9576678276062012,
    1.0,
    -0.354173481464386,
    -0.5594195127487183,
    -0.838932454586029,
    0.6809930801391602,
    -0.4456586241722107,
    0.6687156558036804,
    -0.9396435618400574,
    0.6233986616134644,
    -0.5902798175811768,
    -0.24532610177993774,
    0.4509262144565582,
    -0.5808892250061035,
    -0.386288046836853,
    0.11506395041942596,
    0.345268189907074,
    -0.28908655047416687,
    0.7783166170120239,
    0.09600818902254105,
    -0.0487351194024086,
    -0.4738823473453522,
    0.5076203942298889,
    -0.8556840419769287,
    -0.7466537356376648,
    -0.5289894938468933,
    0.6655692458152771,
    0.14521020650863647,
    -0.5946347117424011,
    0.44479814171791077,
    0.5317025184631348,
    -0.060865774750709534,
    -0.49447911977767944,
    0.07700733840465546,
    -0.3904232382774353,
    -0.757573127746582,
    -0.9423260688781738,
    0.00042732033762149513,
    0.34805744886398315,
    -0.07063216716051102,
    0.17119981348514557,
    0.8936765789985657,
    0.26501044631004333,
    0.03163238987326622,
    0.5169406533241272,
    0.007437341380864382,
    -0.14654071629047394,
    -0.8052247762680054,
    0.37017732858657837,
    -0.36617937684059143,
    0.1232946440577507,
    -0.7582537531852722,
    -0.25011447072029114,
    -0.875286340713501,
    -0.6628438234329224,
    -0.8288094401359558,
    0.0716424211859703,
    0.3409925103187561,
    0.587719202041626,
    0.5685322880744934,
    -0.35359662771224976,
    0.6619310975074768,
    -0.7104219198226929,
    -0.059193987399339676,
    0.553059458732605,
    0.6222388744354248,
    -0.015863554552197456,
    -0.9124178290367126,
    -0.9824549555778503,
    -0.12928549945354462,
    -0.09107019007205963,
    -0.82115238904953,
    -0.3287729024887085,
    -0.8056946992874146,
    0.8066866397857666,
    0.42172905802726746,
    0.6391279697418213,
    0.06677145510911942,
    0.7759636044502258,
    -0.15707890689373016,
    -1.0,
    -0.13095170259475708,
    0.2740898132324219,
    0.7314400672912598,
    0.37447431683540344,
    -0.1133335754275322,
    -0.25941646099090576,
    0.3702903091907501,
    -0.16324640810489655,
    -0.8419660329818726,
    0.850471556186676,
    0.5955959558486938,
    -0.6061615943908691,
    0.9113345742225647,
    0.7708762288093567,
    0.08327899873256683,
    -0.9185735583305359,
    0.5158421397209167,
    0.9306192398071289,
    -0.4667409062385559,
    -0.3964751958847046,
    0.6905179023742676,
    -0.77292400598526,
    -0.674318790435791,
    0.8583483695983887,
    0.8578843474388123,
    0.8447005152702332,
    0.06936555355787277,
    -1.0,
    0.7059113383293152,
    -0.5925930142402649,
    -0.8930875062942505,
    0.15997201204299927,
    -0.9804223775863647,
    0.3074008524417877,
    0.7046449780464172,
    -0.8593006134033203,
    0.6455154418945313,
    -0.09655144065618515,
    0.3690968453884125,
    0.2774771451950073,
    0.7203528881072998,
    -0.8775262832641602,
    -0.10350357741117477,
    -0.17535030841827393,
    0.32931917905807495,
    0.5254157781600952,
    1.0,
    0.07329335063695908,
    0.22050848603248596,
    -0.324924498796463,
    0.7055084705352783,
    -0.8286080360412598,
    -1.0,
    0.03340248391032219,
    -0.14774920046329498,
    -0.5028809309005737,
    -0.17958635091781616,
    0.14917753636837006,
    -0.7558733224868774,
    0.45642250776290894,
    0.2970733046531677,
    -0.42661529779434204,
    0.4842829704284668,
    -0.12051142007112503,
    -0.6482434272766113,
    0.46975916624069214,
    0.0008513416396453977,
    0.7115846872329712,
    -0.4222480058670044,
    -0.47907963395118713,
    0.0647478774189949,
    0.2728783190250397,
    -0.174626886844635,
    0.27713853120803833,
    -0.5748773813247681,
    0.013568522408604622,
    -0.4072512090206146,
    -0.1509476602077484,
    -1.0,
    -0.4076418876647949,
    -0.07568906247615814,
    0.11743216961622238,
    0.13006995618343353,
    0.3155066668987274,
    -0.1236426904797554,
    0.881298303604126,
    -0.0025422123726457357,
    0.35909587144851685,
    -0.8300424218177795,
    0.1244453564286232,
    0.7600115537643433,
    0.09573352336883545,
    -0.27582937479019165,
    0.16873686015605927,
    -0.11615339666604996,
    0.5728660821914673,
    -0.5341258645057678,
    0.3121708333492279,
    0.09356377273797989,
    -0.015152382664382458,
    0.9754875898361206,
    -0.5383467078208923,
    0.16577962040901184,
    0.1002960279583931,
    -0.6005921363830566,
    -0.3020356595516205,
    -0.31484735012054443,
    -0.9116702675819397,
    0.7957518696784973,
    0.5091402530670166,
    -0.6274543404579163,
    -0.15413065254688263,
    0.9189429879188538,
    0.6278785467147827,
    -0.7129246592521667,
    0.4043886661529541,
    0.7570300102233887,
    -0.19134195148944855,
    0.961146891117096,
    -0.8400127291679382,
    -0.3450300693511963,
    0.6713033318519592,
    0.5768305659294128,
    0.10135200619697571,
    0.868434488773346,
    -0.15342572331428528,
    -0.7391340732574463,
    -0.1715904325246811,
    -0.8386546969413757,
    0.022620242089033127,
    0.05576055496931076,
    0.6318462491035461,
    -0.6585375666618347,
    0.22972813248634338,
    0.7612261176109314,
    0.7852747440338135,
    0.8034029006958008,
    0.3030395805835724,
    0.20540489256381989,
    0.1670888215303421,
    0.06256898492574692,
    0.8672323226928711,
    1.0,
    -0.0732596144080162,
    0.2921292185783386,
    -0.13212986290454865,
    -0.8652485609054565,
    0.07378782331943512,
    0.8835627436637878,
    0.6798884272575378,
    0.1602252572774887,
    -0.4784783720970154,
    0.48135626316070557,
    0.8517897129058838,
    0.21045272052288055,
    0.07141941785812378,
    0.16913670301437378,
    -0.6062930226325989,
    0.49544963240623474,
    0.45135340094566345,
    0.4550216495990753,
    -0.3639272451400757,
    -0.9455000162124634,
    0.309329628944397,
    0.9738150835037231,
    0.5891018509864807,
    1.0,
    0.32475942373275757,
    -0.40701308846473694,
    -0.8856870532035828,
    0.653813362121582,
    -0.4293985068798065,
    -0.2505539655685425,
    -0.4746421277523041,
    0.9729911088943481,
    0.5166661739349365,
    -0.11356247216463089,
    0.6330667734146118,
    0.3301248848438263,
    0.32725298404693604,
    0.1028260588645935,
    0.3671468198299408,
    -0.5750021934509277,
    -0.056663792580366135,
    -0.318277508020401,
    -0.2789299786090851,
    0.4009643495082855,
    1.0,
    -0.8878750205039978,
    -0.8018983006477356,
    0.8612567782402039,
    -0.5907529592514038,
    0.5756402611732483,
    -1.0,
    -1.0,
    -0.3634968400001526,
    -0.14564354717731476,
    0.4499526619911194,
    -0.1606738567352295,
    -0.5394666194915771,
    0.2608357071876526,
    -0.10282903909683228,
    0.8829522728919983,
    -0.8767052292823792,
    -0.835105299949646,
    0.7961392998695374,
    0.7338908910751343,
    0.7272499203681946,
    0.05602888762950897,
    1.0,
    -0.962739884853363,
    0.8619892001152039,
    0.7144567370414734,
    -0.35189366340637207,
    -0.24942463636398315,
    0.736356794834137,
    -0.8085817098617554,
    0.927545964717865,
    -0.14565886557102203,
    0.953816294670105,
    -0.41605275869369507,
    0.8092013001441956,
    0.3311503529548645,
    0.1893887221813202,
    -0.40940889716148376,
    0.5080327987670898,
    -0.10899374634027481,
    0.688781201839447,
    0.8274726867675781,
    -0.05626692995429039,
    -0.20837412774562836,
    0.13646939396858215,
    0.6548751592636108,
    0.3195531666278839,
    -0.04098942503333092,
    -0.6951507329940796,
    0.40880444645881653,
    -0.6859523057937622,
    -0.16194652020931244,
    -0.8205389380455017,
    -0.7292916774749756,
    0.5279915928840637,
    -0.9665425419807434,
    -0.44961076974868774,
    0.4063783884048462,
    -0.4531450867652893,
    0.41057777404785156,
    -0.08836323022842407,
    -0.9313303232192993,
    0.5391094088554382,
    0.1811426728963852,
    -0.30202335119247437,
    -0.9287453889846802,
    -0.8061890602111816,
    0.5954926013946533,
    0.06416209042072296,
    0.4155827760696411,
    0.4780299961566925,
    -0.7493180632591248,
    -0.8353526592254639,
    0.9391856789588928,
    -0.5818201303482056,
    0.8134435415267944,
    0.010541079565882683,
    -0.4706381559371948,
    0.8515458106994629,
    0.8422284722328186,
    0.32880061864852905,
    -0.046317946165800095,
    -0.8400524258613586,
    -0.8759941458702087,
    0.015363013371825218,
    -0.9457380771636963,
    -0.8591265678405762,
    -0.4793146848678589,
    0.5494094491004944,
    -1.0,
    0.24912267923355103,
    -0.9190374612808228,
    0.35707563161849976,
    0.8777946829795837,
    -0.16463503241539001,
    0.7473248839378357,
    -0.6331949234008789,
    0.4427870213985443,
    -0.07083361595869064,
    0.05851920694112778,
    0.7973996996879578,
    -0.7263283133506775,
    0.3603840470314026,
    0.31002816557884216,
    0.5473434329032898,
    0.2909053564071655,
    -0.29678934812545776,
    -0.9497879147529602,
    0.7876033186912537,
    -0.37389156222343445,
    0.33020123839378357,
    0.23415330052375793,
    0.20968031883239746,
    -0.8985443115234375,
    0.8779687881469727,
    -1.0,
    0.12893161177635193,
    0.14244215190410614,
    -0.5422894358634949,
    -0.31894874572753906,
    -0.6386672258377075,
    0.21728269755840302,
    -0.4829617440700531,
    1.0,
    -0.6082764267921448,
    -0.6391735076904297,
    0.13978083431720734,
    -0.8753105401992798,
    0.7513687610626221,
    0.13722340762615204,
    0.46810203790664673,
    0.1519211083650589,
    0.8759849667549133,
    0.7053621411323547,
    0.3743858337402344,
    -0.6590167284011841,
    0.8471783995628357,
    -0.19433583319187164,
    0.8419690132141113,
    -0.9247749447822571,
    -0.9944853186607361,
    -0.03749809414148331,
    -0.7470200061798096,
    -0.4563707113265991,
    -0.24179209768772125,
    -0.35163119435310364,
    -0.5850458741188049,
    -0.29605692625045776,
    0.032090190798044205,
    -0.2538559138774872,
    0.4724021852016449,
    -0.9396893382072449,
    0.054228365421295166,
    -0.8922484517097473,
    -0.3328562378883362,
    0.08729197084903717,
    0.6212987899780273,
    0.4081667959690094,
    0.6042696833610535,
    0.0765463337302208,
    0.12455220520496368,
    -0.14080923795700073,
    -0.3446027338504791,
    0.26612141728401184,
    0.7791528105735779,
    0.7604267001152039,
    0.052809227257966995,
    -0.08588820695877075,
    -0.41292449831962585,
    0.8745173811912537,
    -0.1329507678747177,
    0.37940290570259094,
    -1.0,
    0.33334749937057495,
    0.34216755628585815,
    -0.8317545056343079,
    0.7554641366004944,
    -1.0,
    -0.6397838592529297,
    1.0,
    -0.8056887984275818,
    0.05815606191754341,
    0.8242530226707458,
    0.6271370053291321,
    0.13399764895439148,
    0.9058412313461304,
    0.10212404280900955,
    -0.9252628684043884,
    0.05981629341840744,
    0.4253487288951874,
    -0.4340709447860718,
    0.44890278577804565,
    0.37870725989341736,
    -0.1573687046766281,
    -0.8312784433364868,
    -0.5108857750892639,
    -0.5132237076759338,
    -0.6897732019424438,
    0.9028137922286987,
    0.17443154752254486,
    0.48792076110839844,
    -0.7345622181892395,
    0.06468691676855087,
    0.12471067160367966,
    -0.37722092866897583,
    1.0,
    0.1859797239303589,
    0.3768394887447357,
    0.14293637871742249,
    0.6568315029144287,
    -0.008603177033364773,
    -0.20364995300769806,
    -0.6896601319313049,
    0.7043886184692383,
    -0.8322823643684387,
    -0.5540726184844971,
    -0.14883583784103394,
    0.35048073530197144,
    -0.1884000152349472,
    -0.7021699547767639,
    0.40553006529808044,
    -0.8073703050613403,
    0.027033306658267975,
    -0.4503066837787628,
    -0.42606285214424133,
    -0.3057194650173187,
    0.9641010165214539,
    0.6853141188621521,
    -0.9677755236625671,
    -0.7942137122154236,
    0.3530047535896301,
    0.28483837842941284,
    -0.87741619348526,
    0.32840973138809204,
    0.43787962198257446,
    0.7729390859603882,
    0.8476333022117615,
    0.06602692604064941,
    -0.2469283491373062,
    -1.0,
    0.6060670614242554,
    0.1106601431965828,
    0.539005696773529,
    -0.37432172894477844,
    -0.15905027091503143,
    -0.5735254287719727,
    0.4586048126220703,
    0.9160680174827576,
    0.7135748863220215,
    0.9362315535545349,
    0.384743869304657,
    -0.3001159429550171,
    -0.6043947339057922,
    0.19653922319412231,
    -0.1749320775270462,
    -0.9374799132347107,
    -0.4328532814979553,
    0.7007691264152527,
    -0.21865585446357727,
    0.5306404232978821,
    0.4569138288497925,
    -0.1119205579161644,
    0.20854215323925018,
    0.44818562269210815,
    0.41908007860183716,
    0.4237554967403412,
    0.8275794982910156,
    -0.22801312804222107,
    0.9843776226043701,
    -0.7728142142295837,
    -0.22941377758979797,
    -0.6504532098770142,
    -0.11288803815841675,
    -0.4718224108219147,
    0.3851131200790405,
    -0.6227452158927917,
    -0.6739921569824219,
    -0.7364391088485718,
    0.4017426073551178,
    -0.020978402346372604,
    -1.0,
    0.42061540484428406,
    -0.08925750851631165,
    -0.23151041567325592,
    0.32252877950668335,
    -0.8081393837928772,
    0.9113101363182068,
    0.1665792167186737,
    0.8899502754211426,
    0.8480178713798523,
    0.15565654635429382,
    -0.3302164077758789,
    0.14493852853775024,
    -0.539280116558075,
    0.39833351969718933,
    -0.43233445286750793,
    1.0,
    -0.17300944030284882,
    -0.7829035520553589,
    -0.560844898223877,
    0.1658681482076645,
    -0.6510117650032043,
    0.2429061383008957,
    0.3709310293197632,
    -0.6409496068954468,
    -0.18592794239521027,
    0.5112767219543457,
    0.11109043657779694,
    0.4184330403804779,
    -0.8190770149230957,
    -0.34747764468193054,
    -0.23407404124736786,
    0.8087741732597351,
    0.8952116370201111,
    0.8880947232246399,
    -0.8769585490226746,
    -0.17038790881633759,
    -1.0,
    0.004010284785181284,
    -0.12777487933635712,
    -0.8799187541007996,
    0.9417248964309692,
    -0.909262478351593,
    0.3661670386791229,
    -0.40927162766456604,
    -0.9307503700256348,
    -0.23546279966831207,
    -0.9600695967674255,
    0.06529168039560318,
    -0.5804253816604614,
    -0.4123294949531555,
    -0.11746873706579208,
    -0.1535324901342392,
    -0.25437796115875244,
    0.2866266965866089,
    -0.3396192491054535,
    -0.5404033064842224,
    1.0,
    0.9801355004310608,
    0.5869596004486084,
    -0.5154271721839905,
    -0.28564080595970154,
    -0.5837123990058899,
    -0.5218909978866577,
    -0.3744834363460541,
    -0.740824282169342,
    0.5347240567207336,
    -0.21734367311000824,
    -0.6586077809333801,
    0.3808189928531647,
    0.5776818990707397,
    0.7624011635780334,
    -0.6482834219932556,
    0.12497632205486298,
    0.02271183766424656,
    0.381887286901474,
    0.926429033279419,
    -0.452024906873703,
    -0.8923094272613525,
    -0.5664814710617065,
    0.3955685496330261,
    -0.1420058012008667,
    1.0,
    0.6952269673347473,
    0.5524367094039917,
    -0.915576696395874,
    0.8963255882263184,
    0.5712453722953796,
    0.855534553527832,
    -0.11545458436012268,
    -0.6428689956665039,
    -0.06650587916374207,
    0.4219276010990143,
    -0.5221900939941406,
    0.3258582651615143,
    0.17809386551380157,
    -1.0,
    -0.6718193292617798,
    -0.13325907289981842,
    -0.16265766322612762,
    -0.6863583326339722,
    0.10635406523942947,
    0.7375590205192566,
    0.3168981075286865,
    -0.9271767139434814,
    -0.21328148245811462,
    0.28593096137046814,
    0.5387617349624634,
    -0.69588303565979,
    -0.638493001461029,
    0.5810115337371826,
    -0.765187680721283,
    -0.3065858781337738,
    0.38250383734703064,
    0.6820946335792542,
    0.4248175024986267,
    -0.9293709993362427,
    -0.7247046232223511,
    -0.1683339625597,
    -0.2095370590686798,
    -0.45736271142959595,
    0.22007809579372406,
    -0.2229558676481247,
    -0.7839259505271912,
    -0.1732994168996811,
    0.35353854298591614,
    0.7307995557785034,
    0.46117129921913147,
    0.18302573263645172,
    -0.4696858525276184,
    -0.5116397738456726,
    0.12265388667583466,
    -0.7475020289421082,
    -0.925611138343811,
    0.08314770460128784,
    0.41108745336532593,
    -0.23162336647510529,
    -0.0024108460638672113,
    -0.41928789019584656,
    0.6687734723091125,
    -0.9311472177505493,
    0.6411634683609009,
    -0.9117557406425476,
    -0.5402355790138245,
    0.2893764078617096,
    -0.1756311058998108,
    -0.47252729535102844,
    -0.79653000831604,
    0.22667619585990906,
    0.5184482932090759,
    0.6131933331489563,
    0.6236822605133057,
    -0.9110934734344482,
    0.08347111940383911,
    -0.2261756956577301,
    -0.9511978626251221,
    0.9195562601089478,
    -0.8162725567817688,
    -0.32713401317596436,
    -0.6626941561698914,
    -0.7818354368209839,
    0.9541671276092529,
    0.1524857133626938,
    -0.9750602841377258,
    0.47165772318840027,
    0.314313143491745,
    0.8802331686019897,
    0.4709586799144745,
    -0.3733297884464264,
    -0.6307686567306519,
    0.9826716184616089,
    0.38731342554092407,
    -0.5109286308288574,
    0.015265366062521935,
    -0.4826013743877411,
    0.04859166964888573,
    -0.4490737020969391,
    0.17139184474945068,
    1.0,
    0.8665181994438171,
    -0.3702566921710968,
    -0.3760979473590851,
    0.6723044514656067,
    0.8738242387771606,
    -0.3297494649887085,
    -0.9727194905281067,
    -0.6656240820884705,
    0.6940916776657104,
    -0.10476095229387283,
    -0.8572680354118347,
    0.7801660895347595,
    -0.24247266352176666,
    0.5406995415687561,
    0.9241828322410583,
    -0.048567164689302444,
    -0.07305526733398438,
    0.09375908970832825,
    -0.054460324347019196,
    0.20750762522220612,
    0.4266672730445862,
    0.7878566980361938,
    0.10325004160404205,
    0.06240113824605942,
    -0.34397101402282715,
    -0.1474807858467102,
    0.12363351881504059,
    0.8314399719238281,
    0.28455451130867004,
    -0.6675312519073486,
    0.01218003872781992,
    0.8790186047554016,
    0.09808643162250519,
    0.25741150975227356,
    0.283642053604126,
    -0.01969653181731701,
    -0.1762322187423706,
    -0.4002104103565216,
    -0.8527818322181702,
    -0.287005215883255,
    -0.728586733341217,
    0.7039887309074402,
    -0.5955748558044434,
    0.7028717994689941,
    0.4224889576435089,
    -0.04481962323188782,
    -0.17152006924152374,
    0.7423110008239746,
    -0.9065674543380737,
    0.019214430823922157,
    0.7412518858909607,
    -0.7422559261322021,
    -0.7216559648513794,
    -1.0,
    0.7109378576278687,
    -0.4183873236179352,
    -0.20221568644046783,
    -0.10768459737300873,
    0.5899049043655396,
    -0.49736925959587097,
    0.1792566329240799,
    0.7874904870986938,
    0.25451216101646423,
    -0.48613861203193665,
    0.2760460674762726,
    -1.0,
    0.6822078227996826,
    -0.6396282315254211,
    0.24271376430988312,
    -0.01834460161626339,
    0.9111361503601074,
    0.6293069124221802,
    0.9450086951255798,
    -0.5806392431259155,
    0.04471888020634651,
    0.9576891660690308,
    0.384591281414032,
    0.013739456422626972,
    -0.6627674698829651,
    0.5307289361953735,
    0.7923886775970459,
    -0.4926815927028656,
    0.05426810309290886,
    0.4921444356441498,
    0.04514303430914879,
    -0.30783113837242126,
    0.6560869216918945,
    0.7885097861289978,
    0.21927562355995178,
    0.6062714457511902,
    0.5202674269676208,
    -0.20520341396331787,
    0.10481876879930496,
    -0.44967809319496155,
    -0.5637437701225281,
    0.07755064219236374,
    -0.5345958471298218,
    -0.7056704163551331,
    -1.0,
    0.07062900811433792,
    -0.4621446430683136,
    0.3245246410369873,
    -0.5322609543800354,
    -0.8755455613136292,
    0.8408430218696594,
    -0.9238929748535156,
    -0.8605059385299683,
    0.8899197578430176,
    0.3562334179878235,
    -0.6149386167526245,
    -0.17327505350112915,
    -0.2360452562570572,
    -0.2987150549888611,
    0.40634480118751526,
    1.0,
    0.27510926127433777,
    0.5925047993659973,
    0.7752737998962402,
    -0.5930082201957703,
    0.4746878445148468,
    -0.9379772543907166,
    -0.46253809332847595,
    -0.0445174016058445,
    -0.41621753573417664,
    -0.330487996339798,
    -0.8014252185821533,
    -0.9023164510726929,
    -0.36783039569854736,
    -0.041019752621650696,
    -0.414310097694397,
    -0.6071230173110962,
    0.08325445652008057,
    0.999755859375,
    -0.6676169633865356,
    -0.2944181561470032,
    -0.8399914503097534,
    0.8531388640403748,
    -0.5613391399383545,
    0.6109530925750732,
    0.6398359537124634,
    -0.23181569576263428,
    -0.7832605242729187,
    0.1741996854543686,
    0.5348612070083618,
    -0.17848756909370422,
    -0.7229285836219788,
    -0.9291300177574158,
    0.20968663692474365,
    -0.8795495629310608,
    0.22220827639102936,
    -0.5810145139694214,
    -0.46552321314811707,
    -0.838212251663208,
    -0.20897860825061798,
    0.1423870325088501,
    -0.7070833444595337,
    -0.15931858122348785,
    0.30969586968421936,
    -0.9574388861656189,
    0.38583630323410034,
    -0.8281778693199158,
    -0.9979522228240967,
    -0.8720480799674988,
    0.005639923270791769,
    -0.44711753726005554,
    -0.0817529708147049,
    -0.21393780410289764,
    0.20078442990779877,
    0.32039546966552734,
    -0.7096102833747864,
    -0.11177702993154526,
    -0.8616137504577637,
    -0.898638904094696,
    -0.17991887032985687,
    0.7383342981338501,
    1.0,
    -0.2843317985534668,
    0.09125339984893799,
    0.5728263258934021,
    -0.06474193185567856,
    0.39484232664108276,
    0.20309743285179138,
    0.577239453792572,
    0.777999222278595,
    0.5112674236297607,
    -0.8127320408821106,
    -0.3356456160545349,
    -0.22453996539115906,
    0.9857999086380005,
    0.48565641045570374,
    0.9590563178062439,
    -0.8408795595169067,
    -0.9857569932937622,
    -0.9167637825012207,
    -0.7331399917602539,
    -1.0,
    -0.3327035903930664,
    -0.3113590478897095,
    -0.26149794459342957,
    0.8747215270996094,
    0.5900114178657532,
    0.6310250759124756,
    -0.42852845788002014,
    -0.38521069288253784,
    -0.10499905049800873,
    0.1465621441602707,
    -0.6139987111091614,
    -0.1268898844718933,
    -0.8450148105621338,
    0.673915684223175,
    0.45885801315307617,
    0.012118911370635033,
    -0.028409726917743683,
    0.6882868409156799,
    0.2172611802816391,
    -1.0,
    -0.0035551816690713167,
    -0.6258337497711182,
    -0.8141301274299622,
    -0.22205570340156555,
    -0.6082095503807068,
    -0.41068753600120544,
    -0.2931760549545288,
    -0.3147648572921753,
    1.0,
    -0.10026569664478302,
    0.5347086191177368,
    0.3280159533023834,
    0.9973723292350769,
    0.5446485877037048,
    -0.2548355758190155,
    0.7826257348060608,
    0.8392804265022278,
    -0.4870084226131439,
    0.1478651911020279,
    -0.49107328057289124,
    -0.06966761499643326,
    0.6713797450065613,
    0.8007538914680481,
    0.010092541575431824,
    -0.28966644406318665,
    0.762828528881073,
    -0.03289593383669853,
    -0.6574693918228149,
    -0.24556709825992584,
    0.10990029573440552,
    0.14300359785556793,
    -0.1372905969619751,
    0.2675314247608185,
    0.871022641658783,
    0.015033517964184284,
    -0.5260263085365295,
    -0.8864497542381287,
    0.6674977540969849,
    0.22967609763145447,
    -0.2741814851760864,
    0.10066533833742142,
    0.28521984815597534,
    0.3927489221096039,
    -0.7355478405952454,
    -0.7921810150146484,
    0.7461137771606445,
    -0.5690633058547974,
    -0.8955473303794861,
    -0.4840937852859497,
    0.7728080153465271,
    0.5378126502037048,
    0.4354170262813568,
    0.13055206835269928,
    -0.13517256081104279,
    0.42152461409568787,
    0.30746492743492126,
    -0.6168645024299622,
    -0.6994752287864685,
    0.3406231701374054,
    -0.9585162401199341,
    -0.30676910281181335,
    0.6380811333656311,
    0.8662860989570618,
    0.06432386487722397,
    0.09291056543588638,
    -0.958723783493042,
    0.8672016859054565,
    0.7182227373123169,
    -0.8419507145881653,
    -0.4917753040790558,
    0.7419232130050659,
    0.7106084823608398,
    -0.03385728970170021,
    0.8570146560668945,
    -0.5107883810997009,
    -0.17066559195518494,
    0.49639561772346497,
    -0.49421682953834534,
    0.08078546077013016,
    1.0,
    -0.17688217759132385,
    -0.40517598390579224,
    -0.434937447309494,
    0.5098270177841187,
    0.8394543528556824,
    0.82029789686203,
    0.6616350412368774,
    -0.6626361012458801,
    -0.5631185173988342,
    0.8621081709861755,
    0.19141221046447754,
    -0.2603626251220703,
    0.04629968851804733,
    0.4805964231491089,
    -0.5602648258209229,
    -0.2512405216693878,
    0.6681478023529053,
    -0.09270603209733963,
    0.4214422404766083,
    -0.044898729771375656,
    0.2418011724948883,
    -0.7213444709777832,
    0.5943207144737244,
    0.925916314125061,
    0.4189184904098511,
    -0.40238043665885925,
    -0.553868293762207,
    0.5233649015426636,
    0.15300147235393524,
    -0.8036133050918579,
    -0.3965727686882019,
    0.4840845763683319,
    1.0,
    -0.15382850170135498,
    0.2636738121509552,
    0.6156986355781555,
    -0.31948617100715637,
    -0.7532487511634827,
    -0.33416223526000977,
    0.44198745489120483,
    -0.08329715579748154,
    0.7278908491134644,
    0.2152409851551056,
    0.7204656004905701,
    0.9307565093040466,
    -0.9223548173904419,
    0.47569507360458374,
    0.8326120972633362,
    -0.12082267552614212,
    -0.9889004230499268,
    0.5315134525299072,
    -0.8959410786628723,
    0.0171391312032938,
    -0.17728203535079956,
    -0.7860287427902222,
    0.13200776278972626,
    -0.21486568450927734,
    -0.5877923965454102,
    -0.4445449113845825,
    0.272890567779541,
    -0.05876946449279785,
    -0.7249549627304077,
    0.5348643064498901,
    -0.6269234418869019,
    -0.6979888081550598,
    0.12789098918437958,
    0.8961272239685059,
    -0.2981598377227783,
    -0.2617571949958801,
    0.9470717310905457,
    0.8871700167655945,
    0.8070527911186218,
    -0.6898741722106934,
    0.21311989426612854,
    -0.9793939590454102,
    0.7630482912063599,
    -0.08857996761798859,
    -0.32820820808410645,
    -0.8207892179489136,
    0.8481093645095825,
    0.45134758949279785,
    -0.17372362315654755,
    -0.6023589968681335,
    0.15928834676742554,
    0.47241127490997314,
    0.944636344909668,
    -0.935352623462677,
    -0.6701895594596863,
    0.3956204652786255,
    -0.09907227009534836,
    0.20819725096225739,
    -0.18885159492492676,
    0.5680440068244934,
    -0.5913875699043274,
    0.9624285101890564,
    -0.29052722454071045,
    0.7721669673919678,
    0.9886775016784668,
    -0.033143118023872375,
    -0.1701926738023758,
    0.07387316972017288,
    -0.20146161317825317,
    -0.8912899494171143,
    0.22423766553401947,
    0.2607073485851288,
    0.8220282196998596,
    0.45657220482826233,
    -0.030118752270936966,
    0.777672529220581,
    0.598217785358429,
    0.7762230038642883,
    0.5015106797218323,
    0.4611286222934723,
    -0.5282997488975525,
    -0.49881893396377563,
    -0.7691000699996948,
    -0.9066378474235535,
    0.36852961778640747,
    0.602218508720398,
    0.09334999322891235,
    -0.49111300706863403,
    -0.5670767426490784,
    -0.5335886478424072,
    -0.3215368986129761,
    -1.0,
    0.8053866028785706,
    -0.1602678745985031,
    -0.5447219014167786,
    -0.900134265422821,
    -0.34285101294517517,
    -0.8624106645584106,
    -0.11972097307443619,
    -1.0,
    -0.9070467352867126,
    0.7417554259300232,
    0.869228184223175,
    -0.9367137551307678,
    0.5487472414970398,
    0.4579852223396301,
    0.20997346937656403,
    0.8056368231773376,
    0.13505664467811584,
    -0.9823816418647766,
    -0.33860576152801514,
    0.17417828738689423,
    0.21058988571166992,
    0.4652884602546692,
    0.31807607412338257,
    -0.21917475759983063,
    0.08465240150690079,
    -0.8037172555923462,
    0.6217198371887207,
    -0.7186315655708313,
    0.36516284942626953,
    0.4482589662075043,
    -0.9460829496383667,
    -0.7680593729019165,
    -1.0,
    -0.2851831614971161,
    -0.1886715143918991,
    -0.8138097524642944,
    -1.0,
    -0.46173879504203796,
    -0.054115504026412964,
    0.10674760490655899,
    0.11601611226797104,
    0.482036828994751,
    -0.5002045035362244,
    -0.6911007761955261,
    0.8225317597389221,
    0.27477341890335083,
    -0.4536270499229431,
    0.4822535812854767,
    0.0007049011182971299,
    0.20231319963932037,
    -0.524237871170044,
    0.8223640322685242,
    0.837983250617981,
    -0.05189666897058487,
    0.9026368260383606,
    -0.17072361707687378,
    0.8879786133766174,
    0.7030946016311646,
    0.2911068797111511,
    0.019956111907958984,
    0.8790459632873535,
    -0.6272406578063965,
    0.7773002982139587,
    0.30885636806488037,
    -0.021811623126268387,
    0.5862573981285095,
    0.5744986534118652,
