{
  "input": 76,
  "network_layers": [
    50,
    10,
    3
  ],
  "observer": {
    "cellInterpreter": {
      "type": "WallFoodBody"
    },
    "height": 5,
    "type": "GridObserver",
    "width": 5
  },
  "type": "GeneticBot",
  "weights": [
    -0.3730125427246094,
    -0.41044944524765015,
    -1.0,
    0.013116891495883465,
    0.6434004306793213,
    0.06289862096309662,
    -0.17667174339294434,
    0.6736869215965271,
    0.175368532538414,
    1.0,
    -0.4023010730743408,
    0.5495986938476563,
    0.7888759970664978,
    0.2877163589000702,
    -0.23468437790870667,
    0.626276433467865,
    0.13323478400707245,
    0.4266915023326874,
    -0.7990081906318665,
    -0.39484238624572754,
    0.030997728928923607,
    0.18489031493663788,
    0.4393964111804962,
    0.9493849277496338,
    -0.7961027026176453,
    0.3233252763748169,
    -0.5132388472557068,
    0.490362286567688,
    0.7439863681793213,
    0.3291909992694855,
    -0.33010345697402954,
    -0.6194431781768799,
    1.0,
    -0.18438978493213654,
    0.5288124084472656,
    -0.007333569694310427,
    -0.8742333650588989,
    -0.6830012798309326,
    -1.0,
    0.5675313472747803,
    0.15234221518039703,
    -0.0860501155257225,
    0.6569443345069885,
    0.3693625330924988,
    -0.20571599900722504,
    0.42008113861083984,
    0.3112122714519501,
    0.3330514430999756,
    -0.04947969317436218,
    -0.2393229603767395,
    -0.8093386888504028,
    0.45240333676338196,
    0.9725639224052429,
    0.2044953554868698,
    -0.7616289854049683,
    0.09909658879041672,
    0.04275655001401901,
    0.2779839336872101,
    0.2571490406990051,
    0.9039918780326843,
    0.6067844033241272,
    -0.4137118458747864,
    -0.6593950986862183,
    0.18645888566970825,
    -0.6987091302871704,
    -0.006918440107256174,
    0.9063112139701843,
    0.6052095293998718,
    -0.5882930159568787,
    0.5644611716270447,
    0.6541553139686584,
    -0.9369091987609863,
    -0.6288706660270691,
    0.692489504814148,
    -0.5830899477005005,
    0.5893735289573669,
    -0.15444502234458923,
    0.6903958320617676,
    -0.7048584222793579,
    0.9583422541618347,
    -0.574889063835144,
    -0.9552720189094543,
    -0.34841758012771606,
    -0.8043217062950134,
    -0.37966853380203247,
    0.18979164958000183,
    -0.2851313650608063,
    -1.0,
    -0.7228766083717346,
    -0.9352672696113586,
    0.18916906416416168,
    -0.8952391147613525,
    -0.8643879294395447,
    -0.37392476201057434,
    -0.7681114077568054,
    -0.3124973177909851,
    0.9873867034912109,
    -0.5956448316574097,
    -0.22642911970615387,
    0.6626058220863342,
    0.09138147532939911,
    0.19623716175556183,
    -0.10028087347745895,
    0.8790855407714844,
    0.9578233957290649,
    -0.14112365245819092,
    0.5904780626296997,
    0.8406872749328613,
    0.4659901261329651,
    -0.9077300429344177,
    -0.41661128401756287,
    -0.1591784954071045,
    -0.2877652645111084,
    0.5700674653053284,
    -0.5348490476608276,
    0.07603377848863602,
    -0.04165157303214073,
    -0.15328530967235565,
    0.7402966022491455,
    0.7903072834014893,
    -0.4266701638698578,
    0.7834680676460266,
    0.6372539401054382,
    0.7387003898620605,
    -0.18276625871658325,
    0.010510668158531189,
    0.576744794845581,
    0.7524704337120056,
    -0.2428387850522995,
    0.0755455493927002,
    -0.4691425561904907,
    -0.9078676700592041,
    0.6484024524688721,
    -0.5952420234680176,
    -0.9600818157196045,
    -0.7599169015884399,
    0.8308969140052795,
    -0.6086153984069824,
    -0.9588702321052551,
    0.3525528311729431,
    0.9468978047370911,
    0.48964789509773254,
    1.0,
    0.12231523543596268,
    0.0029938891530036926,
    -0.34189578890800476,
    -0.349622905254364,
    -0.18091675639152527,
    0.75139319896698,
    -0.9248605370521545,
    0.3356669247150421,
    0.8554581999778748,
    0.6923763155937195,
    -0.8748862147331238,
    0.7216649055480957,
    0.9146488904953003,
    -0.2256355881690979,
    -0.7639973163604736,
    0.7440747022628784,
    -0.900482177734375,
    -0.4375898540019989,
    -0.21150846779346466,
    0.5497969388961792,
    -0.5198554992675781,
    0.33462318778038025,
    0.4964720904827118,
    -0.1044892743229866,
    -0.19523601233959198,
    0.11843624711036682,
    0.03483984246850014,
    0.6465741991996765,
    -0.6346721053123474,
    0.4072449505329132,
    -0.16521503031253815,
    0.4687184691429138,
    -0.4001556932926178,
    -0.5738428235054016,
    0.0039003551937639713,
    -0.12491536885499954,
    0.19789423048496246,
    0.009424103423953056,
    -0.5769738554954529,
    -0.4139714539051056,
    0.13786739110946655,
    -0.7277323007583618,
    0.6029816269874573,
    -0.36038097739219666,
    0.5328562259674072,
    0.5479201078414917,
    -0.427817702293396,
    0.9763603210449219,
    0.4357435703277588,
    0.2896237373352051,
    1.0,
    1.0,
    -0.058360520750284195,
    -0.16457709670066833,
    0.18888209760189056,
    0.3429853916168213,
    0.03720541670918465,
    0.6617909669876099,
    -0.9047150015830994,
    0.7958678603172302,
    0.2729635536670685,
    -0.443852037191391,
    -0.7947478294372559,
    0.19862663745880127,
    -0.3918302059173584,
    -0.8789575695991516,
    -0.07505729049444199,
    0.79683518409729,
    -0.6918423175811768,
    0.2296946495771408,
    -0.44377583265304565,
    -0.017032399773597717,
    -0.31296736001968384,
    0.4062594473361969,
    -0.5623188614845276,
    0.3570851683616638,
    -0.6238899230957031,
    -0.6861324310302734,
    -0.21704456210136414,
    0.9009613394737244,
    0.8671802282333374,
    -1.0,
    0.5221502184867859,
    -0.12844935059547424,
    -0.5723715424537659,
    -0.6277138590812683,
    0.1399853229522705,
    -0.16637468338012695,
    0.36335641145706177,
    0.11037636548280716,
    -0.06276749074459076,
    0.1620136946439743,
    -0.73309725522995,
    0.7864865064620972,
    0.25994136929512024,
    -0.2763603627681732,
    0.6776666641235352,
    -0.006024572066962719,
    -0.12583090364933014,
    0.22203437983989716,
    0.41373950242996216,
    -0.293069064617157,
    0.7877622246742249,
    0.06051521375775337,
    0.19067366421222687,
    0.715366005897522,
    0.9067965745925903,
    0.6996397972106934,
    -0.018695751205086708,
    0.26914265751838684,
    1.0,
    -0.6186800003051758,
    -0.8734580874443054,
    -0.5907956957817078,
    0.5198795795440674,
    -0.07666856795549393,
    0.966063380241394,
    -0.48648643493652344,
    0.16803501546382904,
    0.49836722016334534,
    -0.3403241038322449,
    -0.7847682237625122,
    0.9345439076423645,
    -0.10631116479635239,
    0.6522874236106873,
    -0.6267555356025696,
    -0.5309947729110718,
    -1.0,
    0.8463088274002075,
    -0.5856104493141174,
    0.18848231434822083,
    0.934559166431427,
    -0.6381115317344666,
    0.04511553794145584,
    0.4476303458213806,
    -1.0,
    0.8825280666351318,
    -0.41331517696380615,
    -0.7315988540649414,
    0.1747947633266449,
    0.8380535840988159,
    0.7079654335975647,
    0.35785388946533203,
    -0.47837162017822266,
    -0.2370585948228836,
    -0.17829224467277527,
    -0.9160161018371582,
    -0.5166937112808228,
    -0.4329814016819,
    -0.30152595043182373,
    0.4713796377182007,
    -0.9655414819717407,
    0.27559730410575867,
    0.8561267852783203,
    -0.917041540145874,
    -0.7064881920814514,
    -1.0,
    -0.7685384750366211,
    -0.6982267498970032,
    0.5188817977905273,
    0.6152437329292297,
    0.06300554424524307,
    -0.5017790794372559,
    0.5841914415359497,
    -0.3445113003253937,
    -0.018173828721046448,
    -0.6125155687332153,
    -0.6754721999168396,
    -0.18953222036361694,
    -0.7143834233283997,
    0.7853571176528931,
    -0.03166304528713226,
    0.3097628653049469,
    0.8158053755760193,
    0.0798455998301506,
    0.5156527757644653,
    -0.5292612314224243,
    0.7526749968528748,
    -1.0,
    -0.4455702602863312,
    -0.2852290868759155,
    -0.33360376954078674,
    -0.19719229638576508,
    0.5333842635154724,
    -0.8034854531288147,
    -0.12140271812677383,
    -0.8288521766662598,
    -0.5370954275131226,
    -0.5041411519050598,
    -0.1434585154056549,
    0.6348523497581482,
    0.8095493316650391,
    -0.1043519452214241,
    -0.24099254608154297,
    -0.9693593978881836,
    -0.5027680397033691,
    -0.8729300498962402,
    0.6013151407241821,
    0.9991179704666138,
    -0.8323221206665039,
    0.9031403660774231,
    -0.012790336273610592,
    -0.018289851024746895,
    0.4548752009868622,
    -0.3537461757659912,
    -0.7249305844306946,
    -0.11539957672357559,
    -0.3361676335334778,
    -1.0,
    0.6850825548171997,
    -0.63641756772995,
    -0.555333137512207,
    0.7670735120773315,
    0.3962462544441223,
    -0.934943675994873,
    0.9404216408729553,
    -0.05915403366088867,
    -0.04157232493162155,
    0.27448639273643494,
    0.005017288960516453,
    -0.45855891704559326,
    -0.01764879748225212,
    1.0,
    0.05339522287249565,
    -0.06902991980314255,
    -0.7037293910980225,
    -0.4739219546318054,
    -0.9101413488388062,
    0.6032747030258179,
    0.5800348520278931,
    0.5864222645759583,
    -0.8990386128425598,
    1.0,
    1.0,
    -0.9231360554695129,
    -0.7547227740287781,
    -1.0,
    -0.04023865610361099,
    0.6552903056144714,
    -0.5150209665298462,
    -0.23985087871551514,
    -0.44064149260520935,
    0.7097873091697693,
    -0.08752080798149109,
    0.8988616466522217,
    0.1990203708410263,
    -0.9160649180412292,
    -0.3385266065597534,
    -0.8786337375640869,
    -0.5564409494400024,
    -0.25855588912963867,
    -0.022101672366261482,
    0.1862788200378418,
    0.576418399810791,
    -0.48883935809135437,
    0.2904599905014038,
    0.5126562118530273,
    -0.8574235439300537,
    1.0,
    0.9946012496948242,
    0.6980561017990112,
    -0.006198330782353878,
    -0.38481080532073975,
    0.5586870312690735,
    0.7361460328102112,
    0.790752649307251,
    0.23016448318958282,
    -0.1349378526210785,
    -0.32047486305236816,
    -0.33660995960235596,
    -0.8820918202400208,
    -0.7157993316650391,
    -0.08221077173948288,
    0.06435444205999374,
    0.5695180892944336,
    0.6659992933273315,
    0.23201391100883484,
    0.4750451147556305,
    -0.6098541617393494,
    -0.38614168763160706,
    0.5038971304893494,
    0.5915830135345459,
    0.9718559980392456,
    -0.9417065978050232,
    0.10201723128557205,
    0.36481207609176636,
    -0.2772393822669983,
    -0.022431327030062675,
    0.6389539241790771,
    0.8033753633499146,
    0.4842036962509155,
    0.07902791351079941,
    0.47495654225349426,
    -0.5433242917060852,
    -1.0,
    -0.16377456486225128,
    0.9440382122993469,
    -0.2984160780906677,
    -0.7748495936393738,
    -0.3636128604412079,
    0.3156590163707733,
    -0.2854914665222168,
    0.43531298637390137,
    0.05151212587952614,
    0.8622485995292664,
    0.3339121341705322,
    -0.773726761341095,
    0.28836023807525635,
    0.06620071083307266,
    -0.471990168094635,
    -0.9968993663787842,
    0.8902707099914551,
    0.6744984984397888,
    -0.6655932664871216,
    0.9704458713531494,
    -0.9410321116447449,
    0.3101809322834015,
    -0.8354349136352539,
    0.9597399830818176,
    -0.03230684995651245,
    -0.9212594628334045,
    0.6001037359237671,
    0.7240974307060242,
    0.7688406705856323,
    -0.06561174988746643,
    0.1793663501739502,
    0.2817072868347168,
    -0.5822594165802002,
    -0.6850703358650208,
    0.3101535141468048,
    -0.15725578367710114,
    -0.8668111562728882,
    0.19900819659233093,
    -0.6067598462104797,
    0.917377233505249,
    0.21398350596427917,
    0.6051515340805054,
    1.0,
    -0.9026002287864685,
    0.23902706801891327,
    0.6891046762466431,
    0.6986083984375,
    -0.2591693103313446,
    0.42014533281326294,
    0.6806910634040833,
    0.5459790229797363,
    -0.9816736578941345,
    0.3916563093662262,
    -1.0,
    -0.2569689452648163,
    -0.3023498058319092,
    -0.9716057181358337,
    0.8647571802139282,
    -0.8975157737731934,
    -0.1827785223722458,
    -0.616028368473053,
    0.2719808518886566,
    -0.5064975619316101,
    -0.5642261505126953,
    -0.0873866081237793,
    0.8276529312133789,
    -0.9850550889968872,
    -0.04065654054284096,
    0.6093751788139343,
    -0.5596972107887268,
    0.1260567158460617,
    -0.9894132614135742,
    -0.4535353183746338,
    0.9351145625114441,
    1.0,
    -0.0991576611995697,
    0.4792626202106476,
    0.5744132995605469,
    1.0,
    0.999969482421875,
    -0.8647909164428711,
    -0.8199740648269653,
    -0.8326486945152283,
    0.15367291867733002,
    0.7771690487861633,
    0.6161563396453857,
    0.28006213903427124,
    0.4079163670539856,
    0.7021666169166565,
    0.09698472917079926,
    -0.9222723841667175,
    0.06605424731969833,
    0.17875303328037262,
    1.0,
    0.31247594952583313,
    -0.6475142240524292,
    1.0,
    1.0,
    -0.28276926279067993,
    0.5547685623168945,
    -0.24245421588420868,
    0.7312387824058533,
    -0.9940946698188782,
    -0.6857845187187195,
    -0.7768303155899048,
    0.15414589643478394,
    0.3015807867050171,
    0.32265087962150574,
    -0.12347488850355148,
    0.8535233736038208,
    -0.29156190156936646,
    -0.6504868268966675,
    -0.17689752578735352,
    -0.30242323875427246,
    0.9020599126815796,
    -0.27796870470046997,
    0.02408507838845253,
    -0.12637099623680115,
    0.22413404285907745,
    0.4659717381000519,
    -0.6215401291847229,
    0.6677722334861755,
    -0.7893186211585999,
    -0.900347888469696,
    0.9638081192970276,
    1.0,
    0.06859344989061356,
    -0.3567553460597992,
    0.2215583622455597,
    -0.3302927315235138,
    -0.522476851940155,
    -0.32548293471336365,
    0.0748741626739502,
    -0.482970654964447,
    -0.6819697022438049,
    -0.9238198399543762,
    -0.677757978439331,
    -0.38583314418792725,
    -0.3172978162765503,
    0.2181127965450287,
    0.7751914858818054,
    0.6240452527999878,
    0.47254258394241333,
    -0.6608112454414368,
    -0.618091344833374,
    0.7052797675132751,
    0.34958040714263916,
    0.7314127683639526,
    0.03153780847787857,
    0.7767327427864075,
    0.5561509728431702,
    -0.6957640051841736,
    0.19442732632160187,
    0.04501169174909592,
    -0.32339227199554443,
    0.0034517021849751472,
    0.4831780791282654,
    0.9318063855171204,
    -0.874932050704956,
    0.7223485708236694,
    -0.8293312788009644,
    0.21161849796772003,
    0.7874448299407959,
    0.037076856940984726,
    -0.6834985613822937,
    -0.8007598519325256,
    -1.0,
    0.010983584448695183,
    0.8555254340171814,
    0.035364843904972076,
    0.757786750793457,
    -0.825101375579834,
    -0.12645651400089264,
    -0.9569750428199768,
    0.0515916608273983,
    -0.7537246942520142,
    -0.6798790693283081,
    0.3411268889904022,
    -0.8224280476570129,
    0.7613849639892578,
    0.9574756622314453,
    -0.6247231364250183,
    0.9508255124092102,
    -0.8329294919967651,
    0.2070162147283554,
    0.06698809564113617,
    0.004953350871801376,
    -0.5865963101387024,
    -0.15778060257434845,
    0.29966118931770325,
    0.15171672403812408,
    0.15170761942863464,
    -0.283446729183197,
    -0.4489181339740753,
    0.1286689043045044,
    0.27472159266471863,
    0.9704458117485046,
    -0.5649312138557434,
    -0.74549400806427,
    0.3095797598361969,
    -0.9473249912261963,
    -0.7138248085975647,
    0.0410412922501564,
    0.9475601315498352,
    -0.44661107659339905,
    0.7406445741653442,
    -0.6940398216247559,
    0.537839949131012,
    0.6315287947654724,
    -1.0,
    0.32941046357154846,
    -0.6668266654014587,
    -0.9538346529006958,
    -0.9831202030181885,
    -0.5500472784042358,
    0.002420161385089159,
    -0.7325388789176941,
    0.955186665058136,
    0.925458550453186,
    -0.9750328063964844,
    -0.322519451379776,
    -0.7503767609596252,
    0.002997003495693207,
    -0.54847252368927,
    -0.6427932381629944,
    0.49699702858924866,
    0.7478927373886108,
    0.952766478061676,
    -0.5665088891983032,
    0.2743673324584961,
    0.039045363664627075,
    -0.415518581867218,
    0.45722222328186035,
    0.4942716062068939,
    0.0925167128443718,
    0.4644247889518738,
    -0.6651570796966553,
    0.12285210937261581,
    -0.5212989449501038,
    0.7797175049781799,
    -0.2726736068725586,
    -0.41598257422447205,
    0.5262032747268677,
    -0.5761772990226746,
    -0.6973631978034973,
    -0.4003722071647644,
    -0.9192541241645813,
    0.5604481101036072,
    -0.7849941253662109,
    -0.6388102769851685,
    -0.5946807861328125,
    -0.043165355920791626,
    -0.10065305978059769,
    -1.0,
    -0.7869990468025208,
    -0.1943540722131729,
    0.5368205904960632,
    -0.1293831467628479,
    0.4017610251903534,
    -0.2989043891429901,
    -0.8405346870422363,
    0.23609399795532227,
    0.4441174864768982,
    0.11706587672233582,
    0.13208119571208954,
    0.6783959269523621,
    0.27144068479537964,
    0.7994018197059631,
    0.4203527271747589,
    -0.7108645439147949,
    0.1723838746547699,
    0.36708271503448486,
    -0.035892825573682785,
    -0.2844872772693634,
    0.7494611740112305,
    0.4220103323459625,
    0.6143803596496582,
    0.3940458297729492,
    0.19082000851631165,
    0.24206362664699554,
    0.36724743247032166,
    -0.3745536506175995,
    0.9673513174057007,
    0.7353862524032593,
    -0.5699667930603027,
    0.3104405701160431,
    -0.8441694974899292,
    0.9208776950836182,
    0.5382702946662903,
    -0.9260140061378479,
    0.33734557032585144,
    -0.6253548264503479,
    -0.554768443107605,
    -0.5129764676094055,
    -0.31727951765060425,
    0.8539807796478271,
    -0.7260109782218933,
    0.042799320071935654,
    -0.7150669097900391,
    -0.5348886847496033,
    0.6493940949440002,
    0.1867823302745819,
    -0.9120029807090759,
    0.18583330512046814,
    -0.49303576350212097,
    0.49821171164512634,
    0.5339640378952026,
    -0.06035039946436882,
    -0.7574693560600281,
    0.2537826895713806,
    0.008566755801439285,
    -1.0,
    0.9389721155166626,
    -0.4269173741340637,
    -0.14007703959941864,
    -0.1490248739719391,
    0.35910528898239136,
    -0.9156773090362549,
    -0.7662252187728882,
    0.7298438549041748,
    0.5978912711143494,
    -0.9527695775032043,
    -0.24308906495571136,
    -0.6681206226348877,
    -0.44773080945014954,
    0.6384106278419495,
    0.2154272496700287,
    0.8471816182136536,
    -0.7756186723709106,
    -0.053486716002225876,
    -0.9523453116416931,
    0.6505172252655029,
    -0.40115970373153687,
    0.8116611242294312,
    -0.3141544759273529,
    0.13332617282867432,
    0.3266091048717499,
    -0.02391740120947361,
    -0.7427535057067871,
    -0.12674951553344727,
    -1.0,
    -0.8413312435150146,
    0.22978919744491577,
    -0.5558457374572754,
    0.05263850837945938,
    -0.7980466485023499,
    -0.46626192331314087,
    0.7178594470024109,
    0.16443367302417755,
    -0.6213905811309814,
    0.3088168203830719,
    -0.43541061878204346,
    0.41539350152015686,
    1.0,
    -0.026142386719584465,
    0.5298715233802795,
    -0.6778375506401062,
    -0.6461715698242188,
    0.7970275282859802,
    0.7095522880554199,
    -0.3896235227584839,
    0.8238623142242432,
    0.7138857841491699,
    0.7273232340812683,
    -0.3070467710494995,
    0.11487475037574768,
    -0.13660384714603424,
    -0.812036395072937,
    0.007651068735867739,
    -0.37768474221229553,
    0.8053834438323975,
    0.28702664375305176,
    -0.9206457734107971,
    -0.20088814198970795,
    0.31175875663757324,
    -0.27306437492370605,
    0.6092898845672607,
    -0.5744864344596863,
    0.280632883310318,
    0.2990935146808624,
    -0.4880794882774353,
    -0.6580125093460083,
    0.6965026259422302,
    0.8534532189369202,
    0.826776921749115,
    -0.3638691008090973,
    0.965434730052948,
    -0.524152398109436,
    -0.041755471378564835,
    0.12443932890892029,
    -0.18895533680915833,
    -0.2588671147823334,
    -0.8062715530395508,
    -0.4478744864463806,
    0.5054445862770081,
    -0.040315013378858566,
    0.36821186542510986,
    0.7960814833641052,
    0.0272743571549654,
    -0.2688620388507843,
    0.039625223726034164,
    -0.07579570263624191,
    -0.35938897728919983,
    0.18285779654979706,
    -0.7013916373252869,
    -0.3449445962905884,
    0.9728598594665527,
    0.7846399545669556,
    -0.26527005434036255,
    0.9769249558448792,
    -0.5067323446273804,
    -0.8888148069381714,
    0.4374582767486572,
    -0.927777886390686,
    -1.0,
    -1.0,
    -0.7802942395210266,
    0.41182899475097656,
    0.6213721036911011,
    -0.1220039576292038,
    0.6823511123657227,
    0.6381847262382507,
    -0.9692709445953369,
    -0.0988340899348259,
    0.11082185059785843,
    -0.4895535409450531,
    0.4563921093940735,
    1.0,
    0.7416669726371765,
    -0.3100162148475647,
    -0.6585620045661926,
    -0.6153844594955444,
    -0.6904110312461853,
    0.7597642540931702,
    0.1948912888765335,
    0.6328350305557251,
    0.8299204707145691,
    -0.7636921405792236,
    -0.7618213891983032,
    -0.24526824057102203,
    -0.5271522998809814,
    0.13399146497249603,
    -0.7702140212059021,
    0.5501816272735596,
    0.9623218178749084,
    0.68458491563797,
    0.6072573661804199,
    0.669502854347229,
    0.337052583694458,
    0.26427194476127625,
    -0.08666033297777176,
    -0.5436046719551086,
    0.29996365308761597,
    0.6952329874038696,
    -0.767540693283081,
    -0.23247790336608887,
    0.8827511072158813,
    1.0,
    0.876983106136322,
    0.33175453543663025,
    0.48173487186431885,
    -0.5473647117614746,
    0.04182254895567894,
    -1.0,
    0.5156497955322266,
    -0.6803827285766602,
    0.7788446545600891,
    -1.0,
    0.6948514580726624,
    -1.0,
    0.7083712220191956,
    -0.6434431672096252,
    -0.44545429944992065,
    -0.8427656888961792,
    0.05100572109222412,
    0.6982877254486084,
    0.3732261061668396,
    -0.6433820724487305,
    -0.13713191449642181,
    -0.5366557240486145,
    -0.11176474392414093,
    0.1854640245437622,
    0.8040375709533691,
    -0.8169927000999451,
    0.05086842551827431,
    0.11638539284467697,
    0.5280738472938538,
    -0.4984283447265625,
    0.8217353224754333,
    1.0,
    -0.23375648260116577,
    0.028775811195373535,
    0.14791102707386017,
    -0.18551291525363922,
    -0.5648759603500366,
    0.886178195476532,
    -0.6130496263504028,
    0.5510482788085938,
    0.17258217930793762,
    0.8543320298194885,
    0.28677627444267273,
    -0.5502303838729858,
    0.15434740483760834,
    0.9172338843345642,
    0.015393557026982307,
    -0.5709402561187744,
    -0.016556281596422195,
    0.7594714760780334,
    -0.3732474446296692,
    0.5028533339500427,
    -0.25639501214027405,
    0.5147829055786133,
    0.08186294138431549,
    -0.7038604021072388,
    0.6488996148109436,
    -0.8375621438026428,
    0.3577473759651184,
    0.8812310695648193,
    1.0,
    -0.28511905670166016,
    -0.42501282691955566,
    -0.6146243810653687,
    -0.6459699273109436,
    -0.05497609078884125,
    -0.11090458929538727,
    0.9465346336364746,
    -0.8524187207221985,
    0.9085940718650818,
    -0.7650594115257263,
    0.08141723275184631,
    -0.18948033452033997,
    -0.15419167280197144,
    -0.5641376972198486,
    0.9680593013763428,
    -0.03771466761827469,
    0.9639027118682861,
    -0.7232186198234558,
    0.39973142743110657,
    0.46300241351127625,
    1.0,
    0.9053317308425903,
    0.4388560950756073,
    -0.067735955119133,
    0.9050905108451843,
    0.5593858957290649,
    0.507888913154602,
    -0.34938502311706543,
    0.5872768759727478,
    0.35490596294403076,
    0.5781152248382568,
    -0.5752614140510559,
    -0.15712755918502808,
    -0.9439281821250916,
    0.19417093694210052,
    -0.5539353489875793,
    -0.5011597275733948,
    -0.2218543142080307,
    -0.3022737205028534,
    0.2782861292362213,
    -0.6719046831130981,
    -0.9663227796554565,
    0.5638233423233032,
    -0.03603317216038704,
    0.4810878336429596,
    0.28721579909324646,
    0.3594101667404175,
    -0.5936002135276794,
    -0.3063235580921173,
    -0.3845057189464569,
    -0.7626973390579224,
    -0.5744257569313049,
    0.3004213869571686,
    -0.41297048330307007,
    0.020645922049880028,
    -0.7111268639564514,
    -0.5063326358795166,
    0.6168431043624878,
    -0.32121339440345764,
    0.6193638443946838,
    -0.005810740403831005,
    0.021738439798355103,
    -0.7382456064224243,
    -0.8151280879974365,
    -0.9164067506790161,
    0.7810116410255432,
    0.1342722475528717,
    -0.1607348769903183,
    -0.1324777603149414,
    1.0,
    -0.9198614358901978,
    -0.8969024419784546,
    0.24013492465019226,
    0.7106599807739258,
    0.7092896103858948,
    0.9146245121955872,
    -0.07899410277605057,
    -0.48687395453453064,
    0.20954011380672455,
    0.5435436367988586,
    -0.30428779125213623,
    -0.38766127824783325,
    0.7038543224334717,
    -0.933417797088623,
    -0.13630785048007965,
    -0.011908302083611488,
    -0.03584699332714081,
    -1.0,
    0.8859736919403076,
    0.636249840259552,
    -0.7898190021514893,
    0.9188879132270813,
    0.4548018276691437,
    0.0279425960034132,
    -0.45913875102996826,
    0.6240789294242859,
    0.5645010471343994,
    -0.7729361653327942,
    0.05453355237841606,
    0.21739551424980164,
    -0.7749229073524475,
    0.09352710843086243,
    0.5273721814155579,
    -0.5580552816390991,
    0.6282387375831604,
    0.7148014307022095,
    -0.964790940284729,
    0.6713675260543823,
    0.9707727432250977,
    -0.2669181525707245,
    0.15872979164123535,
    -0.2684437036514282,
    -0.045451175421476364,
    0.1684957891702652,
    -0.7028229236602783,
    0.42165589332580566,
    -0.7211341261863708,
    0.7258644700050354,
    -0.2923032343387604,
    -0.380544513463974,
    0.7158390283584595,
    -1.0,
    -0.42739638686180115,
    -0.8334910869598389,
    -0.6677143573760986,
    0.5084627866744995,
    0.4279944896697998,
    0.46771758794784546,
    0.8810510635375977,
    0.2707236409187317,
    -0.48443859815597534,
    -0.6184179186820984,
    -0.4876245856285095,
    -0.5964537858963013,
    -0.1336558610200882,
    0.4358074367046356,
    -0.06068296357989311,
    -0.20438851416110992,
    0.6477584838867188,
    -0.960756242275238,
    -0.3303690254688263,
    0.33824288845062256,
    -0.11844546347856522,
    -0.8407085537910461,
    -0.6742882132530212,
    0.284688800573349,
    -0.3766045868396759,
    -0.9306955337524414,
    -0.26526370644569397,
    0.04395897686481476,
    0.45948684215545654,
    -0.7449995279312134,
    0.47853943705558777,
    0.14326605200767517,
    0.2589159607887268,
    0.015448478981852531,
    0.16212627291679382,
    0.6288368701934814,
    -0.9759727120399475,
    -0.33446747064590454,
    0.15736863017082214,
    -0.35601964592933655,
    0.7075045704841614,
    -0.9802116751670837,
    0.9204688668251038,
    1.0,
    -0.8157078623771667,
    0.14132820069789886,
    -0.10711078345775604,
    -0.8770805597305298,
    0.5124147534370422,
    0.8512314558029175,
    1.0,
    0.3118534982204437,
    -0.5338696241378784,
    0.13570643961429596,
    -0.6014406085014343,
    -0.23162318766117096,
    -0.43133318424224854,
    0.7015076279640198,
    -1.0,
    -0.22507093846797943,
    -0.27484047412872314,
    -0.2579333782196045,
    -0.7186407446861267,
    -0.39379870891571045,
    -0.9894955158233643,
    -0.24487455189228058,
    -0.5517319440841675,
    0.3709585666656494,
    -0.7723625302314758,
    0.4765222370624542,
    0.16707056760787964,
    0.22211065888404846,
    0.542222261428833,
    0.5503340363502502,
    0.1603168398141861,
    -0.1604478508234024,
    -0.7673299312591553,
    -0.4325691759586334,
    1.0,
    0.7483228445053101,
    -0.1272774487733841,
    -0.5765587091445923,
    -0.10958597809076309,
    0.46936875581741333,
    -0.8868373036384583,
    0.8844233751296997,
    -0.9061524271965027,
    -0.0031494630966335535,
    -0.37956172227859497,
    -0.7435193657875061,
    -0.35521411895751953,
    0.002862790832296014,
    0.6764243841171265,
    0.6247748732566833,
    0.32433244585990906,
    0.00541400071233511,
    -0.22013312578201294,
    -0.3135380446910858,
    0.7681875228881836,
    -0.6737998127937317,
    0.33855101466178894,
    -0.1737174689769745,
    0.5066133737564087,
    0.08315983414649963,
    0.5432753562927246,
    -0.06835827976465225,
    -0.2195165604352951,
    -0.7582933306694031,
    0.40496838092803955,
    -0.046467479318380356,
    -0.9488936066627502,
    -0.16004200279712677,
    0.9661394357681274,
    -0.5299445390701294,
    0.9463056325912476,
    0.6981719732284546,
    0.26978379487991333,
    0.1744409054517746,
    0.7224249839782715,
    -0.9292672276496887,
    -0.43819090723991394,
    0.48650774359703064,
    -0.1519242525100708,
    -0.5964476466178894,
    -0.9797723293304443,
    -0.0063631488010287285,
    0.3285897374153137,
    -0.1779899150133133,
    -0.5783655643463135,
    0.9658984541893005,
    0.04962906613945961,
    0.5475904941558838,
    -0.30221277475357056,
    -0.38573867082595825,
    0.6360605359077454,
    -0.7532761693000793,
    0.8334513902664185,
    -0.4641468822956085,
    0.2193640023469925,
    0.7019806504249573,
    0.2290719747543335,
    -0.8858423233032227,
    0.019501276314258575,
    -0.27751705050468445,
    -0.7101443409919739,
    0.7827295660972595,
    -0.8259162306785583,
    -0.46833106875419617,
    0.7010009288787842,
    -0.719190239906311,
    -0.14639419317245483,
    -0.7457565069198608,
    -0.19225743412971497,
    -0.22897736728191376,
    0.4910610318183899,
    0.6148837804794312,
    -0.544202983379364,
    0.8484907746315002,
    -0.5471480488777161,
    0.9959532618522644,
    0.5129001140594482,
    0.8043458461761475,
    -1.0,
    -0.15951108932495117,
    0.03580731153488159,
    -0.5949246883392334,
    -0.6631000638008118,
    -0.40062251687049866,
    -0.2061740607023239,
    -0.28285184502601624,
    0.8553453683853149,
    -0.5055055022239685,
    0.38913533091545105,
    -0.6806269288063049,
    -0.3633900582790375,
    -0.3494705557823181,
    0.711246132850647,
    -0.5787833333015442,
    -0.15453964471817017,
    -0.05524763464927673,
    -0.22647494077682495,
    -0.454371839761734,
    0.049562063068151474,
    -0.5420972108840942,
    -0.5657399296760559,
    0.18120050430297852,
    0.21548190712928772,
    -0.5580952167510986,
    0.20599377155303955,
    0.6820276379585266,
    1.0,
    0.9113345742225647,
    -0.20679034292697906,
    0.8091219067573547,
    -0.511478066444397,
    0.22675253450870514,
    -0.6053101420402527,
    -0.26801663637161255,
    -0.15923939645290375,
    0.871025800704956,
    0.7544479966163635,
    0.11272606998682022,
    0.44422125816345215,
    -1.0,
    0.04404130578041077,
    0.9692646861076355,
    -0.2444746345281601,
    0.3427228629589081,
    -0.8284920454025269,
    0.39765915274620056,
    -0.19672851264476776,
    -0.1589372456073761,
    -1.0,
    0.5156498551368713,
    0.3951992988586426,
    0.18293099105358124,
    -0.5649006366729736,
    0.3379650115966797,
    0.01381869986653328,
    0.558247447013855,
    0.6548418998718262,
    -0.44056519865989685,
    -0.21550028026103973,
    -0.984505832195282,
    0.5816981196403503,
    -0.28120967745780945,
    -0.11811274290084839,
    0.7452101707458496,
    0.14262215793132782,
    -0.09992674738168716,
    -0.6533676981925964,
    0.41895821690559387,
    -0.7331980466842651,
    0.7245031595230103,
    0.6233285069465637,
    -0.7700487971305847,
    -0.503250241279602,
    0.956407368183136,
    0.8676352500915527,
    0.32485121488571167,
    0.48912313580513,
    0.2252541482448578,
    0.026523610576987267,
    -0.4933956563472748,
    -0.983654260635376,
    0.22448505461215973,
    -0.37375396490097046,
    -0.925574541091919,
    -0.15520188212394714,
    -0.4737998843193054,
    -0.5061219334602356,
    0.34926003217697144,
    -0.1767570823431015,
    -0.9222205281257629,
    -0.14100466668605804,
    0.5715080499649048,
    -0.2495681345462799,
    0.9540116190910339,
    -0.1292947381734848,
    -0.8879697322845459,
    0.9981780052185059,
    0.6038147807121277,
    -0.6211705803871155,
    0.24361087381839752,
    0.11620844900608063,
    -0.3388317823410034,
    0.6347393989562988,
    0.7303597927093506,
    -0.2769399881362915,
    -0.9823969602584839,
    -0.6579120755195618,
    -0.9006714224815369,
    0.20248724520206451,
    -0.5123966932296753,
    -0.4140050411224365,
    0.08198492228984833,
    -0.2992248237133026,
    0.4445144534111023,
    -0.7709463834762573,
    -0.41928160190582275,
    -1.0,
    -0.7820092439651489,
    0.6360819935798645,
    -0.9917752742767334,
    0.5787101984024048,
    -0.6651051640510559,
    -0.658638060092926,
    -0.6900877952575684,
    -0.6001982092857361,
    -0.9429913759231567,
    -0.6093112230300903,
    0.23349717259407043,
    -0.8918853998184204,
    0.9499099850654602,
    -0.8771752715110779,
    0.9148076176643372,
    -0.8393258452415466,
    -0.214398592710495,
    0.30987298488616943,
    0.1437911093235016,
    -0.47970548272132874,
    0.13060088455677032,
    0.33448266983032227,
    -0.6730125546455383,
    -0.4393536448478699,
    -0.6555651426315308,
    -0.31185635924339294,
    -0.15392932295799255,
    1.0,
    -0.250178724527359,
    0.2872737944126129,
    0.14927223324775696,
    -0.4609241187572479,
    0.15878167748451233,
    0.3524765372276306,
    0.41452983021736145,
    -0.571001410484314,
    -0.2474134862422943,
    0.6511335372924805,
    0.7142826914787292,
    -0.19836129248142242,
    0.9845668077468872,
    0.9192999005317688,
    0.4853329062461853,
    0.6762352585792542,
    0.9643146991729736,
    0.09327369928359985,
    -0.7184545993804932,
    -0.8835113048553467,
    0.72160404920578,
    0.03511161729693413,
    -0.3189796209335327,
    0.05616321414709091,
    0.9588915705680847,
    -0.8670763969421387,
    -0.12590721249580383,
    -0.3824916183948517,
    -0.8550095558166504,
    0.3972502648830414,
    -0.49159520864486694,
    -0.6323404908180237,
    -0.6286477446556091,
    -0.7614185214042664,
    0.04869227856397629,
    -0.10395511239767075,
    -0.1676168590784073,
    -0.7830286622047424,
    -0.7455549240112305,
    0.6023682355880737,
    -0.8883141875267029,
    0.23857545852661133,
    0.5018768906593323,
    0.1218084841966629,
    -1.0,
    -0.2693656086921692,
    0.7897427082061768,
    -0.8669240474700928,
    0.1437603086233139,
    -0.16669820249080658,
    0.6144442558288574,
    -0.9723501205444336,
    0.4774194061756134,
    0.9443800449371338,
    0.3980988562107086,
    0.5135379433631897,
    -0.24072392284870148,
    -0.6646686792373657,
    -1.0,
    -0.7357738018035889,
    -0.49425944685935974,
    -0.7528581619262695,
    0.5372446775436401,
    -0.2445690929889679,
    -0.08412420004606247,
    0.2898680567741394,
    -0.3935636878013611,
    0.32327035069465637,
    0.2745751142501831,
    0.441215455532074,
    -0.22493374347686768,
    -0.6951078772544861,
    0.638059675693512,
    -0.45007795095443726,
    0.08721891790628433,
    -0.5084322094917297,
    -0.6520523428916931,
    0.22782979905605316,
    0.30777615308761597,
    -0.8623401522636414,
    0.35233619809150696,
    -0.5605211853981018,
    0.5622150301933289,
    -0.995376467704773,
    -0.6077088713645935,
    -0.7851467132568359,
    -0.9380993247032166,
    -0.5729332566261292,
    -0.06616716086864471,
    -0.4304514229297638,
    -0.38577210903167725,
    0.20234376192092896,
    -0.8249549865722656,
    0.4623982906341553,
    -0.34519800543785095,
    -0.11319015920162201,
    0.861513078212738,
    0.5501631498336792,
    0.2072817087173462,
    0.535624086856842,
    -0.4052979052066803,
    -0.034641724079847336,
    -0.6487075686454773,
    -0.9624744653701782,
    0.18276000022888184,
    0.0006470454391092062,
    -0.9858302474021912,
    -0.39681994915008545,
    0.31670281291007996,
    0.9547104835510254,
    -0.6152012348175049,
    -0.6493364572525024,
    0.7856745719909668,
    -0.38458821177482605,
    -0.5411359071731567,
    0.33971676230430603,
    -0.38676711916923523,
    0.35838189721107483,
    0.03714708238840103,
    -0.39968565106391907,
    -0.7906641960144043,
    -0.5682149529457092,
    -0.8796349763870239,
    -0.21358387172222137,
    -0.7288918495178223,
    -1.0,
    0.7450056672096252,
    0.46716517210006714,
    0.9516770839691162,
    0.5829676389694214,
    -1.0,
    -0.7941526174545288,
    0.45863524079322815,
    -0.8087406158447266,
    -0.2146580070257187,
    0.4711172580718994,
    0.5426372289657593,
    0.6489392518997192,
    0.315909206867218,
    -0.5558915138244629,
    0.764067530632019,
    -0.2069673240184784,
    0.34295183420181274,
    -0.5129306316375732,
    0.24535366892814636,
    -0.582549512386322,
    -0.38356876373291016,
    -0.6677693724632263,
    -0.7355388402938843,
    -0.47475194931030273,
    0.016525771468877792,
    -0.3945554494857788,
    -0.5078341364860535,
    -0.3752617835998535,
    -0.8420209288597107,
    -0.39746996760368347,
    0.8853540420532227,
    -0.13657636940479279,
    -0.4158726632595062,
    0.3229254484176636,
    -0.18381302058696747,
    -0.7854762077331543,
    0.512658953666687,
    -0.7401776313781738,
    -0.21609552204608917,
    0.6867886185646057,
    0.6646382808685303,
    -0.27797791361808777,
    0.9554887413978577,
    -0.7509047389030457,
    -0.630811333656311,
    0.06050612032413483,
    0.5678701400756836,
    -0.7252511382102966,
    -0.18845795094966888,
    -0.889898419380188,
    0.6662464737892151,
    0.6346384286880493,
    -0.46558430790901184,
    -0.819186806678772,
    0.6433027386665344,
    -1.0,
    -0.7843899130821228,
    0.9992340207099915,
    0.14711137115955353,
    0.6982512474060059,
    -0.0032470589503645897,
    0.6214759945869446,
    -0.40175485610961914,
    0.21560396254062653,
    0.6518604159355164,
    -0.8724570870399475,
    0.6932951807975769,
    -0.7306680679321289,
    0.17970828711986542,
    -0.24026910960674286,
    -0.7029083371162415,
    0.04870137572288513,
    -0.8959624171257019,
    -0.8032046556472778,
    -0.764793872833252,
    0.05194251984357834,
    0.2637288272380829,
    -0.5443617105484009,
    0.3322397470474243,
    0.6327861547470093,
    -0.371629923582077,
    0.5221289992332458,
    0.15657824277877808,
    -0.16842561960220337,
    -0.9150546789169312,
    -0.14879298210144043,
    0.9909970760345459,
    -0.9062654376029968,
    0.06951205432415009,
    -0.579167902469635,
    -0.24700462818145752,
    -0.6814906001091003,
    -0.5601152181625366,
    -0.9570207595825195,
    -0.12187261134386063,
    0.25126197934150696,
    0.26179394125938416,
    -0.986916720867157,
    -0.6648519039154053,
    0.29302656650543213,
    0.13428446650505066,
    0.30550849437713623,
    0.38133496046066284,
    1.0,
    -0.4828241169452667,
    0.817139208316803,
    -0.7110474705696106,
    0.5347543954849243,
    0.4008423388004303,
    -0.7597185969352722,
    -0.40511488914489746,
    -0.10134593397378922,
    -0.8130863904953003,
    0.34929341077804565,
    0.934864342212677,
    -0.8608387112617493,
    0.7717368006706238,
    0.3680867552757263,
    -0.5460188388824463,
    0.8049437403678894,
    0.5314035415649414,
    -0.9139957427978516,
    0.47758105397224426,
    -0.5006439089775085,
    -0.5209020972251892,
    -0.9712698459625244,
    -0.7872219085693359,
    -0.2219671756029129,
    0.1981598287820816,
    0.926221489906311,
    0.7106906175613403,
    0.735877513885498,
    -0.061265867203474045,
    0.29906636476516724,
    -1.0,
    -0.22930388152599335,
    -0.37668681144714355,
    -0.02436293475329876,
    -0.6420084834098816,
    0.4462781846523285,
    -0.41378533840179443,
    0.9988006353378296,
    0.4785729646682739,
    -0.2815271019935608,
    0.1753775030374527,
    0.46625563502311707,
    -0.6606493592262268,
    -0.015417906455695629,
    0.4129675626754761,
    -0.4149450957775116,
    1.0,
    -0.2300027459859848,
    -0.05034934729337692,
    0.902481198310852,
    -0.08852504193782806,
    -0.05573895573616028,
    -0.10757768154144287,
    0.979097843170166,
    -1.0,
    -0.6422192454338074,
    0.8289927244186401,
    0.6169804930686951,
    0.39439040422439575,
    0.49373766779899597,
    0.5234350562095642,
    0.8447005152702332,
    -0.7935392260551453,
    0.11825625598430634,
    0.307895302772522,
    0.8241187334060669,
    -0.9418562054634094,
    0.3997710943222046,
    -0.3969116806983948,
    -0.17783133685588837,
    0.9049591422080994,
    0.37258222699165344,
    0.6401258111000061,
    0.042213074862957,
    -0.16178469359874725,
    -0.17784354090690613,
    0.5006924867630005,
    0.8332653641700745,
    -0.2650563418865204,
    0.72331303358078,
    -0.5418837070465088,
    0.9300821423530579,
    -0.34086117148399353,
    0.18512530624866486,
    -0.5554735064506531,
    -0.6704857349395752,
    -0.6063326001167297,
    -0.19306010007858276,
    0.8845241069793701,
    0.8554859161376953,
    0.6900997757911682,
    0.44148388504981995,
    0.38438355922698975,
    0.9372050762176514,
    0.9959990382194519,
    0.7486463785171509,
    0.8007140755653381,
    0.8054808974266052,
    -1.0,
    -0.936237633228302,
    -0.9483840465545654,
    -0.26339906454086304,
    0.41632431745529175,
    -0.9977172613143921,
    0.5261269211769104,
    -0.9338419437408447,
    -0.05285201966762543,
    0.8232917189598083,
    -0.7462720274925232,
    0.7532305717468262,
    -0.20939667522907257,
    0.09508959203958511,
    -0.004236001521348953,
    -0.04631194472312927,
    -0.6121708154678345,
    0.053608741611242294,
    0.49061858654022217,
    -0.5407848358154297,
    0.5722740292549133,
    -0.38495126366615295,
    -0.2702261507511139,
    -0.023779984563589096,
    0.11954709142446518,
    0.18338875472545624,
    -0.534516453742981,
    -0.448982298374176,
    -0.7719382643699646,
    -0.7070680856704712,
    -0.23139438033103943,
    0.08445394039154053,
    0.925971269607544,
    -0.7540239095687866,
    -0.7219854593276978,
    0.01876899227499962,
    -0.05979468673467636,
    -0.7506087422370911,
    1.0,
    -0.9834681749343872,
    -0.3563401699066162,
    0.704501211643219,
    -0.03743104636669159,
    -0.5489820241928101,
    0.9730064868927002,
    -0.5895993113517761,
    0.5294231176376343,
    0.6421520113945007,
    0.5137486457824707,
    0.01717589795589447,
    -0.3960997760295868,
    -0.9254127144813538,
    -0.4410260021686554,
    0.12489697337150574,
    -0.402670294046402,
    -0.19558395445346832,
    -0.9431073665618896,
    -0.5907010436058044,
    -0.378511905670166,
    0.09611809253692627,
    0.5063050985336304,
    -0.4759848117828369,
    -0.6746695041656494,
    0.7712180614471436,
    -0.2280922532081604,
    -0.5256659984588623,
    -0.12699955701828003,
    0.4547867774963379,
    0.2871546745300293,
    0.4129643142223358,
    0.009369113482534885,
    -0.43625596165657043,
    0.3909361660480499,
    0.8976348638534546,
    -0.31658074259757996,
    -0.7085116505622864,
    0.633530855178833,
    -0.7620711922645569,
    -0.09491878747940063,
    0.46818751096725464,
    0.9557603001594543,
    0.3904476463794708,
    0.7997283935546875,
    0.5780420899391174,
    -1.0,
    0.2132512629032135,
    0.8054719567298889,
    0.08558323234319687,
    -0.2158513367176056,
    0.6605333685874939,
    -0.13243815302848816,
    0.7355054616928101,
    -0.46222707629203796,
    -0.5737724304199219,
    -0.7728049159049988,
    -0.8346996307373047,
    -0.9911099672317505,
    0.5441908836364746,
    -0.6759452819824219,
    0.9386882781982422,
    -0.12224195897579193,
    0.9669484496116638,
    -0.30118709802627563,
    -0.5024048089981079,
    -0.8873744606971741,
    0.760069727897644,
    -0.7433882355690002,
    0.039493925869464874,
    -0.6944090723991394,
    0.46369513869285583,
    0.3462812602519989,
    -0.1745506376028061,
    -0.004702863749116659,
    -0.3061373233795166,
    -0.15604418516159058,
    -0.10666829347610474,
    0.21805483102798462,
    0.03342389315366745,
    0.5737601518630981,
    -0.7673541307449341,
    -0.5560290813446045,
    -0.5532060265541077,
    0.8148868083953857,
    0.9210211634635925,
    -0.7391491532325745,
    -0.9791436195373535,
    -0.7261053919792175,
    0.048850949853658676,
    1.0,
    0.43212100863456726,
    -0.4059082865715027,
    0.17809076607227325,
    -0.765977680683136,
    0.13336586952209473,
    -0.3596820533275604,
    -0.39542219042778015,
    0.18247956037521362,
    -0.9723410606384277,
    -0.17228001356124878,
    0.10272824019193649,
    0.17098306119441986,
    -0.22761929035186768,
    -0.323297917842865,
    0.38966336846351624,
    -0.7696035504341125,
    0.15626385807991028,
    0.5507524013519287,
    0.5620655417442322,
    -0.9837855100631714,
    -0.7352701425552368,
    0.5050751566886902,
    -0.8511490225791931,
    0.36030763387680054,
    -0.7026886940002441,
    -0.45707571506500244,
    0.6683401465415955,
    -0.8042817115783691,
    -0.30884426832199097,
    -0.13009440898895264,
    -0.6635120511054993,
    -0.23558780550956726,
    0.7134526371955872,
    0.6375865936279297,
    0.757124662399292,
    0.6934841275215149,
    0.09832753986120224,
    0.028483042493462563,
    -0.2944578528404236,
    -0.4893185794353485,
    0.5529891848564148,
    -0.18095336854457855,
    0.19496451318264008,
    -0.11615344136953354,
    0.7793877720832825,
    -0.4564381241798401,
    -0.709875762462616,
    -0.5586839914321899,
    -0.707544207572937,
    0.0548723042011261,
    -0.23405882716178894,
    -0.2757621705532074,
    -0.3291695713996887,
    -0.8320443630218506,
    0.6143192648887634,
    0.21255828440189362,
    -1.0,
    -0.5868830680847168,
    0.33687251806259155,
    -0.36741840839385986,
    -0.04014691337943077,
    0.13252349197864532,
    0.19232462346553802,
    -0.8522263169288635,
    0.3385632038116455,
    0.645066499710083,
    -0.2753317952156067,
    0.18372757732868195,
    -0.5562090277671814,
    0.8704916834831238,
    0.2328653186559677,
    0.7526017427444458,
    0.07360763102769852,
    -1.0,
    -0.7283181548118591,
    -0.7915188670158386,
    -0.629065990447998,
    -0.05041646584868431,
    0.9264992475509644,
    -0.1768670529127121,
    -0.12911178171634674,
    -0.159968763589859,
    -0.41606804728507996,
    -0.7434735298156738,
    0.9768303632736206,
    0.2782188951969147,
    -0.3178594410419464,
    0.39064905047416687,
    0.11098668724298477,
    0.39978328347206116,
    0.39872732758522034,
    -0.22683176398277283,
    0.4900936186313629,
    0.9525101184844971,
    0.5295113921165466,
    -0.20280152559280396,
    0.28908655047416687,
    0.18345291912555695,
    -0.03765973076224327,
    0.40047305822372437,
    -0.23392438888549805,
    0.9409986138343811,
    0.729941725730896,
    -0.3466445207595825,
    -0.549555778503418,
    -0.4122745394706726,
    0.5630449652671814,
    0.5341470837593079,
    0.8760673999786377,
    0.8701283931732178,
    0.21296727657318115,
    -0.25216221809387207,
    -0.8259409070014954,
    -0.7245122790336609,
    0.6460217833518982,
    0.4071138799190521,
    0.21788693964481354,
    -0.2566424608230591,
    0.679018497467041,
    0.37416592240333557,
    -0.4975646734237671,
    0.4686545133590698,
    0.5439832806587219,
    0.4498704969882965,
    0.2885249853134155,
    -0.46663716435432434,
    -0.5150183439254761,
    0.2113741636276245,
    -0.7725425362586975,
    0.22937114536762238,
    -0.20489533245563507,
    0.2432814985513687,
    -0.6649618744850159,
    -0.7097781300544739,
    0.06913667917251587,
    0.9467817544937134,
    -0.7493821382522583,
    0.4923093318939209,
    0.2080477476119995,
    0.29899901151657104,
    -0.8345741629600525,
    0.25580015778541565,
    0.5229865908622742,
    0.7666220664978027,
    -0.24042485654354095,
    0.3154270350933075,
    -0.18523503839969635,
    0.34263432025909424,
    0.3679465651512146,
    -0.3688071370124817,
    -0.8261024951934814,
    0.563356339931488,
    0.7092258334159851,
    -0.31915345788002014,
    -0.5016419291496277,
    0.9139714241027832,
    0.24003420770168304,
    -0.17913465201854706,
    -0.8580217957496643,
    0.7437392473220825,
    0.48696866631507874,
    0.255336195230484,
    -0.11947091668844223,
    -0.083947092294693,
    0.2671193778514862,
    -1.0,
    -1.0,
    0.13496819138526917,
    -0.5448957681655884,
    -0.17478258907794952,
    0.1360546052455902,
    0.48619648814201355,
    -0.5139012336730957,
    -0.4331856667995453,
    1.0,
    0.19414347410202026,
    -0.17941232025623322,
    0.8524948358535767,
    -0.9097018837928772,
    0.6307291388511658,
    0.1518387347459793,
    -0.7003723978996277,
    -0.578960657119751,
    -0.31954720616340637,
    -0.2862667739391327,
    -0.5697499513626099,
    -0.24034850299358368,
    -0.5062165856361389,
    0.16709792613983154,
    1.0,
    0.741044282913208,
    0.9680655002593994,
    0.7672293186187744,
    0.22972217202186584,
    0.19076818227767944,
    1.0,
    -0.2725182771682739,
    0.6456373929977417,
    0.34827721118927,
    -0.9171817898750305,
    -0.8934354782104492,
    -0.6137639284133911,
    -0.4848627746105194,
    0.7147618532180786,
    0.08211609721183777,
    0.5048250555992126,
    0.6825311183929443,
    -0.3531419634819031,
    -0.28466442227363586,
    -0.6726951003074646,
    -0.5761405825614929,
    0.5144779682159424,
    -0.6429181694984436,
    0.07640021294355392,
    -0.24028146266937256,
    0.3433453142642975,
    -0.961488664150238,
    -0.5551409125328064,
    -0.43194374442100525,
    0.6790429949760437,
    0.2201361060142517,
    0.17985782027244568,
    -0.5943540930747986,
    -0.9647570848464966,
    -0.32963046431541443,
    0.5809653997421265,
    -0.7132723927497864,
    -0.25050196051597595,
    0.5128754377365112,
    0.927661657333374,
    0.17892391979694366,
    0.2778131663799286,
    0.17442236840724945,
    0.4470962584018707,
    -0.6884945631027222,
    -0.26412543654441833,
    -0.7671927213668823,
    -0.826590895652771,
    0.7340495586395264,
    -0.7610062956809998,
    0.24096807837486267,
    -0.070857934653759,
    -0.351521372795105,
    0.56670743227005,
    0.3275674283504486,
    0.9494705200195313,
    0.835245668888092,
    0.5479658842086792,
    0.8080112338066101,
    0.27404117584228516,
    -0.9022095203399658,
    -0.29342910647392273,
    0.40507829189300537,
    0.31261634826660156,
    -0.9798731803894043,
    -0.019534867256879807,
    -0.8563494086265564,
    0.2831171751022339,
    -0.5553086400032043,
    -0.5238014459609985,
    0.4203253984451294,
    0.09319742769002914,
    0.1503220796585083,
    0.29524827003479004,
    -0.5556838512420654,
    -0.8999908566474915,
    0.06507464498281479,
    0.8716606497764587,
    0.8693256974220276,
    0.5084109902381897,
    0.5951141119003296,
    -0.28975793719291687,
    0.9990600347518921,
    0.6403028964996338,
    -0.6549059748649597,
    0.6715566515922546,
    0.7093722224235535,
    0.6188026070594788,
    0.6182438135147095,
    -0.6465102434158325,
    -1.0,
    0.6276192665100098,
    -0.9402478337287903,
    -0.416913241147995,
    -0.46424439549446106,
    0.47131264209747314,
    -0.8178257942199707,
    0.8624439835548401,
    -0.552171528339386,
    0.28032487630844116,
    0.7524460554122925,
    -0.5011566877365112,
    -0.42785409092903137,
    -0.4533493220806122,
    0.5307750701904297,
    -0.8068423271179199,
    0.2895961105823517,
    -0.3736746311187744,
    -0.7420972585678101,
    0.8699026703834534,
    -0.15280306339263916,
    -0.39676186442375183,
    0.2737693190574646,
    0.13873104751110077,
    1.0,
    -0.47579267621040344,
    -0.3470381498336792,
    -0.934284508228302,
    0.5732504725456238,
    0.9492782354354858,
    0.8088319301605225,
    0.7081881761550903,
    0.4902188777923584,
    0.0737968236207962,
    0.40719011425971985,
    -0.2356211096048355,
    0.23851743340492249,
    -0.9466017484664917,
    0.7725516557693481,
    0.823319137096405,
    0.6706960797309875,
    -0.17223112285137177,
    0.8467360734939575,
    0.015366056002676487,
    -0.7397380471229553,
    0.7335033416748047,
    -0.009268492460250854,
    -0.1247810497879982,
    -0.06732388585805893,
    -1.0,
    -0.12422545999288559,
    0.9218756556510925,
    0.12594978511333466,
    -0.428461492061615,
    -0.6967192888259888,
    -0.7880243062973022,
    -0.914874792098999,
    0.37132781744003296,
    0.7128422856330872,
    -0.9224799871444702,
    0.08580605685710907,
    -0.6277169585227966,
    -0.0904843807220459,
    0.15484486520290375,
    -0.9425947070121765,
    0.40221264958381653,
    -0.05645008012652397,
    0.15768614411354065,
    -0.2410900592803955,
    -0.829325258731842,
    -0.7297249436378479,
    -0.806909441947937,
    0.3509994149208069,
    0.7329050898551941,
    -0.7267678380012512,
    0.5695759654045105,
    1.0,
    0.31302231550216675,
    -0.020117951557040215,
    0.939182698726654,
    0.7339060306549072,
    -0.29294100403785706,
    -0.943598747253418,
    0.8601398468017578,
    0.9132633209228516,
    0.8874843716621399,
    -0.7042148113250732,
    0.03740646317601204,
    -0.04034553840756416,
    0.05009004846215248,
    0.9638659954071045,
    0.9865412712097168,
    0.319101482629776,
    0.901165783405304,
    0.9164708256721497,
    -0.7797511219978333,
    0.21870172023773193,
    -0.5201911330223083,
    -1.0,
    0.5875301957130432,
    1.0,
    -0.07622608542442322,
    0.10374455153942108,
    0.7938962578773499,
    -0.6694720387458801,
    0.6431897878646851,
    0.9687124490737915,
    0.133930504322052,
    -0.6571640968322754,
    0.2676868736743927,
    -1.0,
    -1.0,
    0.016180967912077904,
    -0.2022705227136612,
    0.7274086475372314,
    -0.2608325481414795,
    -0.8201028108596802,
    -0.9932767748832703,
    -0.25886407494544983,
    0.22278526425361633,
    0.7143040895462036,
    -0.3684682548046112,
    -0.4642658829689026,
    0.5325204133987427,
    0.7364117503166199,
    0.19769583642482758,
    -0.3848141133785248,
    0.8766013979911804,
    -0.9465468525886536,
    0.4662616550922394,
    0.5147923827171326,
    -0.46175119280815125,
    0.2491043657064438,
    -0.851094126701355,
    -0.7865902185440063,
    0.5588489770889282,
    -0.9044895172119141,
    0.6749077439308167,
    0.8293829560279846,
    -0.3260354995727539,
    -0.546995222568512,
    0.156724750995636,
    0.6628742814064026,
    -0.3510238528251648,
    0.3601367175579071,
    -0.47706544399261475,
    -0.9317697882652283,
    0.4547227621078491,
    -0.9345194697380066,
    -0.04243903234601021,
    0.16066165268421173,
    0.3477492928504944,
    0.06831885874271393,
    0.19895322620868683,
    0.40138253569602966,
    0.6245613098144531,
    -0.339365690946579,
    0.7727470397949219,
    0.6423197984695435,
    -0.30730921030044556,
    0.1396922767162323,
    -0.9964720606803894,
    0.4721183180809021,
    0.9611133933067322,
    0.9661732316017151,
    -0.37737953662872314,
    0.9115481972694397,
    0.35701167583465576,
    -0.43830373883247375,
    0.335743248462677,
    0.16379912197589874,
    -1.0,
    0.676302433013916,
    0.3159674406051636,
    0.7657582759857178,
    0.4628102779388428,
    1.0,
    0.27640318870544434,
    0.17007660865783691,
    0.2916318476200104,
    0.652473509311676,
    0.30576202273368835,
    0.477599561214447,
    0.38001659512519836,
    -0.3318980038166046,
    -0.33367109298706055,
    0.3445877134799957,
    -0.7866786122322083,
    0.0605977326631546,
    0.5353435277938843,
    -1.0,
    -0.9889279007911682,
    -0.8799769282341003,
    0.2501816749572754,
    0.8453322649002075,
    0.06452817469835281,
    -0.16657321155071259,
    0.023288769647479057,
    0.07398279011249542,
    -0.6416729688644409,
    0.32526928186416626,
    -0.3044526278972626,
    0.26548340916633606,
    0.3581286072731018,
    0.6710440516471863,
    -0.5897580981254578,
    -0.8490035533905029,
    0.7658864259719849,
    -0.5574267506599426,
    1.0,
    0.3581254780292511,
    0.09394209831953049,
    0.14840826392173767,
    -0.6237649321556091,
    -0.9444990754127502,
    -1.0,
    0.6708030700683594,
    -0.30656757950782776,
    0.8189032077789307,
    -0.435895711183548,
    -0.6634693741798401,
    -0.7488693594932556,
    -0.7163154482841492,
    -0.34400463104248047,
    0.40174242854118347,
    -0.8936551213264465,
    0.8233070373535156,
    0.07204201817512512,
    -0.018979424610733986,
    -0.3415021300315857,
    1.0,
    -0.6508620977401733,
    0.10841396450996399,
    0.15751515328884125,
    -0.538877546787262,
    -0.2521255612373352,
    -0.2090335637331009,
    0.8950196504592896,
    0.8251046538352966,
    0.31826531887054443,
    -0.9177495837211609,
    -0.5893887281417847,
    -0.6806878447532654,
    -0.3100467622280121,
    0.13487660884857178,
    0.9356576204299927,
    -0.43178802728652954,
    -0.7735648155212402,
    -0.6224463582038879,
    0.4499923586845398,
    0.03932911157608032,
    0.18913225829601288,
    -0.5460891127586365,
    -0.7965179681777954,
    0.9579302072525024,
    -0.42038628458976746,
    0.09484227001667023,
    0.9944303631782532,
    0.8250527381896973,
    0.45621201395988464,
    0.8593524694442749,
    -0.686431348323822,
    0.050898801535367966,
    -0.5847651362419128,
    0.0016266063321381807,
    -0.04169444367289543,
    0.8619006276130676,
    0.6041414141654968,
    0.8038086295127869,
    0.4615466296672821,
    1.0,
    -0.5745229721069336,
    -0.3153386116027832,
    -0.31134089827537537,
    0.733463704586029,
    0.0781029686331749,
    0.2215491384267807,
    0.10981153696775436,
    0.6926450133323669,
    0.027921393513679504,
    0.8383709192276001,
    0.11763351410627365,
    1.0,
    0.8520005345344543,
    0.06704902648925781,
    -0.31105685234069824,
    0.7478896379470825,
    -0.5537858605384827,
    0.5039857029914856,
    -0.8957610130310059,
    0.8997251987457275,
    -0.9764885902404785,
    0.9760399460792542,
    -0.7669789791107178,
    1.0,
    -0.9895229935646057,
    -0.2708914279937744,
    -0.8221045732498169,
    0.7993865013122559,
    -0.6761986017227173,
    -0.1534043699502945,
    -0.760072648525238,
    -0.9661122560501099,
    -0.861812174320221,
    0.6897029876708984,
    0.2530990540981293,
    0.7392651438713074,
    0.18977025151252747,
    0.6374828219413757,
    -0.5473554730415344,
    -0.7587114572525024,
    0.8009920716285706,
    -0.185299351811409,
    0.8851679563522339,
    0.5298256874084473,
    0.8066926598548889,
    -0.5063568353652954,
    -0.6141727566719055,
    0.9971098899841309,
    -0.24177658557891846,
    -0.6572802662849426,
    0.45840024948120117,
    0.05893414840102196,
    0.05179906636476517,
    -0.8024507164955139,
    -0.3605427145957947,
    0.43662238121032715,
    -0.011972389183938503,
    0.08087095618247986,
    0.8761833906173706,
    0.18767049908638,
    0.5568928122520447,
    -0.7211095690727234,
    -0.3266366124153137,
    0.8748039603233337,
    0.056959573179483414,
    0.32281869649887085,
    -0.4287761151790619,
    -0.25312355160713196,
    0.022580666467547417,
    0.4743155539035797,
    0.7151888608932495,
    0.6522843241691589,
    0.5882260203361511,
    -0.5590379238128662,
    -0.40560010075569153,
    1.0,
    -0.9143773317337036,
    -0.7141849398612976,
    0.7289009690284729,
    0.8058381676673889,
    0.28257110714912415,
    -0.4878566861152649,
    0.33645445108413696,
    0.460954874753952,
    0.3611285388469696,
    -0.700604259967804,
    -0.6171788573265076,
    -0.13023164868354797,
    0.1185399740934372,
    -0.9097994565963745,
    0.28249770402908325,
    -0.2752097547054291,
    -0.2408214956521988,
    0.09511698782444,
    -0.7839624881744385,
    -0.324180006980896,
    -0.7740164995193481,
    -0.8958190083503723,
    0.9272528290748596,
    -0.7173102498054504,
    0.8082277774810791,
    -0.7096684575080872,
    0.30001524090766907,
    0.5402265191078186,
    0.30539563298225403,
    -0.2705100476741791,
    0.8263465166091919,
    0.17343364655971527,
    -0.2413647472858429,
    0.30944550037384033,
    0.036109402775764465,
    0.6463392972946167,
    -0.17816711962223053,
    0.12967921793460846,
    0.3526016175746918,
    -0.561296284198761,
    0.5854427814483643,
    -0.832676112651825,
    0.060509052127599716,
    -0.13001181185245514,
    -1.0,
    1.0,
    -0.971291184425354,
    0.31122443079948425,
    0.9303018450737,
    1.0,
    -0.05098417401313782,
    0.2904110848903656,
    -0.08635830134153366,
    0.9261786937713623,
    0.10015556961297989,
    -0.09443647414445877,
    0.6214821338653564,
    -0.5789483189582825,
    0.7275947332382202,
    0.44004949927330017,
    0.7849300503730774,
    0.6116549968719482,
    0.7174201011657715,
    -0.5666492581367493,
    -0.3128390610218048,
    0.1868007630109787,
    -0.2001708596944809,
    -0.03718359023332596,
    -0.9208166599273682,
    -0.16444595158100128,
    0.901135265827179,
    -0.9338939189910889,
    -0.3207252323627472,
    -0.3822534382343292,
    0.18760326504707336,
    -0.020853353664278984,
    -0.1393810361623764,
    -0.9002594947814941,
    0.57773357629776,
    -0.37985163927078247,
    0.18719758093357086,
    -0.12274236232042313,
    -0.8181827664375305,
    0.6142675280570984,
    -0.09367967396974564,
    0.21420937776565552,
    -0.6015197038650513,
    -0.5966949462890625,
    -0.3401379883289337,
    -0.6456586122512817,
    -0.7527756690979004,
    0.49357903003692627,
    -0.44123968482017517,
    0.565025806427002,
    0.6363108158111572,
    0.0645953044295311,
    0.9282662272453308,
    0.5528092384338379,
    0.7675008177757263,
    0.4682820439338684,
    -0.74968421459198,
    0.0653645396232605,
    0.7220159769058228,
    0.05049894005060196,
    -0.13646042346954346,
    -0.7067142128944397,
    -0.8543412685394287,
    -0.6474045515060425,
    -0.4020293951034546,
    0.006537208333611488,
    0.13169634342193604,
    0.6810265183448792,
    0.9578630924224854,
    -0.5016570091247559,
    -0.45124977827072144,
    0.8212347626686096,
    -0.4507278501987457,
    0.2713613510131836,
    -0.3759273290634155,
    -0.0028229285962879658,
    -0.0064302533864974976,
    -0.9592242240905762,
    0.381750226020813,
    -0.8110690712928772,
    0.6908720135688782,
    0.6774986386299133,
    0.18822602927684784,
    -0.586373507976532,
    -0.5452284812927246,
    -0.0044527011923491955,
    -0.1934935450553894,
    -0.3457564413547516,
    -0.442509263753891,
    0.8317146897315979,
    0.11271113157272339,
    -0.15372787415981293,
    -1.0,
    0.5918972492218018,
    0.4830498993396759,
    -0.4015655517578125,
    0.7380930781364441,
    -0.3935362696647644,
    0.7555590271949768,
    0.9180547595024109,
    -0.6829890012741089,
    -0.8841944932937622,
    -0.9757559299468994,
    -0.6673300266265869,
    -0.10940571129322052,
    0.3637775778770447,
    0.4531296491622925,
    -0.19716501235961914,
    -1.0,
    0.8434584140777588,
    0.5052950382232666,
    0.624722957611084,
    -0.03444627672433853,
    0.17099198698997498,
    -1.0,
    0.5652517676353455,
    -0.5727195739746094,
    -0.10648222267627716,
    0.21897634863853455,
    0.6268532872200012,
    -0.19416162371635437,
    -0.14994360506534576,
    0.28153935074806213,
    -0.7202735543251038,
    0.013522757217288017,
    0.9905301332473755,
    0.1149573102593422,
    0.32469576597213745,
    0.7873196601867676,
    -0.09864196181297302,
    -1.0,
    0.2239600419998169,
    -0.09425649046897888,
    -0.8075687289237976,
    -0.5674916505813599,
    -0.9036164879798889,
    -0.9578600525856018,
    -0.2759025990962982,
    -0.6035400629043579,
    -0.20028990507125854,
    -0.5425578951835632,
    -0.4835719168186188,
    0.7344278693199158,
    -0.601144552230835,
    0.6052370071411133,
    0.3428630232810974,
    -0.17297282814979553,
    -0.3120061159133911,
    0.7081270813941956,
    0.06872464716434479,
    0.9183385968208313,
    0.7132543325424194,
    -0.6468214988708496,
    -0.8879879117012024,
    -0.6708762645721436,
    -0.005850343499332666,
    -0.3281227946281433,
    0.06891384720802307,
    0.19894713163375854,
    -0.09957583248615265,
    0.8384473323822021,
    -0.5246925950050354,
    -0.11169160902500153,
    0.5377515554428101,
    0.48226866126060486,
    0.7944945096969604,
    -0.644810140132904,
    0.4037629961967468,
    0.45266294479370117,
    -0.8232518434524536,
    0.25840023159980774,
    0.858351469039917,
    0.902298092842102,
    -0.9325360059738159,
    -0.7570421099662781,
    0.38982507586479187,
    -0.12088074535131454,
    -1.0,
    0.40328076481819153,
    -0.8617053627967834,
    -0.9195226430892944,
    -0.806106686592102,
    -0.8816339373588562,
    0.9009155631065369,
    0.6483290791511536,
    0.8946684002876282,
    0.3629811108112335,
    0.22832714021205902,
    0.47136449813842773,
    0.293771356344223,
    0.6390666961669922,
    -0.6933865547180176,
    -0.9883511662483215,
    -0.8168461918830872,
    0.03803824633359909,
    0.49777522683143616,
    -0.8363534808158875,
    -0.691805899143219,
    0.13794668018817902,
    0.42814120650291443,
    -0.7688923478126526,
    -0.678743839263916,
    -0.6802146434783936,
    -0.02377082034945488,
    0.5071626901626587,
    0.31543925404548645,
    0.8863856792449951,
    1.0,
    -1.0,
    0.028745433315634727,
    0.9032258987426758,
    -0.5212685465812683,
    0.16434215009212494,
    0.34416621923446655,
    -0.1551559418439865,
    -0.8783532381057739,
    -0.5254523158073425,
    -0.8998779058456421,
    0.9830317497253418,
    0.2701254189014435,
    0.621259331703186,
    -0.019809570163488388,
    -0.3056640326976776,
    -0.3597338795661926,
    0.8030915856361389,
    -0.19111303985118866,
    0.5438308119773865,
    -0.5256142616271973,
    -0.2947354316711426,
    0.05847031995654106,
    0.4261787533760071,
    -1.0,
    0.2376902550458908,
    0.5718405246734619,
    0.8433789610862732,
    -0.6858760714530945,
    0.9170109629631042,
    0.6050264239311218,
    -0.5821222066879272,
    0.5817102789878845,
    0.9690786004066467,
    0.5444319248199463,
    0.07682723551988602,
    -0.5028992891311646,
    0.8965572714805603,
    -0.6214146614074707,
    0.5163212418556213,
    0.9720389246940613,
    0.32004737854003906,
    -0.17769698798656464,
    1.0,
    -0.654008686542511,
    -0.22936497628688812,
    -0.4653981328010559,
    -0.8595080375671387,
    -0.6658101081848145,
    0.5149082541465759,
    0.002682497724890709,
    0.3233862519264221,
    -0.7982147336006165,
    0.9389692544937134,
    -0.5558671951293945,
    -0.2835626006126404,
    -0.6575090885162354,
    -0.27464213967323303,
    0.2382517158985138,
    0.4823480546474457,
    0.8211005926132202,
    0.49240997433662415,
    -0.2139255404472351,
    -0.8142063021659851,
    -0.6770195960998535,
    -0.49279746413230896,
    -0.21826530992984772,
    -0.5089876651763916,
    -0.4398449957370758,
    -0.4322490096092224,
    0.9806177020072937,
    0.0860835388302803,
    -0.7409895062446594,
    0.33525797724723816,
    -0.040659815073013306,
    -0.43170860409736633,
    -0.6000763177871704,
    -0.6844384670257568,
    -0.0409528911113739,
    0.028635552152991295,
    -0.4365367293357849,
    -0.9294411540031433,
    -0.14051957428455353,
    -0.18727970123291016,
    -0.767424464225769,
    0.48295241594314575,
    -0.7973753213882446,
    0.10994280129671097,
    0.8512283563613892,
    -0.5954616665840149,
    -0.7841364145278931,
    -0.765160083770752,
    -0.3578050136566162,
    0.5427350401878357,
    -0.8299018144607544,
    -0.8564865589141846,
    -0.46684178709983826,
    -0.8683339953422546,
    0.9542922377586365,
    -0.6255500912666321,
    -0.6671894788742065,
    1.0,
    -0.18646802008152008,
    0.9057253003120422,
    -0.7341806888580322,
    -0.9106295704841614,
    1.0,
    -0.40778523683547974,
    -0.10180980712175369,
    -0.23183684051036835,
    0.22782668471336365,
    -0.1536729484796524,
    -0.0485977977514267,
    -0.22702114284038544,
    -0.6172947287559509,
    -0.38919010758399963,
    0.9195532202720642,
    0.35511937737464905,
    0.72213214635849,
    -0.48993825912475586,
    0.8732597231864929,
    -0.2819148004055023,
    -0.42368534207344055,
    -0.6426801085472107,
    0.4689718782901764,
    -0.41152694821357727,
    -1.0,
    0.5500046610832214,
    0.7753623723983765,
    0.5981383919715881,
    0.7981322407722473,
    0.14022338390350342,
    0.8623156547546387,
    -0.6439313888549805,
    -0.12510137259960175,
    0.165864959359169,
    -0.9509292840957642,
    -0.9416089653968811,
    -0.4811122715473175,
    1.0,
    -0.15890072286128998,
    -0.5949829816818237,
    -0.6392498016357422,
    0.11158174276351929,
    -0.7701864242553711,
    0.4388958215713501,
    -0.956639289855957,
    0.4968869984149933,
    0.5146673321723938,
    -0.11524397134780884,
    -0.5757041573524475,
    -0.5979064702987671,
    0.6319558620452881,
    0.7704245448112488,
    -0.5804040431976318,
    0.7921475172042847,
    -0.4090884327888489,
    0.035630423575639725,
    -1.0,
    0.706204354763031,
    -0.6179173588752747,
    0.42238834500312805,
    -0.09029804915189743,
    0.12233342975378036,
    0.8020600080490112,
    0.5193212628364563,
    -0.4352734088897705,
    -1.0,
    -0.6680408716201782,
    0.676421582698822,
    -0.5525134205818176,
    -0.5821619629859924,
    -0.5902707576751709,
    0.11237215250730515,
    0.41379740834236145,
    -0.12068542838096619,
    0.1450514793395996,
    0.4519607424736023,
    -0.4663045108318329,
    -0.2577015161514282,
    -0.33330175280570984,
    -0.5721060633659363,
    0.9388561844825745,
    -0.8112948536872864,
    0.9552904367446899,
    -0.8884304761886597,
    -0.16975602507591248,
    -0.1500290036201477,
    -0.04391923174262047,
    -0.470152884721756,
    1.0,
    0.5242499709129333,
    0.24542677402496338,
    0.9925018548965454,
    -0.2537094056606293,
    -0.794436514377594,
    -0.590029776096344,
    0.35284286737442017,
    -0.43887442350387573,
    -0.5390667915344238,
    0.37360474467277527,
    -0.06327386200428009,
    0.19484861195087433,
    0.09355144202709198,
    -0.6382731795310974,
    0.4311228096485138,
    -0.8105929493904114,
    -0.532904863357544,
    -0.20084527134895325,
    -0.24537190794944763,
    0.16080500185489655,
    -0.7068300843238831,
    -0.4554460644721985,
    -0.25998103618621826,
    -0.3400890827178955,
    0.6692678332328796,
    0.00983917061239481,
    0.17868594825267792,
    0.7169834971427917,
    -0.9675068855285645,
    0.024005895480513573,
    0.9592608213424683,
    0.6005004644393921,
    -0.5409376621246338,
    0.3710317611694336,
    0.18047121167182922,
    0.2671925127506256,
    -0.4707143306732178,
    0.09100008755922318,
    -0.5706932544708252,
    -0.6203253269195557,
    0.08195453882217407,
    -0.3309580981731415,
    0.3486648499965668,
    0.5287758708000183,
    0.302102655172348,
    0.36313381791114807,
    -0.2046480029821396,
    -0.6693655252456665,
    0.35756397247314453,
    0.3576616644859314,
    0.3849666714668274,
    -0.24205444753170013,
    0.2624012529850006,
    0.9885647296905518,
    -0.5336376428604126,
    0.8715202212333679,
    -0.6339854598045349,
    0.16694529354572296,
    -0.10899987816810608,
    0.2993285655975342,
    -0.6565478444099426,
    -0.14479506015777588,
    -0.7784783840179443,
    0.3307231366634369,
    0.5449751019477844,
    -0.9531419277191162,
    -0.2523360550403595,
    -0.4499131441116333,
    0.12885843217372894,
    -0.7910947203636169,
    0.5140995383262634,
    0.23911866545677185,
    0.5162114500999451,
    -0.47554248571395874,
    -0.3718528151512146,
    -0.18362081050872803,
    -0.6555345058441162,
    -0.7421461343765259,
    0.9390819668769836,
    0.04255501180887222,
    0.0999237671494484,
    -0.380068302154541,
    -0.09997259825468063,
    -0.34473708271980286,
    -0.3856563866138458,
    0.6647694110870361,
    -0.9984865188598633,
    -0.9385693073272705,
    0.3569018244743347,
    -0.0027314061298966408,
    -0.6809167861938477,
    -0.4378124475479126,
    -0.6596577763557434,
    -0.32938313484191895,
    -0.9798058867454529,
    0.8096376657485962,
    0.03495284542441368,
    -0.6813103556632996,
    -0.30834370851516724,
    -0.6624347567558289,
    0.20609451830387115,
    -0.06406138837337494,
    -0.08343174308538437,
    -0.40309464931488037,
    0.7748741507530212,
    -0.8644213676452637,
    0.34881436824798584,
    0.5162937045097351,
    0.7299964427947998,
    -0.41414496302604675,
    -0.934302806854248,
    -0.30240172147750854,
    -0.23703747987747192,
    0.4751793146133423,
    -0.978130578994751,
    -0.2858668267726898,
    -0.4941464960575104,
    0.30047911405563354,
    -0.5601979494094849,
    0.27534717321395874,
    -0.7404309511184692,
    0.08286993205547333,
    0.8830164670944214,
    -0.38920268416404724,
    -0.2450636476278305,
    -0.37788018584251404,
    -0.926648736000061,
    0.9837855100631714,
    0.8995361328125,
    0.6777304410934448,
    0.09558100253343582,
    0.08481705188751221,
    0.5822902321815491,
    0.9998593926429749,
    0.9693441987037659,
    -0.5252447724342346,
    -0.2835964262485504,
    -0.035743433982133865,
    0.9476912617683411,
    1.0,
    -0.479372501373291,
    -0.4392682611942291,
    -0.1674795001745224,
    -0.03598438948392868,
    0.22665788233280182,
    -0.3958340883255005,
    0.5146854519844055,
    -0.902084469795227,
    0.7047669887542725,
    -0.6029844880104065,
    -0.11318089812994003,
    -0.3202551603317261,
    0.6091311573982239,
    0.23211760818958282,
    0.46666470170021057,
    0.3149511516094208,
    -0.5085452795028687,
    -0.06476332992315292,
    -0.6970915198326111,
    0.660475492477417,
    -0.14276260137557983,
    0.9969878196716309,
    -0.17633602023124695,
    0.3908657431602478,
    -0.9660908579826355,
    0.2812677025794983,
    -0.9231574535369873,
    0.836045503616333,
    0.19964587688446045,
    -0.11968739330768585,
    0.15045924484729767,
    -0.7294138669967651,
    -0.43871909379959106,
    0.8359355330467224,
    0.6321879625320435,
    0.9237006902694702,
    -0.9719656705856323,
    0.012955068610608578,
    0.4129520356655121,
    0.1811579018831253,
    0.8574358820915222,
    -0.0693197250366211,
    -0.9703146815299988,
    0.2581011652946472,
    -0.2902737855911255,
    0.35401466488838196,
    -0.7185430526733398,
    -0.8374889492988586,
    0.44741347432136536,
    0.901885986328125,
    -0.5259681344032288,
    -0.6031097173690796,
    -0.07654345035552979,
    -0.3913448452949524,
    0.46091800928115845,
    -0.026679309085011482,
    -0.6672658920288086,
    -0.8804406523704529,
    0.1889309585094452,
    0.09261452406644821,
    0.13693328201770782,
    -0.2269905060529709,
    -0.2645561099052429,
    -0.47299087047576904,
    -1.0,
    0.15478375554084778,
    -0.038569312542676926,
    -0.5146061778068542,
    -0.33492547273635864,
    0.007043632213026285,
    -0.6144871115684509,
    -0.820511519908905,
    -0.2848719656467438,
    0.02202521450817585,
    -0.3372783064842224,
    0.624665379524231,
    0.3392956554889679,
    0.21775572001934052,
    0.6851466298103333,
    -0.9034547209739685,
    0.6164982914924622,
    0.540586531162262,
    0.15790274739265442,
    0.38235408067703247,
    -0.6293129920959473,
    0.7390025854110718,
    -0.29177823662757874,
    0.18464630842208862,
    0.2958861291408539,
    -0.03600907325744629,
    -0.4638081192970276,
    0.9827295541763306,
    0.4892176687717438,
    -0.42775654792785645,
    0.1858942210674286,
    -0.20602737367153168,
    0.534379243850708,
    0.1519089788198471,
    0.3186529874801636,
    0.8674429059028625,
    1.0,
    0.8318337798118591,
    -0.5206183791160583,
    0.046391185373067856,
    0.1349223256111145,
    -0.4924006164073944,
    0.8751426935195923,
    -0.036915138363838196,
    0.702059805393219,
    0.7014771699905396,
    -0.7411998510360718,
    -0.449400395154953,
    -0.20001226663589478,
    -0.3640215992927551,
    -0.09273354709148407,
    -0.6348980069160461,
    -0.6945220232009888,
    -0.1595844030380249,
    -0.4069277048110962,
    -0.43247780203819275,
    -0.527894139289856,
    -1.0,
    0.43158066272735596,
    0.12125948816537857,
    -0.12986257672309875,
    0.009012194350361824,
    -0.2622791528701782,
    -0.9516097903251648,
    0.08072756975889206,
    0.1964903622865677,
    0.03679007664322853,
    0.7385327219963074,
    -0.863887369632721,
    -0.8617907762527466,
    0.5695548057556152,
    0.5693167448043823,
    -0.6826778054237366,
    -0.8222082853317261,
    -0.4911741614341736,
    0.975487470626831,
    0.27510926127433777,
    -0.7928770780563354,
    0.005560401827096939,
    0.4066682755947113,
    0.05537894368171692,
    -0.7722951769828796,
    -0.8274941444396973,
    0.3287699520587921,
    -0.7695212364196777,
    -0.36921918392181396,
    -0.638279139995575,
    -0.39875781536102295,
    -0.8956114053726196,
    0.13575856387615204,
    0.4688561260700226,
    0.6006836295127869,
    -0.2966490685939789,
    -0.8796624541282654,
    -0.057490743696689606,
    -0.2208014279603958,
    0.9174045920372009,
    0.3520859181880951,
    0.4958404004573822,
    -0.6302772760391235,
    -0.82760089635849,
    0.5893213748931885,
    0.3275582790374756,
    -0.2689441442489624,
    0.6624774932861328,
    0.5933225154876709,
    0.8164283037185669,
    -0.4316571056842804,
    -0.991888165473938,
    0.4548814296722412,
    -0.1519303023815155,
    0.2852046489715576,
    0.6737388372421265,
    -0.10375683754682541,
    -0.9836909174919128,
    0.4446975290775299,
    0.33903932571411133,
    0.06974396854639053,
    0.5004791021347046,
    0.4411114454269409,
    -0.6295998692512512,
    0.7001280784606934,
    -0.38747820258140564,
    0.028415823355317116,
    0.6779472827911377,
    -0.028287695720791817,
    -0.10251158475875854,
    0.8581804633140564,
    0.7155308127403259,
    -0.7378122806549072,
    -0.8914120197296143,
    -0.7482680678367615,
    -0.6936703324317932,
    0.9420819878578186,
    -0.012829957529902458,
    -0.749794065952301,
    0.3094179630279541,
    -0.10044261068105698,
    -0.33671361207962036,
    0.9854395985603333,
    0.26660358905792236,
    -0.2445509284734726,
    -0.6485702991485596,
    -0.15808892250061035,
    0.5398999452590942,
    -0.5773887634277344,
    -0.9102206826210022,
    -0.510470986366272,
    -0.1472974568605423,
    -1.0,
    0.9213904142379761,
    -0.39900514483451843,
    -0.6818901300430298,
    0.5743063688278198,
    -0.04930567741394043,
    -0.5710562467575073,
    0.7832332253456116,
    0.3753807246685028,
    0.6393076777458191,
    -0.19837342202663422,
    -0.15456409752368927,
    -0.15969416499137878,
    0.8799064755439758,
    0.4339701533317566,
    -0.7233708500862122,
    -0.152595654129982,
    0.006152503192424774,
    -0.2763725817203522,
    -0.9579455256462097,
    -0.7654988169670105,
    0.6416976451873779,
    0.28756383061408997,
    -0.5293923020362854,
    0.7732749581336975,
    -0.4152319133281708,
    0.30165401101112366,
    -0.5952697992324829,
    0.6499008536338806,
    0.4134708642959595,
    0.9082613587379456,
    -0.8289681673049927,
    0.20202335715293884,
    -0.3193211853504181,
    0.9542131423950195,
    -0.07942435890436172,
    0.9631641507148743,
    -0.05394444614648819,
    0.7047576904296875,
    -0.10963161289691925,
    -0.6702873706817627,
    -0.02983788587152958,
    0.9187873005867004,
    0.9039551615715027,
    -0.00508743105456233,
    0.3325296938419342,
    0.0943114161491394,
    -0.2949856221675873,
    -0.43031102418899536,
    0.0756005048751831,
    0.7171543836593628,
    0.12036794424057007,
    -0.6693227291107178,
    0.985500693321228,
    -0.28544574975967407,
    -0.5214821100234985,
    -0.5951537489891052,
    -0.1021728590130806,
    -0.5680471658706665,
    0.22000189125537872,
    -0.26663392782211304,
    0.6474257111549377,
    -0.9660207033157349,
    0.09321577847003937,
    -0.6445570588111877,
    0.6885982751846313,
    0.39469271898269653,
    -0.6849637627601624,
    -0.9210577607154846,
    -0.716312050819397,
    -0.8697778582572937,
    0.47108665108680725,
    0.47193536162376404,
    -1.0,
    0.8146031498908997,
    0.05189967900514603,
    -0.5627338290214539,
    1.0,
    -0.37257906794548035,
    0.10760829597711563,
    0.16488228738307953,
    -0.7031891942024231,
    0.3111605942249298,
    -0.37347033619880676,
    0.6132144927978516,
    0.14267103374004364,
    0.0342906229197979,
    -0.7692314386367798,
    -0.17323821783065796,
    -0.7973785996437073,
    0.7968748807907104,
    -0.5239692330360413,
    -0.8580920100212097,
    -0.03544117510318756,
    -0.30960720777511597,
    0.3372723162174225,
    0.45495468378067017,
    0.048814330250024796,
    -0.522415816783905,
    -0.7205603718757629,
    0.8201635479927063,
    -0.5833491683006287,
    -0.8059633374214172,
    0.671425461769104,
    -0.0005341413780115545,
    -0.15978582203388214,
    0.1996094435453415,
    0.06373792141675949,
    -1.0,
    1.0,
    0.19857166707515717,
    -1.0,
    0.026056693866848946,
    0.36333197355270386,
    0.16702471673488617,
    -0.5198889374732971,
    0.7417401075363159,
    -0.4696737825870514,
    -0.49669182300567627,
    -0.3474622666835785,
    0.29844042658805847,
    0.007745624519884586,
    0.7752372622489929,
    0.47613441944122314,
    -0.35946542024612427,
    -0.5694721937179565,
    -0.112845279276371,
    0.30373233556747437,
    -0.14296990633010864,
    -0.8450758457183838,
    -0.9267556071281433,
    0.5348460078239441,
    0.26584672927856445,
    -0.364454984664917,
    0.776171088218689,
    -0.39929211139678955,
    -0.2955595552921295,
    -0.2011990249156952,
    0.6502183675765991,
    -0.5286354422569275,
    -0.8387768268585205,
    0.05681931599974632,
    0.46513864398002625,
    -0.9830530881881714,
    -0.116617351770401,
    0.9947172403335571,
    0.25386831164360046,
    0.061653487384319305,
    0.16788239777088165,
    -0.397808700799942,
    -0.30983617901802063,
    0.2335306704044342,
    0.19138170778751373,
    0.8192695379257202,
    0.8205817937850952,
    0.8820215463638306,
    0.0913509801030159,
    0.1367228478193283,
    0.8385601043701172,
    0.5759482383728027,
    -0.4634082615375519,
    0.048390135169029236,
    -0.8537704944610596,
    -0.15406660735607147,
    -0.9473463892936707,
    -0.06559944897890091,
    0.6578844785690308,
    -0.4516526162624359,
    0.7561113834381104,
    0.4759331941604614,
    0.15760669112205505,
    0.9358286261558533,
    0.6320382952690125,
    0.05769822746515274,
    -0.7390698194503784,
    0.7641072273254395,
    -0.8293617963790894,
    -0.8755425810813904,
    -0.787258505821228,
    -0.48612314462661743,
    -0.060521382838487625,
    -0.4743184745311737,
    -0.4044739902019501,
    -0.8175268173217773,
    -0.9103732109069824,
    -0.5608385801315308,
    -0.8580797910690308,
    1.0,
    -0.8072540760040283,
    0.9059572815895081,
    -0.9358958601951599,
    -0.6500016450881958,
    -0.3341349959373474,
    0.9084476232528687,
    -0.005914449226111174,
    -0.4831143021583557,
    0.1571216732263565,
    0.028751380741596222,
    0.7052064538002014,
    0.16335955262184143,
    0.35284000635147095,
    -0.5211736559867859,
    -0.52590411901474,
    -0.5104402303695679,
    -0.48384660482406616,
    -0.380269855260849,
    0.5070801973342896,
    -0.7606218457221985,
    -1.0,
    0.2970792353153229,
    0.9478712677955627,
    0.9336710572242737,
    0.31045570969581604,
    0.28959015011787415,
    -0.21369068324565887,
    -1.0,
    -0.14161494374275208,
    -0.18775592744350433,
    -0.16976229846477509,
    0.9630756378173828,
    0.6554000973701477,
    0.7825525403022766,
    -0.7437208890914917,
    0.4718771278858185,
    -0.3080478608608246,
    -0.57881098985672,
    0.9830469489097595,
    0.655354380607605,
    0.9317178726196289,
    0.4306252896785736,
    0.8968322277069092,
    0.5348246693611145,
    -0.22296832501888275,
    0.9018219709396362,
    -0.21317479014396667,
    0.05766778066754341,
    -0.03548996150493622,
    -0.9817163348197937,
    0.4835415184497833,
    -0.7391460537910461,
    0.9249092936515808,
    -0.631980299949646,
    -0.0529465526342392,
    0.3530382215976715,
    -0.20032961666584015,
    0.564723551273346,
    0.6391674280166626,
    -0.3561052083969116,
    -0.19678936898708344,
    -0.41034573316574097,
    -0.13181252777576447,
    0.01106287632137537,
    0.9586809277534485,
    0.5675499439239502,
    0.8474498987197876,
    -0.19374366104602814,
    0.7911316156387329,
    -0.026014016941189766,
    0.3920162618160248,
    0.5086063146591187,
    0.5192327499389648,
    -0.003637838875874877,
    -0.5043949484825134,
    0.632969081401825,
    0.2991943359375,
    -0.1593676656484604,
    0.4369489252567291,
    0.147114560008049,
    -0.3551134467124939,
    -0.23233763873577118,
    0.6529679298400879,
    -0.609640896320343,
    0.5644885301589966,
    -0.7486100792884827,
    -0.44789576530456543,
    0.17003083229064941,
    -0.8748985528945923,
    -0.4100834131240845,
    0.5366405248641968,
    0.32999348640441895,
    -0.470668762922287,
    0.28607746958732605,
    -0.7704672813415527,
    -0.5806570053100586,
    1.0,
    0.3822503983974457,
    0.6710439324378967,
    -0.4116244912147522,
    0.8079469203948975,
    0.880736768245697,
    -0.16744893789291382,
    -0.9610034823417664,
    0.8626453280448914,
    0.7885891199111938,
    0.9072420597076416,
    -0.7296976447105408,
    -0.21927838027477264,
    -0.9106082320213318,
    -0.9334360957145691,
    -0.13628032803535461,
    0.4009094834327698,
    0.829340398311615,
    -1.0,
    0.0482742078602314,
    -0.7263742089271545,
    -0.029407501220703125,
    -0.36218148469924927,
    -0.33731809258461,
    -0.716006875038147,
    -0.9417920708656311,
    -0.6615710854530334,
    -0.7724630236625671,
    0.03292936831712723,
    0.25904738903045654,
    -0.261458158493042,
    -0.7891597747802734,
    -0.5519851446151733,
    -0.7867976427078247,
    0.024463564157485962,
    -0.4725821614265442,
    -0.17641830444335938,
    -0.6046448945999146,
    0.555879533290863,
    -0.6427319049835205,
    -0.08025168627500534,
    0.056736815720796585,
    0.994924783706665,
    -0.8541092276573181,
    0.31619295477867126,
    -0.8396710157394409,
    -0.8748129606246948,
    -0.664027750492096,
    -0.31017211079597473,
    -0.7224524617195129,
    0.22802503407001495,
    0.8186285495758057,
    1.0,
    -0.42825719714164734,
    1.0,
    -0.5074952244758606,
    -0.5374064445495605,
    -0.7113407850265503,
    0.466472327709198,
    -0.8429517149925232,
    -0.7931854724884033,
    0.6755883693695068,
    -0.3809504806995392,
    0.26760149002075195,
    0.300717294216156,
    0.49173256754875183,
    0.7362377047538757,
    -0.6229438781738281,
    -0.6795588135719299,
    -0.2272745668888092,
    -0.20811773836612701,
    -0.033601127564907074,
    -0.6412426233291626,
    -1.0,
    0.6138799786567688,
    0.14970844984054565,
    0.7628498077392578,
    0.7625691294670105,
    -0.04773400351405144,
    0.4136265814304352,
    0.901934802532196,
    0.560969889163971,
    -0.8203862905502319,
    0.8010650873184204,
    0.03500775620341301,
    0.4747398793697357,
    -0.8748772144317627,
    -0.11188387870788574,
    -0.8477645516395569,
    -0.5081697106361389,
    -0.09745786339044571,
    0.11634878069162369,
    -0.3456038236618042,
    0.4946043789386749,
    0.8417125940322876,
    0.7897458672523499,
    0.4364147186279297,
    -0.05876326560974121,
    0.7815088033676147,
    0.47394031286239624,
    -0.6240334510803223,
    -0.5880612134933472,
    -0.18445979058742523,
    0.9124454259872437,
    -0.5881036520004272,
    -0.6334239840507507,
    -0.3187199831008911,
    -0.5584551692008972,
    0.9692342877388,
    0.48921170830726624,
    -1.0,
    0.10998263955116272,
    0.5002256631851196,
    0.13517865538597107,
    0.26951199769973755,
    -0.3081851899623871,
    0.5986083745956421,
    -0.9299508929252625,
    0.18715474009513855,
    -0.37765440344810486,
    0.8227058053016663,
    -0.14376963675022125,
    -0.7229377031326294,
    -0.8314279913902283,
    0.6824029684066772,
    0.6719626188278198,
    -0.750740110874176,
    0.7982268929481506,
    -0.41754820942878723,
    0.6199986338615417,
    0.7466597557067871,
    -0.551200807094574,
    -0.5141851902008057,
    0.22382274270057678,
    -0.023819660767912865,
    0.15925483405590057,
    -0.7277594804763794,
    -0.40700703859329224,
    -0.6203526854515076,
    -1.0,
    0.2246435433626175,
    0.9476882219314575,
    0.9275489449501038,
    -0.48413336277008057,
    0.7829983830451965,
    -0.3767908215522766,
    0.5930480360984802,
    -0.509549081325531,
    0.9077302813529968,
    -0.7450147271156311,
    -0.9498521685600281,
    0.9269111752510071,
    -0.8195288181304932,
    0.007208408322185278,
    0.41368740797042847,
    0.3841702342033386,
    0.356584370136261,
    -0.5342782139778137,
    -0.868874192237854,
    -0.18937958776950836,
    0.3797478973865509,
    -0.5000519752502441,
    0.7508682012557983,
    0.6398388743400574,
    -1.0,
    -0.7269569039344788,
    -0.5317973494529724,
    -0.6822624802589417,
    0.6671378016471863,
    -0.5350841283798218,
    -0.5418897271156311,
    0.38350170850753784,
    -0.4599383771419525,
    -0.8092988729476929,
    0.051399361342191696,
    -0.8058290481567383,
    -1.0,
    -0.11978210508823395,
    -1.0,
    0.0618976466357708,
    -0.7584245204925537,
    0.5220710635185242,
    -0.4952909052371979,
    -0.11270485073328018,
    0.4256659746170044,
    0.740949809551239,
    -0.08520767092704773,
    -0.2913997769355774,
    -0.3492415249347687,
    -0.3890012204647064,
    -0.8092196583747864,
    0.6223181486129761,
    -0.4242957532405853,
    -0.9412060976028442,
    -0.003009109990671277,
    0.5533737540245056,
    -0.6849298477172852,
    0.4627157151699066,
    -0.5354563593864441,
    0.03679311275482178,
    -0.9747825264930725,
    -0.5532791018486023,
    0.532960057258606,
    -0.35418564081192017,
    0.7374553680419922,
    -0.743482768535614,
    -0.41652587056159973,
    0.17099826037883759,
    0.5232001543045044,
    0.7854000926017761,
    0.06084457039833069,
    -0.5004302263259888,
    0.6824212670326233,
    -0.49878236651420593,
    0.11921438574790955,
    -0.665498673915863,
    -0.7880306243896484,
    -1.0,
    -0.7295143604278564,
    0.9460768699645996,
    -0.12337102741003036,
    -0.15314176678657532,
    -0.12435370683670044,
    -0.5361581444740295,
    -0.9092440605163574,
    0.27577728033065796,
    0.149617001414299,
    -0.5445723533630371,
    0.872441828250885,
    -0.6301827430725098,
    -0.8692252039909363,
    -0.9119784832000732,
    0.45662379264831543,
    -0.8928007483482361,
    0.19869685173034668,
    -0.5359569787979126,
    -0.8419689536094666,
    0.6079134345054626,
    0.644761323928833,
    -0.9023926258087158,
    -0.6444073915481567,
    -0.4337625503540039,
    0.3539109528064728,
    -0.9752647280693054,
    1.0,
    -0.9356791377067566,
    -0.17076937854290009,
    0.42395418882369995,
    -0.4841456413269043,
    0.6723043322563171,
    -0.8790490627288818,
    -0.3254067301750183,
    0.12040156871080399,
    -0.2918698489665985,
    -0.8207435011863708,
    0.6421947479248047,
    0.33005455136299133,
    -0.7798670530319214,
    0.7867064476013184,
    0.49749132990837097,
    -0.44459080696105957,
    0.403613418340683,
    -0.5812434554100037,
    -0.7731406688690186,
    0.20554512739181519,
    0.8171879053115845,
    -0.32600492238998413,
    -0.43307268619537354,
    -0.22835785150527954,
    0.9273537993431091,
    -0.9974272847175598,
    0.9028687477111816,
    0.7450301051139832,
    -0.8375225067138672,
    -0.703478991985321,
    0.8469985127449036,
    0.1931607574224472,
    0.45691996812820435,
    0.8177557587623596,
    0.7456282377243042,
    1.0,
    -0.21448415517807007,
    -0.44736167788505554,
    0.3001311421394348,
    -0.03421119228005409,
    0.35778361558914185,
    -0.07532569020986557,
    0.20618313550949097,
    0.5932705998420715,
    0.6643208265304565,
    1.0,
    -1.0,
    -0.30159300565719604,
    0.517947793006897,
    -0.08895836025476456,
    0.8462294340133667,
    -0.023676205426454544,
    0.5374248027801514,
    -0.30986353754997253,
    -0.11537520587444305,
    0.8548569679260254,
    0.701840341091156,
    0.07529215514659882,
    -0.12296519428491592,
    -0.5079714059829712,
    -0.7727927565574646,
    -0.6536392569541931,
    -0.0664936974644661,
    -0.9157506823539734,
    0.3709830641746521,
    0.6142643690109253,
    0.2521865665912628,
    -0.22501899302005768,
    -0.12478091567754745,
    -0.6213996410369873,
    -0.013522728346288204,
    -0.5684225559234619,
    -0.6744193434715271,
    0.7888118028640747,
    0.6105164885520935,
    -0.38070008158683777,
    0.2218390256166458,
    -0.013583739288151264,
    -0.12568137049674988,
    -0.8145636916160583,
    -0.27005550265312195,
    0.06559959799051285,
    -0.6284127235412598,
    -0.44545426964759827,
    -0.5054383873939514,
    0.6676198244094849,
    0.9743523001670837,
    -0.3059418499469757,
    -0.18756376206874847,
    0.7017672061920166,
    -0.44882339239120483,
    0.39724424481391907,
    -0.5477767586708069,
    0.08232684433460236,
    -0.7294564247131348,
    -0.7584094405174255,
    1.0,
    0.2316598743200302,
    0.8095248937606812,
    0.7418867349624634,
    -0.4814508557319641,
    0.6920620203018188,
    0.08815270662307739,
    0.0036682598292827606,
    0.4113774001598358,
    -0.42644742131233215,
    0.5043917298316956,
    0.9040162563323975,
    -0.8881191611289978,
    0.5695485472679138,
    -0.244996577501297,
    0.5897762775421143,
    -0.0036895780358463526,
    -0.8172429800033569,
    -0.3099063038825989,
    -0.39255958795547485,
    0.3322397470474243,
    -0.5554579496383667,
    -0.15618476271629333,
    0.021259183064103127,
    -0.6698355078697205,
    0.2934812307357788,
    -0.5069764256477356,
    0.8013855218887329,
    0.8116795420646667,
    -1.0,
    0.8243690133094788,
    -0.015488187782466412,
    -0.44068431854248047,
    0.34296393394470215,
    -0.7126561999320984,
    -0.3857753276824951,
    0.8509628772735596,
    0.46514177322387695,
    -0.12902303040027618,
    0.16036558151245117,
    0.31872299313545227,
    0.6904904246330261,
    -0.08559523522853851,
    0.2710716128349304,
    -0.7360118627548218,
    0.5003415942192078,
    -0.004355010576546192,
    -0.24231070280075073,
    0.011294916272163391,
    -0.7162971496582031,
    -0.06422005593776703,
    0.568120539188385,
    -0.5322458148002625,
    -0.3390148878097534,
    -0.445698618888855,
    0.24564650654792786,
    -0.27637535333633423,
    0.3266913592815399,
    -0.5534653067588806,
    0.43958568572998047,
    0.8427900075912476,
    -0.18216799199581146,
    -0.8842372298240662,
    -0.022077221423387527,
    0.19779671728610992,
    0.1517806500196457,
    0.7853784561157227,
    0.02588883973658085,
    0.8214725255966187,
    0.37018951773643494,
    0.30773019790649414,
    -0.6030183434486389,
    -0.278557687997818,
    0.6205417513847351,
    -0.2213263213634491,
    0.5014525055885315,
    -0.4902493357658386,
    -0.5973203182220459,
    -0.44159066677093506,
    0.4348064661026001,
    0.16291381418704987,
    0.8676565289497375,
    -0.7365673780441284,
    -0.5650226473808289,
    -0.9997803568840027,
    -0.8594381213188171,
    -0.43474531173706055,
    0.129929319024086,
    0.16865748167037964,
    0.6221747398376465,
    0.13371694087982178,
    0.6611713767051697,
    0.0028811036609113216,
    0.5045473575592041,
    -0.9654072523117065,
    0.4294746518135071,
    -0.03306083008646965,
    0.7194496393203735,
    0.9344584941864014,
    0.10739769786596298,
    -0.49809256196022034,
    -0.691796600818634,
    -0.4023285210132599,
    -0.30055534839630127,
    0.1035798043012619,
    0.32104548811912537,
    -0.477605402469635,
    0.5409495830535889,
    -0.05851007625460625,
    -0.22286146879196167,
    -0.24036671221256256,
    -1.0,
    1.0,
    -0.8286598920822144,
    0.18529316782951355,
    0.5920102596282959,
    0.8712119460105896,
    0.0710684061050415,
    0.4638601243495941,
    0.907589852809906,
    0.2591814398765564,
    -0.33885934948921204,
    -0.9206122159957886,
    -0.4464307129383087,
    0.9937772750854492,
    -0.9078616499900818,
    -0.5999906063079834,
    -0.40673550963401794,
    0.4639512002468109,
    -0.4641041159629822,
    -0.13117161393165588,
    0.7588732838630676,
    -0.36944493651390076,
    0.04819182679057121,
    0.7828790545463562,
    0.582518994808197,
    -0.8652027249336243,
    0.6471694707870483,
    0.1183537170290947,
    0.7618518471717834,
    0.5196170806884766,
    -0.5587053894996643,
    -0.7345438599586487,
    0.5058501958847046,
    -0.4098210036754608,
    0.2722097933292389,
    -0.01024811901152134,
    -0.840034008026123,
    -0.8368327021598816,
    0.0016784734325483441,
    0.012631568126380444,
    -0.7849940657615662,
    0.07354650646448135,
    -0.8012024760246277,
    -0.11376379430294037,
    0.7888942956924438,
    -0.2970275282859802,
    -0.42426222562789917,
    0.7477339506149292,
    0.37246307730674744,
    -0.21161219477653503,
    -0.5977537631988525,
    -0.9559526443481445,
    -0.22610555589199066,
    0.41390424966812134,
    -0.002117716707289219,
    0.8466384410858154,
    -0.7467756867408752,
    0.8093844056129456,
    0.8624957799911499,
    -0.07726676762104034,
    0.12210442870855331,
    -0.02206178940832615,
    -0.3707205653190613,
    0.9214026927947998,
    0.12268728762865067,
    0.23842287063598633,
    -0.8096745014190674,
    -0.8168797492980957,
    0.9212591648101807,
    -0.0011139529524371028,
    -0.10564596205949783,
    -0.06121089309453964,
    0.5593340992927551,
    -0.5896207094192505,
    0.8578934669494629,
    0.8037295341491699,
    -1.0,
    -0.9390515089035034,
    -0.5169925093650818,
    0.03822148218750954,
    -0.08348038047552109,
    -0.7593768239021301,
    -0.6568099856376648,
    0.3149876892566681,
    0.20402532815933228,
    0.6471664905548096,
    -0.6680471301078796,
    0.042072594165802,
    -0.9720115065574646,
    1.0,
    -0.8960570096969604,
    -0.14453552663326263,
    -0.7982603311538696,
    0.844160258769989,
    -0.7251013517379761,
    -0.9671254754066467,
    -0.39931321144104004,
    0.7221410870552063,
    -0.46807464957237244,
    0.7067292332649231,
    -1.0,
    -0.736307680606842,
    -0.6895809769630432,
    0.14825278520584106,
    0.9432080984115601,
    0.4892635643482208,
    -0.9454694986343384,
    -0.6465346217155457,
    0.43880125880241394,
    0.7754294872283936,
    1.0,
    -0.045115455985069275,
    -0.5789238810539246,
    0.5929408669471741,
