{
  "input": 51,
  "network_layers": [
    50,
    10,
    3
  ],
  "observer": {
    "cellInterpreter": {
      "type": "Basic3CellInterpreter"
    },
    "height": 5,
    "type": "GridObserver",
    "width": 5
  },
  "type": "GeneticBot",
  "weights": [
    -0.8480971455574036,
    0.5665157437324524,
    0.1084875613451004,
    0.0762844979763031,
    0.0833645686507225,
    0.6082031726837158,
    -0.13061022758483887,
    -0.2666463553905487,
    0.5430312156677246,
    -0.2127627581357956,
    -0.9658864140510559,
    0.7890956997871399,
    0.3167821764945984,
    -0.5769825577735901,
    0.13703757524490356,
    -0.19300810992717743,
    0.5694267749786377,
    0.8598375916481018,
    0.7689258456230164,
    0.835545003414154,
    0.8270210027694702,
    0.9630023837089539,
    0.9102024435997009,
    -0.4097538888454437,
    0.8261786699295044,
    -0.1411695033311844,
    0.5156987309455872,
    -0.8443586230278015,
    -0.9214821457862854,
    -0.4786125123500824,
    0.808862566947937,
    -0.7049654722213745,
    0.04637574404478073,
    0.04953467473387718,
    0.14328446984291077,
    -0.6686269640922546,
    0.42871177196502686,
    -0.2116885930299759,
    -0.41561925411224365,
    -0.23046068847179413,
    0.22062110900878906,
    0.042863331735134125,
    -0.4268651306629181,
    -0.7486586570739746,
    0.8015137910842896,
    0.36882224678993225,
    0.33600887656211853,
    -0.4526599943637848,
    0.9100649952888489,
    -0.8819635510444641,
    0.882100522518158,
    0.0963103249669075,
    -0.4516462981700897,
    0.8677266240119934,
    -0.6242773532867432,
    1.0,
    0.8752129077911377,
    0.7184299826622009,
    0.8012330532073975,
    -0.5798057913780212,
    -0.9043123722076416,
    0.3727194666862488,
    0.615619421005249,
    -0.10219119489192963,
    -0.8679403066635132,
    0.18771620094776154,
    0.397817999124527,
    -0.7320292592048645,
    0.26980820298194885,
    0.2881772220134735,
    0.05934920907020569,
    0.09712202101945877,
    1.0,
    -0.909234881401062,
    -0.387032687664032,
    -0.2780665159225464,
    -0.8886469602584839,
    -0.41261008381843567,
    -0.046763572841882706,
    -0.8626728653907776,
    -0.9793267250061035,
    0.355183482170105,
    0.6612382531166077,
    -0.04361708089709282,
    0.20708288252353668,
    0.2286352962255478,
    0.17407120764255524,
    0.6209661960601807,
    0.030308252200484276,
    0.6844353079795837,
    -1.0,
    -0.14937593042850494,
    -0.7204717993736267,
    0.28434401750564575,
    0.7069612145423889,
    -0.8469588756561279,
    0.14882007241249084,
    -0.023425716906785965,
    -0.5991547107696533,
    0.7545915246009827,
    -0.9578264951705933,
    -0.8968871831893921,
    0.8265876770019531,
    -0.11393468081951141,
    0.381737619638443,
    1.0,
    0.9079592227935791,
    0.005014196969568729,
    0.7033447623252869,
    0.32096904516220093,
    0.7249425053596497,
    0.49172914028167725,
    -0.8676015138626099,
    0.06081729754805565,
    -0.9133762121200562,
    0.6496687531471252,
    -0.3614211082458496,
    -0.4031006693840027,
    -0.806909441947937,
    -0.25726500153541565,
    -0.9208959937095642,
    1.0,
    0.7100377082824707,
    -0.16037777066230774,
    0.2715933620929718,
    0.8813440203666687,
    -0.9228491187095642,
    0.4018585979938507,
    -0.6100772023200989,
    0.6969206929206848,
    0.43370145559310913,
    0.6386178731918335,
    0.03075670264661312,
    -0.40247195959091187,
    -0.20752602815628052,
    -0.5385754108428955,
    -0.5439617037773132,
    0.32693278789520264,
    -0.2233801633119583,
    -0.8252845406532288,
    0.7218849658966064,
    -0.5733115673065186,
    0.7934628129005432,
    -1.0,
    -0.6097081303596497,
    0.7948576211929321,
    0.7049379348754883,
    0.01150559727102518,
    0.8381784558296204,
    0.9374340176582336,
    0.8994051814079285,
    -0.5189765095710754,
    0.636927604675293,
    0.019360976293683052,
    0.7715994715690613,
    0.5627767443656921,
    -0.067281074821949,
    0.6352887749671936,
    0.1353650689125061,
    0.1583482027053833,
    -0.14989760518074036,
    0.3568008244037628,
    0.9381633996963501,
    0.17500877380371094,
    -0.463539183139801,
    -0.6010497808456421,
    0.6615710854530334,
    1.0,
    0.03393348678946495,
    -0.28214359283447266,
    0.5892574191093445,
    -0.7385175228118896,
    -0.1923796385526657,
    0.11565284430980682,
    0.12658169865608215,
    -0.17958931624889374,
    0.7293863892555237,
    0.5577106475830078,
    -0.41735899448394775,
    0.6521776914596558,
    0.9385296106338501,
    1.0,
    -0.29772672057151794,
    -0.05767101049423218,
    1.0,
    0.9940244555473328,
    0.014539241790771484,
    0.8615100979804993,
    -0.5188329219818115,
    0.03594134747982025,
    -0.07890240848064423,
    -0.6150822043418884,
    0.27677837014198303,
    0.9189275503158569,
    -0.6297313570976257,
    1.0,
    -0.10817906260490417,
    -0.5081060528755188,
    0.3791070580482483,
    0.7252663969993591,
    0.5617482662200928,
    -0.5778253078460693,
    0.09020030498504639,
    0.45477455854415894,
    -0.6574756503105164,
    0.9037476181983948,
    -0.00472716148942709,
    -0.4513472020626068,
    -0.16652442514896393,
    -0.7057924866676331,
    -0.32833948731422424,
    -0.23018890619277954,
    -0.48810049891471863,
    -0.5134097933769226,
    -0.307120144367218,
    -0.5191230177879333,
    0.3459269404411316,
    -0.10290231555700302,
    0.016177576035261154,
    -0.4720876216888428,
    -0.7527909874916077,
    0.3816860020160675,
    -0.9073854684829712,
    0.5538952946662903,
    -0.7834070920944214,
    -0.7835352420806885,
    0.6861658692359924,
    0.1140783503651619,
    -0.45227518677711487,
    -0.3267805278301239,
    0.6894741058349609,
    0.3356974422931671,
    0.9177953600883484,
    0.43436381220817566,
    -0.056639231741428375,
    0.21523188054561615,
    0.06663712114095688,
    -0.35880598425865173,
    -0.734412670135498,
    0.6349315047264099,
    1.0,
    -0.05379807576537132,
    0.3924683928489685,
    0.06790643185377121,
    0.8302865624427795,
    0.7572528719902039,
    -0.44928404688835144,
    -0.3960172235965729,
    0.6597307324409485,
    0.41527146100997925,
    0.053315915167331696,
    -0.4058716893196106,
    0.4401836395263672,
    -0.7266334891319275,
    0.49700313806533813,
    -0.7683402895927429,
    0.6776148080825806,
    0.8695424795150757,
    0.6275673508644104,
    -0.429090291261673,
    1.0,
    -0.6577869653701782,
    -0.24009191989898682,
    -0.7670186758041382,
    -0.4251502454280853,
    1.0,
    -0.8639576435089111,
    -0.9914182424545288,
    -0.9673512578010559,
    -0.5335399508476257,
    -1.0,
    0.45860159397125244,
    0.7088532447814941,
    0.6749351620674133,
    0.7041078805923462,
    0.008914506062865257,
    -0.15681029856204987,
    -0.6454724073410034,
    0.4158450663089752,
    -0.10622899979352951,
    0.11466749757528305,
    0.02039560303092003,
    -0.4195166230201721,
    0.9604361057281494,
    1.0,
    0.7292642593383789,
    0.624302089214325,
    -0.2955871820449829,
    -0.7012327313423157,
    -0.16413477063179016,
    0.6778558492660522,
    0.7285315990447998,
    0.18503378331661224,
    0.0651019886136055,
    -0.1702016443014145,
    0.07462088018655777,
    0.6898465752601624,
    -0.11227131634950638,
    -0.5467329621315002,
    -0.9397015571594238,
    0.34843283891677856,
    0.03715331852436066,
    -0.22321546077728271,
    -0.08104190230369568,
    -0.2442946583032608,
    -0.5698049664497375,
    0.5027099251747131,
    0.7161532640457153,
    0.6826288104057312,
    -0.9333109259605408,
    0.8180577754974365,
    -0.3691549003124237,
    -0.7800654172897339,
    -0.8907376527786255,
    0.5080690383911133,
    -0.8100007772445679,
    -0.4596666395664215,
    0.6090914011001587,
    0.10029952228069305,
    -0.7081820964813232,
    0.7299630045890808,
    -0.5691153407096863,
    -0.05774105340242386,
    -0.731788158416748,
    -0.9768700003623962,
    0.8514297008514404,
    -0.8812219500541687,
    -0.5457321405410767,
    -0.21683111786842346,
    -0.4011901915073395,
    0.06291378289461136,
    0.9234687089920044,
    -0.899731457233429,
    0.22229376435279846,
    0.4903772473335266,
    -0.02111254632472992,
    -0.7485823035240173,
    0.7207066416740417,
    0.1782035082578659,
    -0.7771875858306885,
    -0.9381114840507507,
    -0.03729359433054924,
    -0.9204321503639221,
    -0.860011637210846,
    0.6997923851013184,
    -0.43843820691108704,
    0.7073977589607239,
    -0.8537706732749939,
    0.5607650279998779,
    0.8473891615867615,
    -1.0,
    -0.584469199180603,
    -0.16893529891967773,
    -0.12992331385612488,
    -0.010806461796164513,
    0.059373728930950165,
    0.8499161005020142,
    0.2043672651052475,
    -0.9719808101654053,
    0.25617846846580505,
    0.19106073677539825,
    -0.17980891466140747,
    -0.45214399695396423,
    -0.6099123358726501,
    -0.2916012704372406,
    0.8042268753051758,
    -0.31821343302726746,
    0.29545271396636963,
    -0.05509501323103905,
    0.16428729891777039,
    0.9100863933563232,
    0.15036483108997345,
    0.8858547210693359,
    0.36680498719215393,
    -0.005355928558856249,
    0.5267433524131775,
    0.2503770887851715,
    0.2706688642501831,
    -0.02819926291704178,
    -0.015967149287462234,
    0.8976775407791138,
    -0.9461073875427246,
    -0.35460615158081055,
    -0.10467875003814697,
    -0.010443707928061485,
    -0.18140816688537598,
    0.04341268539428711,
    0.8645161390304565,
    0.36633798480033875,
    0.9373424649238586,
    -0.27517032623291016,
    0.34439510107040405,
    0.2918851673603058,
    0.36960673332214355,
    0.039066705852746964,
    -0.6325417160987854,
    -0.8740255832672119,
    0.8054139614105225,
    -0.31813085079193115,
    -0.5412670969963074,
    1.0,
    0.07084892690181732,
    -0.9399487972259521,
    -0.3978058397769928,
    -0.8059998750686646,
    -0.8175939917564392,
    -0.04300055280327797,
    0.6768426895141602,
    0.38263189792633057,
    0.12929490208625793,
    0.6077761650085449,
    0.22566021978855133,
    0.8158543109893799,
    0.5123354196548462,
    -0.34948864579200745,
    0.17296987771987915,
    -0.46795856952667236,
    -0.07917974889278412,
    -0.40112602710723877,
    -0.6078401803970337,
    0.40855443477630615,
    -0.5402874946594238,
    -0.7637867331504822,
    0.15173804759979248,
    -0.20683321356773376,
    0.737281322479248,
    -0.2625567615032196,
    -0.903836190700531,
    -0.30391570925712585,
    0.15465566515922546,
    -0.4145662784576416,
    -0.17327798902988434,
    0.036152321845293045,
    0.287209689617157,
    0.3413158357143402,
    -0.2681596577167511,
    -0.5328655242919922,
    -0.8465620875358582,
    -0.8830652832984924,
    -0.2441389113664627,
    -0.939146101474762,
    -0.2825007438659668,
    0.8671346306800842,
    0.8576892018318176,
    0.38460642099380493,
    -0.4142243564128876,
    0.8025848865509033,
    0.14622056484222412,
    -0.6501901745796204,
    0.04139557108283043,
    -0.257112056016922,
    0.2565874755382538,
    -0.29600226879119873,
    0.4491867423057556,
    0.8624531030654907,
    0.429789274930954,
    -0.15888848900794983,
    -0.04840221628546715,
    -0.025562148541212082,
    -0.17929325997829437,
    -0.6142279505729675,
    0.48128604888916016,
    0.4801049828529358,
    -0.9046540260314941,
    -0.6410232782363892,
    -0.6335094571113586,
    0.49465319514274597,
    -0.16111670434474945,
    1.0,
    0.6911312937736511,
    -0.9068728089332581,
    0.04295477271080017,
    -0.04811866953969002,
    -0.1687583327293396,
    0.16240739822387695,
    -1.0,
    0.8243507742881775,
    -0.2514481842517853,
    -0.7224067449569702,
    0.19522397220134735,
    -0.8001434206962585,
    0.9388439655303955,
    -0.1797599047422409,
    0.8735313415527344,
    0.8876644372940063,
    0.9605609178543091,
    -0.528235673904419,
    0.4556412994861603,
    -0.47823408246040344,
    -1.0,
    0.7338387370109558,
    0.24570168554782867,
    -0.24886009097099304,
    0.3156069815158844,
    -0.2350446730852127,
    1.0,
    -0.3374674618244171,
    -0.8796073794364929,
    0.5821863412857056,
    0.0909818559885025,
    0.401574969291687,
    0.67439204454422,
    0.9604753851890564,
    1.0,
    0.1683979332447052,
    -0.709894061088562,
    0.052891604602336884,
    0.05939820781350136,
    -0.994113028049469,
    -0.8442362546920776,
    -0.6106662750244141,
    -0.5459088087081909,
    -0.7740195989608765,
    0.5167060494422913,
    0.5480965375900269,
    -0.7491196990013123,
    0.09062445908784866,
    0.8317696452140808,
    -0.6732594966888428,
    -0.7042573690414429,
    0.5307930707931519,
    0.8779629468917847,
    -0.35083433985710144,
    -0.9138584733009338,
    -0.7450299859046936,
    0.4687367081642151,
    -0.098172128200531,
    -0.6033204793930054,
    0.35864418745040894,
    0.3973662555217743,
    -0.4243842661380768,
    -0.6291725635528564,
    0.2468547821044922,
    -0.03477896749973297,
    -0.7501328587532043,
    0.8658161759376526,
    0.23167243599891663,
    -0.08061153441667557,
    0.659203052520752,
    0.698269784450531,
    -0.27483153343200684,
    -1.0,
    1.0,
    0.7913419008255005,
    -0.29207149147987366,
    0.6490586400032043,
    0.23715320229530334,
    0.08554356545209885,
    1.0,
    -0.24250318109989166,
    0.10128799080848694,
    1.0,
    0.09700022637844086,
    -0.8936094045639038,
    0.5031495094299316,
    0.42697256803512573,
    -0.4914669990539551,
    -0.21920530498027802,
    0.9977294206619263,
    0.952369749546051,
    0.04169430956244469,
    -0.34078189730644226,
    0.5204195976257324,
    -0.929856538772583,
    0.8747642636299133,
    -1.0,
    0.46144288778305054,
    -0.28911998867988586,
    0.3527542054653168,
    0.29311808943748474,
    0.55815589427948,
    0.5817714333534241,
    0.9613727331161499,
    0.5802666544914246,
    0.9448254704475403,
    -0.6918028593063354,
    0.5919186472892761,
    -0.18243947625160217,
    0.8991240859031677,
    -0.4626304507255554,
    -0.1586386263370514,
    0.9384596347808838,
    -0.8929868936538696,
    -0.17628109455108643,
    0.4643213152885437,
    -1.0,
    0.6606005430221558,
    0.518225908279419,
    0.3715232312679291,
    0.9102271795272827,
    -0.27366867661476135,
    0.3481491506099701,
    0.9252631664276123,
    0.796938955783844,
    -0.4152563512325287,
    0.5912686586380005,
    0.7341226935386658,
    0.302813857793808,
    0.3017454147338867,
    0.3418346345424652,
    -0.2975277602672577,
    -0.419675350189209,
    -0.34992507100105286,
    -0.08017203211784363,
    -0.4913937449455261,
    0.25301623344421387,
    -0.5434402823448181,
    -0.9333658218383789,
    -0.3740410804748535,
    -0.19042330980300903,
    0.32345932722091675,
    -0.6099519729614258,
    -0.14463961124420166,
    -0.23129694163799286,
    0.6278389096260071,
    0.36246201395988464,
    -0.3018619418144226,
    0.43719902634620667,
    0.8143770098686218,
    -0.6180120706558228,
    -0.023536039516329765,
    0.03189504146575928,
    0.03594175726175308,
    0.4215584397315979,
    0.06926789879798889,
    -0.05106041207909584,
    0.15687744319438934,
    0.6388470530509949,
    0.23325909674167633,
    -0.1048583835363388,
    0.2556869685649872,
    0.2507857382297516,
    0.4354991018772125,
    0.09122293442487717,
    0.9754692912101746,
    -0.68043452501297,
    -0.4952760338783264,
    -0.9629780054092407,
    -0.45594653487205505,
    -0.6022706031799316,
    -0.31798750162124634,
    -0.46218475699424744,
    0.4427778422832489,
    0.48127081990242004,
    0.7148929834365845,
    0.4982146918773651,
    0.42010560631752014,
    0.19204412400722504,
    0.213034525513649,
    -0.7974761128425598,
    -0.8172855377197266,
    0.9173315167427063,
    0.4243018627166748,
    0.6485397815704346,
    0.11854617297649384,
    0.31603437662124634,
    -0.3123173415660858,
    0.7097476124763489,
    0.4206943213939667,
    0.7017613053321838,
    0.29398471117019653,
    0.6973544359207153,
    0.8330363035202026,
    -1.0,
    0.03882267326116562,
    -0.5566973090171814,
    -0.7085973024368286,
    0.047272950410842896,
    0.6746422648429871,
    0.47970840334892273,
    0.5691947340965271,
    0.9531419277191162,
    0.6659566164016724,
    0.9238136410713196,
    -0.8537095189094543,
    0.0245400108397007,
    0.19063693284988403,
    -0.05254988372325897,
    0.05034339055418968,
    -1.0,
    -0.8910641670227051,
    0.1882261484861374,
    0.023545168340206146,
    0.535770833492279,
    -0.2975921630859375,
    -0.7856685519218445,
    0.7562792301177979,
    0.15543971955776215,
    0.48135924339294434,
    -0.28835728764533997,
    -0.2241462767124176,
    -0.8573628067970276,
    0.5668477416038513,
    -0.2794305384159088,
    -0.7517439723014832,
    -1.0,
    -0.9184668660163879,
    0.8124397397041321,
    0.6940244436264038,
    -0.6477522850036621,
    -0.14361387491226196,
    1.0,
    -0.6773518919944763,
    0.19432976841926575,
    -0.47651007771492004,
    0.8527664542198181,
    -0.797515869140625,
    -0.7545945644378662,
    -0.5182652473449707,
    -0.9751732349395752,
    -0.20563077926635742,
    0.12284636497497559,
    0.7094058990478516,
    0.9585772156715393,
    -0.32050850987434387,
    -0.7218024730682373,
    0.4390089809894562,
    1.0,
    -0.9488418102264404,
    -0.29848915338516235,
    0.5233252048492432,
    0.7841852903366089,
    -0.38940396904945374,
    -0.06293516606092453,
    0.6487930417060852,
    0.011993649415671825,
    0.19928273558616638,
    0.30415958166122437,
    -0.3887995183467865,
    -0.23283188045024872,
    0.5294780731201172,
    -0.46150073409080505,
    0.246315136551857,
    0.08812204003334045,
    0.4495254158973694,
    -0.36078694462776184,
    0.8103822469711304,
    0.5693102478981018,
    0.08778644353151321,
    -0.5375773310661316,
    -0.40323176980018616,
    -0.3218724727630615,
    -0.9289529919624329,
    0.3711112439632416,
    0.34313780069351196,
    -0.03150433301925659,
    0.11435583978891373,
    0.10404373705387115,
    0.5830439925193787,
    0.299487441778183,
    -0.0017885309644043446,
    -0.43296608328819275,
    0.23752214014530182,
    -0.639127790927887,
    -0.05826897919178009,
    0.5902737379074097,
    -0.02696327492594719,
    -0.27766677737236023,
    -0.23692117631435394,
    -1.0,
    -0.45866265892982483,
    -0.8506729006767273,
    0.6413861513137817,
    -0.9339945912361145,
    -0.46609392762184143,
    0.777941107749939,
    0.5380505323410034,
    -0.9228001832962036,
    -0.6808892488479614,
    -0.024231720715761185,
    -0.7099398374557495,
    -0.5775567293167114,
    0.9937406778335571,
    -0.40264877676963806,
    -0.5300855040550232,
    -0.021240970119833946,
    0.5089876055717468,
    0.5703147649765015,
    0.023001814261078835,
    -0.35976144671440125,
    0.4656148850917816,
    0.7898464798927307,
    0.8260779976844788,
    0.9397076368331909,
    0.22357861697673798,
    -0.41557079553604126,
    -0.008624538779258728,
    0.4483290910720825,
    -0.03620115667581558,
    -0.36363115906715393,
    -0.6492050290107727,
    -0.07996150851249695,
    0.7476733922958374,
    0.40870410203933716,
    -0.03663088008761406,
    -0.9830194711685181,
    -0.037794239819049835,
    -0.001770111732184887,
    0.22523564100265503,
    0.46133604645729065,
    -0.2083679735660553,
    0.07799918949604034,
    0.7385357022285461,
    -0.4850488305091858,
    0.31175267696380615,
    0.8752769827842712,
    -0.7722494602203369,
    0.1647356152534485,
    1.0,
    0.39703360199928284,
    0.08648646622896194,
    -0.7948914766311646,
    -0.5514936447143555,
    -0.37614065408706665,
    -0.9525070786476135,
    -0.860426664352417,
    -0.5404465198516846,
    0.5278114676475525,
    0.21673323214054108,
    0.2568378150463104,
    0.765163242816925,
    0.46481215953826904,
    0.9995605945587158,
    -0.8744163513183594,
    -0.604412853717804,
    -1.0,
    0.10465094447135925,
    0.36458927392959595,
    0.6786580681800842,
    0.3617790937423706,
    0.5488418936729431,
    -0.9274758696556091,
    0.36238887906074524,
    0.2460399866104126,
    0.6876950263977051,
    0.578399121761322,
    0.7504807710647583,
    -0.4802483022212982,
    0.7117407321929932,
    0.9495713710784912,
    0.7981476187705994,
    -0.18411150574684143,
    -0.7518203258514404,
    0.37854859232902527,
    0.9519059062004089,
    0.4298226535320282,
    -0.8045684099197388,
    0.4504408538341522,
    1.0,
    -0.8938321471214294,
    0.258806049823761,
    0.10430607199668884,
    -0.32407617568969727,
    -0.4994231164455414,
    -0.5257816910743713,
    -0.07632973790168762,
    1.0,
    -1.0,
    -0.2967740595340729,
    -0.3450052738189697,
    -0.9338023066520691,
    -0.9006805419921875,
    -0.5764641761779785,
    0.882906436920166,
    -0.8281869292259216,
    0.7180272340774536,
    0.514123797416687,
    0.6628469228744507,
    0.6331585049629211,
    -0.47620463371276855,
    0.026145141571760178,
    -0.16026492416858673,
    -0.7941557168960571,
    1.0,
    0.933567464351654,
    0.8648151755332947,
    0.8671987056732178,
    -0.043931376188993454,
    -0.09216277301311493,
    -0.5569749474525452,
    0.5811823606491089,
    0.036295875906944275,
    0.6306647062301636,
    -0.2107791155576706,
    -0.6616231203079224,
    0.24091918766498566,
    -0.9397167563438416,
    0.4951384663581848,
    -0.2755761742591858,
    -0.6551319360733032,
    -0.2311047464609146,
    0.823651909828186,
    0.5791466236114502,
    -0.39932239055633545,
    0.4699762463569641,
    0.7872462868690491,
    -0.9613635540008545,
    -0.8988524079322815,
    0.9774925708770752,
    -0.2828761339187622,
    0.716159999370575,
    -0.43265166878700256,
    -0.7864652872085571,
    0.5886684060096741,
    0.08771328628063202,
    0.5319010615348816,
    -0.06392111629247665,
    0.5697743892669678,
    0.2635299563407898,
    0.8440809845924377,
    0.2540576159954071,
    -0.8670675754547119,
    -0.11886664479970932,
    -0.057555172592401505,
    0.01339759211987257,
    -0.7830103635787964,
    0.12513206899166107,
    -0.37220069766044617,
    1.0,
    0.588891327381134,
    0.5017945766448975,
    0.809717059135437,
    -0.4136629104614258,
    0.3006407916545868,
    -0.19690541923046112,
    -0.19751271605491638,
    0.07390951365232468,
    -0.20251776278018951,
    -0.16959136724472046,
    -0.7858026623725891,
    0.15581247210502625,
    0.7816615104675293,
    -0.10549624264240265,
    0.0170475821942091,
    -0.22527548670768738,
    -0.4671591818332672,
    -0.5932126641273499,
    -0.3802938759326935,
    -0.22209203243255615,
    0.08518330007791519,
    -0.7150639891624451,
    0.12540964782238007,
    0.6964964270591736,
    0.8245828151702881,
    0.8726372122764587,
    0.11653486639261246,
    1.0,
    1.0,
    -0.784737765789032,
    0.9826898574829102,
    -0.5711112022399902,
    -0.2316904515028,
    0.5921903252601624,
    -0.7640429139137268,
    0.09125945717096329,
    -1.0,
    0.5996915698051453,
    0.6435102820396423,
    -1.0,
    -0.4332040548324585,
    -0.8697255849838257,
    -0.8978239893913269,
    0.2167910635471344,
    0.9082308411598206,
    -0.14041279256343842,
    -0.7523484230041504,
    -0.8316568732261658,
    0.06462898850440979,
    -0.8006194829940796,
    0.9496322870254517,
    -0.4833032190799713,
    0.3310708701610565,
    0.7202765345573425,
    0.7302073836326599,
    0.9930418133735657,
    0.03429390862584114,
    0.6026794910430908,
    0.6903102397918701,
    -0.7422009706497192,
    -0.4593889117240906,
    -0.5314003229141235,
    0.4774990379810333,
    0.06668912619352341,
    -0.5675071477890015,
    0.29205289483070374,
    0.9323038458824158,
    -0.944239616394043,
    -0.4799889326095581,
    0.9822168946266174,
    0.22499772906303406,
    1.0,
    -0.13228245079517365,
    -0.6521044969558716,
    -0.7102146744728088,
    0.7261757254600525,
    -0.1391339898109436,
    -0.9767601490020752,
    -0.5285225510597229,
    -0.6538010835647583,
    0.9611285924911499,
    0.5880975127220154,
    -0.15248551964759827,
    -0.14338527619838715,
    -0.6307991743087769,
    -0.2957395911216736,
    -0.2954619824886322,
    -0.7885465025901794,
    -0.523203432559967,
    0.846366822719574,
    0.044599663466215134,
    -0.559425413608551,
    -0.7900023460388184,
    0.660640299320221,
    -0.1358928084373474,
    -0.2081788182258606,
    0.4035033881664276,
    0.6359328031539917,
    -0.8973785042762756,
    -0.7765618562698364,
    -0.5684744715690613,
    0.5617480874061584,
    -0.3775995969772339,
    -0.7669820189476013,
    0.4009885787963867,
    0.02401161380112171,
    -0.5370858311653137,
    -0.5437788367271423,
    1.0,
    -0.5048127174377441,
    -0.509344756603241,
    0.21019293367862701,
    -0.3624686896800995,
    -0.41760939359664917,
    -0.35325780510902405,
    0.3773704767227173,
    -1.0,
    -0.3818780481815338,
    -0.7528977394104004,
    -0.9428723454475403,
    0.4198615550994873,
    -0.36297816038131714,
    0.5564043521881104,
    -0.5556780099868774,
    -0.5086734890937805,
    -1.0,
    0.43055811524391174,
    -0.5879724621772766,
    0.09180895239114761,
    0.031211238354444504,
    -0.24014398455619812,
    -0.9059205651283264,
    0.382833331823349,
    -0.12399356812238693,
    0.44059881567955017,
    -1.0,
    0.12439944595098495,
    0.5575093626976013,
    0.09490329027175903,
    0.7461012601852417,
    0.9117496013641357,
    0.25700849294662476,
    -0.34093138575553894,
    -1.0,
    -0.9800103902816772,
    0.6359079480171204,
    -0.9110293984413147,
    0.7845486998558044,
    -0.3570542633533478,
    0.4725154638290405,
    0.5635735392570496,
    -0.5592760443687439,
    -0.6692156791687012,
    0.9265422224998474,
    -0.3201054036617279,
    0.8197455406188965,
    0.21969656646251678,
    -0.7950223684310913,
    0.1256600320339203,
    -0.47009825706481934,
    0.6707997918128967,
    0.24690061807632446,
    0.7541825771331787,
    -0.1024719849228859,
    -0.9957670569419861,
    0.3089665472507477,
    0.7634600400924683,
    0.6195716857910156,
    0.19576995074748993,
    1.0,
    0.3874477446079254,
    -0.11363574117422104,
    -0.9216315150260925,
    0.3469467759132385,
    0.29006651043891907,
    0.37804487347602844,
    0.5832391381263733,
    0.9167361855506897,
    -0.7481154799461365,
    0.7780237793922424,
    -0.912845253944397,
    -0.5885065793991089,
    0.8393015265464783,
    0.47264930605888367,
    0.3666795790195465,
    1.0,
    0.8725179433822632,
    0.6268898844718933,
    -0.1653732806444168,
    -0.7498370409011841,
    -0.014505250379443169,
    -0.4943937063217163,
    -0.044728104025125504,
    0.9501846432685852,
    -0.8666554689407349,
    0.20217283070087433,
    -0.7112674117088318,
    -0.06176622584462166,
    0.2728567123413086,
    0.27360448241233826,
    -0.024985622614622116,
    0.8387097120285034,
    0.9187079071998596,
    1.0,
    0.2885768413543701,
    0.3171299695968628,
    -0.21012915670871735,
    0.8141483664512634,
    0.5622608065605164,
    -0.6247354745864868,
    -0.7336956262588501,
    0.5085908770561218,
    -0.08992578834295273,
    0.20715005695819855,
    -0.5699333548545837,
    -0.515576183795929,
    -0.44938498735427856,
    0.6675646901130676,
    -0.8028962016105652,
    0.2990022301673889,
    -0.27636945247650146,
    -0.23178528249263763,
    0.9615527391433716,
    0.5498186349868774,
    -0.07115720957517624,
    0.0036805595736950636,
    -0.9248268604278564,
    0.9951844811439514,
    -0.6761101484298706,
    0.3022157549858093,
    0.7803186178207397,
    0.4318735897541046,
    -0.3669760227203369,
    0.4782833158969879,
    -0.3276005983352661,
    1.0,
    0.3112458884716034,
    -0.5981354117393494,
    0.6496078372001648,
    -0.22914569079875946,
    0.06270647048950195,
    0.01790522038936615,
    0.07976321130990982,
    -0.49480563402175903,
    -0.25408485531806946,
    -0.8546678423881531,
    0.05268736183643341,
    0.13063138723373413,
    -0.06285902857780457,
    0.5779992341995239,
    0.6304453015327454,
    0.2496505081653595,
    -0.24823437631130219,
    0.18351398408412933,
    -0.1833399385213852,
    0.32830002903938293,
    0.10095536708831787,
    0.9217535257339478,
    0.08237233757972717,
    0.11918678134679794,
    -0.31098058819770813,
    -0.7874172329902649,
    0.8502269387245178,
    -0.7907987236976624,
    0.6975951194763184,
    0.9113590121269226,
    0.33558449149131775,
    0.3105742931365967,
    1.0,
    -0.6117615699768066,
    -0.33121100068092346,
    -0.1990782767534256,
    -0.01840571127831936,
    -0.8850734233856201,
    0.7285195589065552,
    0.49983498454093933,
    0.21680961549282074,
    -0.5203375816345215,
    -0.24438908696174622,
    -0.9496414661407471,
    -0.9683125615119934,
    0.25717028975486755,
    0.5700275897979736,
    0.3387187421321869,
    0.40281394124031067,
    0.4808403551578522,
    -0.8922755718231201,
    0.4547805190086365,
    0.3698628842830658,
    0.30984532833099365,
    0.7352397441864014,
    -0.9292516708374023,
    -0.31665706634521484,
    -0.7354838848114014,
    -0.34408700466156006,
    -0.3436170816421509,
    -0.7774651050567627,
    -0.9537003636360168,
    -0.569142758846283,
    -0.8590776920318604,
    0.5853174328804016,
    0.8554551601409912,
    -0.23576167225837708,
    0.11677014082670212,
    0.7593676447868347,
    0.1006561666727066,
    0.29151248931884766,
    -0.7905577421188354,
    0.11142608523368835,
    0.3160773515701294,
    -0.6315104961395264,
    -0.12962134182453156,
    -0.07934851199388504,
    -0.35746949911117554,
    -0.1395307332277298,
    -0.8861537575721741,
    -0.3875606954097748,
    0.6411847472190857,
    0.6622393131256104,
    -0.8292703032493591,
    0.4698752760887146,
    -0.8734397292137146,
    -0.8642780780792236,
    -0.33222150802612305,
    -0.0005559225101023912,
    0.80582594871521,
    -0.4450758993625641,
    0.8536210060119629,
    0.5170812606811523,
    0.5749780535697937,
    0.23564264178276062,
    0.20085138082504272,
    -0.6587574481964111,
    0.8920468688011169,
    -0.9131564497947693,
    -0.3882199823856354,
    0.30213963985443115,
    0.9309213757514954,
    -0.9015228748321533,
    -0.2400006204843521,
    -0.24955901503562927,
    -0.42594990134239197,
    0.12853488326072693,
    -0.1754755824804306,
    -0.12643499672412872,
    -0.8434430360794067,
    -0.4216315448284149,
    -0.06016435846686363,
    0.16949665546417236,
    -0.6897273063659668,
    0.007129238918423653,
    0.09133889526128769,
    -0.6435834765434265,
    0.7889735698699951,
    0.8241981267929077,
    -0.7235357165336609,
    0.9069948196411133,
    0.8125004768371582,
    0.12519289553165436,
    0.33321940898895264,
    0.5734366178512573,
    0.4746208190917969,
    0.8239694833755493,
    -0.3681206703186035,
    0.17835646867752075,
    0.3533371686935425,
    0.5826808214187622,
    -0.6187570095062256,
    0.2418256253004074,
    0.3531266748905182,
    -0.8807489275932312,
    -0.724216639995575,
    -0.8682242035865784,
    0.7746481895446777,
    0.6585039496421814,
    -1.0,
    0.46767786145210266,
    -0.9247261881828308,
    0.18159741163253784,
    1.0,
    0.14782863855361938,
    -0.4614642560482025,
    0.9399365186691284,
    -0.7756767272949219,
    0.36269712448120117,
    0.002587728202342987,
    0.366463303565979,
    -0.790518045425415,
    0.2680012285709381,
    1.0,
    0.032221607863903046,
    0.09279166907072067,
    -0.25658443570137024,
    -0.6356363296508789,
    0.5946592688560486,
    0.9981566667556763,
    0.6803064942359924,
    -0.3913787007331848,
    -0.5771144032478333,
    -0.018057694658637047,
    -0.22165590524673462,
    0.6613573431968689,
    0.6933713555335999,
    -0.794094979763031,
    -0.3272162675857544,
    -0.6901607513427734,
    -0.38221681118011475,
    0.9103823900222778,
    -0.4462536573410034,
    0.48233258724212646,
    -0.5475171208381653,
    -0.37854257225990295,
    -0.9029756188392639,
    0.15702666342258453,
    0.5333353281021118,
    -0.19175708293914795,
    0.8202093243598938,
    -0.46971943974494934,
    0.32439950108528137,
    0.21387989819049835,
    0.9438551068305969,
    0.8578721880912781,
    -0.2542039453983307,
    0.7660542130470276,
    -0.7958250641822815,
    0.1186315193772316,
    -0.5473951697349548,
    0.52543705701828,
    -0.11724911630153656,
    -0.4677113890647888,
    -0.8608417510986328,
    -0.17925329506397247,
    0.08393507450819016,
    -0.5059082508087158,
    -0.5771386027336121,
    0.11180460453033447,
    -0.8155949115753174,
    -0.22976762056350708,
    0.18220455944538116,
    0.6472365260124207,
    -0.7478681206703186,
    -0.9738336205482483,
    1.0,
    0.06345412135124207,
    -0.8073976039886475,
    -0.6197149753570557,
    -0.6024537682533264,
    0.06901783496141434,
    0.0479934923350811,
    0.658482551574707,
    -0.05026701092720032,
    0.38850364089012146,
    0.5062562227249146,
    -0.289788156747818,
    -0.7798728346824646,
    -0.8955564498901367,
    -0.12053272128105164,
    -0.5549978613853455,
    0.6141453981399536,
    -0.20516987144947052,
    0.7905028462409973,
    -0.6429395079612732,
    -0.41180768609046936,
    -0.8516677021980286,
    -0.12408233433961868,
    -0.7152318358421326,
    0.4574018716812134,
    0.15533022582530975,
    -0.523679256439209,
    -0.49751555919647217,
    -0.24659843742847443,
    -0.49378350377082825,
    -0.37570083141326904,
    -0.8893703818321228,
    -0.4005218744277954,
    -0.47788310050964355,
    -0.6179050803184509,
    -0.22932840883731842,
    0.8111911416053772,
    -0.9022949934005737,
    -0.42059674859046936,
    -0.8348368406295776,
    -0.9139225482940674,
    0.04807636886835098,
    1.0,
    0.2857533097267151,
    -0.39917585253715515,
    0.3548266291618347,
    0.9989868402481079,
    0.033924683928489685,
    -0.9444563388824463,
    0.17515774071216583,
    0.42534852027893066,
    -0.30178529024124146,
    0.5692312121391296,
    -1.0,
    0.3581562042236328,
    0.6638354659080505,
    0.7675373554229736,
    -0.21567408740520477,
    1.0,
    -1.0,
    0.6166908144950867,
    -1.0,
    0.5724053382873535,
    -0.4010559618473053,
    -0.360405296087265,
    0.5174780488014221,
    0.16353338956832886,
    1.0,
    -0.49622470140457153,
    0.7262490391731262,
    -0.6842494010925293,
    -0.969899594783783,
    -0.5738000869750977,
    0.16229741275310516,
    -0.7805352807044983,
    0.9475662112236023,
    0.663234293460846,
    -0.6636677980422974,
    -0.8311778903007507,
    -0.5999696254730225,
    -0.7258093953132629,
    -0.013232840225100517,
    0.8164736032485962,
    0.12133235484361649,
    0.20185859501361847,
    -0.7733663320541382,
    -0.8686513304710388,
    -0.5698538422584534,
    -0.8780997395515442,
    -0.3891628086566925,
    0.9073305130004883,
    0.36358538269996643,
    0.04176145792007446,
    -0.6043124198913574,
    -0.4171421527862549,
    0.13082388043403625,
    -0.9392040967941284,
    0.4684711992740631,
    0.7323740124702454,
    -0.639276921749115,
    -0.46273693442344666,
    0.5599231719970703,
    0.8233587145805359,
    -0.40143775939941406,
    0.9414716958999634,
    0.8274666666984558,
    -0.8226264119148254,
    -0.05442662164568901,
    -0.9036228060722351,
    -0.24102897942066193,
    -0.9516800045967102,
    0.5734336972236633,
    0.961134672164917,
    0.009375262074172497,
    -0.1910979449748993,
    0.7855464816093445,
    -0.9068605899810791,
    -0.49994492530822754,
    -0.37872228026390076,
    -0.7599502801895142,
    -0.7561388611793518,
    0.3982115089893341,
    0.3549824059009552,
    0.08792687207460403,
    0.2820582389831543,
    -0.8268837332725525,
    0.3898526728153229,
    -0.9271492958068848,
    0.7859065532684326,
    -0.22237960994243622,
    -0.4180852472782135,
    0.645103394985199,
    -0.6695977449417114,
    0.3648211658000946,
    -0.13509024679660797,
    0.25585803389549255,
    -0.35684365034103394,
    -0.5059481263160706,
    -0.7138246297836304,
    0.8108920454978943,
    0.8426466584205627,
    0.9414961338043213,
    -1.0,
    -0.8626270294189453,
    0.25133228302001953,
    1.0,
    -0.7121095061302185,
    0.39537036418914795,
    -0.055507078766822815,
    -0.3202856183052063,
    -0.9028260111808777,
    -0.7592273354530334,
    0.6855311393737793,
    -0.05681949481368065,
    -0.845744252204895,
    -0.03668598085641861,
    -0.8284890055656433,
    -0.34406575560569763,
    -0.8403303027153015,
    0.3576525151729584,
    0.005804799031466246,
    0.49027976393699646,
    0.4779715836048126,
    -0.27368661761283875,
    0.20557579398155212,
    -0.31654995679855347,
    0.7165868282318115,
    -0.14590898156166077,
    1.0,
    -0.23830969631671906,
    -0.4356304109096527,
    0.9743857979774475,
    0.9078218340873718,
    0.7944516539573669,
    -0.7389594912528992,
    -0.13235588371753693,
    -0.7549760341644287,
    -0.4971984922885895,
    -0.9246712327003479,
    0.9249398112297058,
    0.40399178862571716,
    0.7674887776374817,
    -0.393313467502594,
    -0.3767509162425995,
    0.4658038318157196,
    0.9874202609062195,
    0.8296579122543335,
    0.4735618829727173,
    1.0,
    0.6799706816673279,
    -0.46912145614624023,
    -0.5788476467132568,
    0.653728187084198,
    -0.41356876492500305,
    0.5947174429893494,
    -0.23911860585212708,
    0.14621426165103912,
    -0.06644177436828613,
    -0.689336895942688,
    0.7675654888153076,
    0.5403850674629211,
    0.15155792236328125,
    -0.9003357291221619,
    -0.26558127999305725,
    0.27665644884109497,
    -0.7952849268913269,
    -0.6771660447120667,
    -0.13592614233493805,
    0.5225135684013367,
    -0.5929440855979919,
    -0.2759328782558441,
    -0.4806024432182312,
    0.19063988327980042,
    -0.7140414714813232,
    0.11658349633216858,
    -0.23994877934455872,
    0.071620412170887,
    -0.1431930810213089,
    0.4944027364253998,
    0.39859282970428467,
    0.3076937794685364,
    -0.6112339496612549,
    0.47540831565856934,
    0.40615835785865784,
    -0.8717186450958252,
    -0.4533158540725708,
    0.9433881640434265,
    0.3726065158843994,
    -0.45832088589668274,
    0.24263420701026917,
    -0.24484385550022125,
    -0.45964524149894714,
    -0.3910609483718872,
    0.792306125164032,
    -0.576195478439331,
    0.6158268451690674,
    -0.1495010256767273,
    -0.029697580263018608,
    0.9349954724311829,
    0.11881468445062637,
    0.5190221667289734,
    -0.8047881722450256,
    -0.15223240852355957,
    -0.2459520697593689,
    0.5480422377586365,
    -0.735569179058075,
    0.4657520651817322,
    -0.23772087693214417,
    0.8338328003883362,
    0.287682443857193,
    -0.9043671488761902,
    -0.32881245017051697,
    -0.2732568085193634,
    0.1391645222902298,
    0.443302720785141,
    0.9912747740745544,
    -0.2663472294807434,
    -0.9972014427185059,
    0.8080294728279114,
    -1.0,
    -0.6411816477775574,
    -0.8850670456886292,
    0.41133803129196167,
    0.15329456329345703,
    0.9016387462615967,
    -0.6943264603614807,
    -0.2796320617198944,
    0.9183080792427063,
    -0.37193793058395386,
    -0.8703268766403198,
    -0.11682457476854324,
    0.5356517434120178,
    -0.5510238409042358,
    0.24746236205101013,
    -0.39117395877838135,
    -1.0,
    -0.5729699730873108,
    -0.25355687737464905,
    0.8537308573722839,
    -0.4288520812988281,
    -0.19768975675106049,
    0.066325843334198,
    0.0630786269903183,
    -0.07836845517158508,
    -0.528742253780365,
    -0.25164636969566345,
    -0.8203741312026978,
    0.7299022078514099,
    -0.9020813703536987,
    -0.34877169132232666,
    0.6358165144920349,
    -0.4550309181213379,
    0.06647849828004837,
    0.45171990990638733,
    -0.48184481263160706,
    -0.011826027184724808,
    -0.5234929919242859,
    0.7600114345550537,
    -0.9699331521987915,
    -0.767985999584198,
    0.36966779828071594,
    -0.8482406735420227,
    0.15115198493003845,
    -0.0032195302192121744,
    0.7971433997154236,
    0.9876918792724609,
    -0.45285531878471375,
    0.5194739699363708,
    -0.6246957182884216,
    -0.42629489302635193,
    0.17029936611652374,
    -0.42606255412101746,
    0.47809696197509766,
    0.6461529731750488,
    -0.32897716760635376,
    -0.12730836868286133,
    0.6663230061531067,
    0.6667932271957397,
    -0.6999634504318237,
    -0.6848262548446655,
    1.0,
    0.8217715620994568,
    -0.2589253783226013,
    -0.41796013712882996,
    -0.01242405828088522,
    0.978243350982666,
    -0.6756768822669983,
    0.6855984330177307,
    0.1468488574028015,
    -0.17598789930343628,
    0.8780694603919983,
    0.7052401900291443,
    -0.2567521929740906,
    -0.7945341467857361,
    -0.22841249406337738,
    0.8208746314048767,
    -0.22396917641162872,
    -0.10589639097452164,
    -0.8326455354690552,
    -0.13076846301555634,
    0.7332284450531006,
    -0.8652573823928833,
    0.7975007891654968,
    0.21070590615272522,
    0.1049012616276741,
    -0.7815334796905518,
    0.9679799675941467,
    0.707202136516571,
    0.8461866974830627,
    -0.926917314529419,
    -0.5362529754638672,
    -0.13353365659713745,
    -0.6855005621910095,
    -0.16074424982070923,
    -0.5565325021743774,
    -0.7465500235557556,
    -0.08728279918432236,
    0.8565597534179688,
    0.5447429418563843,
    -0.16063740849494934,
    -0.6822963953018188,
    0.6357710361480713,
    -0.6448374390602112,
    -0.12803730368614197,
    -0.9406353831291199,
    -0.32274848222732544,
    -0.7479750514030457,
    -0.594235360622406,
    -0.9376965761184692,
    0.8830652832984924,
    -0.549128532409668,
    0.5766686797142029,
    0.4682941138744354,
    0.7646077871322632,
    -0.07431565225124359,
    -0.9304940700531006,
    0.04273475334048271,
    -0.7134952545166016,
    -0.11935495585203171,
    0.20190131664276123,
    0.12201908975839615,
    0.07642745226621628,
    -0.1075228750705719,
    0.39003878831863403,
    -0.7580767273902893,
    0.8317331075668335,
    0.981945276260376,
    -0.7964321374893188,
    -0.7666341066360474,
    -0.7436964511871338,
    0.07513359934091568,
    0.8969848155975342,
    0.49256566166877747,
    0.8651235103607178,
    0.764799952507019,
    0.5483749508857727,
    -0.2348857820034027,
    0.23448288440704346,
    0.7974395751953125,
    -0.28553450107574463,
    -0.9473342299461365,
    -0.6464705467224121,
    -0.36664000153541565,
    0.18029749393463135,
    0.3519456088542938,
    -0.9652119278907776,
    0.35466787219047546,
    -0.262236624956131,
    -0.27491384744644165,
    -0.45634034276008606,
    0.5732812881469727,
    -0.6679158806800842,
    -0.4556167423725128,
    -0.88309246301651,
    -0.9836969971656799,
    -0.8875728249549866,
    -0.5207862257957458,
    0.582882285118103,
    0.9436445236206055,
    0.1714407056570053,
    0.16840742528438568,
    -0.6176090836524963,
    0.09133278578519821,
    -0.812869668006897,
    0.24680301547050476,
    -0.9159550070762634,
    -0.6313485503196716,
    -0.5550251007080078,
    -0.823865532875061,
    0.19957271218299866,
    0.26016736030578613,
    -0.2917141914367676,
    -0.04622643068432808,
    -0.39987170696258545,
    1.0,
    -0.5336894989013672,
    0.7558762431144714,
    0.7119691371917725,
    0.3652670979499817,
    0.0922636166214943,
    0.09791570156812668,
    -0.07702866941690445,
    1.0,
    -0.8791009187698364,
    -0.40920135378837585,
    0.25662705302238464,
    0.8135411143302917,
    -0.1777363419532776,
    0.6361672282218933,
    -0.1723044514656067,
    -0.7099522948265076,
    -0.332459419965744,
    -0.21643131971359253,
    0.8265205025672913,
    -0.6782830953598022,
    0.3133944869041443,
    -0.48144489526748657,
    -0.8940001130104065,
    0.6197970509529114,
    -0.0021881130523979664,
    -0.9473860859870911,
    0.32889455556869507,
    0.44067493081092834,
    -0.13619202375411987,
    -0.31620538234710693,
    -0.6731986403465271,
    0.7889919877052307,
    -1.0,
    -0.17729103565216064,
    -0.13066819310188293,
    -0.7094545960426331,
    0.5955840945243835,
    -0.89654541015625,
    0.6214303374290466,
    -0.75774085521698,
    -0.763255774974823,
    0.9171696901321411,
    -1.0,
    0.19520244002342224,
    -0.6194616556167603,
    -0.7835690379142761,
    -0.5432173013687134,
    -0.0810573622584343,
    0.7388956546783447,
    0.13574635982513428,
    -0.7944090366363525,
    0.638202965259552,
    0.7931486368179321,
    -0.7630024552345276,
    -0.5295571088790894,
    0.3294961452484131,
    0.7848109006881714,
    -0.04689463973045349,
    0.31710824370384216,
    0.5070680975914001,
    0.64946448802948,
    0.3673117458820343,
    0.7065889239311218,
    -0.48056572675704956,
    0.920975387096405,
    -0.4495806097984314,
    0.876549482345581,
    -0.20883193612098694,
    0.24004924297332764,
    -0.9469435214996338,
    -0.9715018272399902,
    0.45323634147644043,
    0.7778464555740356,
    0.2370738983154297,
    -0.6988401412963867,
    -0.27647608518600464,
    0.2684256434440613,
    -0.455100953578949,
    -0.00562462629750371,
    -0.39063096046447754,
    -0.17995567619800568,
    -0.0016693357611075044,
    0.8028351664543152,
    0.6680777668952942,
    -0.9510940313339233,
    0.730076014995575,
    0.5193639993667603,
    0.8083314895629883,
    0.8327798247337341,
    0.9639179110527039,
    -0.07006718218326569,
    1.0,
    -0.5782464742660522,
    -0.634162187576294,
    0.012549144215881824,
    -0.989831268787384,
    0.4251563847064972,
    0.4205571115016937,
    0.555147111415863,
    -0.8185002207756042,
    -0.1482498198747635,
    -0.6603564620018005,
    0.7097994685173035,
    -0.9455336332321167,
    -0.021863263100385666,
    0.664870023727417,
    -0.5335062742233276,
    -1.0,
    0.6706138253211975,
    0.8909909129142761,
    -0.9418742656707764,
    0.3653096854686737,
    -0.3904355466365814,
    0.11382193118333817,
    0.087039053440094,
    0.9411084055900574,
    -0.4505385458469391,
    -0.8719077110290527,
    0.3248665928840637,
    0.16230621933937073,
    0.1185825914144516,
    -0.8845301866531372,
    0.29727789759635925,
    0.7067599296569824,
    0.13413530588150024,
    -0.6769551038742065,
    0.4733053743839264,
    -0.9402387738227844,
    0.7144719362258911,
    0.256740003824234,
    -0.9805505275726318,
    0.39383527636528015,
    0.03822159022092819,
    0.1068909615278244,
    -0.4318154752254486,
    -0.11145974695682526,
    0.6920346021652222,
    -0.6466991305351257,
    -0.20061363279819489,
    -0.3807641863822937,
    -0.2502029240131378,
    0.7061036825180054,
    0.5554977655410767,
    -0.09428074210882187,
    0.047642529010772705,
    -1.0,
    0.26497694849967957,
    -0.8272924423217773,
    -0.04984312132000923,
    -0.20857588946819305,
    -0.29538556933403015,
    0.3022947311401367,
    -0.8747367858886719,
    -0.9077667593955994,
    -0.35471078753471375,
    0.2803429961204529,
    0.8997405767440796,
    -0.5290571451187134,
    0.9291238784790039,
    -0.07315883040428162,
    -0.5644702911376953,
    0.28976091742515564,
    -0.14150844514369965,
    0.6184271574020386,
    0.08320283144712448,
    -0.9019256830215454,
    -0.13559676706790924,
    0.09302642196416855,
    0.7250006198883057,
    -0.9791284203529358,
    -0.9444715976715088,
    0.2046082317829132,
    -0.6086733341217041,
    0.47162094712257385,
    -0.8950132727622986,
    -0.6560290455818176,
    0.6069765090942383,
    0.2571337819099426,
    -0.39687788486480713,
    0.9214482307434082,
    0.9601519703865051,
    -0.8471816778182983,
    -0.25585824251174927,
    0.9531388282775879,
    0.4761437177658081,
    -0.1170262023806572,
    0.5313608050346375,
    -0.17845697700977325,
    0.4893215298652649,
    -0.025031235069036484,
    -0.6979308128356934,
    0.08125217258930206,
    0.5260872840881348,
    -0.2129790335893631,
    0.1950925886631012,
    -0.4786491394042969,
    0.5068851709365845,
    -0.9518112540245056,
    -0.5631429553031921,
    0.7240853905677795,
    -0.8504625558853149,
    -0.5000550150871277,
    -0.7911893129348755,
    -0.9984252452850342,
    -0.19800712168216705,
    -0.3055238127708435,
    -0.09690865129232407,
    0.3482557237148285,
    0.5154820680618286,
    0.645032525062561,
    -0.3273783028125763,
    0.0653524398803711,
    0.2419937551021576,
    0.4329264760017395,
    0.8242562413215637,
    -0.121091328561306,
    -0.12183921784162521,
    -0.9380596280097961,
    -0.48045897483825684,
    0.5452556610107422,
    0.7172492146492004,
    -0.9253669381141663,
    -0.3351694643497467,
    0.8490371704101563,
    -0.05659046024084091,
    0.329023152589798,
    0.2777399718761444,
    -0.19773246347904205,
    -0.07534746825695038,
    -0.7087771892547607,
    0.8306707739830017,
    0.9255166053771973,
    1.0,
    0.1522264927625656,
    0.6071261763572693,
    0.28583621978759766,
    0.659267008304596,
    -0.4186619520187378,
    -0.10450456291437149,
    0.4706808924674988,
    -0.21766723692417145,
    0.18074600398540497,
    -0.45978280901908875,
    0.835608959197998,
    -0.026358898729085922,
    -0.5802543759346008,
    0.25763416290283203,
    -0.13610632717609406,
    -0.25438112020492554,
    -1.0,
    0.2929319143295288,
    0.38299185037612915,
    0.21220111846923828,
    -0.00832552183419466,
    -0.7905086874961853,
    0.19806529581546783,
    0.02276395820081234,
    -0.506619393825531,
    -0.9007902145385742,
    0.9151524305343628,
    -0.15847386419773102,
    0.02709406241774559,
    0.021689554676413536,
    -0.5038543939590454,
    0.6760463714599609,
    0.40770289301872253,
    0.5783137679100037,
    0.2958463728427887,
    -0.36720189452171326,
    0.15338318049907684,
    0.7589648365974426,
    0.9218389391899109,
    -0.4784598648548126,
    -0.4201512038707733,
    -0.7152836918830872,
    -0.5173523426055908,
    -0.427240788936615,
    0.9621387720108032,
    -0.1482066810131073,
    -0.8780907988548279,
    -0.31366008520126343,
    -0.9316354990005493,
    0.12250757962465286,
    0.5037475824356079,
    0.8922147154808044,
    0.34334808588027954,
    0.44904932379722595,
    -0.5690543055534363,
    -0.49179065227508545,
    0.9173650145530701,
    -0.7464091777801514,
    0.9760124683380127,
    -1.0,
    1.0,
    1.0,
    -0.9672445058822632,
    0.20157784223556519,
    0.5007567405700684,
    -0.19374063611030579,
    0.3184640109539032,
    -0.693374514579773,
    0.10368666797876358,
    0.5292000770568848,
    -0.17130669951438904,
    0.869896411895752,
    0.48607137799263,
    -0.08439578860998154,
    0.16560885310173035,
    -0.10190442949533463,
    -0.18421605229377747,
    -1.0,
    -0.8817347288131714,
    0.7925717830657959,
    0.3475568890571594,
    -0.0969788208603859,
    0.6310313940048218,
    0.5063477158546448,
    0.10619214177131653,
    -0.3665030598640442,
    0.5696830749511719,
    -0.17061084508895874,
    0.5953736901283264,
    0.46440014243125916,
    -0.22382259368896484,
    -0.389455646276474,
    -0.6339823007583618,
    0.8733175992965698,
    -0.8720755577087402,
    0.5191838145256042,
    -0.5416548848152161,
    0.6824671030044556,
    0.19902947545051575,
    0.0037325103767216206,
    0.626011073589325,
    -0.6709125638008118,
    -0.4801023304462433,
    -0.08836910873651505,
    -1.0,
    -0.1975463628768921,
    -0.5441420078277588,
    0.7296121716499329,
    -0.04799938201904297,
    -0.13849607110023499,
    -0.4521530270576477,
    -0.719684362411499,
    -0.0018768854206427932,
    0.364149808883667,
    -0.32410359382629395,
    0.6553635597229004,
    -0.18323634564876556,
    -0.033103011548519135,
    0.06287132203578949,
    0.8987151980400085,
    -0.8233771920204163,
    -0.45363619923591614,
    -0.878585159778595,
    -0.46026507019996643,
    -0.9167333245277405,
    -0.1230870932340622,
    -0.751286506652832,
    -0.9506394267082214,
    -0.9014863967895508,
    0.4352670907974243,
    -0.32015132904052734,
    0.16251137852668762,
    -1.0,
    0.24423642456531525,
    -0.8157141804695129,
    1.0,
    0.9224005937576294,
    -0.2967313826084137,
    -0.1452709138393402,
    -0.8472427129745483,
    0.15712153911590576,
    0.8651509881019592,
    -0.17888730764389038,
    -0.38194218277931213,
    -0.05819867551326752,
    0.04135899245738983,
    -0.663964033126831,
    0.42184802889823914,
    1.0,
    0.36357632279396057,
    -0.3838038146495819,
    -0.34211552143096924,
    0.09985361993312836,
    0.5764092206954956,
    -0.8305734395980835,
    -0.3358986973762512,
    0.6019927859306335,
    0.27320143580436707,
    0.23411963880062103,
    -0.4588242471218109,
    0.15299221873283386,
    -0.49745458364486694,
    0.9271798133850098,
    -0.1544664353132248,
    -0.7994539737701416,
    -0.6368725895881653,
    0.2043946534395218,
    -0.5908201336860657,
    -0.3516615629196167,
    -0.036368776112794876,
    0.13267628848552704,
    0.4453505575656891,
    -0.32809510827064514,
    0.6792871356010437,
    -0.1545362025499344,
    -0.3559925854206085,
    -0.6822900772094727,
    1.0,
    -0.767805814743042,
    -0.04121857509016991,
    -0.18717016279697418,
    0.5413070321083069,
    -0.6772911548614502,
    -0.6310433745384216,
    -0.8557998538017273,
    -0.14380627870559692,
    0.7948054075241089,
    0.5382611155509949,
    0.994863748550415,
    0.038502130657434464,
    0.29186972975730896,
    0.2052002251148224,
    0.14186547696590424,
    0.6933072805404663,
    -0.22965185344219208,
    -0.14242073893547058,
    0.8113893866539001,
    -0.035538725554943085,
    -0.6427808403968811,
    -0.26104623079299927,
    0.011218682862818241,
    -0.4681750535964966,
    -0.16589850187301636,
    0.8578844666481018,
    0.3613697588443756,
    0.650321900844574,
    0.24507898092269897,
    0.2308298498392105,
    -0.6346780061721802,
    0.8771629929542542,
    0.40516671538352966,
    -0.6265360116958618,
    0.8872097134590149,
    0.7837916612625122,
    -0.15727372467517853,
    -0.2977508306503296,
    0.8943937420845032,
    -0.6670033931732178,
    -0.35848575830459595,
    0.9683126211166382,
    -0.7546923160552979,
    0.38890352845191956,
    -0.08936757594347,
    0.4377973675727844,
    -0.21787774562835693,
    -0.03480925410985947,
    0.2962309420108795,
    -0.059648547321558,
    -0.2536238431930542,
    0.21098385751247406,
    0.9933164119720459,
    -0.9825708866119385,
    -0.7377636432647705,
    -0.8216102123260498,
    -0.2894802391529083,
    -0.7307074069976807,
    -0.4374856948852539,
    0.3175693452358246,
    0.54900062084198,
    0.8620929718017578,
    -0.5480026006698608,
    0.5132689476013184,
    0.4707236886024475,
    -1.0,
    -0.43059468269348145,
    0.7738272547721863,
    0.2733725905418396,
    -0.7646991610527039,
    -0.12161635607481003,
    -0.3701925575733185,
    0.4571093022823334,
    0.4006896913051605,
    0.7832180261611938,
    -0.0396648608148098,
    -0.520837664604187,
    0.10997937619686127,
    -0.1432446986436844,
    -0.08594928681850433,
    -0.9501968622207642,
    -0.47679683566093445,
    0.4823145270347595,
    -0.1377635896205902,
    -0.6204656958580017,
    0.2362314909696579,
    0.5651142597198486,
    0.2505110502243042,
    -0.08709070831537247,
    -0.2944640517234802,
    0.03816044703125954,
    -0.31822580099105835,
    0.1684894859790802,
    -0.07662579417228699,
    -0.6696218252182007,
    -0.3052857220172882,
    1.0,
    -0.6842980980873108,
    0.4396343529224396,
    0.2141330987215042,
    -0.885186493396759,
    -0.18305930495262146,
    -0.14817653596401215,
    0.6323619484901428,
    -0.5960415601730347,
    0.15600189566612244,
    -0.10371413081884384,
    -0.5055757761001587,
    0.1287880390882492,
    -0.6553756594657898,
    0.04142868518829346,
    -0.6486585736274719,
    0.5055178999900818,
    -0.27352237701416016,
    0.10540174692869186,
    -0.642628014087677,
    0.3525438606739044,
    -0.052302706986665726,
    -0.31716370582580566,
    -0.01438339427113533,
    0.017346635460853577,
    0.828525722026825,
    0.928721010684967,
    0.5139376521110535,
    0.8532456755638123,
    0.3006531894207001,
    0.642072856426239,
    0.662568986415863,
    1.0,
    -0.4231269955635071,
    0.61833256483078,
    -0.12104272097349167,
    0.2538589835166931,
    0.2294444441795349,
    0.7362591624259949,
    -0.047389063984155655,
    -0.35275736451148987,
    0.8828333616256714,
    -0.4037109911441803,
    -0.2894316017627716,
    -0.06427169591188431,
    0.1476150006055832,
    -0.5504592657089233,
    -0.43921342492103577,
    0.7149936556816101,
    0.8937467932701111,
    1.0,
    0.25831490755081177,
    0.4047151505947113,
    -0.21914438903331757,
    0.1720326542854309,
    -0.5659840703010559,
    0.04160280525684357,
    0.48584869503974915,
    -0.9932247996330261,
    0.08953225612640381,
    0.596316397190094,
    0.10744626820087433,
    -0.707403838634491,
    -0.9631488919258118,
    0.9537522792816162,
    0.711600124835968,
    0.8291940689086914,
    0.9171483516693115,
    0.0035525260027498007,
    0.15235476195812225,
    0.8379344940185547,
    -0.36546823382377625,
    -0.17009805142879486,
    0.6161046028137207,
    -0.006503524258732796,
    0.3570329546928406,
    -0.1770898997783661,
    -0.3207954168319702,
    0.6183019280433655,
    0.505386471748352,
    -0.4080508351325989,
    0.48148733377456665,
    -0.8497970104217529,
    -0.1406964212656021,
    0.6787835359573364,
    -0.5224922299385071,
    -0.09186689555644989,
    -0.10898468643426895,
    0.7767540812492371,
    0.5804072022438049,
    0.5901210904121399,
    0.25370654463768005,
    0.46712544560432434,
    0.14455993473529816,
    -0.09298662841320038,
    -0.4630638062953949,
    0.6813622117042542,
    0.5153995752334595,
    0.08607739210128784,
    0.027652854099869728,
    -0.13356737792491913,
    0.1850460171699524,
    -0.23625926673412323,
    -0.17690981924533844,
    0.5297281742095947,
    0.010180789045989513,
    0.3475140929222107,
    -0.07251802086830139,
    0.6504225134849548,
    -0.1048128753900528,
    -0.28263211250305176,
    -0.6988828182220459,
    0.5237005949020386,
    -1.0,
    -0.506680428981781,
    -0.4651445746421814,
    -0.5239637494087219,
    0.7906216382980347,
    0.7875087261199951,
    -0.12746348977088928,
    -0.85228431224823,
    0.6380410194396973,
    0.38579967617988586,
    0.2532120943069458,
    0.33515095710754395,
    0.13719013333320618,
    -0.31711167097091675,
    0.27050668001174927,
    0.9136478900909424,
    -0.7360482811927795,
    0.5722923278808594,
    -0.5846066474914551,
    -0.8080934286117554,
    -0.02846446819603443,
    -0.28892791271209717,
    0.4339093267917633,
    0.16867907345294952,
    -0.9788598418235779,
    0.17169412970542908,
    -0.2762110233306885,
    -0.8846766352653503,
    1.0,
    0.045866575092077255,
    0.1810970902442932,
    0.6147618889808655,
    -0.34930261969566345,
    0.29755547642707825,
    0.7668417096138,
    0.21438030898571014,
    -0.02500081993639469,
    -0.15001368522644043,
    -0.8157994151115417,
    0.9957581758499146,
    -0.8617693781852722,
    -0.2399669587612152,
    -0.3597916066646576,
    1.0,
    -0.4660237729549408,
    1.0,
    -0.27683964371681213,
    -0.020456232130527496,
    -0.5467482209205627,
    -0.0279303640127182,
    -0.6255253553390503,
    -0.17665359377861023,
    0.47584468126296997,
    -0.5992125868797302,
    0.7885951995849609,
    -0.9651936292648315,
    -0.2960571348667145,
    -0.5170871615409851,
    0.1404065638780594,
    0.03849297761917114,
    -0.4120212197303772,
    -0.008783251978456974,
    0.24532321095466614,
    -0.489486426115036,
    0.7442792654037476,
    0.9127628207206726,
    -0.25724372267723083,
    -0.7917905449867249,
    -0.2990509569644928,
    0.30874350666999817,
    -0.4657461941242218,
    -0.39548027515411377,
    0.48635828495025635,
    0.7466963529586792,
    -0.9419047236442566,
    0.5375404953956604,
    0.6644824743270874,
    0.8686453104019165,
    0.8893366456031799,
    0.7527024149894714,
    0.1202159896492958,
    -0.48482608795166016,
    0.08134106546640396,
    0.33256053924560547,
    0.9329844117164612,
    -0.3656361699104309,
    -0.8771416544914246,
    -0.30163267254829407,
    0.6224614977836609,
    -0.8122225999832153,
    0.2847863733768463,
    0.6734853982925415,
    -0.8244697451591492,
    0.09467463195323944,
    0.41029971837997437,
    0.1641223132610321,
    -0.2561357319355011,
    -0.16239811480045319,
    -0.781295120716095,
    0.44175252318382263,
    0.27360451221466064,
    0.0030883080326020718,
    0.40430909395217896,
    0.293557733297348,
    -0.634571373462677,
    -0.2025817632675171,
    -0.6113314032554626,
    0.19613328576087952,
    -0.8264899253845215,
    0.8747673034667969,
    -0.8989195823669434,
    0.5862088799476624,
    -0.7153784036636353,
    -0.5070862770080566,
    -0.12125314027070999,
    -0.24229860305786133,
    -0.9470045566558838,
    0.5561996698379517,
    0.22872425615787506,
    -0.38846391439437866,
    -0.6262550354003906,
    -0.5110199451446533,
    0.1296152025461197,
    0.4147495925426483,
    -0.7757682800292969,
    -0.07480692863464355,
    -0.4169501066207886,
    0.9372081756591797,
    -0.4445173144340515,
    -0.2005007565021515,
    -0.437507301568985,
    -0.3341044783592224,
    -0.7595903873443604,
    -0.14160886406898499,
    0.7383222579956055,
    0.6611254811286926,
    0.1294383555650711,
    0.7508590817451477,
    -0.22072826325893402,
    -0.6880031824111938,
    1.0,
    -0.3516763746738434,
    0.1709097921848297,
    -0.0031829955987632275,
    -0.7057374715805054,
    0.46168652176856995,
    0.9584673643112183,
    0.050493232905864716,
    -0.2988860607147217,
    -0.629279613494873,
    -0.25998732447624207,
    -0.572536289691925,
    -0.9523148536682129,
    -0.44962623715400696,
    -0.27017104625701904,
    -0.4244331121444702,
    -0.08490253239870071,
    -0.5302714109420776,
    0.10805944353342056,
    -0.10444659739732742,
    -0.4989593029022217,
    -0.6129368543624878,
    -0.5496016144752502,
    -0.8253822922706604,
    -0.18240898847579956,
    -0.25316321849823,
    0.2943876087665558,
    0.8175817131996155,
    -0.42026111483573914,
    0.9809414148330688,
    0.7635090351104736,
    0.7017516493797302,
    -0.05057256668806076,
    0.5573169589042664,
    -0.49500715732574463,
    0.7980345487594604,
    -0.6911219954490662,
    -0.06023441627621651,
    -0.9659596681594849,
    0.21052286028862,
    -0.7487930655479431,
    -0.07880782335996628,
    0.5223120450973511,
    0.514581561088562,
    -0.9344736337661743,
    0.8790521025657654,
    0.7077000141143799,
    1.0,
    -1.0,
    -0.7780238389968872,
    0.5988280773162842,
    0.10860316455364227,
    -0.006232110317796469,
    -0.09034086018800735,
    0.019428178668022156,
    0.8127383589744568,
    0.6430129408836365,
    0.8435254096984863,
    -0.29827553033828735,
    0.3756982088088989,
    0.760695219039917,
    -0.9065096974372864,
    0.5604326128959656,
    0.6797937154769897,
    -0.44612860679626465,
    1.0,
    -1.0,
    -0.6317545771598816,
    -0.6174840331077576,
    0.3273969292640686,
    -1.0,
    0.6045319437980652,
    0.7273995876312256,
    0.6162054538726807,
    -0.08315072953701019,
    0.05099044367671013,
    0.8816524147987366,
    0.08527788519859314,
    -0.8721883893013,
    -0.04786204174160957,
    -0.06030471995472908,
    0.2533889710903168,
    -0.858186662197113,
    -0.6177009344100952,
    -0.5128086805343628,
    -0.9016327857971191,
    -0.10547816753387451,
    0.4046632945537567,
    0.7127660512924194,
    -0.8693503141403198,
    -0.6513047814369202,
    -0.5712301135063171,
    0.632379949092865,
    0.7235298752784729,
    -0.6696555614471436,
    0.06309404224157333,
    0.3639972507953644,
    0.0022705334704369307,
    0.9475477933883667,
    0.03576480597257614,
    0.047841139137744904,
    -0.35651740431785583,
    0.48546698689460754,
    0.8075380325317383,
    0.8720539212226868,
    -0.41250336170196533,
    -0.09600816667079926,
    -0.38865619897842407,
    0.6324443221092224,
    0.8641287684440613,
    0.6850087642669678,
    0.38757291436195374,
    -0.9555131793022156,
    -0.13377778232097626,
    0.19588607549667358,
    0.637769341468811,
    0.8194556832313538,
    -0.3707234859466553,
    -0.11397430300712585,
    -0.9030213356018066,
    -0.39297452569007874,
    -0.8138188123703003,
    0.5470201373100281,
    -0.599789559841156,
    0.3846493065357208,
    -0.3539445102214813,
    0.3019533157348633,
    0.6137394309043884,
    -0.8652119040489197,
    -0.6810570955276489,
    -0.46565455198287964,
    -0.41157564520835876,
    0.2844415009021759,
    -0.4130312204360962,
    0.05841837823390961,
    0.874208927154541,
    0.6008819341659546,
    -0.7585527896881104,
    0.7112917900085449,
    0.5172184705734253,
    -0.0973542109131813,
    -0.10238980501890182,
    -0.8772879242897034,
    0.9626209139823914,
    0.2555103003978729,
    0.30593571066856384,
    0.037440113723278046,
    0.2989623248577118,
    0.282924622297287,
    0.8203588724136353,
    -0.11856750398874283,
    -0.2711081802845001,
    0.8739707469940186,
    0.09217502921819687,
    -0.9979735612869263,
    -0.2522873878479004,
    -0.7257332801818848,
    -0.9404736161231995,
    1.0,
    0.8644796013832092,
    0.36934709548950195,
    -0.606671154499054,
    0.6603898406028748,
    -0.6537674069404602,
    -1.0,
    -0.36760157346725464,
    0.3307992219924927,
    -0.7672141790390015,
    0.9077089428901672,
    0.7426982522010803,
    -0.04794750735163689,
    0.978423535823822,
    0.9023132920265198,
    1.0,
    0.6623494029045105,
    -0.934955894947052,
    -0.27031147480010986,
    0.17828334867954254,
    -0.3416427969932556,
    0.8135963678359985,
    -0.5834863185882568,
    -0.4883539080619812,
    -0.8494766354560852,
    -0.9752098321914673,
    -0.5230016708374023,
    0.6503859162330627,
    0.5484572649002075,
    -0.7860468029975891,
    -0.23093079030513763,
    -0.6001892685890198,
    -0.144227534532547,
    0.28415176272392273,
    -0.9268807768821716,
    0.12660861015319824,
    -0.5702657699584961,
    -0.46056094765663147,
    0.9387950301170349,
    0.3151766359806061,
    0.5344465374946594,
    0.8126956820487976,
    -0.8031372427940369,
    0.1301552653312683,
    -0.103643998503685,
    -0.4618304371833801,
    1.0,
    -0.644559919834137,
    0.28233301639556885,
    0.351011723279953,
    0.45074930787086487,
    0.7240517735481262,
    -1.0,
    0.5065152645111084,
    0.22740575671195984,
    -0.5746544599533081,
    -0.08563154935836792,
    -0.12368850409984589,
    0.6518783569335938,
    0.25547662377357483,
    -0.9348918199539185,
    0.09518415480852127,
    0.7669454216957092,
    -0.4118748903274536,
    0.7513015866279602,
    -0.16573375463485718,
    0.3003113865852356,
    -0.7808222770690918,
    0.04362930729985237,
    -0.06065253168344498,
    0.5200263857841492,
    0.008148635737597942,
    -0.010196260176599026,
    -0.0010922313667833805,
    -0.10845352709293365,
    -0.9763146042823792,
    0.9084230661392212,
    0.8729392290115356,
    -0.3206729590892792,
    -0.5358867049217224,
    -0.4150151312351227,
    -0.3830344080924988,
    0.24985535442829132,
    0.8490890264511108,
    0.7376536726951599,
    -0.08926382660865784,
    0.734732985496521,
    0.6147379279136658,
    -0.37051600217819214,
    0.9461379051208496,
    -0.8468305468559265,
    0.39662787318229675,
    -0.8604020476341248,
    -0.15143875777721405,
    0.7437605261802673,
    -0.21160918474197388,
    0.408734530210495,
    -0.5599506497383118,
    0.16403087973594666,
    0.6509105563163757,
    0.9794427752494812,
    0.19716177880764008,
    -0.9116550087928772,
    0.0697927474975586,
    0.32327353954315186,
    0.9355782270431519,
    0.5875605344772339,
    -0.03494981303811073,
    0.13140037655830383,
    0.16080228984355927,
    0.5083224773406982,
    0.015821022912859917,
    -0.4862911105155945,
    -0.961348295211792,
    -0.20545634627342224,
    0.8659321665763855,
    0.758705198764801,
    -0.35982221364974976,
    0.592379629611969,
    0.3157811164855957,
    0.33089715242385864,
    0.8266394734382629,
    -0.41193893551826477,
    0.7027863264083862,
    0.6889829039573669,
    0.18222002685070038,
    0.8639636635780334,
    0.9283639788627625,
    0.6585343480110168,
    -0.44836583733558655,
    -0.4614917039871216,
    0.44512468576431274,
    -0.8622302412986755,
    0.9185857772827148,
    -0.016898130998015404,
    -0.6698658466339111,
    -0.31930574774742126,
    0.396646112203598,
    -0.09329535812139511,
    0.2583513557910919,
    0.62425297498703,
    -0.3792138993740082,
    0.2149815559387207,
    -0.484841525554657,
    -0.9526810646057129,
    1.0,
    -0.4773125648498535,
    0.8180149793624878,
    0.6635884046554565,
    -0.38422489166259766,
    0.10205429792404175,
    -0.8479171395301819,
    0.3814510405063629,
    0.5037205219268799,
    0.5685504674911499,
    -0.06870328634977341,
    -0.8968537449836731,
    -0.575710117816925,
    -0.34967172145843506,
    -0.6886104345321655,
    0.3060246407985687,
    -0.614505410194397,
    -0.1716301590204239,
    -0.4278055727481842,
    0.15276958048343658,
    -0.29429587721824646,
    0.7764273881912231,
    -0.78841233253479,
    0.6205268502235413,
    -0.18095038831233978,
    -0.9385601878166199,
    0.7080020308494568,
    -0.7114108204841614,
    0.015985582023859024,
    -0.3358106017112732,
    -0.4058045446872711,
    0.5888059735298157,
    -0.31661123037338257,
    0.4663778245449066,
    -0.12680748105049133,
    0.07796241343021393,
    -0.31313827633857727,
    0.20321667194366455,
    -0.8235541582107544,
    0.8951627612113953,
    0.5877529978752136,
    0.7481094002723694,
    -0.14637888967990875,
    0.4748438000679016,
    0.5023927688598633,
    -0.9343699812889099,
    0.961116373538971,
    -0.4994232654571533,
    0.8555467128753662,
    -0.5930020213127136,
    -0.6308844685554504,
    -0.666917622089386,
    -0.19682930409908295,
    -0.8481981158256531,
    -1.0,
    -0.9174870848655701,
    -0.8246283531188965,
    -0.5533615350723267,
    0.9534440040588379,
    -0.029700396582484245,
    0.7372904419898987,
    0.19126871228218079,
    0.028604930266737938,
    0.9552871584892273,
    -0.2918301820755005,
    0.4313822090625763,
    0.8186346292495728,
    0.38848835229873657,
    0.622367262840271,
    -0.6308543086051941,
    0.9514147043228149,
    0.2125735729932785,
    0.25892242789268494,
    -0.7796563506126404,
    0.7192055583000183,
    -0.08611104637384415,
    -0.7898005247116089,
    0.880937933921814,
    0.8099032640457153,
    -0.7375745177268982,
    -0.7275519967079163,
    -0.8185430765151978,
    0.0010131488088518381,
    0.1905088573694229,
    -0.8885190486907959,
    0.2519214451313019,
    0.026038672775030136,
    0.9850764274597168,
    -0.18929727375507355,
    0.6642169952392578,
    -0.17611932754516602,
    -0.9648303985595703,
    -0.11152054369449615,
    -0.8820886611938477,
    -0.01729786954820156,
    -0.11619299650192261,
    -0.8442089557647705,
    -0.007168619427829981,
    -0.6446819305419922,
    -0.03769342601299286,
    0.09009982645511627,
    0.8304147720336914,
    0.9738914370536804,
    -0.5953155159950256,
    0.5798882246017456,
    0.5642933249473572,
    -0.2869805693626404,
    0.3326425552368164,
    0.4942164719104767,
    -0.7380169630050659,
    0.0016054584411904216,
    -0.8484939336776733,
    -0.05261092260479927,
    -0.8830040693283081,
    -0.15625500679016113,
    -0.7243598699569702,
    -0.9164067506790161,
    -0.500140368938446,
    0.9732382893562317,
    -0.23072609305381775,
    -0.5596057176589966,
    0.5623890161514282,
    -0.5722618103027344,
    -0.8437973260879517,
    0.6712180972099304,
    0.5710988640785217,
    -0.42589184641838074,
    0.5536576509475708,
    0.8299661874771118,
    -0.8060026168823242,
    -1.0,
    0.13697651028633118,
    -0.7970396876335144,
    0.8816156387329102,
    0.601974606513977,
    -0.24332420527935028,
    -0.9494765996932983,
    0.8736533522605896,
    -0.056788813322782516,
    0.7181552648544312,
    -0.5191349387168884,
    -0.29361557960510254,
    -0.3546738624572754,
    0.5117802023887634,
    -0.06081420183181763,
    -0.45971858501434326,
    0.020722031593322754,
    0.6700184941291809,
    -1.0,
    0.7459487915039063,
    -0.6855219006538391,
    -0.12341393530368805,
    -0.5922240018844604,
    -0.6883906722068787,
    0.6289831399917603,
    0.04802084341645241,
    0.88588547706604,
    -0.08683738112449646,
    0.6154788732528687,
    0.2517837882041931,
    -0.09053587913513184,
    -0.07109012454748154,
    -0.9976927638053894,
    0.0043764724396169186,
    -0.7558823227882385,
    -0.5366312265396118,
    0.7079898118972778,
    -0.4288218915462494,
    0.8662160038948059,
    -0.21534185111522675,
    0.1618853211402893,
    1.0,
    0.4539935290813446,
    -0.5014985799789429,
    -0.6995300650596619,
    -0.2884490489959717,
    -0.4873411953449249,
    -0.8506484627723694,
    -0.9269630312919617,
    -0.3568132817745209,
    -0.3896790146827698,
    -0.8457379341125488,
    0.28726762533187866,
    0.005145607981830835,
    0.9190251231193542,
    -0.897595226764679,
    -0.26847749948501587,
    -0.18011146783828735,
    0.5678395628929138,
    -0.025909854099154472,
    0.5685754418373108,
    0.4667012393474579,
    -0.6326608061790466,
    -0.5064302086830139,
    -0.16239218413829803,
    -0.4172550439834595,
    -0.8496901392936707,
    0.24734964966773987,
    -0.6591173410415649,
    -0.9500350952148438,
    -0.1240457221865654,
    -0.4638843536376953,
    -0.7511855959892273,
    0.8497940301895142,
    0.8443131446838379,
    0.06191291660070419,
    0.31440168619155884,
    0.09862352907657623,
    -0.3964262306690216,
    -0.46028339862823486,
    0.16013361513614655,
    0.8252848982810974,
    -0.5015931129455566,
    -0.24321717023849487,
    0.2969265878200531,
    -0.5828487277030945,
    -1.0,
    0.6146640181541443,
    0.14437414705753326,
    -0.18151801824569702,
    -0.571980893611908
  ]
}